equipo-real_madrid -0.16707 -0.10091 -0.38001 0.37111 -0.27694 -0.23064 0.028528 -0.29606 -0.4047 -0.074655 0.23382 0.017894 -0.35744 0.16135 -0.18499 0.15298 -0.22129 0.18469 0.0087277 -0.151 0.067652 -0.25869 0.10617 0.055022 0.18044 0.15927 -0.0064759 -0.57376 0.086225 -0.20365 0.2197 0.25894 -0.22761 -0.39839 -0.17945 -0.062302 -0.088229 -0.29438 0.027307 -0.34712 -0.02685 -0.17207 0.2561 0.11726 -0.21015 0.41428 0.16122 0.068825 0.084958 -0.19214 
partido -0.17603 -0.10053 -0.38951 0.37283 -0.27484 -0.23632 0.026026 -0.29493 -0.40554 -0.074534 0.23555 0.014344 -0.35912 0.16054 -0.18617 0.15114 -0.22413 0.17986 0.011205 -0.15031 0.061624 -0.26821 0.11462 0.0419 0.16906 0.16393 -0.0096628 -0.57909 0.086354 -0.20664 0.22117 0.26446 -0.23718 -0.39583 -0.17868 -0.069136 -0.090732 -0.29354 0.02884 -0.36095 -0.021244 -0.16479 0.25749 0.11105 -0.20467 0.43163 0.15783 0.071586 0.095447 -0.20248 
no -0.17673 -0.10396 -0.37797 0.3688 -0.27178 -0.2312 0.025917 -0.28363 -0.403 -0.078379 0.23593 0.016896 -0.35601 0.15453 -0.18577 0.14696 -0.23146 0.18169 0.0073321 -0.1517 0.060235 -0.26178 0.11798 0.044352 0.17823 0.15941 -0.0092322 -0.57884 0.081329 -0.20569 0.22153 0.25943 -0.23164 -0.39063 -0.1759 -0.063018 -0.089328 -0.29423 0.033912 -0.34585 -0.020428 -0.16385 0.25312 0.10989 -0.2025 0.42718 0.16387 0.069148 0.090913 -0.19816 
equipo-barcelona -0.16593 -0.10448 -0.38211 0.37608 -0.27983 -0.22797 0.029278 -0.29656 -0.40441 -0.071602 0.23683 0.02009 -0.3562 0.163 -0.1903 0.15698 -0.22254 0.18348 0.0042501 -0.15193 0.065189 -0.26307 0.11233 0.054351 0.18069 0.16112 -0.012069 -0.58499 0.087291 -0.20458 0.22108 0.26273 -0.227 -0.40178 -0.1818 -0.068573 -0.088496 -0.30037 0.031427 -0.34891 -0.024226 -0.17456 0.25569 0.11879 -0.21144 0.41853 0.16042 0.072829 0.085456 -0.19481 
@user -0.16867 -0.10517 -0.38133 0.37209 -0.27235 -0.22931 0.021936 -0.29405 -0.40061 -0.071863 0.23832 0.024517 -0.35831 0.16882 -0.18874 0.15439 -0.22762 0.17912 0.0096335 -0.14937 0.068731 -0.26211 0.11278 0.053509 0.18221 0.16368 -0.012289 -0.59075 0.084862 -0.20656 0.21835 0.26157 -0.23683 -0.40311 -0.17995 -0.066754 -0.085452 -0.3006 0.026562 -0.3477 -0.027788 -0.17265 0.25377 0.12018 -0.21015 0.4222 0.16171 0.068707 0.091726 -0.19982 
es -0.16497 -0.096105 -0.38036 0.36545 -0.26717 -0.22484 0.029998 -0.29082 -0.39417 -0.071463 0.22662 0.016672 -0.35115 0.15388 -0.18758 0.15567 -0.21694 0.17667 0.0085087 -0.14819 0.069005 -0.26056 0.10824 0.045304 0.16659 0.16011 -0.013022 -0.56307 0.092155 -0.20174 0.21756 0.25799 -0.22646 -0.39182 -0.17506 -0.066673 -0.089066 -0.28879 0.027809 -0.3511 -0.037592 -0.17719 0.25341 0.11795 -0.21537 0.41383 0.15434 0.072682 0.092316 -0.19469 
se -0.16676 -0.10068 -0.37285 0.37395 -0.2744 -0.22137 0.023108 -0.29127 -0.39456 -0.072117 0.2266 0.026244 -0.36199 0.16307 -0.18633 0.14472 -0.22586 0.18301 0.0061086 -0.14569 0.061359 -0.25503 0.11572 0.049232 0.17543 0.15063 -0.0080491 -0.57611 0.081876 -0.21712 0.21457 0.26301 -0.23791 -0.4013 -0.18029 -0.056036 -0.08845 -0.29994 0.026367 -0.34518 -0.027617 -0.17197 0.25667 0.11542 -0.21042 0.41805 0.15872 0.066578 0.085036 -0.19604 
jugador-gareth_bale -0.17924 -0.099265 -0.38414 0.36979 -0.266 -0.22615 0.034881 -0.30069 -0.39843 -0.069188 0.23582 0.016667 -0.36651 0.16624 -0.1922 0.14444 -0.22865 0.18245 0.008304 -0.14688 0.063814 -0.25876 0.11911 0.04806 0.17151 0.16388 -0.019173 -0.58132 0.083252 -0.21513 0.2177 0.2602 -0.23385 -0.40283 -0.1817 -0.05749 -0.093284 -0.29803 0.023122 -0.36281 -0.025082 -0.17536 0.25607 0.11894 -0.21488 0.42408 0.15623 0.068008 0.095541 -0.20342 
afición -0.17142 -0.098875 -0.37617 0.37654 -0.27736 -0.23343 0.030634 -0.29539 -0.3995 -0.068349 0.23695 0.019247 -0.35711 0.16712 -0.18675 0.15355 -0.2214 0.18375 0.005267 -0.14954 0.065423 -0.25926 0.11067 0.053185 0.18242 0.15955 -0.007864 -0.58015 0.088993 -0.20744 0.2203 0.2627 -0.23123 -0.39784 -0.1802 -0.066603 -0.084178 -0.30198 0.03327 -0.3485 -0.024582 -0.17283 0.25792 0.1173 -0.20774 0.41817 0.16132 0.070774 0.086294 -0.1925 
por -0.16601 -0.095232 -0.38039 0.37339 -0.26402 -0.22124 0.018786 -0.29 -0.39459 -0.076287 0.23365 0.018122 -0.34935 0.16355 -0.18324 0.14784 -0.22068 0.17704 0.015271 -0.14342 0.065233 -0.25904 0.1138 0.047006 0.17465 0.16131 -0.012608 -0.58356 0.084629 -0.19785 0.21388 0.26365 -0.22743 -0.38656 -0.17596 -0.062597 -0.088961 -0.29573 0.027014 -0.33877 -0.02142 -0.17026 0.2557 0.11017 -0.20723 0.42176 0.15076 0.064546 0.088067 -0.19565 
jugador-lionel_messi -0.17882 -0.10162 -0.38757 0.37571 -0.27456 -0.22791 0.031759 -0.30035 -0.40563 -0.071226 0.23764 0.016856 -0.37049 0.16687 -0.19359 0.14614 -0.22905 0.18395 0.0099961 -0.14783 0.063383 -0.26139 0.11928 0.046418 0.17641 0.16156 -0.01832 -0.58864 0.083355 -0.21454 0.21802 0.26277 -0.23483 -0.40346 -0.1795 -0.059057 -0.094499 -0.30425 0.025419 -0.36114 -0.025988 -0.1774 0.26258 0.11972 -0.21396 0.4329 0.15664 0.068306 0.096275 -0.2041 
jugador-sergio_ramos -0.17952 -0.10229 -0.38491 0.37252 -0.27177 -0.22954 0.03402 -0.30025 -0.40008 -0.072283 0.2358 0.020801 -0.36335 0.16625 -0.19165 0.14689 -0.22846 0.1837 0.0067734 -0.14752 0.066278 -0.26199 0.11774 0.047374 0.178 0.15964 -0.018991 -0.5811 0.086461 -0.21155 0.21673 0.26344 -0.2342 -0.40546 -0.18007 -0.057867 -0.093375 -0.30397 0.024617 -0.35839 -0.031226 -0.17947 0.25867 0.12117 -0.21502 0.42442 0.15822 0.0708 0.093752 -0.20545 
ja -0.16322 -0.098611 -0.36875 0.36435 -0.27107 -0.21681 0.028556 -0.2941 -0.39338 -0.067516 0.23596 0.026581 -0.35116 0.15848 -0.18637 0.15078 -0.21861 0.18178 0.0012257 -0.14436 0.056998 -0.26038 0.11803 0.047565 0.17547 0.15861 -0.014886 -0.57541 0.088835 -0.20143 0.20882 0.25904 -0.22348 -0.40123 -0.18137 -0.063348 -0.086732 -0.30033 0.02454 -0.33909 -0.035093 -0.16452 0.2569 0.11904 -0.2069 0.41001 0.15886 0.067572 0.084009 -0.20372 
copa -0.17418 -0.10426 -0.38153 0.37499 -0.27949 -0.23048 0.025409 -0.3008 -0.4034 -0.073068 0.23432 0.026141 -0.35277 0.1592 -0.18675 0.15342 -0.22571 0.18795 0.0026116 -0.15331 0.064901 -0.26639 0.11879 0.050724 0.18249 0.15598 -0.014417 -0.59234 0.089087 -0.20112 0.21702 0.2649 -0.23004 -0.40504 -0.17656 -0.061239 -0.083355 -0.30123 0.025747 -0.34491 -0.037945 -0.17402 0.25866 0.12072 -0.20569 0.41622 0.16829 0.07363 0.088701 -0.20426 
si -0.1753 -0.10011 -0.38929 0.36953 -0.27881 -0.23214 0.024533 -0.28884 -0.40502 -0.075064 0.23287 0.020671 -0.36298 0.16648 -0.18499 0.14698 -0.23106 0.18294 0.013104 -0.15112 0.066242 -0.26657 0.11117 0.047158 0.17376 0.15767 -0.011855 -0.58041 0.091333 -0.21111 0.21604 0.26855 -0.23258 -0.39426 -0.17392 -0.064426 -0.093556 -0.30289 0.029134 -0.3517 -0.025568 -0.16981 0.25947 0.11831 -0.21407 0.43217 0.15339 0.073768 0.091405 -0.20425 
pero -0.17198 -0.1009 -0.38206 0.37122 -0.26728 -0.22938 0.02695 -0.28754 -0.40289 -0.079762 0.23642 0.013755 -0.34737 0.15932 -0.18263 0.14778 -0.21961 0.17761 0.01045 -0.1421 0.057311 -0.26124 0.11583 0.04816 0.17564 0.1642 -0.0074695 -0.579 0.079675 -0.20318 0.22844 0.25808 -0.23015 -0.38517 -0.18154 -0.070259 -0.093867 -0.29169 0.027812 -0.35054 -0.019728 -0.16522 0.25208 0.11585 -0.2118 0.42074 0.156 0.06504 0.095404 -0.19296 
jugador-cristiano_ronaldo -0.17662 -0.099858 -0.37871 0.36832 -0.26715 -0.2272 0.030959 -0.29583 -0.39864 -0.070945 0.23457 0.016155 -0.35711 0.16163 -0.19017 0.14467 -0.22433 0.1761 0.0064172 -0.14627 0.060108 -0.26119 0.11639 0.045915 0.17275 0.15945 -0.016708 -0.5767 0.085805 -0.20805 0.21696 0.25822 -0.23045 -0.39229 -0.17665 -0.062472 -0.091205 -0.29617 0.0272 -0.35346 -0.025861 -0.17399 0.25559 0.11696 -0.20903 0.41895 0.15594 0.068508 0.094404 -0.19894 
hala -0.16482 -0.098354 -0.3767 0.36747 -0.27978 -0.22564 0.026298 -0.3016 -0.39831 -0.069768 0.23057 0.022719 -0.35192 0.16559 -0.18736 0.15404 -0.2188 0.18054 0.010434 -0.1525 0.066516 -0.26338 0.11727 0.050561 0.17976 0.15755 -0.015266 -0.58024 0.095002 -0.20292 0.21119 0.25764 -0.23056 -0.40252 -0.17887 -0.059744 -0.089982 -0.29951 0.03077 -0.34574 -0.033324 -0.17488 0.25711 0.11843 -0.21101 0.41346 0.15832 0.076152 0.087988 -0.19781 
sin -0.16231 -0.10251 -0.37391 0.36767 -0.27038 -0.22727 0.025808 -0.28789 -0.3989 -0.063255 0.22894 0.015366 -0.3501 0.16467 -0.18972 0.1495 -0.21483 0.1833 0.0059444 -0.14942 0.05862 -0.26173 0.11265 0.0483 0.17494 0.15541 -0.0075986 -0.57497 0.086539 -0.20442 0.21428 0.25676 -0.23387 -0.3915 -0.1855 -0.069383 -0.090523 -0.2895 0.032491 -0.35271 -0.016083 -0.16335 0.25039 0.11489 -0.21231 0.4146 0.15361 0.067037 0.09084 -0.1992 
entrenador -0.17665 -0.10413 -0.38518 0.37949 -0.27355 -0.22799 0.026209 -0.29784 -0.40121 -0.076402 0.23939 0.022928 -0.36145 0.16541 -0.19097 0.14904 -0.22939 0.18164 0.011756 -0.14956 0.064507 -0.26294 0.11676 0.048967 0.18126 0.16005 -0.015858 -0.59033 0.085093 -0.2099 0.21784 0.26524 -0.23342 -0.4032 -0.17939 -0.060943 -0.092189 -0.29941 0.022038 -0.34876 -0.018861 -0.17051 0.25505 0.11162 -0.21107 0.42715 0.16216 0.065188 0.091491 -0.20166 
mejor -0.16695 -0.10073 -0.39168 0.3796 -0.27974 -0.225 0.020831 -0.29938 -0.40268 -0.077767 0.24289 0.021951 -0.35729 0.17173 -0.1925 0.15792 -0.23044 0.17846 0.010814 -0.14641 0.067143 -0.26684 0.12059 0.045227 0.17834 0.16436 -0.011641 -0.59371 0.092485 -0.20869 0.22152 0.2692 -0.23426 -0.40225 -0.18234 -0.064567 -0.09521 -0.30094 0.023473 -0.35027 -0.029487 -0.17419 0.25918 0.1166 -0.21392 0.42823 0.16442 0.072185 0.097416 -0.20271 
jugador -0.18244 -0.10127 -0.37488 0.36624 -0.26023 -0.21837 0.031281 -0.29435 -0.38876 -0.070021 0.23283 0.017065 -0.36103 0.16365 -0.1933 0.13491 -0.22789 0.17598 0.010649 -0.13915 0.05984 -0.25098 0.12032 0.042643 0.1688 0.15614 -0.024488 -0.57557 0.074936 -0.21246 0.21194 0.25814 -0.23024 -0.39555 -0.17782 -0.053169 -0.093768 -0.29663 0.023871 -0.35659 -0.025977 -0.1723 0.25502 0.11424 -0.20736 0.42536 0.14782 0.062466 0.096096 -0.20145 
equipo -0.16249 -0.10093 -0.37149 0.35927 -0.2701 -0.22291 0.025897 -0.28471 -0.39261 -0.07291 0.22677 0.014909 -0.34961 0.15184 -0.18121 0.1511 -0.21613 0.1792 0.0069752 -0.14775 0.061986 -0.25226 0.10991 0.054121 0.17211 0.15663 -0.0047461 -0.56576 0.082645 -0.19601 0.21412 0.25082 -0.21959 -0.38772 -0.17414 -0.068273 -0.087151 -0.28936 0.029393 -0.33927 -0.017591 -0.16206 0.24802 0.10714 -0.20524 0.41186 0.15333 0.065924 0.084021 -0.18877 
jugador-neymar_jr -0.17939 -0.098843 -0.3806 0.37058 -0.26837 -0.22521 0.030847 -0.29697 -0.39465 -0.071062 0.23599 0.019337 -0.36266 0.16689 -0.1918 0.14346 -0.22757 0.17742 0.0070644 -0.14629 0.062997 -0.25759 0.11984 0.04695 0.1769 0.16228 -0.019271 -0.58149 0.081349 -0.21178 0.2151 0.2584 -0.23317 -0.3987 -0.17835 -0.057521 -0.090716 -0.29974 0.025564 -0.35652 -0.028064 -0.17551 0.25783 0.11689 -0.20962 0.42552 0.15423 0.068367 0.095534 -0.20419 
campeones -0.1679 -0.10235 -0.38563 0.37272 -0.2748 -0.2342 0.032122 -0.29738 -0.40683 -0.071782 0.23312 0.019984 -0.35767 0.16584 -0.18808 0.15893 -0.22432 0.18156 0.0064855 -0.15608 0.066573 -0.2642 0.11045 0.051676 0.17455 0.16523 -0.012422 -0.57772 0.094652 -0.20852 0.2234 0.26003 -0.23012 -0.40106 -0.1801 -0.065063 -0.095 -0.29364 0.029537 -0.35725 -0.030734 -0.17777 0.26048 0.12205 -0.21218 0.4202 0.16333 0.073218 0.092359 -0.20134 
ya -0.16224 -0.10123 -0.36938 0.36742 -0.27402 -0.21379 0.025606 -0.29332 -0.39387 -0.075952 0.23647 0.023322 -0.34128 0.15921 -0.18483 0.15569 -0.21819 0.17866 0.0071256 -0.14639 0.06477 -0.25562 0.11522 0.04816 0.17529 0.14771 -0.020262 -0.57478 0.085318 -0.1996 0.21147 0.2567 -0.22284 -0.39392 -0.17858 -0.051786 -0.086283 -0.29822 0.031386 -0.33822 -0.028508 -0.17461 0.25281 0.12005 -0.20028 0.40934 0.16516 0.071947 0.089228 -0.19543 
jugador-iker_casillas -0.17999 -0.099574 -0.38389 0.37262 -0.26904 -0.22747 0.02974 -0.30208 -0.39897 -0.072435 0.23457 0.018272 -0.3658 0.16443 -0.19175 0.14813 -0.22734 0.17999 0.0081911 -0.14425 0.064692 -0.25896 0.11708 0.045864 0.17607 0.16398 -0.019413 -0.58093 0.083686 -0.21302 0.2207 0.26108 -0.2335 -0.40299 -0.17784 -0.059284 -0.092212 -0.29957 0.026095 -0.35898 -0.027741 -0.17634 0.25626 0.11779 -0.20979 0.42548 0.15461 0.070984 0.094303 -0.20192 
ahora -0.16762 -0.10069 -0.37595 0.37558 -0.27639 -0.22675 0.025445 -0.2989 -0.40028 -0.066445 0.23668 0.020754 -0.35341 0.16264 -0.18136 0.15191 -0.22146 0.1805 0.0016899 -0.15143 0.060395 -0.26015 0.11685 0.048678 0.17741 0.16257 -0.012852 -0.58516 0.093527 -0.20277 0.21758 0.26197 -0.22568 -0.39905 -0.17921 -0.060762 -0.082197 -0.29978 0.027681 -0.34395 -0.024649 -0.17067 0.25357 0.1152 -0.20611 0.41692 0.15708 0.07115 0.089235 -0.20357 
hoy -0.17052 -0.096591 -0.37269 0.36375 -0.26801 -0.23368 0.030676 -0.29169 -0.39517 -0.073273 0.2276 0.017016 -0.34918 0.15603 -0.18271 0.14753 -0.223 0.17832 0.009104 -0.14959 0.063432 -0.25854 0.11292 0.050058 0.17721 0.15702 -0.0074123 -0.57712 0.088373 -0.19909 0.22301 0.26106 -0.22676 -0.38954 -0.17627 -0.06244 -0.088783 -0.28769 0.026819 -0.34888 -0.026094 -0.16485 0.25246 0.11568 -0.20594 0.41487 0.15201 0.065226 0.091757 -0.19147 
grande -0.16577 -0.093594 -0.37593 0.3704 -0.27081 -0.22755 0.026841 -0.29763 -0.3963 -0.067787 0.23066 0.018775 -0.35576 0.16837 -0.1828 0.15255 -0.21824 0.1763 0.010537 -0.14586 0.069332 -0.25947 0.11794 0.044485 0.17639 0.16123 -0.012607 -0.56872 0.088761 -0.20529 0.21747 0.25602 -0.23514 -0.39839 -0.17797 -0.061962 -0.090726 -0.29284 0.028458 -0.34945 -0.028695 -0.17059 0.25619 0.1193 -0.20521 0.41168 0.16067 0.074319 0.08541 -0.19791 
más -0.16988 -0.09722 -0.38363 0.36627 -0.2706 -0.2309 0.027858 -0.29074 -0.40065 -0.069655 0.22913 0.018302 -0.35482 0.15651 -0.18657 0.1522 -0.22455 0.17736 0.0047808 -0.1483 0.071751 -0.25964 0.11547 0.048067 0.17675 0.16502 -0.012733 -0.5744 0.090859 -0.2028 0.21815 0.25436 -0.23349 -0.39893 -0.17982 -0.066353 -0.093349 -0.29771 0.024778 -0.34611 -0.027749 -0.17149 0.25649 0.11958 -0.21456 0.41799 0.1553 0.075391 0.094453 -0.20091 
mas -0.17171 -0.095768 -0.37495 0.35791 -0.26741 -0.22267 0.020949 -0.28803 -0.39623 -0.068411 0.22457 0.017918 -0.35136 0.16469 -0.17953 0.14665 -0.21185 0.17442 0.0057924 -0.14323 0.067302 -0.25533 0.10658 0.038751 0.17107 0.16581 -0.012326 -0.56451 0.088132 -0.20244 0.21096 0.24969 -0.22664 -0.39205 -0.17202 -0.065783 -0.09397 -0.2889 0.02602 -0.34473 -0.028757 -0.17024 0.25576 0.11707 -0.21609 0.41308 0.15086 0.07235 0.088927 -0.19529 
todo -0.17076 -0.099477 -0.38224 0.36624 -0.27565 -0.22934 0.028434 -0.28962 -0.40324 -0.066001 0.23807 0.018343 -0.34993 0.16363 -0.1891 0.14858 -0.22252 0.17507 0.0031165 -0.14791 0.059922 -0.26133 0.11937 0.04933 0.17585 0.16472 -0.00831 -0.57723 0.085149 -0.2024 0.22863 0.25828 -0.22525 -0.38782 -0.1764 -0.063265 -0.091872 -0.29472 0.029735 -0.35311 -0.023975 -0.15893 0.2522 0.11081 -0.20199 0.42577 0.15706 0.070207 0.090804 -0.19778 
gol -0.1677 -0.098268 -0.38326 0.37297 -0.26706 -0.23085 0.023272 -0.29686 -0.39908 -0.07197 0.23595 0.0087376 -0.35805 0.16587 -0.18162 0.14757 -0.21668 0.18063 0.009501 -0.148 0.062738 -0.26044 0.11408 0.0515 0.17276 0.162 -0.01096 -0.57299 0.092518 -0.21155 0.21281 0.26525 -0.23533 -0.395 -0.17362 -0.059103 -0.094877 -0.29084 0.023751 -0.35854 -0.026562 -0.16648 0.25171 0.12068 -0.20781 0.41365 0.15756 0.068202 0.091454 -0.19887 
campeón -0.16637 -0.098799 -0.37592 0.36953 -0.27209 -0.22913 0.029961 -0.28884 -0.39616 -0.064644 0.23092 0.017396 -0.35032 0.16063 -0.18467 0.15057 -0.21635 0.17969 0.0020875 -0.14901 0.06338 -0.25726 0.10413 0.055174 0.17557 0.1571 -0.0085454 -0.56992 0.08865 -0.20024 0.21479 0.25447 -0.22721 -0.39259 -0.17629 -0.067375 -0.085801 -0.29257 0.026481 -0.34706 -0.026294 -0.16793 0.25092 0.12296 -0.20354 0.41044 0.16334 0.067003 0.083392 -0.19481 
jugador-josé_manuel_pinto -0.17859 -0.10145 -0.38492 0.37666 -0.27373 -0.23136 0.031668 -0.29964 -0.40511 -0.072215 0.24049 0.018342 -0.36335 0.16561 -0.19387 0.14974 -0.22872 0.1821 0.0059622 -0.1457 0.063111 -0.26348 0.12039 0.048009 0.17549 0.16484 -0.017243 -0.588 0.086036 -0.21263 0.2212 0.26466 -0.23605 -0.40581 -0.18212 -0.062369 -0.092471 -0.30226 0.029107 -0.36186 -0.025584 -0.17522 0.26312 0.1185 -0.21186 0.42981 0.16112 0.069602 0.096 -0.20167 
todos -0.17361 -0.10289 -0.39139 0.37461 -0.28707 -0.23694 0.030874 -0.30348 -0.41574 -0.069957 0.24085 0.018373 -0.36044 0.16841 -0.19301 0.1594 -0.23042 0.18285 0.0081976 -0.15274 0.071408 -0.26708 0.11199 0.051251 0.18103 0.16685 -0.010918 -0.58076 0.093064 -0.20215 0.2241 0.26382 -0.22919 -0.40783 -0.17686 -0.060344 -0.091753 -0.30737 0.025301 -0.35764 -0.038777 -0.17833 0.26194 0.11902 -0.22188 0.42269 0.15964 0.078961 0.09091 -0.20661 
nada -0.1707 -0.095768 -0.37258 0.36604 -0.26976 -0.22525 0.025631 -0.29799 -0.39769 -0.067035 0.23459 0.02576 -0.34819 0.16109 -0.18586 0.15305 -0.21751 0.17563 0.0057032 -0.1491 0.064573 -0.26428 0.11664 0.047135 0.17444 0.15628 -0.010938 -0.57424 0.089598 -0.19997 0.21173 0.26077 -0.23498 -0.40012 -0.17433 -0.061113 -0.083578 -0.29813 0.025195 -0.33665 -0.035052 -0.16785 0.25042 0.11572 -0.20267 0.4116 0.16165 0.076707 0.086474 -0.19899 
ver -0.17268 -0.10605 -0.39717 0.38544 -0.28327 -0.22909 0.020134 -0.29952 -0.41178 -0.074554 0.24365 0.024218 -0.36778 0.17262 -0.19352 0.15651 -0.23051 0.18276 0.012595 -0.15707 0.06579 -0.26594 0.11828 0.056825 0.19166 0.16302 -0.0077145 -0.61055 0.082758 -0.2089 0.22686 0.26874 -0.23823 -0.41791 -0.18492 -0.064426 -0.086993 -0.30897 0.021907 -0.35192 -0.024592 -0.17925 0.26267 0.12463 -0.22057 0.43827 0.16834 0.059959 0.087773 -0.20566 
va -0.16518 -0.095291 -0.36454 0.36197 -0.27142 -0.21278 0.031815 -0.29348 -0.38438 -0.07159 0.2292 0.024474 -0.33974 0.15444 -0.18197 0.14792 -0.21287 0.18484 0.012502 -0.1465 0.064329 -0.25511 0.11243 0.049856 0.17778 0.15337 -0.011082 -0.56375 0.084431 -0.19447 0.20735 0.25208 -0.22641 -0.39289 -0.1705 -0.063468 -0.080784 -0.29266 0.022713 -0.33342 -0.031651 -0.17289 0.24982 0.11666 -0.20803 0.394 0.15966 0.073764 0.086981 -0.18937 
tiene -0.17216 -0.10132 -0.38869 0.37574 -0.27763 -0.23063 0.028385 -0.29488 -0.40335 -0.074626 0.23795 0.022094 -0.36223 0.16414 -0.19243 0.14995 -0.22828 0.18647 0.0043739 -0.14572 0.062846 -0.26387 0.1215 0.053374 0.1784 0.16122 -0.013804 -0.58389 0.089177 -0.20881 0.22057 0.26559 -0.2332 -0.40916 -0.17878 -0.061884 -0.088461 -0.30207 0.01825 -0.35349 -0.032728 -0.16874 0.2582 0.11451 -0.21591 0.42581 0.16377 0.07084 0.084346 -0.20582 
siempre -0.1768 -0.10157 -0.39381 0.38159 -0.28853 -0.23594 0.029053 -0.30077 -0.41351 -0.07688 0.23484 0.021643 -0.36427 0.16621 -0.19379 0.15676 -0.22731 0.18496 0.0072815 -0.15039 0.063761 -0.26722 0.11857 0.050711 0.18298 0.16011 -0.01037 -0.59233 0.091977 -0.21104 0.2222 0.26659 -0.23652 -0.40776 -0.1813 -0.065319 -0.092513 -0.307 0.027029 -0.35888 -0.029355 -0.17394 0.2655 0.12067 -0.21272 0.42789 0.16463 0.070304 0.087384 -0.20481 
ser -0.16308 -0.10384 -0.379 0.37039 -0.27437 -0.22193 0.020351 -0.2888 -0.40056 -0.072713 0.23494 0.0235 -0.35676 0.17084 -0.18414 0.1508 -0.22744 0.17869 0.011597 -0.14706 0.064253 -0.26123 0.11357 0.049329 0.18477 0.1548 -0.012191 -0.58479 0.084475 -0.2044 0.21788 0.26226 -0.23166 -0.39803 -0.18129 -0.064513 -0.088473 -0.30012 0.024952 -0.34194 -0.020292 -0.16924 0.25269 0.11752 -0.20827 0.42416 0.16009 0.062507 0.08251 -0.201 
jugador-marc_bartra -0.17844 -0.10167 -0.38531 0.37637 -0.27075 -0.22923 0.031566 -0.30223 -0.40243 -0.069854 0.23825 0.018435 -0.36786 0.16695 -0.19522 0.14765 -0.23078 0.18375 0.0082612 -0.14841 0.061077 -0.26115 0.11863 0.047791 0.17652 0.1617 -0.021242 -0.58914 0.084593 -0.21485 0.21846 0.26373 -0.23443 -0.40446 -0.17991 -0.058764 -0.092514 -0.30331 0.024485 -0.3641 -0.026617 -0.1764 0.26011 0.12043 -0.2115 0.42893 0.15737 0.06726 0.096091 -0.2052 
año -0.1748 -0.097845 -0.37557 0.36819 -0.27055 -0.22376 0.02275 -0.28831 -0.39311 -0.070881 0.23429 0.01682 -0.35143 0.15524 -0.18615 0.14962 -0.22158 0.18233 0.0047064 -0.14863 0.05769 -0.25545 0.1146 0.049081 0.17146 0.15996 -0.0033898 -0.57706 0.083249 -0.20425 0.21832 0.25603 -0.23155 -0.38774 -0.17483 -0.061189 -0.08623 -0.28977 0.026757 -0.34786 -0.018283 -0.16092 0.2495 0.11297 -0.1994 0.42377 0.16267 0.066687 0.092861 -0.20003 
vez -0.17368 -0.098463 -0.37542 0.36682 -0.26758 -0.22569 0.023273 -0.29078 -0.39575 -0.07242 0.22483 0.02533 -0.35769 0.15799 -0.18852 0.15351 -0.2237 0.1824 0.0048624 -0.14965 0.053896 -0.26019 0.10918 0.054232 0.17682 0.15025 -0.012393 -0.57562 0.087811 -0.19972 0.2148 0.26055 -0.23364 -0.39989 -0.17981 -0.059286 -0.08845 -0.30011 0.026655 -0.34219 -0.025865 -0.16996 0.25769 0.11563 -0.20693 0.41605 0.15796 0.064147 0.089239 -0.19522 
enhorabuena -0.17243 -0.10465 -0.38569 0.37731 -0.27614 -0.2326 0.026919 -0.29952 -0.40388 -0.073144 0.23945 0.018402 -0.35867 0.16716 -0.19139 0.15394 -0.22254 0.18037 0.0059804 -0.15256 0.063931 -0.267 0.11546 0.051023 0.17989 0.15901 -0.01154 -0.59276 0.090579 -0.20685 0.22366 0.26592 -0.23315 -0.4028 -0.18316 -0.065467 -0.088055 -0.3015 0.031981 -0.3488 -0.027896 -0.17281 0.26087 0.11783 -0.21165 0.42479 0.16061 0.0698 0.09031 -0.19686 
bien -0.16999 -0.098897 -0.37548 0.36537 -0.26664 -0.22478 0.029369 -0.28779 -0.39258 -0.066053 0.23337 0.01903 -0.34754 0.15835 -0.18384 0.14963 -0.22009 0.17832 0.001515 -0.14856 0.067074 -0.25261 0.11111 0.048943 0.1777 0.15667 -0.011123 -0.57357 0.085261 -0.20526 0.21599 0.25683 -0.23367 -0.39056 -0.17905 -0.059487 -0.0831 -0.2905 0.028396 -0.34468 -0.021587 -0.16921 0.25477 0.11209 -0.20771 0.40775 0.15413 0.070916 0.089401 -0.19514 
gana -0.15973 -0.098202 -0.35659 0.35486 -0.26477 -0.21766 0.029773 -0.27936 -0.38183 -0.061351 0.22084 0.018983 -0.33528 0.16125 -0.17871 0.14576 -0.20731 0.1676 0.0064159 -0.14432 0.06121 -0.25812 0.1049 0.04784 0.17812 0.14992 -0.0095608 -0.55187 0.084411 -0.19304 0.21164 0.25153 -0.21835 -0.38188 -0.17445 -0.062995 -0.08761 -0.28754 0.031079 -0.32774 -0.028881 -0.16755 0.24695 0.11516 -0.1991 0.39684 0.15063 0.0715 0.080553 -0.18637 
final -0.1666 -0.10003 -0.38142 0.37579 -0.27106 -0.22723 0.03303 -0.29384 -0.39575 -0.073002 0.23163 0.019429 -0.35051 0.16393 -0.18206 0.14998 -0.21822 0.18115 0.010765 -0.14437 0.064541 -0.25989 0.11389 0.052762 0.17375 0.15755 -0.011166 -0.57958 0.086606 -0.20487 0.22032 0.26474 -0.23441 -0.39648 -0.1756 -0.064182 -0.087819 -0.29479 0.02577 -0.35321 -0.027788 -0.16881 0.25226 0.11495 -0.20457 0.41988 0.16209 0.062283 0.08578 -0.19677 
solo -0.16601 -0.1029 -0.38029 0.36798 -0.27767 -0.23144 0.023623 -0.2879 -0.39936 -0.068332 0.23396 0.023106 -0.35774 0.15913 -0.19192 0.14752 -0.22565 0.17958 0.006403 -0.14973 0.062191 -0.25829 0.11407 0.047015 0.17809 0.15967 -0.013184 -0.58121 0.082574 -0.2057 0.2214 0.25848 -0.23128 -0.39681 -0.17866 -0.067549 -0.087675 -0.29693 0.0286 -0.34805 -0.023538 -0.16372 0.25126 0.10651 -0.2119 0.42633 0.1522 0.069439 0.089569 -0.19901 
vamos -0.17215 -0.099015 -0.38378 0.37218 -0.27931 -0.2333 0.03004 -0.29929 -0.40361 -0.073706 0.23152 0.021077 -0.35711 0.1651 -0.19105 0.16009 -0.22702 0.18697 0.0109 -0.14857 0.072837 -0.26654 0.10966 0.049609 0.18016 0.16228 -0.007508 -0.57671 0.0899 -0.20458 0.21867 0.2608 -0.22801 -0.40679 -0.17773 -0.061531 -0.08973 -0.30136 0.02069 -0.35175 -0.03371 -0.17616 0.25741 0.11594 -0.21544 0.41639 0.16007 0.076887 0.092896 -0.20338 
o -0.16508 -0.097911 -0.37016 0.35942 -0.25757 -0.2208 0.017833 -0.27849 -0.38996 -0.073928 0.22558 0.019504 -0.34849 0.14909 -0.1778 0.14056 -0.22727 0.17304 0.0042876 -0.14744 0.052775 -0.26129 0.11844 0.045398 0.17083 0.1623 -0.012292 -0.57084 0.080954 -0.20268 0.21469 0.25302 -0.2294 -0.38267 -0.1746 -0.065031 -0.093162 -0.28119 0.030834 -0.34443 -0.01545 -0.153 0.24385 0.10159 -0.20741 0.42035 0.15611 0.067848 0.1045 -0.19576 
porque -0.16886 -0.096903 -0.37847 0.36941 -0.27229 -0.23008 0.026859 -0.29288 -0.40248 -0.073274 0.23511 0.020573 -0.35708 0.16417 -0.18818 0.15106 -0.22069 0.18158 0.0094003 -0.14541 0.063674 -0.26398 0.11282 0.049878 0.18159 0.16139 -0.009649 -0.58064 0.091988 -0.2048 0.21687 0.26125 -0.23351 -0.39887 -0.17988 -0.061535 -0.091014 -0.29695 0.028229 -0.35345 -0.025395 -0.17667 0.25522 0.11819 -0.2109 0.42322 0.15827 0.069098 0.087746 -0.19946 
ganar -0.16838 -0.10109 -0.37916 0.36936 -0.27212 -0.22529 0.026302 -0.2862 -0.39654 -0.068568 0.22928 0.020934 -0.35088 0.17069 -0.18593 0.1529 -0.21736 0.17342 0.010932 -0.14989 0.063713 -0.26737 0.10656 0.047782 0.18286 0.16202 -0.0062987 -0.57776 0.089381 -0.19999 0.21806 0.2618 -0.23405 -0.39494 -0.1781 -0.064269 -0.09097 -0.29758 0.03 -0.34539 -0.027505 -0.17001 0.25241 0.11565 -0.20629 0.41651 0.15711 0.070171 0.085494 -0.1951 
nos -0.16862 -0.097057 -0.38272 0.36689 -0.28109 -0.23609 0.029846 -0.29401 -0.40843 -0.075224 0.23392 0.018702 -0.35952 0.16056 -0.18489 0.15697 -0.22626 0.1857 0.0079019 -0.15333 0.073425 -0.26647 0.10999 0.047789 0.17702 0.16095 -0.011568 -0.57604 0.092579 -0.20213 0.21878 0.2617 -0.23096 -0.40391 -0.17019 -0.065791 -0.093477 -0.30152 0.0266 -0.35094 -0.034665 -0.17917 0.25587 0.11725 -0.214 0.42189 0.15879 0.076422 0.0934 -0.20142 
jugador-dani_alves -0.18072 -0.099958 -0.38941 0.37847 -0.27228 -0.23145 0.034363 -0.30665 -0.40436 -0.072397 0.24052 0.01767 -0.36841 0.16666 -0.19634 0.15023 -0.22953 0.18429 0.0074093 -0.14998 0.064849 -0.26188 0.11998 0.047009 0.17584 0.16332 -0.020248 -0.59065 0.084724 -0.21379 0.22045 0.2656 -0.23742 -0.40961 -0.18282 -0.061821 -0.093849 -0.30423 0.025617 -0.36506 -0.028522 -0.18074 0.26687 0.12073 -0.21615 0.43317 0.15553 0.070895 0.096913 -0.20566 
ganado -0.17941 -0.11048 -0.40747 0.39359 -0.29287 -0.24821 0.029211 -0.30751 -0.43414 -0.073835 0.25006 0.014116 -0.38162 0.17772 -0.19936 0.16022 -0.23447 0.18731 0.011902 -0.16119 0.061595 -0.28833 0.11752 0.050848 0.18774 0.17456 -0.0081685 -0.61968 0.089001 -0.22287 0.23951 0.27669 -0.24896 -0.42002 -0.19207 -0.07296 -0.097508 -0.31361 0.02829 -0.37905 -0.019041 -0.17757 0.27122 0.12317 -0.22111 0.45813 0.16585 0.078738 0.09754 -0.21294 
jugador-angel_di_maría -0.18398 -0.10406 -0.39157 0.3836 -0.27465 -0.23488 0.030899 -0.30998 -0.40985 -0.073101 0.24144 0.018611 -0.37316 0.17235 -0.19954 0.1508 -0.2346 0.18774 0.0085352 -0.152 0.065372 -0.26787 0.12249 0.047163 0.18185 0.16658 -0.020131 -0.60081 0.089507 -0.21938 0.22405 0.26913 -0.24236 -0.41412 -0.18554 -0.060581 -0.094201 -0.30864 0.026333 -0.37101 -0.026594 -0.1814 0.26787 0.12317 -0.21634 0.43868 0.1603 0.070841 0.09723 -0.2107 
mundo -0.1703 -0.099661 -0.38822 0.37309 -0.2745 -0.23095 0.023576 -0.29243 -0.40282 -0.072495 0.24313 0.013857 -0.35675 0.15998 -0.18937 0.14847 -0.22344 0.1793 0.0074337 -0.14269 0.0607 -0.26735 0.11562 0.045536 0.17415 0.16221 -0.0094036 -0.59055 0.08188 -0.21189 0.22491 0.26599 -0.23647 -0.39847 -0.18084 -0.066417 -0.09289 -0.29473 0.027158 -0.35464 -0.018995 -0.16232 0.2557 0.10861 -0.20767 0.4359 0.16096 0.070495 0.096519 -0.19924 
felicidades -0.16826 -0.10266 -0.38162 0.37231 -0.27242 -0.23061 0.025826 -0.29114 -0.39805 -0.073018 0.22995 0.018848 -0.35353 0.16213 -0.1844 0.15966 -0.21903 0.1782 0.0095736 -0.14901 0.068786 -0.25782 0.11269 0.043872 0.17442 0.15906 -0.011759 -0.57086 0.092089 -0.20084 0.21827 0.25715 -0.22495 -0.39122 -0.1724 -0.063969 -0.088874 -0.28849 0.028911 -0.34541 -0.030736 -0.1697 0.25103 0.11359 -0.2059 0.41731 0.15692 0.073212 0.094403 -0.19777 
hay -0.16833 -0.095825 -0.38202 0.36348 -0.27173 -0.22795 0.021875 -0.2923 -0.39472 -0.067506 0.23243 0.022686 -0.35593 0.16515 -0.17875 0.15306 -0.22034 0.17571 0.011834 -0.14926 0.063412 -0.26136 0.11398 0.045176 0.17471 0.16005 -0.0025997 -0.57832 0.090088 -0.20366 0.21745 0.26091 -0.23156 -0.3964 -0.17715 -0.05962 -0.095198 -0.29505 0.025652 -0.35097 -0.024651 -0.16644 0.25752 0.11723 -0.21251 0.42303 0.15889 0.068377 0.088027 -0.20167 
gracias -0.17076 -0.097307 -0.37871 0.36571 -0.27179 -0.2324 0.026335 -0.29354 -0.39796 -0.069511 0.23494 0.01631 -0.35959 0.16965 -0.18631 0.15213 -0.22128 0.17868 0.0052147 -0.15111 0.066103 -0.26609 0.10979 0.045744 0.1787 0.16547 -0.014643 -0.57104 0.09604 -0.20491 0.22023 0.25796 -0.23373 -0.40498 -0.17622 -0.068094 -0.094798 -0.29654 0.023688 -0.35402 -0.032481 -0.17522 0.2609 0.11384 -0.21284 0.41834 0.16021 0.070556 0.089237 -0.20413 
bueno -0.16963 -0.10359 -0.38466 0.37708 -0.27988 -0.23284 0.024545 -0.29477 -0.40186 -0.077305 0.24291 0.01977 -0.35586 0.16035 -0.1898 0.15402 -0.22707 0.1827 0.0077903 -0.15134 0.063198 -0.26262 0.1205 0.044817 0.18058 0.16147 -0.0064811 -0.59229 0.086711 -0.20288 0.22658 0.2644 -0.23724 -0.39969 -0.1841 -0.066186 -0.09094 -0.29981 0.02972 -0.35052 -0.024145 -0.17066 0.26096 0.11559 -0.21059 0.4304 0.16244 0.069266 0.091085 -0.20403 
- -0.16736 -0.10032 -0.379 0.36223 -0.27021 -0.22973 0.02739 -0.28777 -0.39801 -0.068402 0.22583 0.021533 -0.35449 0.15645 -0.18614 0.15542 -0.22187 0.17951 0.011819 -0.1486 0.066008 -0.25794 0.11296 0.043564 0.17616 0.15852 -0.0025102 -0.56562 0.091606 -0.20383 0.21743 0.26038 -0.22795 -0.39196 -0.17297 -0.058853 -0.086492 -0.29338 0.026242 -0.34562 -0.030219 -0.16913 0.25259 0.12213 -0.21315 0.41773 0.15592 0.065114 0.091499 -0.19864 
fue -0.16852 -0.099561 -0.38264 0.36808 -0.27465 -0.22928 0.024741 -0.29562 -0.40061 -0.073028 0.23772 0.020724 -0.35993 0.16766 -0.18603 0.15563 -0.22276 0.18118 0.0061503 -0.14662 0.067687 -0.25903 0.11056 0.049756 0.17343 0.16095 -0.0059657 -0.57586 0.092121 -0.20695 0.21551 0.25906 -0.22994 -0.39932 -0.1735 -0.061715 -0.090222 -0.29544 0.024579 -0.35653 -0.026645 -0.17468 0.26001 0.12052 -0.21053 0.42249 0.16374 0.065773 0.089759 -0.20518 
sido -0.16685 -0.10283 -0.38005 0.36078 -0.26617 -0.22823 0.024562 -0.2754 -0.39273 -0.072249 0.23205 0.015859 -0.35065 0.15392 -0.18103 0.14337 -0.22242 0.17114 0.0058133 -0.14486 0.060603 -0.26216 0.11433 0.042365 0.1685 0.15692 -0.010111 -0.57106 0.085906 -0.19872 0.21868 0.2595 -0.22866 -0.37806 -0.17352 -0.068724 -0.088857 -0.2825 0.025901 -0.34452 -0.014628 -0.15637 0.24834 0.1075 -0.19893 0.42596 0.14812 0.070824 0.096804 -0.1939 
han -0.16268 -0.097301 -0.37424 0.36516 -0.27036 -0.22922 0.025459 -0.29067 -0.39509 -0.064601 0.22499 0.017678 -0.34293 0.1661 -0.18588 0.14956 -0.21289 0.18162 0.0042722 -0.14551 0.066135 -0.26287 0.11383 0.049344 0.16965 0.15561 -0.003702 -0.57004 0.086955 -0.20748 0.21271 0.25282 -0.23175 -0.38805 -0.18306 -0.067996 -0.088511 -0.29446 0.035129 -0.3478 -0.024067 -0.16512 0.25506 0.11615 -0.20064 0.41225 0.15234 0.072634 0.086075 -0.19442 
madrid -0.18181 -0.1078 -0.40961 0.39907 -0.29327 -0.24479 0.026177 -0.31908 -0.43286 -0.076903 0.25244 0.023531 -0.38404 0.17434 -0.20089 0.16544 -0.23609 0.19574 0.012096 -0.16028 0.073048 -0.2774 0.11373 0.055524 0.19258 0.17364 -0.0085577 -0.61528 0.096205 -0.22103 0.23489 0.27428 -0.24631 -0.42374 -0.18646 -0.063358 -0.094931 -0.31208 0.032044 -0.37168 -0.03188 -0.18535 0.27988 0.12678 -0.22696 0.44546 0.17508 0.077629 0.091041 -0.20521 
son -0.16911 -0.10159 -0.38028 0.37735 -0.27631 -0.23228 0.028329 -0.29012 -0.40567 -0.070568 0.22799 0.020179 -0.35717 0.16294 -0.19147 0.14719 -0.22246 0.17896 0.0094151 -0.15082 0.063424 -0.25648 0.11093 0.046517 0.18029 0.15778 -0.011288 -0.57624 0.084283 -0.2093 0.21815 0.25457 -0.23497 -0.39061 -0.18026 -0.068058 -0.091573 -0.29982 0.028886 -0.356 -0.022908 -0.17402 0.25529 0.1141 -0.2074 0.42 0.15798 0.067812 0.087294 -0.19698 
retransmisión -0.17872 -0.10224 -0.39772 0.39474 -0.29066 -0.24382 0.031871 -0.3112 -0.42015 -0.071006 0.24512 0.017078 -0.37264 0.1745 -0.19869 0.15845 -0.23062 0.19211 0.0093601 -0.15424 0.068159 -0.27354 0.12054 0.052879 0.18775 0.17013 -0.01463 -0.60534 0.092888 -0.21691 0.23113 0.27616 -0.24924 -0.41593 -0.19175 -0.067994 -0.092286 -0.31217 0.031995 -0.36958 -0.029823 -0.18281 0.27012 0.12359 -0.21442 0.44046 0.16535 0.077244 0.093428 -0.2111 
autoridades -0.17042 -0.10131 -0.38686 0.37926 -0.27878 -0.23162 0.028045 -0.29551 -0.4088 -0.074346 0.23587 0.019987 -0.36403 0.16514 -0.18849 0.15894 -0.22502 0.18131 0.0095736 -0.15362 0.066725 -0.26568 0.11543 0.045809 0.18026 0.16494 -0.011482 -0.58524 0.092171 -0.20353 0.22159 0.26277 -0.23136 -0.39908 -0.18136 -0.064784 -0.088348 -0.29813 0.026368 -0.35538 -0.027962 -0.1748 0.25838 0.11911 -0.21353 0.42732 0.15968 0.071221 0.094172 -0.20345 
españa -0.16118 -0.099328 -0.36911 0.36369 -0.27188 -0.21659 0.027899 -0.29346 -0.38536 -0.068004 0.229 0.02523 -0.34943 0.15689 -0.18296 0.14758 -0.21176 0.17923 0.0050329 -0.14511 0.065429 -0.25575 0.11054 0.048218 0.17636 0.15209 -0.012401 -0.56616 0.087435 -0.19977 0.20813 0.25838 -0.22812 -0.39205 -0.17397 -0.064989 -0.086976 -0.29107 0.026059 -0.33497 -0.035276 -0.17367 0.24635 0.12299 -0.2051 0.40303 0.15659 0.068616 0.087859 -0.18878 
gran -0.17342 -0.098014 -0.388 0.38713 -0.28424 -0.24363 0.031282 -0.30682 -0.41331 -0.066517 0.24096 0.016333 -0.36215 0.17201 -0.19274 0.15654 -0.22418 0.18706 0.0038169 -0.15512 0.070082 -0.27244 0.11857 0.049596 0.18449 0.16448 -0.010541 -0.58999 0.095628 -0.21651 0.22946 0.26419 -0.24336 -0.40981 -0.18851 -0.07028 -0.093367 -0.30852 0.035262 -0.36559 -0.029221 -0.17654 0.269 0.12316 -0.21031 0.42799 0.16624 0.075907 0.089478 -0.20368 
cara -0.16631 -0.09494 -0.36271 0.35937 -0.26244 -0.22309 0.029839 -0.29047 -0.3862 -0.06702 0.22743 0.024386 -0.34471 0.1519 -0.17919 0.14982 -0.21305 0.17834 0.0060988 -0.14518 0.064598 -0.25407 0.11454 0.044769 0.17119 0.15496 -0.013391 -0.56762 0.087474 -0.20188 0.20705 0.25842 -0.21874 -0.38855 -0.17232 -0.061895 -0.08437 -0.29164 0.028612 -0.33665 -0.025579 -0.16805 0.24773 0.11598 -0.20113 0.40179 0.15818 0.067398 0.084078 -0.19422 
victoria -0.16568 -0.10148 -0.37009 0.36038 -0.26801 -0.22235 0.031406 -0.28852 -0.39229 -0.070293 0.23179 0.022301 -0.34845 0.15893 -0.18737 0.15228 -0.21968 0.17683 0.0057453 -0.15075 0.067067 -0.26084 0.1116 0.050327 0.1747 0.16057 -0.016417 -0.57198 0.090799 -0.19726 0.21192 0.25889 -0.22893 -0.39005 -0.17551 -0.064774 -0.089709 -0.28986 0.023906 -0.33944 -0.031731 -0.17111 0.24985 0.11824 -0.20559 0.40887 0.15868 0.069103 0.087229 -0.19569 
menos -0.16648 -0.096803 -0.37608 0.35838 -0.27146 -0.22537 0.029096 -0.28775 -0.39423 -0.075468 0.2292 0.018819 -0.34888 0.16087 -0.18283 0.15245 -0.22174 0.1768 0.0088213 -0.14539 0.067229 -0.26119 0.11275 0.044405 0.17337 0.15779 -0.0076431 -0.56031 0.092342 -0.20154 0.21298 0.254 -0.2272 -0.39457 -0.17083 -0.06237 -0.092688 -0.29132 0.024692 -0.34333 -0.031781 -0.17234 0.25054 0.11092 -0.21061 0.41156 0.15605 0.072616 0.091891 -0.19714 
mucho -0.17528 -0.10719 -0.39606 0.3848 -0.27865 -0.23854 0.028336 -0.30029 -0.41629 -0.07435 0.24338 0.014212 -0.36063 0.16695 -0.19564 0.15604 -0.23082 0.18276 0.01113 -0.15189 0.063817 -0.27543 0.11803 0.051861 0.18128 0.16682 -0.010321 -0.60193 0.088991 -0.21249 0.232 0.26871 -0.23867 -0.40564 -0.18266 -0.064174 -0.096497 -0.30225 0.029752 -0.36298 -0.024805 -0.17365 0.26261 0.11671 -0.21503 0.43834 0.16105 0.069991 0.099712 -0.2091 
era -0.16927 -0.099281 -0.38254 0.37626 -0.27734 -0.22815 0.028279 -0.30532 -0.40208 -0.07027 0.24397 0.023051 -0.36182 0.16172 -0.18781 0.15776 -0.2241 0.18574 0.007811 -0.15301 0.063123 -0.26751 0.11654 0.049985 0.18392 0.16411 -0.018882 -0.59384 0.097614 -0.21142 0.21667 0.26902 -0.23046 -0.40296 -0.18436 -0.067279 -0.086171 -0.30688 0.028152 -0.35166 -0.033284 -0.17788 0.25917 0.12107 -0.20891 0.41905 0.16475 0.072808 0.092149 -0.20385 
rey -0.17277 -0.10216 -0.3918 0.37469 -0.27831 -0.22741 0.032732 -0.2999 -0.40566 -0.077744 0.23821 0.018316 -0.36331 0.1596 -0.18904 0.15304 -0.22451 0.18569 0.010416 -0.15481 0.067292 -0.26464 0.11387 0.046909 0.17821 0.16493 -0.014581 -0.59223 0.090067 -0.20916 0.22389 0.26761 -0.23785 -0.40009 -0.1759 -0.06121 -0.093282 -0.29876 0.027229 -0.35795 -0.031808 -0.17222 0.26325 0.12116 -0.20948 0.42422 0.16303 0.066349 0.093978 -0.20254 
puede -0.17097 -0.09843 -0.37944 0.3731 -0.27646 -0.22278 0.025106 -0.29893 -0.39757 -0.069786 0.23468 0.019374 -0.35909 0.16829 -0.19302 0.14852 -0.22046 0.18172 0.0097598 -0.14466 0.06591 -0.25643 0.11285 0.049214 0.17699 0.16497 -0.012567 -0.58273 0.085666 -0.20616 0.21962 0.26432 -0.23647 -0.40457 -0.18382 -0.059546 -0.085918 -0.30404 0.027973 -0.3473 -0.025895 -0.17753 0.25655 0.12283 -0.20976 0.41836 0.16286 0.06941 0.08819 -0.19985 
favor -0.1728 -0.10481 -0.38796 0.37746 -0.2725 -0.22906 0.023835 -0.29981 -0.4091 -0.072976 0.23616 0.02391 -0.35713 0.16681 -0.1899 0.15134 -0.23187 0.18035 0.011205 -0.14648 0.070102 -0.26358 0.11546 0.052142 0.1803 0.15946 -0.010462 -0.58948 0.09249 -0.20564 0.21483 0.26498 -0.23245 -0.40183 -0.17936 -0.059651 -0.089046 -0.29964 0.03053 -0.34871 -0.025718 -0.16977 0.25686 0.11507 -0.20954 0.42273 0.16437 0.069072 0.092497 -0.20101 
está -0.17479 -0.10434 -0.38644 0.37452 -0.27452 -0.22859 0.032216 -0.29924 -0.40332 -0.071724 0.2348 0.021496 -0.3585 0.16185 -0.19115 0.15466 -0.22273 0.18171 0.0063398 -0.14638 0.068188 -0.26717 0.11455 0.05411 0.17686 0.1629 -0.015126 -0.58278 0.091494 -0.21007 0.22453 0.26368 -0.23332 -0.40692 -0.1788 -0.063583 -0.09276 -0.30377 0.028401 -0.35176 -0.030574 -0.17731 0.25629 0.11711 -0.20789 0.42792 0.15497 0.071134 0.09122 -0.20298 
golazo -0.17114 -0.098512 -0.38616 0.37022 -0.26804 -0.23437 0.028603 -0.29525 -0.40501 -0.067462 0.23653 0.011549 -0.36029 0.1603 -0.18797 0.15263 -0.22709 0.18194 0.010259 -0.15311 0.057905 -0.2651 0.11606 0.049791 0.17552 0.16395 -0.012112 -0.5814 0.088286 -0.20712 0.22024 0.25893 -0.23371 -0.39275 -0.17501 -0.061858 -0.090883 -0.29067 0.032243 -0.35603 -0.019705 -0.16289 0.2546 0.11181 -0.20565 0.42713 0.15593 0.066558 0.092881 -0.20131 
da -0.16309 -0.097673 -0.35509 0.35552 -0.26816 -0.22218 0.025962 -0.28737 -0.3873 -0.064913 0.22834 0.023178 -0.33994 0.158 -0.18231 0.14913 -0.21684 0.17184 0.0059559 -0.14492 0.062426 -0.25661 0.11832 0.043481 0.17999 0.15505 -0.011973 -0.56252 0.088857 -0.19739 0.20785 0.25449 -0.22995 -0.39159 -0.17172 -0.058545 -0.080403 -0.29417 0.027257 -0.33011 -0.034742 -0.17236 0.24713 0.11529 -0.20349 0.40133 0.16292 0.073756 0.081038 -0.19325 
queda -0.17083 -0.10185 -0.3794 0.37288 -0.27761 -0.22595 0.026255 -0.29735 -0.40051 -0.071266 0.23628 0.023981 -0.35427 0.16326 -0.19026 0.15223 -0.21942 0.17786 0.0059651 -0.14677 0.064656 -0.26657 0.11354 0.049501 0.1807 0.16034 -0.012822 -0.58493 0.091278 -0.2014 0.2155 0.26875 -0.23443 -0.3981 -0.17871 -0.060743 -0.088595 -0.30069 0.02585 -0.33495 -0.034035 -0.17572 0.2526 0.11805 -0.20951 0.42089 0.16211 0.07157 0.088819 -0.19931 
jugador-isco -0.18625 -0.098925 -0.38586 0.37325 -0.26823 -0.22804 0.032081 -0.30226 -0.40208 -0.070077 0.23897 0.015037 -0.37314 0.1647 -0.19662 0.14002 -0.23116 0.18042 0.0092011 -0.1461 0.059724 -0.26023 0.12075 0.043654 0.17303 0.16294 -0.024088 -0.58884 0.081392 -0.21683 0.2228 0.26266 -0.23537 -0.4031 -0.18118 -0.057391 -0.095642 -0.30152 0.026141 -0.36796 -0.0256 -0.17665 0.26337 0.11784 -0.2156 0.43483 0.15278 0.068217 0.099394 -0.20701 
juega -0.17418 -0.10456 -0.3813 0.37691 -0.27943 -0.23375 0.02981 -0.30381 -0.40644 -0.069001 0.23906 0.021565 -0.36245 0.16771 -0.19263 0.15285 -0.22929 0.18003 0.0057069 -0.14578 0.06728 -0.26944 0.11714 0.049808 0.18103 0.15926 -0.017309 -0.59122 0.088837 -0.20583 0.21869 0.27002 -0.23269 -0.41234 -0.18168 -0.065293 -0.090013 -0.31112 0.027815 -0.35015 -0.032904 -0.18054 0.26666 0.11941 -0.21324 0.42846 0.16476 0.076409 0.090787 -0.20603 
campeon -0.16872 -0.10044 -0.37566 0.36731 -0.2735 -0.22921 0.028602 -0.28908 -0.39994 -0.067663 0.22894 0.020883 -0.35146 0.16115 -0.18598 0.15264 -0.2159 0.18072 0.0048622 -0.1509 0.062328 -0.25746 0.10758 0.05365 0.17548 0.16153 -0.010139 -0.56744 0.08751 -0.2042 0.21655 0.25319 -0.22662 -0.39111 -0.17761 -0.063787 -0.091424 -0.29038 0.030976 -0.34769 -0.025338 -0.1676 0.25226 0.12061 -0.20423 0.41212 0.16058 0.068991 0.088683 -0.19631 
puta -0.15839 -0.094511 -0.35569 0.3572 -0.26759 -0.2159 0.028939 -0.28696 -0.37675 -0.065253 0.22077 0.018695 -0.33165 0.15697 -0.17773 0.14466 -0.2079 0.17448 0.010038 -0.14427 0.058648 -0.24705 0.11141 0.049611 0.16989 0.15071 -0.01174 -0.55602 0.082301 -0.19469 0.20621 0.25219 -0.21706 -0.38667 -0.17262 -0.06231 -0.084647 -0.28882 0.027941 -0.32831 -0.020592 -0.16947 0.24223 0.12113 -0.19853 0.40069 0.15025 0.066841 0.081888 -0.19077 
hecho -0.16979 -0.10279 -0.3813 0.37163 -0.27085 -0.23087 0.027594 -0.29141 -0.39963 -0.069927 0.23689 0.01322 -0.3493 0.16581 -0.19067 0.14799 -0.22488 0.17676 0.013266 -0.14903 0.062526 -0.26564 0.11681 0.049833 0.1742 0.15768 -0.010462 -0.57943 0.086366 -0.2064 0.21857 0.25896 -0.23768 -0.39312 -0.17827 -0.064676 -0.088742 -0.29413 0.031143 -0.35146 -0.020504 -0.16582 0.25707 0.11015 -0.21117 0.4259 0.15657 0.069624 0.095648 -0.20152 
tan -0.17027 -0.094425 -0.38277 0.37723 -0.27726 -0.23777 0.029775 -0.29235 -0.40308 -0.070641 0.23194 0.020054 -0.35311 0.16584 -0.18939 0.15022 -0.21775 0.18286 0.0015472 -0.1467 0.062548 -0.26029 0.11597 0.050583 0.17877 0.15561 -0.009235 -0.57897 0.088691 -0.21206 0.21772 0.26064 -0.23792 -0.39592 -0.18354 -0.071216 -0.092623 -0.30596 0.028854 -0.35464 -0.025694 -0.17044 0.25842 0.11545 -0.20954 0.41583 0.15868 0.066687 0.092648 -0.19975 
mundial -0.17357 -0.10049 -0.38327 0.37406 -0.27796 -0.22835 0.026677 -0.29651 -0.39933 -0.07143 0.23717 0.017439 -0.35417 0.16097 -0.18902 0.15528 -0.22758 0.1848 0.0087828 -0.14595 0.064834 -0.26488 0.11526 0.045097 0.17483 0.15727 -0.012558 -0.58363 0.085357 -0.20777 0.21649 0.26603 -0.23436 -0.4011 -0.17924 -0.062859 -0.087849 -0.29726 0.026612 -0.35122 -0.023425 -0.17365 0.25818 0.11666 -0.21018 0.42702 0.16038 0.069209 0.087865 -0.19998 
medalla -0.16883 -0.10077 -0.36508 0.36852 -0.27137 -0.22149 0.028331 -0.29601 -0.38785 -0.075029 0.22771 0.026692 -0.3465 0.16467 -0.1831 0.15016 -0.21803 0.1781 0.0065404 -0.14648 0.066775 -0.25627 0.11231 0.045648 0.17954 0.15587 -0.015555 -0.56808 0.090773 -0.20611 0.20931 0.26072 -0.2267 -0.39517 -0.17409 -0.061148 -0.088285 -0.29001 0.029378 -0.33814 -0.027495 -0.17339 0.25191 0.11785 -0.20364 0.40791 0.15686 0.070945 0.086811 -0.19667 
decir -0.16337 -0.098809 -0.37271 0.36717 -0.26917 -0.22739 0.022412 -0.29139 -0.38601 -0.072942 0.22612 0.013751 -0.341 0.1655 -0.18273 0.14651 -0.22221 0.17531 0.010487 -0.14698 0.062719 -0.25781 0.11339 0.043307 0.17518 0.15868 -0.011467 -0.56867 0.090978 -0.20107 0.21569 0.25639 -0.23285 -0.38948 -0.17981 -0.064224 -0.089389 -0.28963 0.02809 -0.34183 -0.030017 -0.16817 0.25129 0.11126 -0.20056 0.40284 0.15602 0.069246 0.084612 -0.20007 
creo -0.16868 -0.099886 -0.38053 0.3663 -0.26634 -0.22711 0.026834 -0.28416 -0.39522 -0.066762 0.23069 0.020432 -0.35081 0.1549 -0.1804 0.14346 -0.22016 0.17584 0.0037155 -0.1438 0.05893 -0.25834 0.11713 0.051412 0.17066 0.15728 -0.0087507 -0.57765 0.080347 -0.20433 0.21436 0.25573 -0.23088 -0.3878 -0.17629 -0.064605 -0.086911 -0.29107 0.029999 -0.34892 -0.01828 -0.15812 0.24813 0.11063 -0.2048 0.42121 0.15711 0.068433 0.093355 -0.19478 
den -0.16758 -0.09572 -0.37448 0.37073 -0.2673 -0.22844 0.028592 -0.29874 -0.3989 -0.064031 0.22983 0.019066 -0.34887 0.16504 -0.18925 0.14917 -0.2238 0.18028 0.0025687 -0.1483 0.059551 -0.252 0.11907 0.048276 0.1829 0.15424 -0.0099397 -0.5733 0.082788 -0.20909 0.21017 0.25961 -0.23915 -0.392 -0.18662 -0.066355 -0.080332 -0.29867 0.032598 -0.3453 -0.021927 -0.16952 0.25399 0.11442 -0.20525 0.40662 0.15869 0.069274 0.089906 -0.19803 
mierda -0.17099 -0.10882 -0.3845 0.37563 -0.28311 -0.23282 0.028752 -0.30351 -0.40677 -0.068683 0.24193 0.020656 -0.36516 0.16686 -0.19238 0.15749 -0.23123 0.17778 0.0035456 -0.15577 0.064301 -0.26955 0.12117 0.047315 0.18605 0.16119 -0.012016 -0.59331 0.091264 -0.21071 0.22391 0.2673 -0.23399 -0.40453 -0.18203 -0.066504 -0.089453 -0.30749 0.027292 -0.35675 -0.028395 -0.17592 0.26067 0.11862 -0.21479 0.42687 0.16808 0.072182 0.089604 -0.2071 
voy -0.16921 -0.10188 -0.38736 0.37533 -0.28025 -0.23197 0.029473 -0.2993 -0.41073 -0.077896 0.2342 0.021278 -0.35855 0.1719 -0.19071 0.15505 -0.22697 0.18553 0.0083793 -0.1548 0.061956 -0.26798 0.11691 0.049402 0.18121 0.15897 -0.0096733 -0.59118 0.092 -0.20069 0.22234 0.26549 -0.23141 -0.39883 -0.1794 -0.064591 -0.091319 -0.29725 0.029304 -0.35775 -0.024411 -0.1764 0.26369 0.11651 -0.21384 0.42568 0.1615 0.068066 0.090408 -0.19766 
ole -0.17183 -0.096316 -0.3717 0.3603 -0.27378 -0.22176 0.027293 -0.28974 -0.38838 -0.069414 0.23007 0.022368 -0.35441 0.16753 -0.18491 0.15394 -0.22037 0.18154 0.007616 -0.14471 0.061927 -0.25772 0.11166 0.054135 0.17181 0.15783 -0.013906 -0.57219 0.086252 -0.20956 0.21341 0.25439 -0.22641 -0.39934 -0.17751 -0.059042 -0.08788 -0.28889 0.02182 -0.3493 -0.03472 -0.17297 0.25446 0.11724 -0.20652 0.40613 0.15388 0.062343 0.085788 -0.19983 
palo -0.16573 -0.097816 -0.37877 0.36597 -0.26733 -0.22875 0.028595 -0.28989 -0.39546 -0.069287 0.23495 0.013901 -0.34792 0.15567 -0.18016 0.14903 -0.21824 0.17381 0.0097674 -0.14924 0.059988 -0.25457 0.11574 0.041917 0.16963 0.16238 -0.0060243 -0.57345 0.080485 -0.19892 0.22265 0.25708 -0.22998 -0.39084 -0.17768 -0.070315 -0.08899 -0.29685 0.027749 -0.34633 -0.019725 -0.1658 0.25066 0.10548 -0.21028 0.4166 0.15413 0.072884 0.091692 -0.19399 
hace -0.16402 -0.09999 -0.37514 0.36153 -0.27007 -0.22023 0.021853 -0.29232 -0.39336 -0.072705 0.23019 0.015167 -0.34996 0.16508 -0.17841 0.15063 -0.21579 0.17432 0.010754 -0.14059 0.06446 -0.25919 0.10853 0.045362 0.1706 0.15131 -0.0068074 -0.56363 0.092101 -0.20317 0.21525 0.25479 -0.23299 -0.39233 -0.17415 -0.057515 -0.089672 -0.28755 0.025456 -0.34761 -0.03391 -0.16523 0.24943 0.11636 -0.20582 0.40807 0.15688 0.06448 0.086407 -0.20149 
temporada -0.17728 -0.10473 -0.38751 0.38344 -0.28457 -0.23263 0.027669 -0.30202 -0.41241 -0.070671 0.24118 0.026115 -0.36268 0.16407 -0.19103 0.15479 -0.22744 0.18366 0.0039747 -0.15169 0.066233 -0.27191 0.12115 0.050107 0.18385 0.16404 -0.011307 -0.59699 0.092101 -0.21223 0.22599 0.2698 -0.24105 -0.41235 -0.18476 -0.065495 -0.090603 -0.30877 0.027568 -0.35317 -0.032488 -0.17465 0.26235 0.11734 -0.21369 0.42687 0.16371 0.073144 0.092571 -0.20369 
vaya -0.17231 -0.10249 -0.38353 0.37529 -0.28046 -0.22565 0.027799 -0.30284 -0.40614 -0.078022 0.23995 0.024461 -0.35415 0.16623 -0.19463 0.15713 -0.22763 0.18464 0.0085936 -0.15001 0.07049 -0.26466 0.11935 0.052043 0.18774 0.16279 -0.01443 -0.59565 0.087815 -0.20806 0.21698 0.26676 -0.23564 -0.41004 -0.18075 -0.061043 -0.086858 -0.30448 0.026386 -0.34906 -0.030235 -0.1803 0.26226 0.12219 -0.21492 0.42344 0.16673 0.072456 0.095088 -0.20438 
título -0.17868 -0.10607 -0.39319 0.38042 -0.27662 -0.23177 0.027742 -0.29502 -0.41017 -0.069305 0.23946 0.021472 -0.36202 0.16324 -0.19278 0.15029 -0.22751 0.18401 0.0083344 -0.15193 0.063304 -0.2651 0.12163 0.047381 0.18203 0.16779 -0.0094261 -0.59406 0.082912 -0.2075 0.2253 0.26621 -0.23661 -0.39999 -0.18046 -0.07107 -0.090671 -0.30332 0.02834 -0.35714 -0.022898 -0.16741 0.25704 0.11116 -0.21506 0.43209 0.16322 0.073494 0.096353 -0.20284 
quien -0.16827 -0.099102 -0.37951 0.36968 -0.27388 -0.22511 0.032934 -0.2966 -0.40114 -0.070575 0.23171 0.021663 -0.36054 0.1617 -0.1866 0.15095 -0.22174 0.18436 0.0032196 -0.14834 0.065627 -0.26182 0.11081 0.048809 0.17966 0.15906 -0.0079188 -0.58187 0.086299 -0.20756 0.21374 0.25992 -0.23338 -0.3963 -0.1802 -0.064857 -0.087297 -0.30241 0.02581 -0.34797 -0.021731 -0.17294 0.25568 0.1163 -0.21539 0.41727 0.15856 0.072252 0.090205 -0.19839 
estaba -0.16979 -0.097976 -0.37583 0.37485 -0.2747 -0.22198 0.030493 -0.29355 -0.39456 -0.070811 0.22923 0.023264 -0.34851 0.1563 -0.18733 0.14861 -0.21636 0.17975 0.0037158 -0.14802 0.066347 -0.2664 0.11615 0.050262 0.17621 0.16113 -0.014415 -0.57472 0.091206 -0.20015 0.2157 0.26184 -0.23431 -0.39483 -0.17263 -0.06257 -0.088893 -0.29472 0.027895 -0.34247 -0.028702 -0.17352 0.25515 0.11198 -0.20452 0.41727 0.15976 0.066034 0.090325 -0.19941 
amo -0.17432 -0.10273 -0.38907 0.37518 -0.27195 -0.22477 0.028032 -0.29864 -0.40046 -0.070863 0.24449 0.018129 -0.36441 0.1605 -0.19004 0.15263 -0.22978 0.18548 0.0098916 -0.15065 0.05698 -0.26273 0.12031 0.053675 0.18018 0.17204 -0.0102 -0.59647 0.088282 -0.20651 0.22363 0.26396 -0.23189 -0.39924 -0.18182 -0.066468 -0.092202 -0.29407 0.031015 -0.35362 -0.018272 -0.16917 0.25897 0.11398 -0.21264 0.4409 0.16143 0.064815 0.091374 -0.20361 
bandera -0.17003 -0.10665 -0.38961 0.38381 -0.28104 -0.23624 0.025064 -0.30824 -0.41091 -0.073603 0.24387 0.0231 -0.36591 0.17015 -0.18807 0.16426 -0.22894 0.18939 0.009075 -0.15272 0.06964 -0.26633 0.11594 0.051942 0.18602 0.16581 -0.014584 -0.60517 0.096391 -0.21227 0.22155 0.27278 -0.2323 -0.40825 -0.18279 -0.065937 -0.092727 -0.31076 0.026413 -0.36023 -0.027728 -0.17981 0.26495 0.12359 -0.217 0.4253 0.16663 0.072124 0.095294 -0.20665 
mal -0.17563 -0.10559 -0.39028 0.38062 -0.27689 -0.22236 0.021422 -0.29665 -0.40434 -0.069715 0.23483 0.024313 -0.36107 0.16846 -0.18518 0.15181 -0.22414 0.18509 0.0067093 -0.1462 0.065844 -0.26398 0.11674 0.046332 0.17751 0.16141 -0.014409 -0.58891 0.089251 -0.2139 0.22182 0.26038 -0.23271 -0.40336 -0.17931 -0.063999 -0.092163 -0.29548 0.027527 -0.35131 -0.022489 -0.17232 0.25932 0.11949 -0.21519 0.429 0.16506 0.06929 0.090013 -0.19849 
quiero -0.1744 -0.10418 -0.39078 0.37788 -0.28082 -0.23531 0.027715 -0.29631 -0.41405 -0.075539 0.2383 0.017326 -0.36481 0.16361 -0.18564 0.15331 -0.22701 0.1847 0.005108 -0.14618 0.061371 -0.26956 0.11597 0.052687 0.1804 0.1675 -0.0062455 -0.59594 0.086266 -0.21205 0.22541 0.2661 -0.23653 -0.40037 -0.18313 -0.066786 -0.093199 -0.30361 0.026885 -0.35586 -0.021719 -0.1722 0.25934 0.11546 -0.22001 0.436 0.16044 0.069289 0.095055 -0.20097 
falta -0.16691 -0.10239 -0.3772 0.37076 -0.28 -0.22769 0.028464 -0.30163 -0.40366 -0.067702 0.23822 0.018717 -0.35214 0.16753 -0.18765 0.15383 -0.21948 0.1858 0.0092837 -0.14909 0.067694 -0.26545 0.11703 0.054435 0.18243 0.15637 -0.0086884 -0.58353 0.089965 -0.2057 0.21588 0.26678 -0.23172 -0.40464 -0.18141 -0.066859 -0.090468 -0.30289 0.031782 -0.34854 -0.028132 -0.17422 0.2584 0.1184 -0.20958 0.42284 0.16245 0.071581 0.087693 -0.20177 
campo -0.17473 -0.099497 -0.37765 0.3651 -0.26463 -0.22889 0.028954 -0.2876 -0.40123 -0.06877 0.23433 0.016217 -0.3556 0.15494 -0.18382 0.14682 -0.22093 0.17984 0.0054302 -0.14909 0.05629 -0.26025 0.11212 0.051417 0.1765 0.16039 -0.0084643 -0.57592 0.085404 -0.2025 0.22126 0.25313 -0.22979 -0.38861 -0.17407 -0.063985 -0.088718 -0.28885 0.027025 -0.34723 -0.020575 -0.1616 0.2516 0.11142 -0.20504 0.42163 0.15694 0.064906 0.090276 -0.19373 
fin -0.15987 -0.10081 -0.37525 0.36535 -0.26399 -0.2225 0.026918 -0.28792 -0.39077 -0.058254 0.2313 0.017538 -0.35388 0.16621 -0.18689 0.14969 -0.20935 0.17492 0.0061278 -0.14271 0.066229 -0.26178 0.11099 0.044343 0.17151 0.15953 -0.0069474 -0.56776 0.083534 -0.20366 0.21498 0.25814 -0.23047 -0.3878 -0.18163 -0.070041 -0.084715 -0.28847 0.029251 -0.35244 -0.024645 -0.1628 0.24922 0.10777 -0.20681 0.40774 0.15673 0.064442 0.089061 -0.1959 
pasa -0.16261 -0.098241 -0.37065 0.36588 -0.26757 -0.22311 0.029199 -0.29351 -0.39096 -0.069901 0.2308 0.020889 -0.34421 0.15847 -0.18147 0.1476 -0.21586 0.17472 0.012155 -0.14568 0.070989 -0.25715 0.11637 0.043282 0.17228 0.15654 -0.011331 -0.57253 0.093895 -0.19829 0.21062 0.25818 -0.22737 -0.39634 -0.17484 -0.062623 -0.084768 -0.29203 0.028373 -0.34291 -0.027576 -0.16871 0.24904 0.1165 -0.20384 0.40666 0.15666 0.076107 0.09029 -0.19684 
fuera -0.16497 -0.10182 -0.37447 0.37195 -0.26841 -0.22644 0.026152 -0.29872 -0.39595 -0.070769 0.23444 0.020667 -0.35039 0.16179 -0.18168 0.15357 -0.22075 0.17965 0.005531 -0.14797 0.065905 -0.25992 0.11502 0.046907 0.17484 0.16148 -0.0144 -0.57797 0.095919 -0.20987 0.21223 0.26374 -0.22664 -0.39476 -0.17606 -0.068574 -0.086871 -0.29548 0.028488 -0.34601 -0.029602 -0.17419 0.25711 0.11917 -0.20607 0.41452 0.16188 0.069824 0.08951 -0.19988 
juego -0.17485 -0.10091 -0.37703 0.3655 -0.27129 -0.2294 0.027206 -0.28967 -0.39464 -0.072515 0.23366 0.016489 -0.35218 0.15257 -0.18558 0.14534 -0.21903 0.17619 0.0032793 -0.14582 0.060694 -0.25898 0.11743 0.047016 0.17361 0.16068 -0.012211 -0.57832 0.083138 -0.20322 0.21913 0.25872 -0.23094 -0.38969 -0.17592 -0.064463 -0.08968 -0.29452 0.030234 -0.34594 -0.024824 -0.16229 0.25336 0.11027 -0.20556 0.42614 0.1614 0.068802 0.090124 -0.20025 
mismo -0.17241 -0.099469 -0.37598 0.36433 -0.27087 -0.22556 0.028896 -0.28697 -0.39525 -0.067842 0.23231 0.017067 -0.35113 0.15403 -0.19018 0.14965 -0.22536 0.17825 0.011812 -0.14262 0.058199 -0.25951 0.11628 0.046858 0.17551 0.16367 -0.010466 -0.5755 0.08387 -0.20344 0.21672 0.25686 -0.22853 -0.38859 -0.1752 -0.062972 -0.091579 -0.28937 0.026821 -0.34553 -0.023425 -0.16486 0.24884 0.11222 -0.20369 0.42071 0.15947 0.067531 0.088862 -0.19854 
tanto -0.17069 -0.099126 -0.37736 0.36468 -0.26805 -0.22792 0.026509 -0.28538 -0.39233 -0.070868 0.23499 0.020011 -0.35241 0.15739 -0.18363 0.14964 -0.21917 0.17793 0.0060057 -0.14379 0.059858 -0.2575 0.11662 0.046247 0.17319 0.16059 -0.015133 -0.57619 0.092573 -0.20762 0.21965 0.26275 -0.23264 -0.39142 -0.17501 -0.06582 -0.090624 -0.29019 0.022968 -0.34433 -0.021152 -0.16036 0.25282 0.10725 -0.20918 0.4189 0.15768 0.066877 0.094723 -0.19425 
titulo -0.17133 -0.099275 -0.38553 0.36627 -0.27568 -0.2301 0.023344 -0.28421 -0.40064 -0.07161 0.23398 0.024463 -0.35492 0.1599 -0.19196 0.15057 -0.22563 0.18511 0.0074487 -0.14577 0.067297 -0.25803 0.11843 0.049152 0.17852 0.16444 -0.0071005 -0.58152 0.083116 -0.20396 0.22023 0.25923 -0.23095 -0.39514 -0.17396 -0.067445 -0.090284 -0.30179 0.02595 -0.34911 -0.022022 -0.16096 0.25624 0.10831 -0.20879 0.42462 0.16073 0.072363 0.093541 -0.20107 
jugado -0.18724 -0.10439 -0.39217 0.37615 -0.27084 -0.23235 0.031693 -0.30096 -0.40848 -0.071563 0.24289 0.012969 -0.37544 0.16485 -0.20095 0.1371 -0.23432 0.18148 0.0072614 -0.14657 0.05485 -0.26559 0.12356 0.043138 0.16908 0.16443 -0.023108 -0.59879 0.076362 -0.22041 0.22733 0.26564 -0.24199 -0.40537 -0.18516 -0.059726 -0.098597 -0.30352 0.027604 -0.37772 -0.020568 -0.17265 0.26596 0.11823 -0.21111 0.44867 0.15001 0.069947 0.10446 -0.20908 
pa -0.16057 -0.099406 -0.36493 0.36716 -0.26895 -0.22079 0.025411 -0.29407 -0.39092 -0.066175 0.2299 0.023131 -0.33971 0.16204 -0.17799 0.15157 -0.21643 0.17918 0.012037 -0.15106 0.066672 -0.25773 0.11041 0.048727 0.16938 0.15687 -0.012513 -0.56901 0.087561 -0.19866 0.21272 0.25685 -0.23055 -0.39558 -0.17566 -0.063243 -0.08853 -0.29266 0.023538 -0.33816 -0.032417 -0.1738 0.25259 0.11912 -0.21118 0.40795 0.16334 0.073867 0.084667 -0.19624 
años -0.16911 -0.1004 -0.38775 0.37172 -0.28348 -0.23632 0.027699 -0.29905 -0.40797 -0.074937 0.23659 0.014066 -0.36072 0.16662 -0.18706 0.15438 -0.22945 0.18957 0.0075569 -0.15179 0.068691 -0.26346 0.10984 0.048863 0.18264 0.16361 -0.0077432 -0.5822 0.095614 -0.20782 0.21943 0.26193 -0.23255 -0.40568 -0.17601 -0.061933 -0.09234 -0.30307 0.026262 -0.35464 -0.035848 -0.17359 0.26139 0.11754 -0.22007 0.42675 0.16029 0.077819 0.090159 -0.20495 
otro -0.17974 -0.10109 -0.38776 0.37847 -0.27491 -0.23538 0.022243 -0.29734 -0.41262 -0.07432 0.23995 0.018926 -0.36245 0.16168 -0.19445 0.15196 -0.22643 0.18362 0.0062706 -0.15202 0.054196 -0.27052 0.12274 0.053299 0.18273 0.17028 -0.0098088 -0.59777 0.084653 -0.21644 0.22942 0.26933 -0.23889 -0.40213 -0.18329 -0.071278 -0.096997 -0.2979 0.023057 -0.36456 -0.022393 -0.16279 0.26132 0.11304 -0.21549 0.43852 0.16442 0.069519 0.096119 -0.2036 
semana -0.16966 -0.10521 -0.38061 0.37596 -0.27704 -0.22795 0.027434 -0.29458 -0.40064 -0.068432 0.23449 0.022165 -0.35607 0.16395 -0.18981 0.14954 -0.22102 0.17915 0.0041543 -0.15075 0.064201 -0.26643 0.11171 0.052364 0.18255 0.15913 -0.015266 -0.58204 0.092059 -0.20695 0.21967 0.26574 -0.23221 -0.40213 -0.18132 -0.064775 -0.091054 -0.3028 0.028078 -0.34721 -0.033199 -0.17567 0.25687 0.1184 -0.21087 0.41934 0.16183 0.073405 0.090399 -0.19875 
jugador-xavi_hernández -0.18418 -0.099314 -0.38856 0.37983 -0.27587 -0.2321 0.031034 -0.30591 -0.40751 -0.071859 0.23956 0.017405 -0.36937 0.16914 -0.19652 0.15102 -0.23132 0.18536 0.0094868 -0.14888 0.063162 -0.2667 0.11822 0.047611 0.17739 0.1624 -0.020018 -0.59076 0.085644 -0.21411 0.22063 0.26567 -0.23962 -0.41062 -0.18158 -0.060554 -0.094102 -0.30666 0.026156 -0.36441 -0.0291 -0.17818 0.26313 0.12204 -0.21131 0.43108 0.15896 0.068604 0.096766 -0.20605 
hacer -0.16678 -0.10245 -0.38202 0.36767 -0.26862 -0.22401 0.023861 -0.28971 -0.40001 -0.068636 0.23311 0.019606 -0.35539 0.17001 -0.18348 0.14937 -0.22214 0.17763 0.013031 -0.14498 0.068562 -0.26417 0.11499 0.051498 0.17949 0.16008 -0.009282 -0.58286 0.092017 -0.20134 0.21841 0.25949 -0.23132 -0.3952 -0.17765 -0.063019 -0.08994 -0.29705 0.024327 -0.34778 -0.027122 -0.16695 0.2538 0.11661 -0.20572 0.41993 0.16143 0.068368 0.08475 -0.20284 
hubiera -0.17252 -0.10542 -0.39481 0.38754 -0.28696 -0.23715 0.025907 -0.31317 -0.40988 -0.072758 0.24447 0.023246 -0.36817 0.16862 -0.19363 0.15937 -0.2326 0.18768 0.0061633 -0.15677 0.068054 -0.27308 0.12231 0.046282 0.18499 0.16618 -0.014561 -0.60645 0.099596 -0.21855 0.22619 0.27017 -0.23777 -0.41463 -0.18862 -0.071049 -0.091502 -0.31251 0.027099 -0.36216 -0.028719 -0.17834 0.26921 0.12187 -0.21925 0.43426 0.16531 0.073761 0.094773 -0.21 
fútbol -0.17445 -0.10838 -0.39584 0.38647 -0.28479 -0.23756 0.026618 -0.30584 -0.41483 -0.075484 0.24819 0.020194 -0.3696 0.1724 -0.19576 0.15333 -0.23279 0.18901 0.0097339 -0.15277 0.069998 -0.27247 0.12211 0.048799 0.1858 0.16634 -0.012158 -0.60422 0.092726 -0.21442 0.2267 0.27444 -0.2409 -0.41791 -0.18762 -0.067966 -0.09519 -0.30601 0.025004 -0.36557 -0.025777 -0.17979 0.26607 0.11924 -0.21518 0.43399 0.16736 0.074524 0.094567 -0.21105 
crack -0.17795 -0.10007 -0.38622 0.38149 -0.28343 -0.23351 0.024703 -0.30492 -0.41003 -0.073741 0.24188 0.021204 -0.36366 0.16472 -0.19103 0.15767 -0.22502 0.18739 0.0058237 -0.15033 0.062593 -0.26579 0.11739 0.051426 0.18379 0.16106 -0.013634 -0.59101 0.088546 -0.2133 0.22429 0.26896 -0.24044 -0.40928 -0.18724 -0.069393 -0.087755 -0.30877 0.025385 -0.35685 -0.027371 -0.17269 0.26316 0.1155 -0.21421 0.4272 0.16264 0.06884 0.096637 -0.20453 
capote -0.16947 -0.099297 -0.38316 0.37222 -0.2792 -0.22337 0.030123 -0.29748 -0.40511 -0.0712 0.23424 0.025577 -0.3612 0.1654 -0.18875 0.15641 -0.22438 0.18496 0.006156 -0.14936 0.065485 -0.26244 0.11588 0.050418 0.17823 0.16168 -0.011842 -0.58196 0.084166 -0.20717 0.21516 0.26256 -0.23113 -0.40284 -0.17839 -0.058946 -0.089212 -0.29821 0.02458 -0.35107 -0.03178 -0.17062 0.25645 0.12379 -0.20885 0.42137 0.1617 0.068841 0.086023 -0.19802 
arbitro -0.18287 -0.10554 -0.39856 0.38658 -0.28199 -0.2369 0.025895 -0.30223 -0.42146 -0.074786 0.24731 0.02063 -0.37122 0.16773 -0.19276 0.1556 -0.2279 0.18769 0.0064397 -0.15539 0.060781 -0.27164 0.12106 0.051762 0.18499 0.17131 -0.0082552 -0.60756 0.08782 -0.21832 0.23099 0.27428 -0.23842 -0.40979 -0.18271 -0.073561 -0.09381 -0.30593 0.024157 -0.36115 -0.018511 -0.16994 0.26588 0.11819 -0.22042 0.4438 0.16585 0.075056 0.098902 -0.20469 
mejores -0.16556 -0.097992 -0.38008 0.36613 -0.26915 -0.2226 0.027079 -0.28996 -0.39496 -0.072683 0.22918 0.018351 -0.3523 0.16604 -0.189 0.15706 -0.22115 0.17804 0.0082599 -0.14593 0.068861 -0.25959 0.11401 0.044768 0.16776 0.16148 -0.011134 -0.56896 0.09344 -0.20356 0.21747 0.26017 -0.22802 -0.3942 -0.17635 -0.06247 -0.092157 -0.29011 0.024517 -0.34719 -0.032089 -0.17382 0.25482 0.12133 -0.21168 0.41771 0.15665 0.072176 0.0914 -0.19837 
visto -0.18402 -0.10282 -0.39702 0.38423 -0.27748 -0.23765 0.027779 -0.30068 -0.41519 -0.076755 0.24422 0.0161 -0.36897 0.16744 -0.1967 0.15329 -0.23493 0.189 0.0079545 -0.15593 0.061378 -0.27004 0.11626 0.052514 0.18111 0.16787 -0.010311 -0.60773 0.092132 -0.21449 0.23099 0.27594 -0.24202 -0.41078 -0.18628 -0.065192 -0.090706 -0.30035 0.029217 -0.36152 -0.020073 -0.16842 0.26519 0.1217 -0.21754 0.44448 0.16807 0.073604 0.097708 -0.20399 
también -0.17929 -0.10115 -0.39918 0.3873 -0.28477 -0.23235 0.025125 -0.30707 -0.41992 -0.074537 0.24096 0.019278 -0.3707 0.17435 -0.19656 0.15534 -0.23168 0.18505 0.003651 -0.15652 0.065489 -0.26986 0.12207 0.05197 0.18259 0.17029 -0.013107 -0.60711 0.089538 -0.2146 0.22893 0.27088 -0.2424 -0.40902 -0.18914 -0.069141 -0.094367 -0.30797 0.027186 -0.366 -0.026433 -0.17386 0.26703 0.12333 -0.2179 0.4393 0.16522 0.069093 0.094089 -0.20471 
somos -0.16434 -0.095395 -0.373 0.35912 -0.2702 -0.22721 0.028019 -0.28494 -0.39302 -0.07258 0.22461 0.017607 -0.34662 0.15901 -0.18408 0.15181 -0.21928 0.17849 0.010288 -0.14271 0.064989 -0.25695 0.10358 0.04286 0.1716 0.15554 -0.011601 -0.55614 0.090414 -0.19838 0.2089 0.25263 -0.22123 -0.3892 -0.16903 -0.059673 -0.089529 -0.28894 0.025613 -0.34377 -0.03279 -0.17181 0.24852 0.11195 -0.20863 0.40622 0.14812 0.073052 0.086929 -0.19525 
perder -0.17258 -0.1106 -0.40006 0.38859 -0.28334 -0.22986 0.025558 -0.30523 -0.41522 -0.074877 0.24527 0.02141 -0.37145 0.17646 -0.1937 0.1578 -0.23051 0.1873 0.010823 -0.15421 0.07076 -0.27123 0.11822 0.048742 0.18911 0.16851 -0.014585 -0.60295 0.089335 -0.21101 0.23127 0.2736 -0.23774 -0.41248 -0.18474 -0.073386 -0.09537 -0.30994 0.024814 -0.36006 -0.030608 -0.18159 0.26272 0.12208 -0.22397 0.44019 0.16156 0.069824 0.09111 -0.20885 
jugador-cesc_fábregas -0.18427 -0.10271 -0.38727 0.37647 -0.27635 -0.22943 0.032247 -0.30218 -0.40654 -0.071667 0.23737 0.018685 -0.3694 0.16571 -0.19539 0.14776 -0.22876 0.1846 0.0077916 -0.14946 0.065261 -0.2636 0.11878 0.045684 0.17605 0.16319 -0.017694 -0.59008 0.084616 -0.21486 0.22052 0.26479 -0.23731 -0.40633 -0.18281 -0.061554 -0.095241 -0.30698 0.025724 -0.36403 -0.0287 -0.17956 0.26246 0.12034 -0.21653 0.43199 0.15834 0.068945 0.095608 -0.20443 
estoy -0.17851 -0.10102 -0.3884 0.37996 -0.27627 -0.23074 0.029875 -0.29866 -0.40387 -0.072726 0.23423 0.016919 -0.36291 0.16169 -0.19165 0.15394 -0.22622 0.18338 0.006935 -0.15395 0.068079 -0.26998 0.11598 0.053033 0.18216 0.16354 -0.010849 -0.59149 0.092035 -0.20843 0.22341 0.26441 -0.23688 -0.4013 -0.17605 -0.060195 -0.094455 -0.30175 0.028336 -0.35308 -0.028068 -0.1737 0.25951 0.11718 -0.21093 0.42879 0.15943 0.069845 0.095528 -0.20254 
hizo -0.17416 -0.10316 -0.37955 0.371 -0.27064 -0.2283 0.02468 -0.2926 -0.4006 -0.068834 0.23985 0.020642 -0.35836 0.1617 -0.18824 0.15026 -0.22578 0.1794 0.0068226 -0.14841 0.055433 -0.26232 0.11722 0.052401 0.18285 0.16942 -0.0097039 -0.58421 0.085441 -0.20486 0.22569 0.26586 -0.23371 -0.39399 -0.17591 -0.062653 -0.093979 -0.29355 0.028061 -0.35233 -0.023342 -0.16453 0.25486 0.1119 -0.20635 0.43102 0.1559 0.067877 0.09093 -0.20097 
claro -0.17306 -0.09636 -0.37291 0.36562 -0.2663 -0.22285 0.026568 -0.28652 -0.39316 -0.068403 0.23394 0.016866 -0.34769 0.15398 -0.1847 0.15243 -0.2207 0.1776 0.0072409 -0.14709 0.059443 -0.26012 0.11516 0.044507 0.17539 0.15958 -0.0052996 -0.57871 0.084476 -0.20458 0.21961 0.25603 -0.22998 -0.38934 -0.17774 -0.067265 -0.091547 -0.2941 0.024648 -0.34875 -0.025931 -0.16029 0.2502 0.10893 -0.2048 0.41691 0.159 0.067494 0.089544 -0.19443 
tener -0.17132 -0.10571 -0.38674 0.37878 -0.27761 -0.22556 0.024264 -0.29546 -0.40448 -0.075371 0.23561 0.025214 -0.35812 0.16699 -0.18984 0.15139 -0.22417 0.18115 0.0070301 -0.15191 0.067583 -0.26046 0.11691 0.052619 0.18158 0.1621 -0.010667 -0.57908 0.088846 -0.2007 0.21703 0.26446 -0.22932 -0.39852 -0.17631 -0.066347 -0.086034 -0.30135 0.021678 -0.34699 -0.025872 -0.16888 0.25424 0.11493 -0.2173 0.42342 0.16448 0.07101 0.087479 -0.20215 
millones -0.17892 -0.10622 -0.40353 0.39472 -0.29137 -0.2414 0.030375 -0.31655 -0.42438 -0.074153 0.24435 0.01701 -0.37692 0.17475 -0.2005 0.1661 -0.23715 0.19083 0.0092356 -0.15797 0.07121 -0.27446 0.12026 0.049543 0.1871 0.17004 -0.014064 -0.60732 0.098673 -0.21874 0.23341 0.2756 -0.24443 -0.41998 -0.18926 -0.069922 -0.096922 -0.31219 0.031029 -0.37486 -0.032601 -0.1846 0.272 0.12596 -0.22364 0.44287 0.16757 0.078458 0.098521 -0.21234 
jugadores -0.17597 -0.096123 -0.37298 0.36064 -0.2564 -0.21783 0.033145 -0.28979 -0.38603 -0.068816 0.22573 0.014846 -0.35901 0.16112 -0.19181 0.13924 -0.2201 0.17596 0.0074826 -0.14202 0.061762 -0.24999 0.11475 0.041667 0.16273 0.15426 -0.021624 -0.56174 0.07939 -0.20712 0.21146 0.25266 -0.22473 -0.3899 -0.17539 -0.053951 -0.091065 -0.2906 0.023703 -0.35422 -0.029901 -0.1746 0.25513 0.11785 -0.20714 0.42124 0.14739 0.064943 0.093763 -0.19821 
nunca -0.17953 -0.10157 -0.38693 0.3844 -0.28617 -0.23967 0.029956 -0.30334 -0.41646 -0.071243 0.24432 0.024567 -0.36725 0.16538 -0.19767 0.15643 -0.22904 0.18152 0.007324 -0.15777 0.064759 -0.27076 0.11551 0.05146 0.18271 0.16081 -0.0074631 -0.59962 0.096546 -0.20926 0.22446 0.27001 -0.23839 -0.41132 -0.18402 -0.065796 -0.088928 -0.3097 0.030896 -0.35581 -0.03612 -0.17967 0.2707 0.11849 -0.216 0.43085 0.16943 0.071775 0.089607 -0.2047 
soy -0.17179 -0.097828 -0.38087 0.36953 -0.27393 -0.23006 0.029631 -0.29446 -0.39755 -0.073417 0.23264 0.018881 -0.35328 0.16074 -0.18776 0.14739 -0.22749 0.18177 0.0080172 -0.14702 0.068257 -0.26109 0.11049 0.050103 0.17992 0.15435 -0.013164 -0.57725 0.084588 -0.20486 0.22047 0.26257 -0.23086 -0.39406 -0.17703 -0.058561 -0.089318 -0.29765 0.032147 -0.34909 -0.026124 -0.17097 0.25373 0.11474 -0.20764 0.4181 0.15391 0.068633 0.091263 -0.19264 
pierde -0.17804 -0.10458 -0.40131 0.38987 -0.29438 -0.23621 0.027604 -0.31251 -0.4208 -0.075319 0.24609 0.018328 -0.37658 0.17712 -0.19659 0.15892 -0.23386 0.18977 0.0076285 -0.15531 0.068767 -0.27533 0.1208 0.04984 0.18455 0.1731 -0.011074 -0.60868 0.09236 -0.21764 0.2272 0.272 -0.24818 -0.41815 -0.18941 -0.068929 -0.093401 -0.31533 0.024248 -0.367 -0.026069 -0.17907 0.26549 0.12358 -0.22475 0.43898 0.17209 0.072803 0.091246 -0.20971 
gano -0.17149 -0.10204 -0.37445 0.36768 -0.26672 -0.2305 0.028649 -0.28242 -0.39956 -0.066958 0.23258 0.013234 -0.34919 0.16216 -0.18562 0.14716 -0.21987 0.1745 0.011153 -0.14826 0.060287 -0.26453 0.1115 0.048631 0.1742 0.15893 -0.0057085 -0.56676 0.085198 -0.20242 0.22141 0.25729 -0.23555 -0.39269 -0.17917 -0.069222 -0.088629 -0.29102 0.027359 -0.35273 -0.022874 -0.16013 0.25308 0.11194 -0.19869 0.41468 0.15816 0.068823 0.090382 -0.19816 
jugador-dani_carvajal -0.17661 -0.099081 -0.37697 0.36717 -0.26637 -0.22638 0.030279 -0.29765 -0.39131 -0.070973 0.23084 0.017382 -0.35717 0.16119 -0.18921 0.14265 -0.22498 0.17861 0.0070184 -0.14709 0.062146 -0.25484 0.11754 0.044873 0.17328 0.15737 -0.018664 -0.57508 0.081163 -0.20723 0.21444 0.25871 -0.23088 -0.39673 -0.17779 -0.059607 -0.088661 -0.29647 0.024232 -0.35244 -0.027889 -0.17167 0.25639 0.11728 -0.20572 0.41897 0.15319 0.06605 0.093188 -0.1991 
pena -0.15949 -0.09857 -0.36946 0.36599 -0.27129 -0.2212 0.027205 -0.29232 -0.39063 -0.066386 0.22831 0.021228 -0.34618 0.15873 -0.18341 0.15215 -0.21474 0.17675 0.01003 -0.14329 0.066701 -0.26242 0.11123 0.046592 0.17994 0.15068 -0.0098294 -0.5749 0.088468 -0.19606 0.21489 0.26055 -0.22963 -0.39404 -0.17664 -0.067564 -0.087653 -0.2955 0.03237 -0.33788 -0.028037 -0.17256 0.25017 0.11714 -0.20833 0.40735 0.15683 0.074682 0.085127 -0.19152 
eh -0.16505 -0.093824 -0.36458 0.35934 -0.26458 -0.21837 0.020574 -0.28249 -0.3774 -0.072066 0.22354 0.019114 -0.34219 0.16205 -0.17529 0.14176 -0.2114 0.17508 0.0082326 -0.14387 0.056099 -0.25066 0.10711 0.052592 0.17192 0.15212 -0.0082406 -0.5547 0.083365 -0.19307 0.20803 0.25118 -0.2221 -0.38194 -0.16999 -0.061485 -0.085136 -0.28534 0.030025 -0.33196 -0.034043 -0.16257 0.24327 0.10891 -0.19611 0.40238 0.14888 0.069616 0.085119 -0.19006 
visca -0.17313 -0.10124 -0.36981 0.36588 -0.27279 -0.22655 0.02667 -0.29023 -0.39558 -0.072687 0.23141 0.020942 -0.35254 0.15874 -0.18451 0.15068 -0.21847 0.17869 0.0075079 -0.14998 0.066662 -0.25661 0.11436 0.051477 0.17727 0.15523 -0.009942 -0.58207 0.09107 -0.20261 0.21252 0.26281 -0.22646 -0.3949 -0.17352 -0.061055 -0.086903 -0.30003 0.029909 -0.34128 -0.03137 -0.17057 0.2583 0.11835 -0.20465 0.41178 0.15767 0.069953 0.08982 -0.19677 
cosas -0.17438 -0.10095 -0.37651 0.36502 -0.27096 -0.23339 0.029161 -0.28892 -0.39958 -0.069546 0.22492 0.019876 -0.35174 0.16152 -0.18892 0.15121 -0.21972 0.17589 0.0046878 -0.14992 0.060991 -0.26319 0.1086 0.043403 0.17211 0.16316 -0.010191 -0.57167 0.091551 -0.2034 0.22088 0.25368 -0.23093 -0.39504 -0.17433 -0.069614 -0.087969 -0.29552 0.028711 -0.34788 -0.033353 -0.17485 0.25321 0.11492 -0.21399 0.41717 0.15275 0.070947 0.090651 -0.19778 
están -0.17715 -0.10056 -0.3895 0.38449 -0.28334 -0.23353 0.032136 -0.30164 -0.4086 -0.074956 0.23853 0.021235 -0.36383 0.16511 -0.19359 0.15879 -0.22541 0.18598 0.0069204 -0.14849 0.067511 -0.26991 0.11911 0.054316 0.18004 0.16806 -0.012638 -0.59409 0.090873 -0.21133 0.22158 0.26356 -0.23869 -0.40893 -0.18631 -0.06423 -0.087722 -0.30725 0.029971 -0.35733 -0.02538 -0.1749 0.26326 0.11328 -0.21226 0.43219 0.1639 0.069819 0.090363 -0.20252 
jugador-carles_puyol -0.17841 -0.0994 -0.38094 0.36854 -0.26896 -0.22281 0.030634 -0.29683 -0.39414 -0.070098 0.2344 0.017595 -0.3608 0.16143 -0.19244 0.14366 -0.22386 0.17883 0.0079272 -0.14607 0.06183 -0.25696 0.11739 0.047714 0.17328 0.15815 -0.01786 -0.57808 0.082802 -0.21051 0.21556 0.25978 -0.23501 -0.39857 -0.18044 -0.057781 -0.093393 -0.29896 0.024951 -0.35404 -0.026142 -0.17393 0.25908 0.11793 -0.20861 0.42083 0.15263 0.068713 0.093893 -0.20195 
van -0.1744 -0.10131 -0.38515 0.37987 -0.2833 -0.23413 0.033121 -0.30122 -0.41017 -0.074548 0.23279 0.019632 -0.35859 0.17001 -0.19119 0.15761 -0.22147 0.18893 0.0067626 -0.14945 0.069547 -0.27101 0.11671 0.050389 0.18187 0.15559 -0.0071277 -0.58808 0.0871 -0.21138 0.21902 0.25878 -0.23884 -0.39982 -0.18483 -0.066321 -0.087795 -0.30771 0.031022 -0.35633 -0.024556 -0.17034 0.26373 0.12225 -0.21279 0.42396 0.16269 0.070751 0.088993 -0.20297 
buen -0.17284 -0.10299 -0.3939 0.38852 -0.28555 -0.2349 0.026266 -0.30429 -0.41019 -0.072068 0.24281 0.022795 -0.36113 0.16953 -0.19606 0.1573 -0.22437 0.18882 0.0071825 -0.15192 0.068836 -0.26756 0.11769 0.045435 0.1843 0.16621 -0.0086858 -0.60387 0.089154 -0.20887 0.22638 0.26897 -0.24316 -0.40651 -0.19083 -0.067895 -0.090447 -0.31229 0.032189 -0.3569 -0.026549 -0.17712 0.26777 0.12329 -0.2183 0.43093 0.1623 0.072684 0.09428 -0.20337 
grandes -0.16806 -0.098957 -0.38951 0.38061 -0.27517 -0.23763 0.028183 -0.30072 -0.40658 -0.070121 0.23445 0.014358 -0.36202 0.16862 -0.18837 0.16064 -0.2217 0.17991 0.010169 -0.1539 0.074917 -0.26617 0.11886 0.045465 0.17924 0.16592 -0.013396 -0.58176 0.096158 -0.21019 0.22552 0.26366 -0.23486 -0.40825 -0.1829 -0.06535 -0.093261 -0.29909 0.030277 -0.36468 -0.029282 -0.17798 0.26597 0.12074 -0.21197 0.42684 0.15918 0.08044 0.092568 -0.20139 
cojones -0.16818 -0.09695 -0.38435 0.37349 -0.27477 -0.23335 0.033247 -0.29607 -0.40177 -0.07483 0.23194 0.020435 -0.35603 0.16275 -0.18724 0.15613 -0.22688 0.17985 0.0059766 -0.1489 0.067922 -0.26644 0.11429 0.046908 0.17222 0.16004 -0.011928 -0.57734 0.091791 -0.20864 0.21856 0.26452 -0.22938 -0.39668 -0.17885 -0.067158 -0.089587 -0.29504 0.030047 -0.35476 -0.03586 -0.1784 0.2587 0.11796 -0.2127 0.42283 0.16211 0.07168 0.096829 -0.20007 
único -0.17043 -0.10414 -0.3845 0.371 -0.27255 -0.23242 0.028505 -0.29214 -0.40089 -0.068865 0.2416 0.018926 -0.36509 0.15727 -0.19225 0.1532 -0.22461 0.17873 0.011697 -0.14638 0.056194 -0.26485 0.12019 0.05057 0.17823 0.16744 -0.01336 -0.59339 0.084297 -0.20921 0.22645 0.2607 -0.23628 -0.39988 -0.17701 -0.067664 -0.094988 -0.29978 0.028767 -0.35652 -0.021385 -0.16483 0.25969 0.10717 -0.21281 0.43065 0.16111 0.069876 0.092225 -0.2018 
ganamos -0.16829 -0.097369 -0.37227 0.35969 -0.27243 -0.22798 0.030148 -0.28703 -0.39555 -0.069578 0.2271 0.019885 -0.34684 0.16367 -0.18511 0.153 -0.21726 0.17348 0.010479 -0.14501 0.064201 -0.26079 0.10808 0.045416 0.17405 0.15845 -0.0073938 -0.55832 0.088139 -0.20095 0.21462 0.25649 -0.22462 -0.39742 -0.17382 -0.062761 -0.088117 -0.29248 0.025163 -0.34398 -0.028816 -0.17035 0.25243 0.11588 -0.20787 0.40567 0.15446 0.074124 0.08842 -0.19557 
puto -0.1708 -0.1041 -0.38461 0.37433 -0.27217 -0.23145 0.026658 -0.29763 -0.4045 -0.069595 0.23932 0.01178 -0.35835 0.16289 -0.18463 0.15293 -0.22423 0.18139 0.0083162 -0.14917 0.06023 -0.25908 0.11325 0.048801 0.1786 0.16701 -0.013403 -0.58864 0.085833 -0.20643 0.225 0.26592 -0.23408 -0.3981 -0.1797 -0.064487 -0.088547 -0.29762 0.030109 -0.35213 -0.015552 -0.16985 0.25398 0.11629 -0.21427 0.43 0.16436 0.069369 0.097955 -0.19927 
tira -0.16798 -0.098343 -0.37811 0.36664 -0.26913 -0.22303 0.024835 -0.29863 -0.39675 -0.070941 0.2292 0.024766 -0.34932 0.15944 -0.18833 0.15036 -0.2195 0.18582 0.0053308 -0.14988 0.063778 -0.25868 0.12088 0.050464 0.17582 0.16207 -0.015141 -0.57797 0.09587 -0.20781 0.21178 0.26474 -0.22382 -0.39413 -0.17415 -0.063124 -0.085871 -0.3014 0.025601 -0.34125 -0.033048 -0.16821 0.25167 0.12078 -0.20762 0.41055 0.16131 0.06852 0.084364 -0.20268 
viva -0.16432 -0.097342 -0.37443 0.36613 -0.27034 -0.2209 0.03193 -0.29916 -0.39011 -0.069093 0.23062 0.023615 -0.34293 0.16284 -0.18787 0.15057 -0.21509 0.18197 0.0068207 -0.15043 0.064192 -0.25743 0.11205 0.049519 0.17646 0.15504 -0.01281 -0.57613 0.088407 -0.20242 0.2109 0.26215 -0.22664 -0.39644 -0.1759 -0.061513 -0.083929 -0.29953 0.0283 -0.33692 -0.026635 -0.17025 0.25612 0.12366 -0.21025 0.40798 0.16304 0.071652 0.08182 -0.19795 
sí -0.16437 -0.098698 -0.37023 0.35907 -0.27048 -0.2236 0.026134 -0.28195 -0.39769 -0.070406 0.22166 0.019166 -0.34993 0.15543 -0.18369 0.14323 -0.21817 0.17894 0.0061235 -0.15041 0.057634 -0.25413 0.11047 0.047509 0.17395 0.14862 -0.013968 -0.56178 0.08923 -0.20189 0.21101 0.25492 -0.22507 -0.38685 -0.17428 -0.058206 -0.084224 -0.29117 0.02695 -0.34128 -0.025944 -0.16128 0.25209 0.10978 -0.20908 0.4115 0.15344 0.064279 0.086739 -0.19974 
hemos -0.16418 -0.098185 -0.37634 0.36152 -0.27468 -0.22913 0.027835 -0.29601 -0.39949 -0.075629 0.23126 0.018396 -0.35378 0.16097 -0.18253 0.15609 -0.22406 0.17911 0.014421 -0.14503 0.067808 -0.26552 0.10822 0.044895 0.17658 0.15764 -0.010995 -0.5664 0.092188 -0.20297 0.21319 0.25478 -0.2247 -0.40313 -0.17416 -0.059974 -0.094221 -0.29681 0.023329 -0.35013 -0.032266 -0.17184 0.25646 0.11585 -0.21152 0.41429 0.15889 0.072597 0.089345 -0.20018 
haber -0.16549 -0.097711 -0.38069 0.36636 -0.2663 -0.2219 0.020406 -0.28559 -0.39716 -0.073222 0.2286 0.023105 -0.35076 0.16742 -0.18194 0.15175 -0.22113 0.17822 0.013875 -0.14928 0.066279 -0.25522 0.11413 0.050339 0.1768 0.15778 -0.0062946 -0.57398 0.091723 -0.20371 0.21683 0.26004 -0.22594 -0.39089 -0.17733 -0.063724 -0.092142 -0.29183 0.026594 -0.33865 -0.023371 -0.16775 0.25145 0.11127 -0.20376 0.42148 0.15723 0.066343 0.085615 -0.19638 
jugador-pepe -0.19242 -0.10686 -0.40673 0.39646 -0.2878 -0.24046 0.034174 -0.32061 -0.42551 -0.076733 0.25235 0.0177 -0.39106 0.17651 -0.20722 0.15191 -0.24176 0.19016 0.010345 -0.15432 0.06715 -0.27242 0.13017 0.050551 0.18529 0.17066 -0.022056 -0.61975 0.085778 -0.22991 0.23147 0.27884 -0.25094 -0.42974 -0.1923 -0.06198 -0.099893 -0.32139 0.024106 -0.3897 -0.031402 -0.18798 0.27768 0.12658 -0.2233 0.45713 0.16542 0.071681 0.10177 -0.21806 
vale -0.17662 -0.09858 -0.38818 0.37144 -0.27696 -0.2262 0.032474 -0.30025 -0.40117 -0.075038 0.23424 0.017964 -0.36374 0.16769 -0.19255 0.15696 -0.22699 0.18619 0.010332 -0.14973 0.066023 -0.25972 0.1142 0.05065 0.17947 0.16197 -0.0067281 -0.57997 0.081578 -0.20781 0.22235 0.25791 -0.23297 -0.40593 -0.17651 -0.060709 -0.088809 -0.29537 0.022189 -0.35391 -0.025211 -0.16903 0.25369 0.11475 -0.21712 0.41573 0.16497 0.069852 0.088207 -0.20077 
muerte -0.17228 -0.104 -0.38331 0.38189 -0.2806 -0.23361 0.030871 -0.30204 -0.40809 -0.07452 0.24192 0.027313 -0.36162 0.1684 -0.1917 0.15742 -0.22759 0.18548 0.0043629 -0.15228 0.065248 -0.26688 0.11955 0.04957 0.17656 0.15903 -0.0072349 -0.5895 0.088659 -0.21231 0.22014 0.26474 -0.23279 -0.40656 -0.18159 -0.059796 -0.089303 -0.30289 0.021116 -0.35431 -0.028123 -0.17258 0.26443 0.11628 -0.20809 0.42871 0.16617 0.065264 0.088331 -0.2078 
jugador-alexis_sánchez -0.17694 -0.098907 -0.38012 0.36977 -0.26836 -0.22695 0.031709 -0.29538 -0.39587 -0.070117 0.23369 0.017123 -0.35811 0.16268 -0.19174 0.14585 -0.22368 0.18093 0.0082789 -0.14463 0.062535 -0.25559 0.11628 0.047699 0.17222 0.15972 -0.018075 -0.57542 0.08345 -0.20605 0.21619 0.25736 -0.2324 -0.3958 -0.17717 -0.060836 -0.09156 -0.30037 0.026484 -0.35539 -0.027955 -0.17233 0.25612 0.11759 -0.20693 0.41862 0.15283 0.067737 0.092971 -0.19853 
sólo -0.17471 -0.10428 -0.39455 0.38124 -0.28326 -0.2287 0.023845 -0.30242 -0.41706 -0.072281 0.24525 0.021682 -0.37298 0.16345 -0.1961 0.1486 -0.2325 0.18208 0.0082314 -0.15268 0.063051 -0.26779 0.12025 0.051 0.18389 0.17035 -0.0091355 -0.60078 0.087867 -0.21458 0.23063 0.26763 -0.24219 -0.40826 -0.18223 -0.068809 -0.091735 -0.30851 0.031678 -0.36065 -0.021997 -0.16344 0.26194 0.11432 -0.21773 0.4421 0.16598 0.071848 0.090357 -0.20437 
ganó -0.17342 -0.10196 -0.38668 0.36822 -0.27512 -0.23058 0.028942 -0.29135 -0.40507 -0.071603 0.23261 0.017189 -0.35544 0.16468 -0.18897 0.14994 -0.21943 0.17624 0.01059 -0.15403 0.059971 -0.27319 0.11346 0.051337 0.18113 0.15957 -0.0068466 -0.57865 0.08882 -0.20469 0.21858 0.26048 -0.23562 -0.40292 -0.18244 -0.066296 -0.087519 -0.29878 0.031477 -0.35023 -0.029687 -0.17196 0.25909 0.11651 -0.20906 0.42028 0.15572 0.071754 0.089781 -0.20183 
será -0.1743 -0.10784 -0.39023 0.38481 -0.28444 -0.2333 0.025339 -0.30228 -0.41441 -0.068666 0.24202 0.021167 -0.3692 0.17112 -0.19388 0.15463 -0.23562 0.18595 0.0076065 -0.15388 0.063542 -0.27189 0.11759 0.04741 0.18021 0.15791 -0.01517 -0.6022 0.092093 -0.21485 0.22447 0.26947 -0.24069 -0.41334 -0.18733 -0.066432 -0.090353 -0.30906 0.029044 -0.35619 -0.027463 -0.17971 0.26855 0.12035 -0.21255 0.43321 0.16177 0.068414 0.089007 -0.20625 
momento -0.17782 -0.10341 -0.38978 0.37925 -0.27559 -0.23104 0.029737 -0.29751 -0.40765 -0.070019 0.24169 0.017463 -0.36553 0.16513 -0.19079 0.15142 -0.22636 0.18342 0.0030314 -0.15348 0.064653 -0.26653 0.11886 0.050517 0.17544 0.17011 -0.01319 -0.59496 0.092294 -0.21184 0.22792 0.26871 -0.23566 -0.40555 -0.18351 -0.067628 -0.091638 -0.29782 0.03183 -0.35837 -0.025151 -0.1693 0.26037 0.11517 -0.21582 0.43381 0.16218 0.071629 0.096243 -0.20643 
dar -0.15751 -0.095779 -0.36836 0.35383 -0.25848 -0.22196 0.022927 -0.27522 -0.38433 -0.071681 0.21965 0.024546 -0.34037 0.16315 -0.17904 0.14626 -0.21596 0.16798 0.0081639 -0.14294 0.06731 -0.25113 0.11045 0.04222 0.17562 0.15356 -0.0079607 -0.55485 0.084997 -0.19134 0.20713 0.25069 -0.22722 -0.37473 -0.16824 -0.060719 -0.088943 -0.2882 0.026892 -0.32348 -0.027827 -0.15971 0.24335 0.10472 -0.19916 0.39859 0.15656 0.064746 0.086258 -0.18754 
ah -0.16559 -0.096651 -0.38084 0.35869 -0.26835 -0.21989 0.024886 -0.28502 -0.39163 -0.060975 0.2263 0.021697 -0.34291 0.16449 -0.17476 0.14871 -0.21532 0.17217 0.0089589 -0.14776 0.061961 -0.25874 0.10882 0.053579 0.17321 0.16141 -0.0077411 -0.56883 0.09021 -0.19789 0.21334 0.25551 -0.22563 -0.38778 -0.1728 -0.06017 -0.081513 -0.28561 0.026606 -0.34328 -0.02525 -0.16796 0.25494 0.11535 -0.21038 0.41432 0.15701 0.071535 0.087369 -0.19345 
sos -0.17707 -0.10324 -0.40237 0.38477 -0.29643 -0.24795 0.032851 -0.31297 -0.42598 -0.076935 0.24668 0.017775 -0.3806 0.16863 -0.19597 0.1636 -0.24163 0.19355 0.01394 -0.15711 0.073774 -0.27585 0.1156 0.048249 0.19021 0.16244 -0.0094649 -0.60257 0.099381 -0.21641 0.22701 0.27344 -0.2417 -0.42555 -0.18556 -0.065965 -0.096576 -0.32158 0.027126 -0.36783 -0.033854 -0.18524 0.27171 0.12072 -0.23145 0.44554 0.16286 0.075586 0.095747 -0.21404 
goles -0.17616 -0.0964 -0.39456 0.37663 -0.27263 -0.2368 0.029239 -0.30152 -0.41102 -0.074057 0.23769 0.013156 -0.36733 0.17287 -0.19276 0.15802 -0.22562 0.18031 0.01126 -0.15246 0.070174 -0.2727 0.11678 0.047294 0.1762 0.16923 -0.013484 -0.58664 0.097553 -0.21086 0.21872 0.26744 -0.23544 -0.40477 -0.18166 -0.068455 -0.096314 -0.29837 0.024416 -0.36726 -0.033293 -0.17397 0.2671 0.12514 -0.22021 0.42984 0.1611 0.07561 0.091987 -0.20457 
buscando -0.16998 -0.10256 -0.39132 0.37878 -0.27901 -0.22701 0.026461 -0.29594 -0.40443 -0.074097 0.2405 0.019661 -0.35899 0.16409 -0.18481 0.15023 -0.22574 0.18174 0.012587 -0.14997 0.061691 -0.26779 0.11822 0.051425 0.17778 0.16675 -0.008948 -0.59404 0.086581 -0.20804 0.22733 0.26715 -0.23277 -0.39783 -0.17918 -0.065142 -0.093235 -0.29706 0.026871 -0.3549 -0.024418 -0.16904 0.25574 0.1145 -0.21099 0.43432 0.1611 0.070662 0.094643 -0.20156 
i -0.16718 -0.093521 -0.35219 0.35388 -0.25993 -0.20681 0.026533 -0.27891 -0.37855 -0.069584 0.22 0.017731 -0.34374 0.14833 -0.17594 0.13591 -0.21143 0.17523 0.010155 -0.14665 0.059313 -0.24983 0.11167 0.04584 0.15875 0.14413 -0.0099862 -0.54436 0.08559 -0.20007 0.20395 0.25139 -0.21855 -0.37497 -0.16622 -0.057914 -0.087286 -0.28351 0.024953 -0.33302 -0.02221 -0.16452 0.24402 0.10828 -0.18901 0.40088 0.14661 0.066692 0.089174 -0.19101 
estan -0.16706 -0.097043 -0.37373 0.37134 -0.27069 -0.22921 0.032475 -0.28829 -0.39288 -0.071224 0.22401 0.01977 -0.345 0.155 -0.18447 0.14898 -0.21024 0.17954 0.0033585 -0.14504 0.06231 -0.26045 0.11406 0.048298 0.1705 0.15651 -0.009335 -0.56266 0.086506 -0.20188 0.21048 0.25463 -0.23422 -0.3846 -0.1771 -0.064096 -0.089374 -0.29543 0.031186 -0.34175 -0.02886 -0.16979 0.25281 0.11363 -0.20221 0.40839 0.15339 0.066154 0.088934 -0.19484 
jugó -0.18641 -0.10485 -0.39053 0.3837 -0.27672 -0.22762 0.028908 -0.30232 -0.40985 -0.073328 0.24073 0.023729 -0.36753 0.16159 -0.19616 0.15302 -0.22509 0.1861 0.00296 -0.15346 0.065258 -0.25997 0.12263 0.042553 0.17793 0.15907 -0.013971 -0.59569 0.085765 -0.21304 0.2201 0.26279 -0.24167 -0.40808 -0.18275 -0.0654 -0.094809 -0.30861 0.030126 -0.36253 -0.027916 -0.17604 0.26277 0.11194 -0.21186 0.43522 0.15988 0.069505 0.10081 -0.20736 
lleva -0.16671 -0.098573 -0.37115 0.3677 -0.26991 -0.22047 0.030212 -0.29989 -0.39172 -0.065993 0.23567 0.018883 -0.34508 0.16052 -0.1879 0.14841 -0.22264 0.17502 0.0077671 -0.14853 0.0607 -0.25181 0.11098 0.046085 0.1744 0.1595 -0.014076 -0.57454 0.088978 -0.20889 0.20864 0.25473 -0.22754 -0.39297 -0.17133 -0.06553 -0.083529 -0.29303 0.029212 -0.33933 -0.027308 -0.16939 0.24732 0.11733 -0.20545 0.40405 0.15765 0.069072 0.086205 -0.20049 
real -0.17583 -0.10211 -0.39223 0.38037 -0.28117 -0.23458 0.027677 -0.30149 -0.40891 -0.077699 0.24045 0.018494 -0.36384 0.16601 -0.1869 0.15421 -0.22348 0.18777 0.0087226 -0.14942 0.067008 -0.26426 0.11631 0.04843 0.17789 0.16052 -0.01257 -0.59492 0.090038 -0.2135 0.22669 0.26862 -0.2382 -0.40812 -0.18484 -0.065418 -0.089876 -0.30176 0.027925 -0.36044 -0.032399 -0.17879 0.26101 0.122 -0.21206 0.43157 0.16809 0.073471 0.087787 -0.20508 
dado -0.16615 -0.10048 -0.37725 0.36172 -0.26687 -0.22904 0.022839 -0.28581 -0.3987 -0.069799 0.22916 0.015191 -0.3497 0.15788 -0.18324 0.14715 -0.22071 0.17448 0.0070407 -0.14405 0.055345 -0.25831 0.11288 0.044539 0.17052 0.16206 -0.009288 -0.57349 0.078161 -0.20267 0.22137 0.25617 -0.22899 -0.3847 -0.1744 -0.065778 -0.090165 -0.28783 0.029233 -0.34747 -0.01071 -0.15933 0.25101 0.10624 -0.19949 0.42442 0.1553 0.067832 0.092321 -0.19405 
mestalla -0.17019 -0.099897 -0.37496 0.37192 -0.27584 -0.2294 0.031033 -0.29077 -0.39689 -0.071651 0.22999 0.022744 -0.34968 0.16501 -0.18468 0.15279 -0.22337 0.18064 0.0074247 -0.14975 0.06458 -0.26212 0.11322 0.046643 0.17755 0.15632 -0.013665 -0.57825 0.090491 -0.2066 0.21393 0.26392 -0.23019 -0.39954 -0.17742 -0.061705 -0.087302 -0.2975 0.030808 -0.34607 -0.028266 -0.17196 0.25699 0.11538 -0.20906 0.41316 0.15851 0.074512 0.090576 -0.19796 
vida -0.16895 -0.10255 -0.37938 0.37229 -0.27882 -0.23272 0.026764 -0.29598 -0.39766 -0.072256 0.24122 0.024529 -0.36203 0.16013 -0.19194 0.15527 -0.22331 0.18253 0.0048626 -0.15051 0.065473 -0.26798 0.11763 0.047894 0.18183 0.15628 -0.012502 -0.59238 0.090098 -0.20273 0.2155 0.26785 -0.2307 -0.40632 -0.17766 -0.05912 -0.088921 -0.30205 0.023094 -0.34235 -0.032442 -0.17576 0.26156 0.11572 -0.20942 0.417 0.16442 0.072858 0.092457 -0.20209 
derrota -0.17319 -0.10104 -0.39495 0.38784 -0.28944 -0.2382 0.031729 -0.31089 -0.4203 -0.072123 0.24631 0.016718 -0.36953 0.17268 -0.19639 0.16009 -0.23235 0.18756 0.0085055 -0.1538 0.069015 -0.27159 0.12127 0.045959 0.18679 0.16994 -0.011297 -0.6069 0.097109 -0.21454 0.22449 0.27363 -0.24407 -0.41918 -0.18827 -0.070994 -0.092938 -0.31218 0.032922 -0.36103 -0.031569 -0.18032 0.2709 0.12463 -0.21808 0.43633 0.16762 0.074595 0.096803 -0.21053 
perdió -0.17708 -0.10481 -0.39797 0.38513 -0.283 -0.23693 0.026108 -0.30436 -0.41382 -0.07693 0.23966 0.019091 -0.37177 0.17021 -0.19372 0.15681 -0.22956 0.18453 0.0077819 -0.15768 0.06703 -0.27368 0.11969 0.046617 0.18717 0.16858 -0.013826 -0.60213 0.090235 -0.20852 0.23219 0.27271 -0.2436 -0.41089 -0.18312 -0.072177 -0.096613 -0.3039 0.02421 -0.36278 -0.024605 -0.17566 0.26399 0.12178 -0.21478 0.43693 0.16487 0.072948 0.094168 -0.20762 
cierto -0.18069 -0.10163 -0.39593 0.3804 -0.27573 -0.23531 0.030188 -0.304 -0.41651 -0.070707 0.24685 0.016988 -0.37065 0.16361 -0.19622 0.15644 -0.23094 0.18717 0.0032279 -0.15488 0.064282 -0.27055 0.12105 0.053119 0.18018 0.16392 -0.010211 -0.60886 0.093101 -0.21318 0.22422 0.27394 -0.23574 -0.40654 -0.1838 -0.065931 -0.088555 -0.30267 0.026721 -0.36295 -0.024062 -0.17388 0.2599 0.11664 -0.21589 0.44071 0.16479 0.073078 0.098051 -0.20741 
espero -0.17143 -0.1033 -0.37978 0.369 -0.27402 -0.23094 0.025014 -0.28843 -0.39841 -0.074372 0.23259 0.022174 -0.35319 0.15785 -0.18375 0.14895 -0.22259 0.18179 0.009177 -0.14421 0.059796 -0.26342 0.11511 0.050978 0.17776 0.1583 -0.0073839 -0.5795 0.088775 -0.20614 0.22204 0.25873 -0.22948 -0.39306 -0.17755 -0.067354 -0.091899 -0.29697 0.031151 -0.3474 -0.025519 -0.16814 0.25143 0.1154 -0.20971 0.41799 0.16089 0.065196 0.093993 -0.1923 
dice -0.1677 -0.092495 -0.37697 0.3602 -0.27175 -0.22795 0.025666 -0.29393 -0.3902 -0.072124 0.22918 0.01574 -0.35058 0.16282 -0.18304 0.149 -0.22216 0.17461 0.011904 -0.14118 0.059813 -0.25766 0.1137 0.039763 0.17111 0.15245 -0.0093051 -0.56852 0.088823 -0.21377 0.21099 0.25754 -0.23499 -0.39473 -0.17678 -0.05699 -0.084506 -0.29128 0.02607 -0.3492 -0.034089 -0.16658 0.25012 0.11427 -0.20725 0.41057 0.15158 0.061463 0.089629 -0.19511 
haya -0.16093 -0.099271 -0.36832 0.36073 -0.26656 -0.21914 0.023808 -0.28808 -0.39244 -0.0693 0.23022 0.023159 -0.34203 0.16347 -0.18242 0.15135 -0.21776 0.17516 0.010908 -0.14487 0.067812 -0.25405 0.11714 0.050228 0.1757 0.15434 -0.010037 -0.5716 0.088905 -0.20086 0.20802 0.25697 -0.22222 -0.39376 -0.17649 -0.054458 -0.088128 -0.29638 0.029046 -0.33953 -0.031322 -0.17272 0.25318 0.11717 -0.20312 0.40673 0.15906 0.069406 0.086812 -0.1976 
caiga -0.17162 -0.10425 -0.37631 0.37247 -0.27308 -0.22589 0.026703 -0.2951 -0.40379 -0.070409 0.23294 0.021954 -0.35565 0.16424 -0.18605 0.15081 -0.22385 0.18219 0.0048 -0.14469 0.062312 -0.26658 0.1143 0.049803 0.17913 0.15894 -0.014263 -0.5824 0.091278 -0.19991 0.21812 0.26235 -0.22383 -0.40416 -0.17472 -0.064344 -0.088265 -0.30224 0.025201 -0.34195 -0.031152 -0.17508 0.25959 0.12089 -0.20996 0.41648 0.16791 0.074577 0.08633 -0.20002 
contra -0.17774 -0.10586 -0.3973 0.39592 -0.28905 -0.24116 0.031174 -0.31194 -0.42167 -0.072878 0.246 0.027757 -0.37024 0.17042 -0.19472 0.16067 -0.23519 0.19156 0.0038819 -0.15833 0.069391 -0.27643 0.12221 0.053622 0.19053 0.16987 -0.014832 -0.61137 0.092841 -0.22046 0.23122 0.27677 -0.24396 -0.42076 -0.18876 -0.065218 -0.093316 -0.31515 0.0306 -0.36183 -0.031504 -0.18439 0.26834 0.12636 -0.21657 0.43897 0.17165 0.076825 0.092808 -0.21316 
himno -0.17631 -0.10233 -0.39081 0.38842 -0.28453 -0.24385 0.02726 -0.30594 -0.41461 -0.071403 0.24715 0.018079 -0.36519 0.1707 -0.19971 0.14972 -0.2358 0.18488 0.0084105 -0.15307 0.064247 -0.27361 0.12336 0.05401 0.18653 0.16924 -0.010794 -0.60341 0.09052 -0.21441 0.23184 0.27474 -0.24657 -0.41455 -0.18892 -0.065209 -0.093244 -0.3123 0.03212 -0.36114 -0.02255 -0.17091 0.26726 0.12602 -0.20892 0.44164 0.16916 0.07448 0.090834 -0.20623 
quedo -0.17496 -0.10314 -0.39019 0.37061 -0.27424 -0.22721 0.023705 -0.29289 -0.40692 -0.071729 0.23831 0.0176 -0.36098 0.15924 -0.18889 0.14726 -0.22374 0.18132 0.005779 -0.15059 0.060215 -0.26911 0.11511 0.048367 0.17846 0.1632 -0.0093442 -0.58926 0.087683 -0.20709 0.22591 0.26548 -0.23851 -0.39588 -0.18113 -0.068384 -0.091352 -0.29675 0.02635 -0.34953 -0.0207 -0.16791 0.25722 0.11501 -0.20602 0.43558 0.15791 0.074164 0.093794 -0.19641 
primer -0.17146 -0.10315 -0.39337 0.38175 -0.2774 -0.23114 0.026393 -0.30152 -0.41052 -0.073603 0.23969 0.021537 -0.36752 0.17538 -0.19219 0.1622 -0.2289 0.18406 0.012714 -0.15127 0.067376 -0.26574 0.11578 0.050942 0.18271 0.16739 -0.0090196 -0.59278 0.093153 -0.2077 0.22534 0.27269 -0.23792 -0.4112 -0.18348 -0.066342 -0.08845 -0.30396 0.02679 -0.35517 -0.023613 -0.17675 0.25871 0.12258 -0.218 0.43525 0.1694 0.068044 0.090812 -0.20429 
jugar -0.16596 -0.094952 -0.35655 0.34804 -0.24808 -0.2101 0.026278 -0.27386 -0.36944 -0.064244 0.21948 0.017966 -0.33931 0.15526 -0.18168 0.13156 -0.21202 0.16319 0.010642 -0.13709 0.061857 -0.24104 0.11275 0.037772 0.16545 0.14994 -0.019814 -0.54757 0.076542 -0.1931 0.20373 0.24509 -0.21926 -0.37 -0.16625 -0.057533 -0.089027 -0.28452 0.023912 -0.33213 -0.029062 -0.16464 0.24413 0.10575 -0.19465 0.40062 0.14187 0.06313 0.08973 -0.19173 
he -0.16718 -0.1019 -0.38116 0.37581 -0.27846 -0.23302 0.027358 -0.30033 -0.4018 -0.076254 0.23257 0.022741 -0.36278 0.17602 -0.18832 0.15065 -0.22829 0.18045 0.01224 -0.14419 0.066403 -0.26361 0.11662 0.049316 0.17726 0.15719 -0.006308 -0.58212 0.094061 -0.20543 0.21224 0.25604 -0.23924 -0.4027 -0.18231 -0.059202 -0.091125 -0.30527 0.029262 -0.35265 -0.026784 -0.16867 0.26458 0.11834 -0.21126 0.42002 0.16088 0.065649 0.086514 -0.20707 
hijo -0.17904 -0.1069 -0.38885 0.3752 -0.27371 -0.23367 0.025558 -0.29442 -0.40951 -0.074974 0.23981 0.015695 -0.36337 0.16248 -0.19434 0.15175 -0.22822 0.18062 0.0073875 -0.15488 0.05972 -0.26592 0.12092 0.051443 0.18143 0.16547 -0.0091759 -0.59036 0.090907 -0.21122 0.22937 0.2669 -0.23837 -0.40391 -0.18392 -0.064391 -0.092858 -0.30036 0.028438 -0.35954 -0.025953 -0.17087 0.25909 0.1144 -0.20888 0.43315 0.15886 0.070976 0.092371 -0.2002 
debe -0.17158 -0.095296 -0.37553 0.36808 -0.27102 -0.22811 0.023021 -0.29814 -0.39506 -0.068823 0.23532 0.015173 -0.35332 0.16588 -0.188 0.14934 -0.22355 0.17631 0.0051334 -0.14316 0.065535 -0.24959 0.11653 0.04686 0.17785 0.15885 -0.0093262 -0.57342 0.08459 -0.20906 0.21487 0.25124 -0.23582 -0.39414 -0.17883 -0.063366 -0.084284 -0.29239 0.029036 -0.34733 -0.030607 -0.17512 0.25695 0.11633 -0.20134 0.41315 0.16174 0.066777 0.090783 -0.20101 
jugador-andrés_iniesta -0.17462 -0.099162 -0.37483 0.36331 -0.26595 -0.22521 0.031996 -0.29265 -0.39117 -0.069262 0.23076 0.019687 -0.35494 0.16177 -0.19114 0.14465 -0.22477 0.18014 0.0078561 -0.14453 0.062148 -0.25378 0.11802 0.047778 0.17259 0.15597 -0.017473 -0.57051 0.082965 -0.20755 0.21372 0.25578 -0.22933 -0.39571 -0.17664 -0.057134 -0.090209 -0.29404 0.022696 -0.34945 -0.030173 -0.17332 0.25451 0.11687 -0.20425 0.41859 0.15127 0.066492 0.092425 -0.19811 
dios -0.17167 -0.091004 -0.37559 0.35678 -0.26842 -0.22764 0.027377 -0.29173 -0.39536 -0.073133 0.22914 0.014595 -0.35134 0.16722 -0.18244 0.15409 -0.2198 0.17701 0.008833 -0.14339 0.066694 -0.25618 0.11069 0.043659 0.17482 0.15733 -0.014405 -0.56058 0.090008 -0.20022 0.20982 0.2527 -0.22805 -0.39616 -0.17145 -0.063202 -0.091353 -0.29258 0.020665 -0.34523 -0.033562 -0.17366 0.25275 0.11313 -0.21216 0.40795 0.15112 0.071692 0.092942 -0.19556 
merecido -0.16657 -0.10049 -0.37785 0.36253 -0.26921 -0.22523 0.024422 -0.27969 -0.391 -0.072265 0.23034 0.018898 -0.34389 0.15549 -0.18289 0.14488 -0.21717 0.17544 0.0067035 -0.14396 0.060268 -0.25978 0.11493 0.045103 0.17066 0.16072 -0.012173 -0.56964 0.083271 -0.20008 0.21297 0.25743 -0.22602 -0.38075 -0.1686 -0.064674 -0.088962 -0.2868 0.026548 -0.34419 -0.02274 -0.15823 0.25044 0.10961 -0.19864 0.4193 0.15731 0.069611 0.095114 -0.19434 
correr -0.17 -0.1022 -0.38739 0.37901 -0.28131 -0.23309 0.027728 -0.29985 -0.41222 -0.074279 0.24411 0.023223 -0.36562 0.16746 -0.19026 0.1574 -0.23307 0.18108 0.0094301 -0.15246 0.064013 -0.26943 0.11541 0.051605 0.18503 0.16651 -0.011678 -0.59634 0.087828 -0.20662 0.22182 0.2703 -0.23385 -0.40439 -0.18371 -0.061892 -0.08882 -0.30104 0.025317 -0.35553 -0.033589 -0.17402 0.26501 0.11799 -0.20845 0.43107 0.16366 0.069704 0.090015 -0.20208 
tirar -0.16251 -0.098091 -0.37786 0.36186 -0.26606 -0.21786 0.016342 -0.28331 -0.3914 -0.072984 0.2249 0.023979 -0.3492 0.16077 -0.18247 0.147 -0.21768 0.18059 0.0051356 -0.14628 0.063559 -0.25795 0.11598 0.047619 0.17949 0.15935 -0.010973 -0.57006 0.088755 -0.19529 0.21343 0.2581 -0.22719 -0.38126 -0.16813 -0.063359 -0.086258 -0.29261 0.023932 -0.33291 -0.033478 -0.16257 0.247 0.112 -0.20753 0.40715 0.15891 0.069044 0.084122 -0.19432 
perdido -0.18057 -0.10432 -0.40409 0.38628 -0.28579 -0.23918 0.026604 -0.3021 -0.41925 -0.079368 0.24599 0.016618 -0.37301 0.17174 -0.19661 0.15845 -0.23055 0.18604 0.007124 -0.15535 0.064664 -0.27729 0.12315 0.047567 0.18439 0.16799 -0.01168 -0.61213 0.089259 -0.21167 0.23794 0.27443 -0.24279 -0.41095 -0.18451 -0.073915 -0.097744 -0.30471 0.025938 -0.36948 -0.018567 -0.17166 0.26559 0.11889 -0.21663 0.44742 0.16422 0.078031 0.099982 -0.20826 
toda -0.17752 -0.10387 -0.38435 0.37813 -0.28619 -0.23379 0.031013 -0.30315 -0.40959 -0.07474 0.244 0.025196 -0.36071 0.16877 -0.19983 0.15972 -0.22516 0.18348 0.0020597 -0.15474 0.067248 -0.26608 0.12522 0.053635 0.1899 0.16806 -0.017095 -0.5944 0.091075 -0.20704 0.22486 0.26949 -0.23449 -0.41009 -0.18458 -0.061813 -0.089714 -0.31142 0.029802 -0.35339 -0.039107 -0.17795 0.26229 0.12364 -0.21618 0.42671 0.16648 0.076652 0.093258 -0.20607 
cuidado -0.17551 -0.10694 -0.38828 0.37702 -0.27968 -0.23602 0.025901 -0.29636 -0.41076 -0.075342 0.23861 0.017603 -0.36434 0.16444 -0.19037 0.15547 -0.23193 0.18413 0.0066811 -0.15221 0.060949 -0.26806 0.12075 0.047597 0.17618 0.16264 -0.011382 -0.59918 0.082974 -0.20782 0.22475 0.26292 -0.23307 -0.39966 -0.17837 -0.064471 -0.092048 -0.29786 0.028836 -0.35875 -0.018754 -0.16766 0.25739 0.11165 -0.21185 0.43099 0.1593 0.072696 0.096664 -0.20347 
jugador-jesé_rodríguez -0.1812 -0.10171 -0.38707 0.37536 -0.27465 -0.23076 0.030775 -0.30263 -0.40431 -0.070885 0.23923 0.017013 -0.36592 0.16604 -0.19378 0.14924 -0.22904 0.18189 0.0085989 -0.14649 0.064827 -0.2628 0.11855 0.050186 0.1786 0.16399 -0.018411 -0.58869 0.08423 -0.21376 0.22133 0.263 -0.23517 -0.4044 -0.18322 -0.062899 -0.091791 -0.30259 0.026178 -0.36245 -0.02598 -0.17586 0.26216 0.11841 -0.21336 0.43064 0.15432 0.069316 0.095726 -0.20305 
has -0.1794 -0.10043 -0.40022 0.37994 -0.28512 -0.24028 0.023107 -0.30642 -0.42133 -0.075764 0.23914 0.016162 -0.3737 0.17768 -0.19083 0.1614 -0.23126 0.18432 0.010361 -0.15336 0.06853 -0.27629 0.11717 0.046399 0.18082 0.17371 -0.0105 -0.59514 0.093139 -0.21161 0.22887 0.27072 -0.2368 -0.41957 -0.18118 -0.06952 -0.10202 -0.30879 0.02936 -0.3733 -0.029448 -0.17653 0.26876 0.11848 -0.22647 0.43886 0.15961 0.079076 0.099456 -0.21109 
entre -0.17573 -0.099424 -0.376 0.36728 -0.27185 -0.22144 0.023791 -0.29204 -0.39399 -0.074297 0.2355 0.020983 -0.35634 0.16226 -0.18815 0.14886 -0.22106 0.17845 0.0068025 -0.14276 0.061169 -0.25844 0.11429 0.046016 0.17421 0.15686 -0.014554 -0.57608 0.084879 -0.21357 0.21072 0.25727 -0.22891 -0.40002 -0.17486 -0.059448 -0.085315 -0.29916 0.021984 -0.34288 -0.025687 -0.17106 0.25393 0.11329 -0.20545 0.41664 0.15801 0.06324 0.088851 -0.20341 
hora -0.16904 -0.099846 -0.37492 0.37553 -0.27279 -0.23218 0.03058 -0.298 -0.4027 -0.069185 0.23601 0.019716 -0.35136 0.1663 -0.18373 0.15409 -0.22071 0.18019 0.0028484 -0.15186 0.062554 -0.26475 0.11764 0.051398 0.17757 0.16254 -0.01622 -0.58799 0.094452 -0.20704 0.21713 0.26218 -0.22826 -0.40214 -0.18289 -0.061735 -0.084462 -0.30246 0.026937 -0.34637 -0.025891 -0.17262 0.25305 0.11811 -0.20585 0.41911 0.15705 0.068485 0.089306 -0.20599 
sea -0.16176 -0.10663 -0.36499 0.36718 -0.28023 -0.22174 0.025708 -0.28885 -0.39134 -0.065035 0.22933 0.022853 -0.34123 0.15994 -0.18049 0.14651 -0.2188 0.17317 0.0031029 -0.14722 0.061758 -0.25927 0.11201 0.04429 0.17738 0.14849 -0.013541 -0.57129 0.090768 -0.20633 0.20609 0.26144 -0.22401 -0.3943 -0.17411 -0.061509 -0.081495 -0.29773 0.028888 -0.33331 -0.027508 -0.16985 0.25499 0.11771 -0.20375 0.40642 0.15838 0.068375 0.083891 -0.18774 
corrido -0.16826 -0.10032 -0.37866 0.36377 -0.26895 -0.22712 0.025412 -0.28617 -0.39803 -0.07375 0.23478 0.01523 -0.35461 0.15671 -0.18063 0.1492 -0.22158 0.1749 0.0097834 -0.14843 0.056053 -0.26587 0.1134 0.043747 0.17236 0.16118 -0.010251 -0.57793 0.086599 -0.20085 0.22141 0.25884 -0.2271 -0.38691 -0.17699 -0.06497 -0.089642 -0.28736 0.028767 -0.34918 -0.022891 -0.16003 0.25537 0.11098 -0.19956 0.42217 0.1578 0.066938 0.095295 -0.19757 
quedado -0.17115 -0.10153 -0.38458 0.37082 -0.27199 -0.22826 0.025794 -0.29112 -0.40211 -0.072701 0.23346 0.017082 -0.35587 0.16082 -0.18744 0.14903 -0.22266 0.17722 0.0068897 -0.14507 0.058419 -0.26596 0.11359 0.048585 0.17293 0.16351 -0.011135 -0.58134 0.083441 -0.20367 0.22355 0.26325 -0.23215 -0.39126 -0.17643 -0.065607 -0.092013 -0.28861 0.026041 -0.34604 -0.018849 -0.1655 0.25162 0.11183 -0.20614 0.42873 0.15709 0.070118 0.092434 -0.1968 
peor -0.16505 -0.096062 -0.38843 0.37386 -0.27711 -0.22563 0.023203 -0.29514 -0.39803 -0.078086 0.23534 0.023236 -0.35707 0.16648 -0.18696 0.15209 -0.22235 0.18074 0.011416 -0.14904 0.0622 -0.26025 0.11656 0.048541 0.1801 0.16 -0.0090506 -0.58938 0.084634 -0.204 0.21909 0.26718 -0.23598 -0.39675 -0.18066 -0.06642 -0.093689 -0.29673 0.024739 -0.34308 -0.025296 -0.17334 0.25849 0.11048 -0.21252 0.42231 0.1651 0.072025 0.093221 -0.19805 
verdad -0.1712 -0.10351 -0.3841 0.36901 -0.27249 -0.22802 0.027137 -0.29324 -0.40102 -0.072363 0.23527 0.019687 -0.36003 0.16318 -0.18633 0.15505 -0.22321 0.18059 0.0079239 -0.15286 0.062403 -0.26296 0.11492 0.051608 0.18201 0.15769 -0.0098742 -0.58839 0.089138 -0.20248 0.22282 0.25941 -0.23311 -0.39446 -0.17923 -0.061678 -0.089015 -0.29747 0.023041 -0.34848 -0.025398 -0.17124 0.25684 0.11968 -0.20871 0.42284 0.16084 0.066218 0.085896 -0.19839 
poco -0.17835 -0.099632 -0.38385 0.37144 -0.27142 -0.23239 0.024395 -0.29178 -0.40344 -0.070071 0.23941 0.018121 -0.36118 0.15701 -0.18897 0.14632 -0.22207 0.17811 0.011433 -0.14819 0.060716 -0.25918 0.11052 0.046872 0.17492 0.16459 -0.0086008 -0.58646 0.08184 -0.20752 0.22362 0.26319 -0.23528 -0.39524 -0.18088 -0.066385 -0.090766 -0.29451 0.025015 -0.35235 -0.02016 -0.1696 0.26244 0.11346 -0.21599 0.42966 0.15354 0.071515 0.090886 -0.20301 
importante -0.17329 -0.10166 -0.38946 0.38366 -0.2846 -0.23203 0.032043 -0.30184 -0.41009 -0.073962 0.23797 0.022166 -0.36 0.16892 -0.18906 0.15604 -0.22519 0.18764 0.0065163 -0.15342 0.064678 -0.26589 0.12053 0.051409 0.18084 0.16121 -0.011846 -0.58938 0.092165 -0.20893 0.22471 0.26697 -0.23945 -0.41186 -0.18292 -0.064071 -0.088465 -0.30829 0.027685 -0.359 -0.031145 -0.17081 0.26249 0.11796 -0.21187 0.43044 0.16113 0.067674 0.092515 -0.20019 
mira -0.16878 -0.10228 -0.38096 0.37245 -0.27842 -0.22487 0.029904 -0.30427 -0.40282 -0.068978 0.23396 0.025289 -0.35756 0.16376 -0.18657 0.15924 -0.22526 0.1798 0.0072178 -0.15013 0.066702 -0.26464 0.11742 0.050549 0.17653 0.16533 -0.016705 -0.58654 0.095844 -0.20923 0.21935 0.26757 -0.23023 -0.40368 -0.17989 -0.064222 -0.090452 -0.30685 0.027829 -0.35273 -0.030956 -0.17519 0.2542 0.12328 -0.21186 0.41848 0.164 0.068263 0.087836 -0.2095 
ojalá -0.17873 -0.10564 -0.39969 0.38749 -0.28372 -0.23363 0.02611 -0.30945 -0.41479 -0.072399 0.24515 0.025113 -0.37165 0.16756 -0.19639 0.15622 -0.23293 0.19125 0.0054039 -0.15443 0.066389 -0.27501 0.11787 0.052991 0.18539 0.16764 -0.0076698 -0.60758 0.093013 -0.2109 0.22564 0.27494 -0.23896 -0.41638 -0.18831 -0.064722 -0.098989 -0.31165 0.026686 -0.36579 -0.032828 -0.18249 0.26548 0.11811 -0.2201 0.43993 0.1729 0.073918 0.097925 -0.21176 
