equipo-real_madrid 0.770018 -0.009093 0.730932 -0.725526 0.446105 0.273199 0.042320 -0.324843 -0.223310 0.396278 -0.012202 0.269638 0.529147 0.338001 0.285046 -0.593022 0.476799 0.034521 -0.062754 0.298163 -0.285485 0.065659 -0.163086 0.040789 0.663969 0.506924 0.360378 -0.350761 -0.384022 0.008288 0.443183 -0.150353 -0.547353 -0.550636 0.251267 -0.062512 0.207028 -0.113135 0.149997 0.599250 0.707422 0.578404 -1.047679 -0.512245 -0.134696 -0.629938 0.402046 0.160273 0.389709 0.635026
partido 0.704085 0.024610 0.657629 -0.735046 0.416068 0.316856 0.014131 -0.286139 -0.183134 0.300881 -0.068614 0.312407 0.546969 0.352478 0.286749 -0.540932 0.458040 0.040796 -0.081655 0.285252 -0.275373 0.002432 -0.183434 0.022252 0.651381 0.465854 0.308900 -0.310662 -0.356379 0.091505 0.412824 -0.153774 -0.486284 -0.487793 0.119195 -0.013205 0.243143 -0.109601 0.177598 0.608823 0.678440 0.547470 -0.923733 -0.465564 -0.057474 -0.590802 0.347703 0.230549 0.371369 0.616929
no 0.672163 0.045019 0.549137 -0.701036 0.453934 0.273637 -0.000398 -0.362705 -0.033938 0.180810 -0.046718 0.425428 0.534083 0.384804 0.196461 -0.394217 0.485152 0.009660 -0.043031 0.202986 -0.216497 -0.140371 -0.090816 0.138643 0.628215 0.476247 0.265972 -0.200216 -0.398542 0.005024 0.249669 -0.031649 -0.437590 -0.462895 0.006714 -0.004502 0.212259 -0.040700 0.147821 0.452062 0.622371 0.466661 -0.779343 -0.427064 0.030995 -0.475860 0.147496 0.208239 0.263101 0.577400
equipo-barcelona 0.627547 0.027590 0.547526 -0.645077 0.355679 0.274108 -0.027515 -0.280373 -0.105540 0.218774 -0.053239 0.362984 0.511060 0.319958 0.248558 -0.378915 0.418467 0.035548 -0.087194 0.228143 -0.209819 -0.044947 -0.106700 0.072861 0.566184 0.431273 0.275392 -0.234089 -0.346991 0.033771 0.314666 -0.068657 -0.440654 -0.436173 0.065099 0.006637 0.201789 -0.060278 0.159327 0.489640 0.595463 0.459875 -0.743432 -0.441843 -0.031149 -0.476297 0.207594 0.219856 0.239115 0.493203
@user 0.725306 0.111894 0.620598 -0.693969 0.420043 0.289872 -0.000902 -0.311833 -0.132676 0.176197 -0.039138 0.430418 0.505501 0.311661 0.198048 -0.442362 0.481157 0.030250 -0.116082 0.305212 -0.246306 -0.030390 -0.084519 0.128015 0.681579 0.473941 0.317087 -0.216859 -0.446373 0.018363 0.340099 -0.140139 -0.447670 -0.482759 0.029432 0.007857 0.220883 -0.094384 0.165235 0.512571 0.652586 0.516743 -0.776884 -0.451835 -0.002544 -0.566370 0.271207 0.253805 0.313133 0.559639
es 0.637044 0.073133 0.591125 -0.692195 0.414918 0.305002 0.015859 -0.332083 -0.132627 0.209057 -0.029194 0.394248 0.507757 0.329328 0.236893 -0.429905 0.449099 0.030875 -0.100098 0.266190 -0.220686 -0.058366 -0.122199 0.085374 0.627815 0.451923 0.269837 -0.246403 -0.379782 0.021113 0.311536 -0.057545 -0.439580 -0.471320 0.083947 -0.002817 0.235951 -0.079059 0.155344 0.487545 0.635632 0.497178 -0.782744 -0.446683 -0.031045 -0.492386 0.246500 0.214511 0.256843 0.551193
se 0.601051 0.058506 0.524174 -0.636754 0.364919 0.246408 -0.010796 -0.307043 -0.077449 0.203115 -0.040499 0.363548 0.479150 0.353337 0.218434 -0.358880 0.406764 0.005213 -0.044734 0.181038 -0.214409 -0.066469 -0.102832 0.081904 0.546828 0.429640 0.240399 -0.219849 -0.367348 0.019869 0.278827 -0.052732 -0.397599 -0.424338 0.058971 0.004160 0.183953 -0.066870 0.159110 0.456793 0.544433 0.428807 -0.737919 -0.371241 -0.002618 -0.454432 0.188874 0.193770 0.258259 0.504995
jugador-gareth_bale 0.566937 0.119563 0.517657 -0.566309 0.388656 0.244521 0.017824 -0.231592 -0.137139 0.173148 0.000200 0.386001 0.376959 0.305474 0.153418 -0.401026 0.394716 0.016721 -0.089987 0.269372 -0.217100 -0.039120 -0.132271 0.058463 0.572892 0.374075 0.194645 -0.224318 -0.362718 -0.005834 0.297886 -0.111401 -0.315011 -0.451218 0.072559 -0.041997 0.193294 -0.106186 0.179159 0.432752 0.542080 0.464462 -0.663307 -0.333528 -0.042491 -0.467133 0.222617 0.184828 0.298238 0.489869
afición 0.619394 0.027887 0.565919 -0.676745 0.379860 0.260294 -0.027192 -0.227057 -0.105168 0.236981 -0.021082 0.327390 0.444503 0.346897 0.242156 -0.427349 0.390164 -0.021584 -0.023746 0.230238 -0.263487 -0.086396 -0.101686 0.023064 0.550442 0.411896 0.244152 -0.291737 -0.372718 0.016500 0.294227 -0.043137 -0.439531 -0.523551 0.107662 0.019166 0.257325 -0.079286 0.164830 0.499548 0.612809 0.515987 -0.785662 -0.477854 -0.069308 -0.557903 0.241694 0.161003 0.271442 0.528802
por 0.591951 0.078164 0.524798 -0.612532 0.366454 0.218200 0.009273 -0.257548 -0.080395 0.221623 -0.020257 0.345168 0.432395 0.332198 0.173679 -0.382549 0.388986 0.017176 -0.073923 0.217098 -0.216996 -0.088984 -0.097568 0.047689 0.567103 0.390560 0.220404 -0.254623 -0.347967 0.001992 0.261222 -0.094917 -0.399015 -0.418878 0.056620 -0.028336 0.196413 -0.117106 0.156563 0.438982 0.566494 0.417474 -0.739555 -0.377691 -0.014723 -0.482530 0.200561 0.201350 0.256922 0.499804
jugador-lionel_messi 0.581173 0.064184 0.517773 -0.582100 0.351085 0.265193 -0.017206 -0.301216 -0.086860 0.142168 -0.053980 0.348828 0.468329 0.298131 0.211411 -0.345101 0.409423 0.029581 -0.112132 0.221489 -0.187533 -0.047579 -0.111555 0.093976 0.554347 0.411230 0.247595 -0.190702 -0.340595 0.052309 0.300900 -0.088902 -0.380851 -0.376297 0.034025 0.016438 0.201044 -0.079042 0.153811 0.429339 0.552023 0.397402 -0.660735 -0.359180 0.022064 -0.416577 0.185329 0.219667 0.231247 0.493596
jugador-sergio_ramos 0.593318 -0.019371 0.444357 -0.598695 0.448912 0.219004 0.024297 -0.357010 0.009832 0.219244 -0.050220 0.349358 0.444274 0.384888 0.137093 -0.362888 0.427665 -0.006813 0.010556 0.099969 -0.185878 -0.114826 -0.090893 0.114015 0.571305 0.435010 0.228741 -0.197551 -0.344790 -0.042957 0.194234 -0.023204 -0.402178 -0.390859 0.055910 -0.032216 0.164109 -0.046082 0.111485 0.373590 0.558345 0.412565 -0.754752 -0.338128 0.052782 -0.456788 0.134700 0.133606 0.295845 0.556518
ja 0.658411 0.034467 0.575762 -0.648346 0.420860 0.284393 -0.020789 -0.344430 -0.080499 0.186622 -0.052257 0.389007 0.503212 0.347210 0.201306 -0.415535 0.454529 0.011877 -0.069552 0.217248 -0.228298 -0.050647 -0.102181 0.101674 0.631863 0.449233 0.273424 -0.215941 -0.393695 0.021358 0.319540 -0.104894 -0.434390 -0.442115 0.061921 -0.010349 0.200956 -0.085026 0.145557 0.490205 0.616748 0.469453 -0.790643 -0.410386 0.020046 -0.524457 0.220537 0.202727 0.309397 0.564151
copa 0.616494 -0.030096 0.465906 -0.613199 0.470989 0.224386 0.028548 -0.368504 0.013927 0.234060 -0.050545 0.359150 0.476809 0.390645 0.137884 -0.374002 0.446545 -0.024163 0.013755 0.100716 -0.206662 -0.125300 -0.084315 0.120381 0.579616 0.451632 0.226795 -0.206373 -0.352118 -0.041114 0.196054 -0.020916 -0.428877 -0.400156 0.063279 -0.031651 0.168798 -0.036933 0.115907 0.391608 0.574267 0.431173 -0.784151 -0.351756 0.061630 -0.467110 0.125200 0.123676 0.308391 0.580140
si 0.610214 0.069547 0.535370 -0.648974 0.364415 0.260629 -0.003052 -0.302927 -0.094531 0.177233 -0.050508 0.360931 0.454393 0.317756 0.175355 -0.393188 0.416857 0.022264 -0.056291 0.233447 -0.214254 -0.073885 -0.081252 0.104316 0.563592 0.433686 0.258586 -0.196173 -0.343088 0.008706 0.277276 -0.064744 -0.381086 -0.431690 0.040766 -0.003936 0.192856 -0.051879 0.141020 0.437421 0.561744 0.455391 -0.706375 -0.406436 -0.001285 -0.461531 0.210968 0.210345 0.249443 0.511506
pero 0.601000 0.040537 0.525435 -0.627991 0.367013 0.242287 -0.006694 -0.273993 -0.101501 0.196339 -0.045134 0.334627 0.471275 0.292760 0.205459 -0.375464 0.411625 0.034167 -0.067167 0.222369 -0.185862 -0.073675 -0.081948 0.079512 0.549742 0.403562 0.242660 -0.214979 -0.351465 0.034715 0.267725 -0.053197 -0.400048 -0.431776 0.049054 -0.006944 0.182638 -0.051478 0.138080 0.442754 0.538528 0.423357 -0.695085 -0.390204 -0.013101 -0.445757 0.186089 0.168906 0.243894 0.496826
jugador-cristiano_ronaldo 0.570151 0.010198 0.588465 -0.604625 0.358439 0.286264 0.027062 -0.335078 -0.082894 0.196888 -0.085371 0.309579 0.495947 0.296988 0.257624 -0.437156 0.404949 0.045647 -0.083306 0.258615 -0.204616 -0.038479 -0.180921 0.050314 0.544547 0.401250 0.242067 -0.211359 -0.266198 0.080827 0.367410 -0.098159 -0.418550 -0.430345 0.080604 0.019712 0.187872 -0.049245 0.173379 0.466033 0.585653 0.439730 -0.707598 -0.371446 0.004308 -0.420088 0.233745 0.246199 0.254979 0.546387
hala 0.673099 0.007757 0.629689 -0.645993 0.404098 0.248588 0.022951 -0.303161 -0.175121 0.292507 -0.004124 0.268208 0.477992 0.315917 0.238661 -0.494172 0.429933 0.020809 -0.071019 0.247183 -0.238439 0.030825 -0.116559 0.061063 0.590374 0.441660 0.305679 -0.268698 -0.365849 0.014085 0.373950 -0.137853 -0.462784 -0.454106 0.172012 -0.039285 0.188553 -0.093802 0.123962 0.495416 0.616654 0.497881 -0.874068 -0.447930 -0.083989 -0.557742 0.323525 0.168377 0.326471 0.561995
sin 0.592084 0.000345 0.615149 -0.634638 0.374275 0.301545 0.023233 -0.336472 -0.103809 0.225846 -0.094861 0.303618 0.533135 0.306876 0.283182 -0.471339 0.418483 0.056923 -0.080314 0.272522 -0.216908 -0.022512 -0.202380 0.038857 0.556141 0.413039 0.253620 -0.222205 -0.270364 0.109950 0.402492 -0.122241 -0.441950 -0.450633 0.090539 0.024850 0.204574 -0.054279 0.187984 0.505108 0.614106 0.468903 -0.748782 -0.388674 0.009638 -0.449630 0.268075 0.263993 0.280325 0.571810
entrenador 0.496328 0.051709 0.438870 -0.494388 0.275703 0.218152 -0.015946 -0.225727 -0.094187 0.138988 -0.026675 0.287584 0.400456 0.235834 0.170568 -0.300145 0.334030 0.023287 -0.075142 0.181673 -0.159112 -0.036798 -0.086108 0.059787 0.470704 0.340611 0.203106 -0.178164 -0.307359 0.017544 0.238542 -0.074611 -0.326681 -0.334124 0.033322 -0.004004 0.142609 -0.079397 0.134993 0.390420 0.453999 0.341370 -0.579711 -0.324076 -0.011263 -0.358620 0.180391 0.163237 0.205310 0.370694
mejor 0.530087 0.072293 0.527080 -0.591063 0.353426 0.247191 0.008538 -0.307242 -0.143147 0.226419 -0.030060 0.304703 0.460847 0.271793 0.208776 -0.383719 0.371373 0.046698 -0.081131 0.233356 -0.209592 -0.030743 -0.113782 0.069921 0.529787 0.393484 0.237785 -0.240554 -0.307877 0.039959 0.308119 -0.040068 -0.391143 -0.415271 0.114599 -0.012125 0.187744 -0.077680 0.114674 0.426202 0.555815 0.413474 -0.686690 -0.395222 -0.041830 -0.426672 0.229662 0.199054 0.197602 0.483894
jugador 0.504649 0.055813 0.467551 -0.540051 0.311368 0.244469 -0.009028 -0.251656 -0.112230 0.156570 -0.032476 0.305070 0.416020 0.266126 0.193149 -0.333055 0.351026 0.034400 -0.051512 0.203512 -0.198214 -0.040600 -0.093023 0.071536 0.492536 0.358729 0.227788 -0.191357 -0.285744 0.019907 0.271706 -0.061207 -0.351315 -0.369951 0.056022 0.002901 0.174147 -0.067905 0.127770 0.394637 0.505100 0.376220 -0.619333 -0.333813 -0.006433 -0.404182 0.194825 0.184711 0.218546 0.445696
equipo 0.463687 0.044164 0.449174 -0.512385 0.300187 0.190741 0.002822 -0.256105 -0.104327 0.194757 -0.007031 0.267299 0.385551 0.240284 0.173003 -0.321545 0.328687 0.043229 -0.069270 0.191276 -0.176247 -0.025577 -0.096264 0.062489 0.441974 0.338812 0.199602 -0.199666 -0.265025 0.027620 0.245395 -0.036212 -0.342369 -0.354657 0.092342 -0.025964 0.150902 -0.066504 0.106235 0.376332 0.475285 0.361388 -0.589037 -0.346545 -0.027095 -0.372174 0.188114 0.178435 0.166697 0.399091
jugador-neymar_jr 0.476104 0.043329 0.407938 -0.468991 0.269528 0.188038 -0.013054 -0.221211 -0.072721 0.119870 -0.040172 0.272437 0.334000 0.246087 0.150476 -0.299829 0.312891 0.029396 -0.085931 0.173837 -0.141744 -0.029487 -0.063937 0.061953 0.446765 0.316804 0.178283 -0.159474 -0.275226 0.035329 0.222504 -0.074505 -0.306322 -0.312497 0.041920 0.010186 0.145446 -0.070755 0.105912 0.349843 0.411295 0.332669 -0.517655 -0.308584 -0.003547 -0.345926 0.167782 0.172582 0.185255 0.386707
campeones 0.617934 -0.008470 0.581725 -0.597487 0.386021 0.256133 0.042130 -0.255981 -0.162715 0.260618 -0.023621 0.258435 0.438271 0.285853 0.217353 -0.459932 0.396482 0.024454 -0.052612 0.250278 -0.234207 0.020029 -0.141220 0.049147 0.559692 0.404576 0.279550 -0.253858 -0.317296 0.022120 0.356643 -0.140155 -0.411740 -0.442976 0.133059 -0.014173 0.181981 -0.102552 0.134227 0.483679 0.562362 0.486789 -0.829594 -0.400988 -0.074284 -0.512319 0.304256 0.155386 0.325764 0.528160
ya 0.450628 0.028695 0.383536 -0.472257 0.288870 0.197035 -0.009354 -0.228717 -0.055881 0.131267 -0.035449 0.288680 0.356929 0.242276 0.166395 -0.281285 0.312146 0.016313 -0.045132 0.150422 -0.153965 -0.037476 -0.084930 0.072696 0.433177 0.327669 0.173988 -0.143282 -0.275553 0.017571 0.208644 -0.052248 -0.309682 -0.313022 0.029861 -0.004933 0.156217 -0.068401 0.117564 0.327585 0.417475 0.326324 -0.543043 -0.280651 0.002423 -0.349553 0.154385 0.151136 0.199715 0.382365
ahora 0.480171 0.020345 0.435283 -0.519098 0.306033 0.218012 -0.003351 -0.228061 -0.087534 0.167152 -0.035727 0.273211 0.360082 0.258319 0.167100 -0.336844 0.336662 0.010648 -0.028360 0.171619 -0.170346 -0.051682 -0.067738 0.052680 0.459576 0.343103 0.211528 -0.181476 -0.280007 0.019266 0.218672 -0.049656 -0.335640 -0.370663 0.065222 0.010674 0.168984 -0.060031 0.120748 0.366065 0.471616 0.380169 -0.604945 -0.340893 -0.005772 -0.397106 0.185009 0.141556 0.227836 0.429753
jugador-iker_casillas 0.396057 0.033980 0.378750 -0.430304 0.259928 0.174218 0.006806 -0.184423 -0.077352 0.139214 -0.031909 0.255997 0.314929 0.208290 0.137606 -0.270535 0.281490 0.046068 -0.059896 0.162603 -0.158733 -0.028738 -0.066037 0.043364 0.413461 0.310343 0.154709 -0.159758 -0.239809 0.024537 0.187168 -0.065066 -0.282843 -0.307279 0.052894 -0.019050 0.123362 -0.066501 0.100812 0.327099 0.393245 0.317227 -0.504135 -0.273253 -0.006971 -0.334903 0.169543 0.123913 0.180545 0.343154
hoy 0.456393 0.028812 0.416435 -0.447792 0.271796 0.179876 0.002821 -0.191787 -0.077204 0.165532 -0.019338 0.244031 0.340007 0.239981 0.165676 -0.310605 0.291630 0.015571 -0.068362 0.162939 -0.163092 -0.031905 -0.075270 0.042146 0.420801 0.308531 0.187798 -0.179788 -0.258780 0.019815 0.239630 -0.074488 -0.311735 -0.319111 0.077938 0.002286 0.154049 -0.062684 0.109134 0.340556 0.432488 0.315799 -0.554877 -0.287774 -0.005127 -0.362754 0.163144 0.136484 0.195377 0.389225
grande 0.473633 0.049649 0.434266 -0.495706 0.310871 0.188408 0.010291 -0.230800 -0.107099 0.185471 -0.020353 0.276395 0.334114 0.249896 0.155343 -0.330432 0.324176 0.044392 -0.047904 0.202702 -0.168436 -0.014600 -0.099406 0.055247 0.476687 0.340319 0.186088 -0.193406 -0.271790 -0.012087 0.228782 -0.065358 -0.318311 -0.348209 0.099336 -0.028940 0.153598 -0.093617 0.123435 0.374066 0.462122 0.376207 -0.605624 -0.294775 -0.043017 -0.382812 0.196854 0.140709 0.238699 0.409849
más 0.363095 0.018642 0.330073 -0.376547 0.225380 0.163824 0.010165 -0.184559 -0.071035 0.119095 -0.033040 0.194780 0.279672 0.186286 0.132961 -0.235190 0.253823 0.017374 -0.069427 0.146742 -0.128732 -0.026824 -0.072918 0.051865 0.341236 0.252833 0.153310 -0.116235 -0.208517 0.024860 0.174429 -0.056563 -0.226430 -0.255709 0.036271 0.016047 0.127577 -0.023167 0.087494 0.280011 0.365399 0.291566 -0.425021 -0.257579 -0.010616 -0.300807 0.129639 0.134246 0.151539 0.300286
mas 0.353180 0.039080 0.316285 -0.357434 0.209729 0.144854 -0.010451 -0.181527 -0.052463 0.111867 -0.032135 0.184221 0.258100 0.174894 0.123419 -0.226144 0.253049 0.009051 -0.053153 0.150989 -0.122274 -0.031906 -0.057070 0.053267 0.341914 0.235988 0.156694 -0.146800 -0.202448 0.021253 0.178734 -0.042481 -0.239943 -0.242591 0.057906 0.004930 0.106092 -0.050277 0.069721 0.258233 0.331105 0.256698 -0.431015 -0.228704 -0.007728 -0.257531 0.137360 0.111665 0.156477 0.318848
todo 0.380770 0.014422 0.353924 -0.394135 0.224710 0.173013 0.006369 -0.167625 -0.076367 0.128465 -0.026941 0.215428 0.292498 0.185194 0.140854 -0.246168 0.255676 0.032912 -0.060805 0.158033 -0.127843 -0.027942 -0.083188 0.033613 0.357305 0.262305 0.155324 -0.153623 -0.221361 0.038741 0.190297 -0.058136 -0.265685 -0.263310 0.032804 0.004114 0.132652 -0.059435 0.079479 0.290879 0.348873 0.276563 -0.465494 -0.252677 -0.001375 -0.282326 0.145023 0.129655 0.179998 0.325524
campeón 0.547320 0.022443 0.498057 -0.542319 0.325687 0.229601 0.031559 -0.226543 -0.135159 0.254727 -0.038292 0.246098 0.394447 0.261666 0.197666 -0.413280 0.352590 0.027060 -0.052788 0.201979 -0.197496 0.028917 -0.139617 0.027998 0.502621 0.360563 0.240559 -0.243665 -0.276465 0.036177 0.296652 -0.084198 -0.381215 -0.370254 0.138947 -0.034933 0.166034 -0.058038 0.122367 0.451186 0.523463 0.421436 -0.715148 -0.346261 -0.068682 -0.449291 0.260603 0.152001 0.289699 0.467923
gol 0.343218 0.064254 0.307584 -0.341642 0.242845 0.150166 0.003606 -0.151832 -0.097746 0.113719 0.009227 0.246655 0.222435 0.185056 0.092639 -0.240366 0.251186 0.022488 -0.053859 0.169240 -0.148966 -0.018347 -0.090309 0.035169 0.341735 0.230742 0.113145 -0.148180 -0.232613 -0.007430 0.187572 -0.063717 -0.181921 -0.287659 0.049092 -0.030392 0.115746 -0.054765 0.120367 0.268185 0.331160 0.289789 -0.418099 -0.208087 -0.041174 -0.293101 0.141510 0.107819 0.198844 0.290711
jugador-josé_manuel_pinto 0.339965 0.037937 0.320241 -0.360675 0.199120 0.166656 -0.009861 -0.170539 -0.056299 0.106305 -0.023871 0.193389 0.282120 0.168613 0.135446 -0.221289 0.241313 0.015464 -0.060895 0.139462 -0.128704 -0.031877 -0.046583 0.029505 0.324960 0.241522 0.155617 -0.133276 -0.197384 0.012309 0.178921 -0.057467 -0.216962 -0.236950 0.024510 -0.002725 0.117669 -0.058048 0.083698 0.265994 0.318699 0.248048 -0.410431 -0.238144 -0.002227 -0.270409 0.141520 0.113180 0.142556 0.284929
todos 0.405158 0.025586 0.369930 -0.435010 0.239585 0.176475 -0.007248 -0.158320 -0.076261 0.141777 -0.003726 0.218781 0.297461 0.228112 0.149473 -0.277140 0.253803 -0.008322 -0.035609 0.140891 -0.171236 -0.042761 -0.076820 0.025995 0.371225 0.273597 0.158720 -0.187326 -0.236998 -0.002556 0.209219 -0.034527 -0.283139 -0.327199 0.075499 0.020416 0.168229 -0.060802 0.108489 0.333011 0.408770 0.326084 -0.506527 -0.297678 -0.030323 -0.349704 0.160347 0.114759 0.183518 0.356023
nada 0.412710 0.011110 0.348465 -0.423025 0.260312 0.171482 0.014900 -0.200590 -0.046687 0.121633 -0.026710 0.213166 0.331047 0.200867 0.132872 -0.244624 0.296736 0.014117 -0.041943 0.162702 -0.128440 -0.059785 -0.085442 0.070431 0.374841 0.283102 0.170780 -0.142234 -0.218415 0.037748 0.180389 -0.035648 -0.250789 -0.278700 0.027804 -0.003040 0.122869 -0.026305 0.078233 0.288020 0.377407 0.303847 -0.477814 -0.277043 -0.012510 -0.313345 0.124324 0.130558 0.169011 0.346528
ver 0.345150 0.013257 0.291938 -0.379728 0.223357 0.167819 0.007091 -0.175161 -0.054715 0.119209 -0.020919 0.196945 0.257699 0.201978 0.104126 -0.235186 0.234807 0.017296 -0.026356 0.111213 -0.127956 -0.031275 -0.072604 0.054190 0.316132 0.269973 0.145460 -0.116395 -0.201104 0.001170 0.164010 -0.039311 -0.225857 -0.244022 0.045283 -0.017423 0.093506 -0.047939 0.077611 0.257005 0.337382 0.254665 -0.421191 -0.231889 -0.003808 -0.283166 0.128890 0.113973 0.134176 0.287181
tiene 0.374444 0.025506 0.329310 -0.369359 0.232809 0.139288 0.008971 -0.183702 -0.056649 0.126833 -0.028077 0.207740 0.291552 0.198619 0.136028 -0.226704 0.251890 0.019985 -0.062044 0.137111 -0.130806 -0.028028 -0.065768 0.053271 0.343811 0.266902 0.141686 -0.125732 -0.209530 0.017528 0.174445 -0.052006 -0.242693 -0.253448 0.056383 -0.004273 0.118327 -0.038978 0.087534 0.262544 0.343150 0.258410 -0.445778 -0.231690 -0.008654 -0.281135 0.128692 0.111736 0.150596 0.302465
va 0.343876 0.027762 0.315577 -0.371106 0.207595 0.135243 -0.000320 -0.172789 -0.058344 0.142280 -0.034486 0.191233 0.265102 0.196282 0.115709 -0.211557 0.228150 0.009843 -0.033875 0.120428 -0.120002 -0.042293 -0.057901 0.040385 0.321635 0.254740 0.149778 -0.127392 -0.205722 0.002366 0.154606 -0.049664 -0.239466 -0.237681 0.044236 0.000106 0.109501 -0.043305 0.093703 0.269791 0.333885 0.243193 -0.447215 -0.215365 0.004428 -0.260561 0.124177 0.107723 0.160389 0.277941
siempre 0.363242 0.022851 0.309890 -0.352396 0.214645 0.144616 -0.004799 -0.161651 -0.067172 0.144787 -0.023894 0.175678 0.256884 0.162804 0.129392 -0.236053 0.225643 0.010895 -0.040589 0.149563 -0.124103 -0.023849 -0.056690 0.020335 0.298690 0.238807 0.167002 -0.161566 -0.190616 0.011313 0.179106 -0.047595 -0.241721 -0.247865 0.070667 -0.026730 0.114168 -0.041952 0.063451 0.247793 0.317899 0.242679 -0.447151 -0.232711 -0.044938 -0.279545 0.137788 0.088222 0.163037 0.281489
ser 0.309497 0.018346 0.291606 -0.346297 0.209165 0.137414 0.007771 -0.162137 -0.064450 0.130850 -0.020258 0.186216 0.258949 0.170972 0.125914 -0.205352 0.200255 0.017740 -0.023748 0.120905 -0.115093 -0.032412 -0.066049 0.037128 0.288869 0.215536 0.146259 -0.136153 -0.182003 -0.006141 0.166444 -0.029067 -0.217269 -0.258119 0.061186 0.022603 0.105487 -0.027481 0.074122 0.237839 0.313698 0.250515 -0.406528 -0.235030 -0.034671 -0.249026 0.129109 0.112519 0.136574 0.265820
jugador-marc_bartra 0.270207 0.050059 0.238542 -0.265938 0.182051 0.096487 -0.002589 -0.116501 -0.061865 0.066058 -0.005988 0.176467 0.190108 0.119260 0.068890 -0.182244 0.197249 0.005957 -0.041790 0.113094 -0.111917 -0.002643 -0.050370 0.030941 0.264105 0.192979 0.117574 -0.107788 -0.160642 -0.002993 0.149130 -0.044365 -0.155765 -0.208557 0.035642 -0.014084 0.082391 -0.046016 0.058872 0.194710 0.238408 0.198329 -0.312540 -0.169823 -0.009193 -0.206492 0.091809 0.071132 0.126624 0.217683
año 0.309256 0.002149 0.263479 -0.311230 0.198372 0.137813 0.000478 -0.154691 -0.041486 0.104996 -0.034666 0.167222 0.266272 0.156448 0.122682 -0.207932 0.228449 0.001896 -0.030194 0.101232 -0.114711 -0.039860 -0.059959 0.046744 0.299330 0.228660 0.133869 -0.112989 -0.169557 0.024271 0.153509 -0.037425 -0.206485 -0.218870 0.020065 -0.013921 0.092601 -0.020458 0.069695 0.238766 0.308903 0.240454 -0.389318 -0.203432 0.001854 -0.241463 0.113798 0.118902 0.124775 0.273343
vez 0.383664 0.013101 0.324337 -0.394163 0.265162 0.156035 -0.006119 -0.202581 -0.040234 0.135258 -0.021030 0.218111 0.286507 0.223263 0.122186 -0.235353 0.256332 -0.002294 -0.021226 0.106617 -0.139678 -0.054503 -0.059768 0.064352 0.366849 0.266792 0.150048 -0.151118 -0.212045 0.001408 0.156874 -0.028765 -0.253249 -0.259347 0.050100 -0.022036 0.111961 -0.030230 0.090202 0.287870 0.368003 0.280868 -0.470974 -0.232069 0.002991 -0.306003 0.131918 0.107113 0.185983 0.346714
enhorabuena 0.396331 0.017053 0.342755 -0.411022 0.251895 0.162310 -0.017778 -0.142623 -0.060963 0.155018 -0.005437 0.206164 0.281562 0.217929 0.153248 -0.263504 0.254992 -0.017175 -0.016491 0.143538 -0.161028 -0.059044 -0.074192 0.027108 0.360346 0.259561 0.153511 -0.177027 -0.238579 0.007257 0.183900 -0.022869 -0.277614 -0.318380 0.069870 0.000041 0.157280 -0.058405 0.106545 0.319533 0.372501 0.316942 -0.501933 -0.285484 -0.044726 -0.354500 0.156745 0.095747 0.175742 0.327072
bien 0.314389 0.023409 0.263481 -0.315442 0.192477 0.107769 0.002255 -0.126593 -0.054419 0.114407 -0.017821 0.179773 0.226982 0.162559 0.109160 -0.200644 0.207197 0.002434 -0.037650 0.106836 -0.105051 -0.038579 -0.068414 0.039937 0.278883 0.199174 0.122273 -0.126572 -0.178554 -0.002845 0.157205 -0.049368 -0.209283 -0.231126 0.036521 0.007240 0.105739 -0.044903 0.090802 0.225087 0.284582 0.225290 -0.384553 -0.202376 -0.023647 -0.246076 0.116183 0.091008 0.129712 0.267354
final 0.375816 0.027283 0.344933 -0.387353 0.221537 0.144072 0.010631 -0.160284 -0.075514 0.152633 -0.020555 0.182831 0.277544 0.178921 0.149896 -0.273617 0.245370 0.010287 -0.040100 0.131619 -0.136633 -0.006772 -0.071045 0.034287 0.349961 0.259180 0.160165 -0.166100 -0.205679 0.009210 0.210801 -0.064859 -0.273164 -0.264141 0.073100 -0.012057 0.127915 -0.053525 0.082948 0.310103 0.352301 0.287084 -0.476749 -0.248640 -0.022836 -0.314149 0.162406 0.100586 0.186146 0.317267
gana 0.422164 0.011728 0.388791 -0.417388 0.242513 0.166071 -0.003456 -0.200561 -0.083825 0.170066 -0.039598 0.198608 0.332874 0.205626 0.147082 -0.286484 0.282885 0.029365 -0.054479 0.158978 -0.139165 -0.011982 -0.092644 0.044064 0.369865 0.280045 0.174417 -0.159017 -0.223740 0.020307 0.221241 -0.064494 -0.296967 -0.299924 0.056301 -0.010128 0.120221 -0.031200 0.108222 0.323564 0.397374 0.299277 -0.525994 -0.270269 -0.039473 -0.314622 0.155205 0.127066 0.187576 0.331283
solo 0.253457 0.016179 0.227414 -0.285851 0.169261 0.112680 -0.015109 -0.136271 -0.033683 0.087949 -0.005788 0.161340 0.200945 0.151785 0.084269 -0.166341 0.181059 0.005084 -0.014046 0.089632 -0.101911 -0.009538 -0.055808 0.020407 0.249378 0.169036 0.118784 -0.108391 -0.144633 0.009791 0.118769 -0.029612 -0.177661 -0.201378 0.044697 -0.003411 0.092027 -0.030848 0.077967 0.218968 0.257730 0.207203 -0.333570 -0.173404 -0.010305 -0.216254 0.086955 0.094048 0.118614 0.241661
vamos 0.392950 0.019854 0.373557 -0.416148 0.251331 0.152065 0.019027 -0.168638 -0.084181 0.164521 -0.010573 0.186108 0.286788 0.207750 0.155205 -0.292099 0.268659 0.009171 -0.037527 0.136427 -0.145223 -0.008125 -0.066683 0.038261 0.379141 0.290676 0.174147 -0.170743 -0.213499 0.011749 0.212587 -0.079803 -0.285247 -0.293126 0.089285 -0.015643 0.127134 -0.061755 0.093754 0.303964 0.378277 0.307012 -0.535563 -0.263166 -0.034141 -0.325194 0.176814 0.111770 0.211463 0.346948
o 0.263390 0.007778 0.269862 -0.286324 0.175001 0.132236 -0.006635 -0.151229 -0.029183 0.077215 -0.012698 0.163214 0.217565 0.148479 0.115988 -0.188521 0.188233 0.007423 -0.051402 0.122465 -0.092828 -0.023103 -0.068198 0.041618 0.256800 0.184170 0.109991 -0.108686 -0.148182 0.023289 0.159128 -0.041422 -0.181789 -0.184051 0.023958 0.002829 0.087129 -0.031884 0.067981 0.194978 0.262261 0.213404 -0.313977 -0.187720 -0.006870 -0.224962 0.106659 0.110751 0.109259 0.251286
porque 0.248433 0.016347 0.200979 -0.244159 0.143193 0.090442 0.000553 -0.109553 -0.033063 0.068119 -0.009133 0.142869 0.187346 0.118899 0.088407 -0.155154 0.149362 0.008419 -0.015938 0.073655 -0.095272 -0.030427 -0.047322 0.052847 0.207067 0.159209 0.101726 -0.087743 -0.133249 0.010489 0.111922 -0.036165 -0.161370 -0.155784 0.012653 -0.017422 0.078581 -0.027388 0.043095 0.173047 0.220853 0.167311 -0.276037 -0.145248 -0.002087 -0.182317 0.064336 0.090437 0.099309 0.184700
ganar 0.308129 0.010189 0.265706 -0.309075 0.179462 0.129222 0.017175 -0.154616 -0.054096 0.109306 -0.027478 0.157257 0.235705 0.166498 0.103977 -0.192186 0.203177 -0.004943 -0.023801 0.106928 -0.109479 -0.027726 -0.048510 0.018693 0.265166 0.200614 0.131945 -0.108533 -0.161183 0.033918 0.138069 -0.030199 -0.187792 -0.210251 0.022262 -0.000519 0.110379 -0.019381 0.070201 0.242673 0.288573 0.225186 -0.362979 -0.207837 -0.010619 -0.232555 0.116474 0.093609 0.130241 0.250549
nos 0.208094 0.009902 0.188957 -0.238757 0.136463 0.094309 0.012722 -0.083335 -0.054810 0.082934 -0.014621 0.119490 0.169306 0.116780 0.062658 -0.151983 0.153711 -0.005581 -0.020015 0.088872 -0.091484 -0.028189 -0.047241 0.029604 0.191911 0.161892 0.089605 -0.093388 -0.119632 0.008885 0.112218 -0.050496 -0.151165 -0.152538 0.039823 -0.026218 0.073385 -0.047109 0.063959 0.173834 0.192320 0.165099 -0.278122 -0.140617 -0.000410 -0.174307 0.077125 0.064432 0.102776 0.204504
jugador-dani_alves 0.192986 0.030025 0.172219 -0.182125 0.113106 0.064764 -0.011388 -0.095334 -0.008621 0.046985 -0.008319 0.115234 0.135831 0.105399 0.070349 -0.104831 0.113593 0.010272 -0.023043 0.058609 -0.054624 -0.017316 -0.028050 0.021820 0.173071 0.128695 0.066472 -0.073393 -0.111772 0.007994 0.097211 -0.030371 -0.119957 -0.117560 0.004233 0.005123 0.072025 -0.038990 0.039789 0.119465 0.155090 0.130274 -0.222387 -0.130882 -0.004103 -0.152311 0.062072 0.066608 0.068527 0.142862
ganado 0.254700 0.021615 0.257597 -0.289079 0.157020 0.119067 -0.009165 -0.112957 -0.056425 0.131887 -0.020178 0.136027 0.204348 0.145476 0.091201 -0.200924 0.169573 0.027574 -0.026795 0.103907 -0.101058 -0.014716 -0.046856 0.020047 0.243896 0.196007 0.123064 -0.132922 -0.133194 0.030098 0.150360 -0.034260 -0.197480 -0.194866 0.032838 -0.027230 0.069986 -0.027419 0.036576 0.230866 0.247317 0.192839 -0.370085 -0.189827 -0.014513 -0.223591 0.128085 0.088932 0.142718 0.224451
jugador-angel_di_maría 0.195263 0.051449 0.185488 -0.186713 0.135990 0.089954 0.019979 -0.068597 -0.073508 0.061246 0.017377 0.121267 0.125056 0.114068 0.064131 -0.152950 0.143513 -0.003553 -0.022504 0.097243 -0.084136 -0.002187 -0.044503 0.026513 0.188703 0.131080 0.057464 -0.079882 -0.135514 0.005953 0.127148 -0.050205 -0.093824 -0.158662 0.031087 -0.020030 0.058980 -0.045172 0.074296 0.150238 0.185359 0.151380 -0.225355 -0.101526 -0.008962 -0.147926 0.099623 0.059007 0.122121 0.180992
mundo 0.273881 0.038271 0.287028 -0.316976 0.188976 0.128614 0.000786 -0.172131 -0.075560 0.124121 -0.016633 0.161928 0.261168 0.144533 0.120507 -0.195553 0.195597 0.031001 -0.047051 0.123324 -0.128291 -0.009587 -0.052258 0.030895 0.285826 0.219070 0.127141 -0.141979 -0.147095 0.019219 0.172141 -0.013989 -0.218283 -0.221462 0.071517 -0.010989 0.095205 -0.044625 0.057111 0.240601 0.312291 0.221876 -0.366237 -0.222348 -0.030331 -0.233450 0.121639 0.107370 0.093302 0.262151
- 0.220102 0.006547 0.208072 -0.222938 0.142739 0.100988 -0.010945 -0.096309 -0.066969 0.098616 -0.016326 0.093733 0.168619 0.111178 0.099651 -0.165261 0.153624 0.016034 -0.005551 0.103351 -0.097858 0.009000 -0.069700 0.024315 0.179978 0.148544 0.111926 -0.090295 -0.121704 -0.003407 0.145476 -0.036926 -0.141383 -0.175982 0.033115 -0.002003 0.064060 -0.019061 0.069766 0.173575 0.202988 0.161569 -0.304901 -0.161712 -0.026881 -0.175113 0.108356 0.075216 0.115057 0.194045
bueno 0.310780 0.021178 0.260072 -0.327913 0.197623 0.130522 0.012345 -0.121830 -0.058881 0.095699 -0.009821 0.170494 0.236873 0.148207 0.118720 -0.183086 0.208078 0.017798 -0.039241 0.112602 -0.102286 -0.036917 -0.039909 0.034312 0.275395 0.199015 0.135030 -0.117070 -0.188558 0.010351 0.122453 -0.033317 -0.198593 -0.218098 0.034889 -0.005685 0.102585 -0.034483 0.075331 0.221961 0.273972 0.207455 -0.352145 -0.201820 -0.014599 -0.228523 0.108207 0.072216 0.128569 0.261872
felicidades 0.326606 0.011148 0.298256 -0.335809 0.188735 0.134934 0.001240 -0.130739 -0.068971 0.146648 -0.011442 0.160391 0.247356 0.160180 0.097824 -0.225923 0.192153 0.000903 -0.026020 0.127176 -0.119008 -0.016677 -0.060702 0.024532 0.288875 0.230796 0.120311 -0.139833 -0.185614 0.012116 0.153147 -0.037523 -0.232293 -0.247149 0.058294 -0.000831 0.120704 -0.043488 0.078961 0.246830 0.297090 0.241271 -0.409024 -0.230238 -0.036893 -0.264354 0.123239 0.086313 0.159660 0.284809
gracias 0.310345 0.023997 0.264998 -0.305493 0.156777 0.100696 0.023687 -0.128625 -0.053910 0.129000 -0.013104 0.141008 0.210817 0.143888 0.090682 -0.205217 0.195817 0.011164 -0.028908 0.111245 -0.112572 -0.011919 -0.068761 0.040446 0.285145 0.193602 0.133611 -0.131344 -0.149943 -0.006943 0.133526 -0.045557 -0.205450 -0.196666 0.049003 -0.033537 0.089171 -0.050831 0.086879 0.227443 0.290479 0.231719 -0.386309 -0.188600 -0.020409 -0.226277 0.107384 0.103578 0.127481 0.233765
hay 0.231242 0.012330 0.203575 -0.239674 0.154837 0.088255 0.004329 -0.113997 -0.015378 0.059741 -0.019771 0.131845 0.182805 0.121392 0.060872 -0.145637 0.152112 0.002317 -0.028945 0.097446 -0.080020 -0.035369 -0.027636 0.054923 0.207575 0.163821 0.089931 -0.069403 -0.146434 0.015501 0.108552 -0.038203 -0.157044 -0.163489 -0.000207 -0.002198 0.075761 -0.012844 0.053434 0.161727 0.225197 0.170648 -0.257954 -0.165577 0.002025 -0.174380 0.080248 0.088089 0.093369 0.196913
fue 0.275571 0.028670 0.270140 -0.278176 0.192690 0.117627 -0.000349 -0.138769 -0.058334 0.101567 -0.020525 0.159563 0.229132 0.130907 0.086853 -0.198117 0.201626 0.005281 -0.036955 0.106492 -0.105766 -0.010609 -0.043577 0.036350 0.269710 0.190771 0.111724 -0.100299 -0.177985 0.013275 0.163505 -0.037406 -0.190189 -0.197070 0.040421 -0.008997 0.096600 -0.026099 0.078530 0.220800 0.259302 0.197330 -0.331550 -0.182019 -0.012612 -0.226301 0.113906 0.083402 0.128860 0.255566
han 0.126901 -0.006806 0.109522 -0.149456 0.083599 0.057724 -0.016278 -0.060474 -0.035599 0.044151 -0.015202 0.070859 0.103904 0.080612 0.043490 -0.081362 0.100198 0.008824 -0.022902 0.054051 -0.062412 -0.001023 -0.040007 0.000495 0.120239 0.082084 0.069860 -0.059486 -0.082481 0.014999 0.068243 -0.011448 -0.108455 -0.101375 0.027310 -0.016945 0.048757 -0.011380 0.032811 0.106401 0.135127 0.079296 -0.147889 -0.072758 -0.006893 -0.094415 0.046080 0.028943 0.073396 0.130249
sido 0.172848 0.012333 0.145416 -0.157669 0.109873 0.057974 -0.021066 -0.073607 -0.043117 0.050341 -0.015778 0.080873 0.110974 0.082268 0.056916 -0.100974 0.104362 0.010341 -0.019151 0.078442 -0.069981 -0.010479 -0.019762 0.004989 0.159893 0.100127 0.085201 -0.068960 -0.073024 0.017909 0.078554 -0.010919 -0.107119 -0.109183 0.022974 -0.007307 0.034934 -0.010613 0.036108 0.120350 0.147640 0.105920 -0.187419 -0.096764 -0.026280 -0.131161 0.047081 0.030556 0.074797 0.145274
madrid 0.249327 0.019271 0.212043 -0.238779 0.153086 0.095232 0.010439 -0.104933 -0.067590 0.103442 0.008723 0.106198 0.177469 0.125948 0.092792 -0.190518 0.164170 0.013955 -0.024404 0.096920 -0.084672 0.015525 -0.041006 0.038273 0.221576 0.156802 0.103266 -0.109049 -0.151930 -0.007578 0.137492 -0.049789 -0.178409 -0.153593 0.046586 -0.000196 0.072197 -0.036236 0.035504 0.172702 0.217947 0.173404 -0.315322 -0.167127 -0.015147 -0.208996 0.110746 0.076052 0.117964 0.205939
retransmisión 0.200344 0.005304 0.181305 -0.205266 0.107246 0.082015 -0.004588 -0.072911 -0.063755 0.080005 -0.014393 0.084739 0.147376 0.090199 0.082550 -0.157419 0.130345 -0.002418 -0.003371 0.076686 -0.096415 0.001152 -0.054529 0.014918 0.175865 0.129260 0.072684 -0.090701 -0.100165 0.018310 0.110980 -0.033139 -0.113801 -0.144164 0.027034 -0.008930 0.074650 -0.036186 0.041394 0.164169 0.175885 0.157749 -0.259711 -0.137069 -0.028303 -0.162366 0.100753 0.052752 0.114921 0.169899
son 0.224796 -0.003301 0.213403 -0.217346 0.145870 0.091582 0.018733 -0.117757 -0.035386 0.057534 -0.006274 0.112645 0.166832 0.115093 0.088480 -0.162264 0.149416 0.017063 -0.021422 0.092299 -0.072258 -0.028726 -0.030079 0.021995 0.200943 0.139371 0.097975 -0.071379 -0.131254 -0.001359 0.123345 -0.039798 -0.150413 -0.162616 0.021006 0.011363 0.063551 -0.008284 0.053293 0.182029 0.232368 0.186561 -0.260117 -0.136846 -0.004006 -0.171109 0.092060 0.063911 0.110675 0.189084
autoridades 0.143640 0.006053 0.120866 -0.144148 0.055312 0.075569 -0.002741 -0.074168 -0.036725 0.053436 -0.009859 0.070149 0.122028 0.062321 0.067907 -0.087134 0.094157 0.024712 -0.001664 0.042920 -0.035009 -0.008932 -0.013788 -0.000426 0.118545 0.101763 0.035270 -0.035922 -0.087687 0.015687 0.063575 -0.028141 -0.090845 -0.089611 0.007334 0.000626 0.046076 -0.018871 0.033486 0.106913 0.131422 0.083515 -0.175198 -0.095644 -0.008081 -0.088814 0.048932 0.058503 0.041770 0.117371
españa 0.123424 -0.019893 0.105838 -0.134729 0.071771 0.022468 -0.012624 -0.068025 -0.015508 0.075809 -0.016645 0.032390 0.089185 0.071566 0.063919 -0.090750 0.078185 0.006928 0.006049 0.034706 -0.039539 0.010845 -0.008165 0.007534 0.105459 0.097972 0.066571 -0.067335 -0.089865 0.017326 0.066618 -0.034834 -0.082907 -0.093833 0.039994 -0.004839 0.032687 -0.020257 0.037566 0.094229 0.113940 0.093877 -0.149141 -0.082308 -0.016455 -0.106869 0.075687 0.024789 0.066264 0.115924
gran 0.199008 0.014303 0.171085 -0.189015 0.101869 0.082499 -0.001427 -0.078394 -0.046852 0.068630 -0.008809 0.087916 0.128974 0.089706 0.072461 -0.113928 0.111152 0.012371 -0.031247 0.071511 -0.063854 -0.004322 -0.026300 0.015485 0.179710 0.123256 0.064264 -0.064969 -0.113997 0.012803 0.098187 -0.040000 -0.138358 -0.124241 0.027147 0.000377 0.048281 -0.019954 0.046353 0.145050 0.171446 0.138228 -0.228794 -0.139690 -0.013776 -0.155189 0.065765 0.049267 0.081123 0.156291
cara 0.209146 0.005041 0.197828 -0.198415 0.118933 0.085927 -0.009706 -0.105032 -0.033662 0.043761 -0.007715 0.123620 0.172851 0.103813 0.092330 -0.111069 0.135442 0.012452 -0.040968 0.069281 -0.079086 -0.002915 -0.047117 0.013592 0.197562 0.143859 0.079714 -0.067011 -0.123185 0.015379 0.096647 -0.041091 -0.117006 -0.130086 0.022106 -0.002043 0.071327 -0.037143 0.054019 0.166745 0.200656 0.144024 -0.248660 -0.131079 -0.017310 -0.149483 0.063791 0.063695 0.090021 0.161538
victoria 0.213627 0.002142 0.194457 -0.204392 0.128480 0.056623 0.011692 -0.105246 -0.040270 0.075072 -0.024465 0.099367 0.154192 0.117638 0.062298 -0.156973 0.129121 0.016179 -0.005689 0.082997 -0.080522 -0.003909 -0.023952 0.020301 0.174676 0.130404 0.094342 -0.073006 -0.116774 -0.005758 0.106763 -0.047418 -0.138047 -0.138928 0.049432 -0.000475 0.048942 -0.040834 0.044183 0.156711 0.207576 0.148156 -0.260129 -0.128470 -0.023247 -0.159363 0.077484 0.036190 0.091860 0.171370
era 0.177443 0.037870 0.161476 -0.179673 0.125678 0.089685 -0.001752 -0.082304 -0.049728 0.064829 -0.016637 0.121708 0.157054 0.087402 0.058467 -0.121024 0.131191 0.007654 -0.011426 0.061073 -0.071704 -0.016670 -0.041968 0.027430 0.197705 0.128762 0.085749 -0.079135 -0.110880 0.009559 0.116182 -0.024297 -0.111229 -0.123689 0.014641 -0.012373 0.068638 -0.034291 0.054058 0.162535 0.178530 0.164446 -0.236582 -0.116475 -0.012890 -0.144980 0.078967 0.072508 0.066144 0.155013
menos 0.169028 0.009620 0.132330 -0.153483 0.108473 0.064039 0.006867 -0.063969 -0.011415 0.078548 -0.009071 0.085257 0.133653 0.091364 0.064176 -0.105972 0.103513 0.021252 -0.018838 0.049851 -0.063528 -0.005667 -0.025289 0.025301 0.149846 0.108823 0.067681 -0.066593 -0.076266 0.016530 0.081717 -0.016786 -0.123845 -0.114826 0.020265 -0.011019 0.064939 -0.024504 0.043440 0.120811 0.151053 0.094483 -0.192461 -0.110170 -0.009056 -0.136413 0.047347 0.061676 0.074168 0.128943
mucho 0.118086 0.005406 0.123229 -0.134021 0.092477 0.036233 -0.010557 -0.038133 -0.022008 0.058744 0.000645 0.059738 0.094119 0.062398 0.036694 -0.085665 0.079616 0.008782 -0.023683 0.045085 -0.055104 -0.017564 -0.031179 0.003088 0.121882 0.081188 0.048469 -0.035907 -0.062601 0.003267 0.046321 -0.014271 -0.076754 -0.089736 0.012447 -0.006800 0.033367 -0.014748 0.022856 0.083344 0.099109 0.092219 -0.160199 -0.077841 -0.004318 -0.113874 0.032641 0.037867 0.042533 0.092550
favor 0.248018 0.033945 0.223447 -0.268949 0.166403 0.089067 -0.002562 -0.122718 -0.023368 0.092723 0.001466 0.144986 0.182778 0.150034 0.086695 -0.166686 0.169282 -0.004911 -0.021527 0.080791 -0.088720 -0.048682 -0.029328 0.014579 0.241661 0.170148 0.092487 -0.105867 -0.157160 -0.009888 0.104760 -0.048894 -0.168396 -0.175304 0.012130 -0.011214 0.074408 -0.049503 0.064025 0.188456 0.232909 0.173990 -0.318811 -0.163364 0.006109 -0.209492 0.074047 0.089394 0.121161 0.230084
puede 0.185628 0.004749 0.181342 -0.192864 0.122716 0.075236 0.005937 -0.097644 -0.017882 0.067899 -0.008166 0.110534 0.155267 0.108666 0.068877 -0.097677 0.133349 0.009201 -0.016411 0.076458 -0.064453 -0.012560 -0.037711 0.040895 0.171395 0.131585 0.077009 -0.067816 -0.120347 -0.000935 0.073052 -0.008580 -0.126262 -0.142399 0.022743 0.021567 0.042561 -0.014266 0.037189 0.121362 0.161697 0.135275 -0.234149 -0.128612 -0.002239 -0.141233 0.061253 0.066239 0.090907 0.159401
rey 0.206246 0.003167 0.172730 -0.216109 0.140313 0.076082 0.009359 -0.122404 -0.040840 0.091879 -0.007836 0.106948 0.169427 0.101150 0.062361 -0.142863 0.130147 -0.003868 -0.034025 0.066210 -0.081445 -0.022549 -0.031617 0.031656 0.198778 0.142499 0.101140 -0.075037 -0.128495 -0.003765 0.098688 -0.024732 -0.160817 -0.144691 0.028191 -0.011347 0.067168 -0.020000 0.051037 0.142892 0.207006 0.158926 -0.267648 -0.137894 -0.010280 -0.172547 0.081566 0.047015 0.120141 0.197751
da 0.136602 0.030863 0.127234 -0.145032 0.070092 0.074727 0.015653 -0.053575 -0.030707 0.040468 -0.003081 0.077059 0.091430 0.063865 0.059753 -0.098715 0.098532 -0.011483 -0.014850 0.058768 -0.051534 -0.007635 -0.016072 0.018977 0.142877 0.096439 0.051085 -0.049529 -0.084121 0.000468 0.070672 -0.029017 -0.086062 -0.092606 0.015802 -0.014688 0.041712 -0.011947 0.027390 0.107569 0.137200 0.109852 -0.179224 -0.094963 -0.003282 -0.104187 0.049997 0.043152 0.070123 0.121708
está 0.145474 0.005401 0.133072 -0.152630 0.077124 0.063003 -0.003087 -0.076029 -0.005875 0.058602 -0.014507 0.075463 0.106668 0.078377 0.046709 -0.078414 0.099274 0.005724 -0.025744 0.053980 -0.031126 0.000948 -0.026006 0.016707 0.132847 0.107319 0.052975 -0.056337 -0.086941 0.002199 0.060326 -0.016288 -0.094995 -0.087826 0.015026 -0.002858 0.044408 -0.023032 0.044178 0.090058 0.114122 0.084489 -0.169571 -0.079243 -0.005799 -0.100562 0.057575 0.031658 0.065999 0.112172
golazo 0.208581 0.048185 0.198251 -0.190167 0.156460 0.098353 0.005701 -0.076117 -0.051301 0.072200 0.007541 0.143137 0.132896 0.104458 0.045738 -0.140096 0.140387 -0.011374 -0.037946 0.083889 -0.069899 -0.005830 -0.063818 0.012245 0.216701 0.142488 0.078783 -0.081545 -0.136065 -0.002586 0.121618 -0.047762 -0.120372 -0.171143 0.032584 -0.011283 0.066269 -0.033995 0.053138 0.155198 0.207144 0.182485 -0.234537 -0.121386 -0.016568 -0.175245 0.082906 0.063846 0.114360 0.178666
jugador-isco 0.071972 0.035136 0.062239 -0.055378 0.048551 0.033027 0.017061 -0.015024 -0.029975 0.013359 0.009262 0.044350 0.047835 0.028047 0.007797 -0.072790 0.051807 -0.014131 -0.008113 0.035159 -0.032246 -0.014312 -0.010819 0.014743 0.057045 0.031900 0.018797 -0.022761 -0.050166 -0.008093 0.036686 -0.037368 -0.025247 -0.049913 0.018035 -0.010295 0.025627 -0.017426 0.031521 0.044784 0.060132 0.037313 -0.073556 -0.023171 0.002260 -0.044259 0.035553 0.019518 0.049167 0.060755
queda 0.189227 0.009220 0.157497 -0.211417 0.097971 0.065528 -0.002691 -0.106614 -0.028074 0.068577 0.001065 0.108043 0.139199 0.113262 0.076211 -0.115090 0.133329 0.016145 -0.012220 0.056196 -0.079943 -0.005509 -0.034684 0.002289 0.163600 0.136344 0.077496 -0.074269 -0.120840 0.007539 0.094571 -0.021839 -0.113505 -0.130119 0.031482 0.004752 0.059899 -0.032148 0.051482 0.149567 0.161091 0.150932 -0.234219 -0.118206 -0.003925 -0.149912 0.081954 0.067699 0.084242 0.167155
juega 0.221779 0.013401 0.194671 -0.222620 0.136446 0.104835 -0.004569 -0.105716 -0.036858 0.068087 -0.019740 0.134719 0.174739 0.122140 0.067550 -0.149200 0.152616 0.014557 -0.023578 0.076020 -0.082365 -0.033280 -0.033619 0.039069 0.186960 0.141667 0.091267 -0.089297 -0.105960 0.006994 0.103041 -0.014024 -0.144925 -0.157724 0.021443 -0.010233 0.080667 -0.014120 0.037052 0.160172 0.219405 0.160381 -0.275728 -0.156453 -0.013530 -0.161217 0.080222 0.092428 0.087511 0.175984
campeon 0.277248 0.012451 0.233415 -0.259862 0.167131 0.107913 0.009335 -0.116205 -0.048044 0.128177 -0.017389 0.122477 0.189801 0.136834 0.109126 -0.202723 0.184263 0.010823 -0.021117 0.114137 -0.103633 0.003661 -0.053224 0.013686 0.242101 0.184719 0.122159 -0.130935 -0.128634 0.009792 0.146118 -0.027916 -0.196118 -0.204032 0.064929 -0.018838 0.075125 -0.050139 0.049426 0.215073 0.242638 0.189948 -0.341890 -0.169792 -0.012651 -0.211667 0.136316 0.058130 0.126693 0.237209
hecho 0.120261 0.013579 0.104319 -0.113752 0.075456 0.043073 0.012451 -0.043083 -0.039039 0.032011 0.002571 0.070652 0.092641 0.064930 0.040313 -0.071335 0.078360 -0.007611 -0.016188 0.046241 -0.039864 -0.017639 -0.024284 0.020976 0.107037 0.066981 0.040166 -0.048167 -0.066565 0.024909 0.058970 -0.014560 -0.075056 -0.083332 0.016790 -0.015903 0.033670 -0.013112 0.023166 0.088818 0.106918 0.067021 -0.126725 -0.081309 -0.006317 -0.095031 0.043065 0.029721 0.065579 0.104067
mundial 0.106848 0.013694 0.082372 -0.092626 0.061788 0.036392 0.007097 -0.071976 -0.014150 0.023847 -0.019304 0.052618 0.073260 0.057830 0.040336 -0.061205 0.065380 -0.009967 -0.021547 0.044454 -0.033776 -0.011162 -0.020426 0.036429 0.081653 0.085937 0.038522 -0.030793 -0.048902 0.004797 0.050764 -0.021663 -0.083863 -0.057435 0.008505 0.011178 0.038920 -0.001808 0.034507 0.055962 0.091652 0.077562 -0.117428 -0.071813 0.010360 -0.066165 0.031985 0.030540 0.025729 0.071436
puta 0.070304 0.008724 0.062182 -0.057815 0.018209 0.023798 -0.018978 -0.020467 -0.000266 0.012286 -0.011132 0.045919 0.053840 0.025355 0.026100 -0.043661 0.033510 0.006417 -0.014718 0.023135 -0.024147 -0.011089 0.006980 0.017307 0.053391 0.043010 0.016898 -0.015911 -0.054107 0.017760 0.038846 -0.008949 -0.024284 -0.036185 0.021234 0.001357 0.027633 -0.007737 0.017164 0.064681 0.057156 0.057960 -0.060475 -0.034106 -0.000656 -0.055233 0.016758 0.007971 0.014462 0.044533
tan 0.098221 0.012709 0.086207 -0.088624 0.062861 0.039063 0.008275 -0.051051 -0.014636 0.043326 -0.011112 0.067556 0.068581 0.054679 0.022889 -0.061856 0.077849 0.021181 0.004055 0.034901 -0.030276 -0.005678 -0.005075 0.011958 0.108242 0.055120 0.051914 -0.019157 -0.047856 -0.006464 0.055367 -0.014152 -0.078796 -0.070625 0.009684 0.001039 0.024100 -0.002776 0.018223 0.094977 0.108398 0.068482 -0.119010 -0.080985 -0.012850 -0.078493 0.032351 0.034962 0.033514 0.104693
creo 0.204168 0.017036 0.180218 -0.214202 0.112949 0.075891 -0.009570 -0.092920 -0.040247 0.059062 -0.001352 0.120543 0.154975 0.098128 0.061284 -0.131253 0.140026 0.013232 -0.038117 0.074288 -0.061993 -0.011251 -0.033521 0.024575 0.187562 0.148152 0.089297 -0.067781 -0.110640 -0.002960 0.095255 -0.015637 -0.129839 -0.127828 0.022320 -0.009865 0.059699 -0.013553 0.035240 0.147887 0.189286 0.142360 -0.235169 -0.127334 0.012474 -0.156494 0.061405 0.060180 0.079048 0.163915
decir 0.113735 -0.010872 0.102915 -0.126259 0.064873 0.041498 0.003655 -0.041892 -0.024325 0.044493 -0.015348 0.068089 0.081662 0.064720 0.039221 -0.079844 0.073671 0.005581 -0.009351 0.044913 -0.036394 0.000510 -0.038051 0.028751 0.117829 0.061096 0.040371 -0.040627 -0.055566 0.008322 0.052989 -0.016921 -0.084721 -0.071819 0.002033 0.007173 0.049983 -0.012375 0.042906 0.082035 0.121798 0.086573 -0.138754 -0.089771 0.002493 -0.094272 0.044583 0.042151 0.058866 0.101273
den 0.291360 -0.016268 0.232638 -0.273674 0.210885 0.103420 0.005431 -0.155173 -0.002523 0.087243 -0.009713 0.160916 0.221219 0.168082 0.064400 -0.184500 0.211271 -0.015383 0.009723 0.070721 -0.090899 -0.055904 -0.038591 0.039310 0.243681 0.189422 0.103569 -0.089349 -0.160677 -0.031524 0.087954 -0.009209 -0.198849 -0.186846 0.040922 -0.010346 0.073879 -0.021379 0.049638 0.172540 0.250045 0.183039 -0.349339 -0.167871 0.027827 -0.190078 0.047235 0.056712 0.136470 0.267666
medalla 0.094681 0.022044 0.072550 -0.081678 0.040525 0.024735 0.008519 -0.043668 -0.019583 0.031111 0.004225 0.042728 0.089127 0.059281 0.036791 -0.047736 0.051665 -0.000718 0.002555 0.023823 -0.029077 0.000139 -0.023388 0.006897 0.065966 0.047366 0.052122 -0.041021 -0.064670 0.006909 0.053117 -0.013134 -0.066296 -0.065932 0.016199 -0.011668 0.031291 -0.008227 0.003786 0.075426 0.082550 0.058743 -0.103185 -0.055358 -0.014655 -0.066079 0.023980 0.017924 0.020311 0.068811
mierda 0.129071 -0.004404 0.094230 -0.121549 0.070557 0.068892 -0.012799 -0.065338 -0.013714 0.020978 -0.002981 0.066206 0.084910 0.048941 0.054048 -0.078749 0.064693 0.013393 -0.015746 0.045062 -0.048103 -0.008061 -0.028269 0.006307 0.111567 0.074206 0.049822 -0.049973 -0.067438 -0.012001 0.048445 -0.026665 -0.077914 -0.078365 0.007471 0.012237 0.054081 -0.006420 0.026500 0.090763 0.110495 0.094294 -0.146681 -0.097399 -0.024018 -0.079874 0.048954 0.030383 0.050984 0.088221
ole 0.131077 0.006382 0.131830 -0.131188 0.080365 0.034551 0.002962 -0.077037 -0.014897 0.060758 -0.025658 0.046168 0.087123 0.066403 0.043114 -0.084338 0.064146 0.020906 -0.019280 0.052647 -0.033384 -0.003954 -0.032717 0.007668 0.129801 0.089049 0.067269 -0.047120 -0.056424 0.009345 0.073464 -0.029935 -0.089731 -0.098856 0.030480 -0.024839 0.036000 -0.013041 0.045454 0.082228 0.106708 0.102125 -0.184208 -0.078184 0.003099 -0.121649 0.056682 0.024750 0.049740 0.114310
palo 0.095319 0.011910 0.066706 -0.063169 0.035481 0.037934 -0.014793 -0.015877 0.000272 0.018645 -0.012070 0.033967 0.043023 0.039795 0.013445 -0.034133 0.046825 0.014907 -0.022563 0.030708 -0.023237 -0.009492 -0.009074 -0.005334 0.096197 0.053224 0.021088 -0.027306 -0.053688 0.022994 0.031583 -0.022748 -0.069454 -0.062099 -0.003903 0.006514 0.023713 -0.013533 0.000131 0.059907 0.053199 0.039097 -0.058179 -0.063752 0.000848 -0.071037 0.028690 0.046926 0.035617 0.047907
voy 0.083372 0.003632 0.056296 -0.095160 0.062422 0.032068 -0.000799 -0.048748 -0.005401 0.036689 0.002893 0.051419 0.064611 0.048082 0.025278 -0.070801 0.070907 0.015744 0.014645 0.030041 -0.037119 -0.021010 -0.006611 0.018852 0.093605 0.049308 0.058171 -0.005920 -0.047193 0.010787 0.025581 -0.004945 -0.068727 -0.068037 -0.011973 -0.007724 0.043620 -0.007726 0.036519 0.056929 0.096978 0.056135 -0.122644 -0.070197 -0.006202 -0.067231 0.014484 0.015184 0.028040 0.068165
hace 0.106768 0.001911 0.112946 -0.122354 0.084977 0.055372 -0.005662 -0.062115 -0.027168 0.047361 -0.016048 0.058573 0.091137 0.063840 0.034593 -0.078682 0.091634 0.008589 -0.015113 0.037214 -0.046357 -0.006103 -0.018007 0.004123 0.100410 0.095163 0.037934 -0.032275 -0.066684 0.002603 0.051869 -0.008510 -0.063157 -0.100261 0.014814 0.007307 0.046026 -0.016406 0.030648 0.097205 0.122529 0.086974 -0.170974 -0.067029 -0.001616 -0.097961 0.044331 0.050266 0.051479 0.099404
temporada 0.124687 0.002596 0.091738 -0.124939 0.064263 0.049365 -0.011647 -0.058829 -0.028912 0.033472 -0.010029 0.064604 0.094113 0.070527 0.045865 -0.063095 0.079349 0.003776 -0.019024 0.038690 -0.031626 -0.012873 -0.018667 0.005284 0.104818 0.061360 0.048053 -0.035389 -0.053458 -0.002630 0.067189 -0.007859 -0.087326 -0.076800 0.009268 -0.012029 0.029467 -0.014547 0.018125 0.087404 0.119494 0.082607 -0.142068 -0.089241 -0.013250 -0.085818 0.060467 0.039325 0.041332 0.104464
estaba 0.074377 0.013563 0.056555 -0.058757 0.041927 0.036593 0.004034 -0.045835 -0.005649 0.004414 -0.009155 0.037342 0.049882 0.020994 0.008702 -0.021669 0.047090 0.004843 -0.008804 0.046496 -0.020435 -0.018573 -0.016289 0.001998 0.076554 0.046751 0.025260 -0.015190 -0.018117 0.002539 0.034772 -0.022558 -0.028666 -0.041958 0.010399 -0.003956 0.029402 -0.008540 0.039007 0.053068 0.075989 0.038557 -0.065553 -0.044388 -0.000766 -0.047186 0.030481 0.030871 0.024644 0.055780
quien 0.082639 0.002000 0.086128 -0.103131 0.065662 0.051455 0.016245 -0.061330 -0.013379 0.040450 -0.011554 0.055285 0.072146 0.047944 0.038419 -0.079862 0.065441 -0.014187 -0.007755 0.035140 -0.052803 -0.014747 -0.005025 0.003779 0.107176 0.078788 0.046015 -0.042316 -0.060888 0.006672 0.049270 -0.017386 -0.071974 -0.058034 0.032749 0.012971 0.050760 -0.004314 0.027720 0.057727 0.100605 0.089702 -0.129303 -0.051841 -0.000518 -0.066030 0.051748 0.033892 0.037893 0.089399
título 0.103509 0.004259 0.069425 -0.065722 0.047593 0.047698 -0.004303 -0.037037 -0.026498 0.044449 0.006372 0.026384 0.055034 0.033921 0.033947 -0.056533 0.075438 -0.013709 0.000330 0.039780 -0.032138 0.002815 -0.004868 0.003977 0.084720 0.062565 0.050170 -0.026395 -0.056032 0.000886 0.052364 -0.017938 -0.054711 -0.074583 0.011307 -0.002165 0.035275 -0.018362 0.028812 0.077829 0.084634 0.083689 -0.104840 -0.054369 -0.013320 -0.064455 0.051801 0.020328 0.056574 0.061623
vaya 0.128206 0.011795 0.092301 -0.128453 0.067299 0.060405 0.009656 -0.065146 -0.023324 0.037119 -0.005806 0.091513 0.085818 0.058626 0.050854 -0.074050 0.086327 0.008168 -0.014085 0.043034 -0.050999 0.000217 -0.025997 0.024049 0.109698 0.102542 0.057016 -0.050151 -0.087047 0.017237 0.048103 -0.019779 -0.089503 -0.089347 0.010254 0.005736 0.040110 -0.007726 0.027353 0.081826 0.119373 0.091745 -0.163096 -0.084423 -0.015585 -0.079502 0.024221 0.023253 0.054119 0.113149
amo 0.071384 -0.007614 0.079859 -0.081160 0.059593 0.016543 -0.001713 -0.050860 0.003555 0.031575 0.006403 0.033306 0.054796 0.044130 0.017593 -0.064529 0.073520 0.007053 -0.009840 0.036321 -0.024694 0.009346 -0.031752 0.003042 0.080954 0.039633 0.040623 -0.023732 -0.047423 0.006035 0.033889 -0.015011 -0.060330 -0.050784 0.005675 -0.007496 0.020039 -0.010721 0.010136 0.081013 0.072690 0.077672 -0.103884 -0.050688 -0.009338 -0.062638 0.018156 0.032664 0.026186 0.060401
bandera -0.007637 -0.020495 -0.031792 0.007719 -0.007669 -0.032607 -0.004799 -0.015804 0.006481 0.014820 -0.019692 -0.024690 -0.021140 0.004792 0.004443 -0.008605 0.013086 0.017142 0.015498 -0.022824 0.023054 -0.014890 0.002377 0.010067 0.002801 0.010749 -0.000583 -0.011066 -0.017555 0.004477 -0.033313 0.007518 0.021284 0.002120 0.012189 -0.006463 -0.009171 -0.003688 0.009945 -0.028415 -0.009217 -0.008211 0.020010 0.009811 -0.003619 -0.004116 0.002507 -0.004982 0.009862 0.009964
falta 0.080777 0.000933 0.073031 -0.100113 0.053718 0.054771 -0.015086 -0.044448 -0.024714 0.039783 -0.018303 0.053664 0.054683 0.049684 0.032514 -0.068033 0.058642 -0.002344 -0.018205 0.034290 -0.035069 0.000469 -0.014713 0.020116 0.069158 0.050124 0.042524 -0.027931 -0.046497 0.001124 0.045716 -0.023340 -0.056342 -0.045002 0.004302 -0.002517 0.022757 -0.025266 0.030571 0.071778 0.095420 0.049356 -0.114901 -0.060120 0.007260 -0.075565 0.039909 0.032327 0.056766 0.078526
mal 0.101335 0.006953 0.084501 -0.083883 0.074427 0.046061 0.007020 -0.035788 0.004655 0.032375 -0.002374 0.040509 0.065192 0.052125 0.030372 -0.068384 0.055661 0.016520 -0.009043 0.033308 -0.033207 -0.003928 -0.008112 0.016905 0.089293 0.056020 0.024908 -0.027101 -0.043849 0.002768 0.041837 -0.008006 -0.081847 -0.080562 0.014329 -0.015115 0.046101 -0.017617 0.020843 0.074127 0.088107 0.053558 -0.105877 -0.062942 0.000323 -0.058211 0.020822 0.025419 0.046338 0.084200
quiero 0.111165 -0.006350 0.090258 -0.107560 0.083963 0.049414 -0.002414 -0.063609 -0.007327 0.043286 -0.010664 0.067734 0.089021 0.059059 0.043954 -0.077075 0.077836 0.007273 0.003908 0.029574 -0.031800 -0.008876 -0.009749 0.012578 0.113629 0.089104 0.047106 -0.055443 -0.070127 0.002767 0.045732 -0.023710 -0.084837 -0.074201 0.012625 -0.008789 0.030455 -0.005211 0.033360 0.075438 0.116243 0.079204 -0.130385 -0.082379 0.007663 -0.100189 0.051608 0.027039 0.036177 0.098103
campo 0.088634 0.021818 0.062530 -0.078541 0.044234 0.024775 0.004704 -0.042740 -0.014774 0.037129 -0.011253 0.065234 0.075936 0.052107 0.023792 -0.039402 0.062062 0.009068 -0.019473 0.033359 -0.017513 0.005040 -0.022739 0.005073 0.078533 0.059930 0.035774 -0.022444 -0.058018 -0.000497 0.046455 -0.019713 -0.045872 -0.056570 0.012047 -0.003712 0.042219 -0.028158 0.016675 0.072670 0.077177 0.063708 -0.101508 -0.037891 0.006977 -0.069106 0.038048 0.024306 0.046903 0.085421
fin 0.045566 -0.001252 0.058871 -0.068825 0.038325 0.024460 -0.008555 -0.028144 -0.006823 0.024948 0.001226 0.041382 0.046063 0.027984 0.006827 -0.047239 0.025108 -0.002453 -0.010707 0.024066 -0.039119 -0.013772 -0.013407 -0.010003 0.061914 0.037256 0.019691 -0.020135 -0.030569 -0.005645 0.024091 0.012009 -0.044554 -0.045604 0.011725 -0.008523 0.026854 -0.027633 0.024618 0.062561 0.060872 0.058245 -0.066036 -0.040300 -0.019905 -0.042797 0.025751 0.030273 0.011239 0.052021
fuera 0.113906 0.008100 0.117714 -0.129922 0.071742 0.053224 -0.010938 -0.055178 -0.018348 0.030780 -0.017795 0.060495 0.102607 0.042813 0.023036 -0.066403 0.070907 -0.010581 -0.012503 0.035171 -0.037247 -0.002208 -0.004654 0.032530 0.106043 0.077765 0.050582 -0.046363 -0.066979 0.002709 0.068509 -0.021547 -0.066393 -0.075410 0.002541 0.012270 0.039007 -0.025200 0.034781 0.095867 0.108340 0.089258 -0.127035 -0.081614 -0.000328 -0.098256 0.046407 0.030556 0.040543 0.100920
juego 0.067901 0.006033 0.073548 -0.072041 0.032711 0.024860 -0.003262 -0.047734 -0.008365 0.017083 -0.022076 0.053206 0.059332 0.020855 0.026816 -0.036493 0.046939 0.010256 -0.017462 0.032705 -0.022110 0.007554 -0.012441 0.022787 0.069933 0.056646 0.031129 -0.032019 -0.035905 -0.007644 0.022129 -0.000399 -0.050154 -0.032170 0.011993 0.002534 0.012293 0.000405 0.023237 0.055568 0.067976 0.047806 -0.082339 -0.046292 -0.013276 -0.058413 0.027754 0.020963 0.018068 0.066006
mismo 0.092711 -0.006649 0.089749 -0.115347 0.069950 0.055293 0.004939 -0.056056 -0.018334 0.024943 0.000331 0.067925 0.067970 0.054067 0.032418 -0.067584 0.081901 0.009417 -0.015417 0.035319 -0.031231 -0.015708 -0.001969 0.031206 0.093144 0.066805 0.037781 -0.022508 -0.069472 0.013080 0.047630 0.008401 -0.050327 -0.077243 0.000997 -0.000126 0.039833 -0.010137 0.038573 0.053180 0.095611 0.064353 -0.121141 -0.057471 -0.004556 -0.075758 0.033076 0.042238 0.050741 0.067685
pasa 0.141662 -0.005741 0.125199 -0.163070 0.090469 0.055243 0.000780 -0.068055 -0.010536 0.055951 -0.017360 0.076444 0.117553 0.084066 0.036010 -0.095398 0.104795 0.003073 -0.009215 0.054852 -0.031497 -0.031743 -0.034573 0.007602 0.144143 0.116117 0.056904 -0.052386 -0.065286 0.008151 0.055561 -0.015187 -0.088332 -0.108775 0.007928 -0.003973 0.043107 -0.005730 0.032453 0.106139 0.142729 0.118787 -0.159374 -0.096395 0.003704 -0.115521 0.031398 0.046513 0.050443 0.136695
jugado 0.083176 0.019662 0.080242 -0.076192 0.043416 0.021661 -0.011712 -0.046517 -0.009965 0.016183 -0.008682 0.054523 0.074548 0.057672 0.028275 -0.048878 0.060702 -0.003564 -0.023460 0.028584 -0.032124 -0.025967 -0.033201 0.010859 0.090046 0.070246 0.040118 -0.022446 -0.047120 0.011429 0.051261 -0.015203 -0.062115 -0.062786 0.008689 0.017275 0.029999 -0.008927 0.017455 0.060205 0.077791 0.048154 -0.109686 -0.040870 0.000378 -0.062093 0.014163 0.019903 0.025467 0.074798
tanto 0.104898 0.017506 0.097173 -0.084558 0.053994 0.049976 0.006037 -0.049259 -0.021624 0.022031 0.002909 0.046461 0.074246 0.044027 0.038466 -0.054237 0.071004 0.004190 -0.028065 0.046846 -0.036545 -0.006834 -0.016926 0.003918 0.088492 0.067133 0.044630 -0.022576 -0.064940 -0.010864 0.053117 -0.002635 -0.062443 -0.071415 0.005995 0.008004 0.032873 -0.001548 0.026055 0.074179 0.082004 0.058773 -0.123254 -0.075174 0.004801 -0.075555 0.049255 0.045146 0.031574 0.073884
titulo 0.051019 -0.001834 0.043013 -0.049666 0.037643 0.008325 -0.010212 -0.034295 -0.004852 0.025045 0.002717 0.027287 0.038691 0.039662 0.020390 -0.048483 0.056625 0.007074 0.005867 0.016987 -0.014774 -0.003052 -0.019207 0.003229 0.055396 0.037906 0.028301 -0.021858 -0.034722 -0.011250 0.038218 -0.004461 -0.027069 -0.043248 0.029134 -0.006286 0.021668 -0.020029 0.006381 0.040517 0.052712 0.056626 -0.061085 -0.019067 -0.028504 -0.035599 0.009324 0.007220 0.022897 0.032592
años 0.063342 0.000161 0.075461 -0.078655 0.061978 0.029381 -0.021697 -0.043567 -0.014152 0.017027 -0.001814 0.054955 0.083876 0.040643 0.028669 -0.037715 0.078400 0.004458 -0.007388 0.018989 -0.015338 -0.004504 -0.008190 0.002375 0.078594 0.069848 0.035224 -0.019328 -0.053065 0.010827 0.031173 -0.004634 -0.055860 -0.055684 0.017935 0.000493 0.012256 -0.018916 0.017971 0.070371 0.079375 0.043586 -0.100061 -0.056455 0.004562 -0.046404 0.019387 0.037581 0.032344 0.072394
otro 0.024439 0.007095 0.007810 -0.019095 0.017425 0.023356 0.013969 -0.003968 0.000812 -0.003364 -0.004024 0.012808 0.005064 0.010293 0.018265 -0.010741 0.011816 -0.010597 0.000225 -0.000022 -0.001151 0.008674 0.006455 -0.011374 0.019131 0.017320 0.003643 -0.005538 -0.016150 0.018229 0.022378 -0.012876 -0.013062 -0.021444 -0.012261 0.007066 -0.000149 -0.011690 0.009748 0.015832 0.010135 0.035625 -0.018860 -0.015136 -0.005565 -0.009797 0.002044 -0.003319 0.008519 0.018219
pa 0.098189 0.008214 0.070026 -0.087414 0.052047 0.039354 -0.004501 -0.043229 -0.027347 0.021356 0.012579 0.033920 0.071645 0.052483 0.020482 -0.053646 0.058821 0.004814 -0.009529 0.030480 -0.029564 0.003175 -0.033335 -0.002306 0.080687 0.051388 0.050485 -0.019920 -0.063577 -0.011674 0.044271 -0.016065 -0.069548 -0.042770 0.015299 0.000056 0.028699 -0.024799 0.032426 0.068573 0.072867 0.051857 -0.097845 -0.051823 -0.010251 -0.057982 0.021109 0.023037 0.055595 0.079957
semana 0.092062 0.015531 0.054701 -0.069717 0.048688 0.042063 -0.011007 -0.035485 -0.024394 0.030240 -0.008219 0.044781 0.069857 0.055759 0.024298 -0.043972 0.055919 0.009357 -0.015769 0.021231 -0.028523 -0.001105 -0.014312 -0.004955 0.083706 0.052832 0.041790 -0.036944 -0.046325 -0.000212 0.054088 -0.015181 -0.053392 -0.064047 -0.006240 -0.002781 0.027898 -0.007539 0.029437 0.070336 0.081331 0.063200 -0.092769 -0.076626 -0.002608 -0.068120 0.033860 0.029592 0.029680 0.051694
arbitro 0.085794 0.000759 0.064681 -0.074571 0.046566 0.020546 0.000152 -0.046717 -0.009873 0.031788 -0.000308 0.035671 0.065081 0.027736 0.015325 -0.058993 0.045056 -0.007324 -0.020990 0.026765 -0.014564 -0.012740 0.001003 0.011756 0.062929 0.056239 0.037614 -0.026228 -0.057725 0.002982 0.051413 -0.018375 -0.038698 -0.050237 -0.000783 -0.004670 0.027680 0.003148 0.021189 0.049671 0.078256 0.056912 -0.084897 -0.041481 0.002415 -0.054036 0.041194 0.038836 0.022953 0.059225
capote 0.062254 -0.001407 0.028794 -0.054091 0.038020 0.027141 -0.001608 -0.046587 0.013805 0.026253 0.000249 0.046331 0.037939 0.057538 0.018027 -0.031748 0.037208 0.015141 -0.008359 -0.010450 -0.010331 0.003398 -0.011597 0.004761 0.070256 0.045594 0.041920 -0.019269 -0.026786 -0.025465 0.033798 0.001522 -0.046064 -0.040855 0.008395 -0.005345 0.004982 0.000821 -0.006112 0.023803 0.062935 0.033679 -0.102871 -0.032855 0.008806 -0.042739 0.011585 0.010689 0.034759 0.060661
crack 0.037798 0.016929 0.032189 -0.034614 0.022712 0.011027 0.002499 -0.015814 0.003788 0.010078 -0.011120 0.037811 0.022241 0.032804 0.024456 -0.035600 0.025350 0.002757 0.003029 0.025329 -0.015562 0.001921 -0.014075 0.013324 0.044878 0.033885 0.013856 -0.027885 -0.025291 -0.006847 0.014934 0.010969 -0.029903 -0.030275 0.011931 -0.014989 0.018764 -0.001083 0.021352 0.017716 0.042108 0.031525 -0.051975 -0.023568 -0.003622 -0.034930 0.010962 0.022723 0.019784 0.026478
fútbol 0.059716 0.001754 0.045557 -0.043563 0.031164 0.023910 0.009765 -0.022138 -0.020042 0.028306 -0.015687 0.016808 0.033509 0.020295 0.016664 -0.041390 0.029427 0.004424 -0.018564 0.013198 -0.014455 -0.005651 -0.006252 0.021353 0.057955 0.048196 0.022151 -0.022447 -0.016036 0.005674 0.009525 -0.002303 -0.035561 -0.024779 0.017087 -0.010912 0.012791 -0.006654 0.031584 0.024650 0.046918 0.047854 -0.056228 -0.016311 0.002039 -0.038461 0.013645 0.002740 0.033423 0.045285
hacer 0.023032 -0.003776 0.016610 -0.035256 0.008713 0.025453 0.008892 -0.019017 -0.003197 0.005325 0.012528 0.004762 0.023230 0.008168 0.021083 0.004478 0.024848 0.001280 -0.010896 0.010101 0.002635 -0.006855 -0.002832 0.020078 0.025606 0.027735 0.012945 -0.008458 -0.024163 -0.001241 0.011211 -0.002664 -0.014004 -0.013888 0.003330 0.016023 0.007504 0.005221 -0.008271 0.023985 0.026190 0.026382 -0.048115 -0.021639 0.018077 -0.009971 0.017503 0.014429 0.018255 0.032269
hubiera 0.038249 0.004416 0.054016 -0.053185 0.019258 0.017536 -0.009968 -0.030515 -0.008444 0.014162 -0.004468 0.026298 0.018840 0.036040 -0.001591 -0.018002 0.027343 -0.007177 -0.015629 0.009281 -0.017753 -0.008233 0.009279 0.003928 0.056633 0.019075 0.037082 -0.025113 -0.004702 0.008404 0.032000 -0.004684 -0.031157 -0.038996 -0.016788 -0.011484 -0.002500 0.009582 0.005205 0.021093 0.048962 0.015337 -0.060446 -0.037495 -0.005063 -0.024661 0.005318 0.015478 0.017104 0.040729
jugador-xavi_hernández 0.010467 0.003765 0.026433 -0.034894 0.012388 0.014598 -0.012848 -0.019336 -0.012616 0.002523 0.011505 0.022020 0.004143 0.009701 0.002470 -0.017664 0.001962 0.004668 -0.006924 0.023342 -0.006274 0.001093 0.002853 0.003555 0.020102 0.025573 0.005192 -0.018209 -0.014349 0.011793 0.012554 -0.010274 -0.023394 -0.020680 0.006978 0.000310 0.008994 -0.004780 0.011431 0.022072 0.012700 0.019131 -0.011378 -0.024659 -0.001481 -0.022850 0.017763 0.009780 0.016760 0.003616
mejores 0.062940 0.003501 0.059193 -0.061752 0.053696 0.020523 0.009477 -0.015297 -0.023017 0.030129 0.003507 0.018150 0.044665 0.037027 0.012704 -0.048995 0.025008 0.007678 0.004539 0.014793 -0.034405 -0.013176 -0.000838 0.009686 0.055061 0.037310 0.040645 -0.018918 -0.034182 0.000331 0.034594 -0.007786 -0.044166 -0.030652 0.013392 0.000179 0.005961 -0.017562 0.000497 0.060267 0.069090 0.053937 -0.092032 -0.050605 -0.008292 -0.062674 0.018593 0.008883 0.033273 0.056725
perder 0.035812 0.004568 0.034106 -0.051811 0.009595 0.012547 -0.011132 -0.012978 0.011427 0.006786 -0.000027 0.022388 0.041981 0.019528 0.016473 -0.021024 0.021835 -0.012801 -0.020589 0.013499 -0.004740 -0.011338 -0.013819 0.011709 0.022365 0.013812 0.026174 -0.012156 -0.011496 0.000808 0.019200 0.001632 -0.017139 -0.028968 -0.008660 -0.000144 0.012169 0.002239 0.015927 0.007297 0.034916 0.027392 -0.029994 -0.023476 -0.008053 -0.029234 0.002889 0.016711 -0.000877 0.019715
somos 0.082888 -0.022377 0.074463 -0.066465 0.061435 0.043437 0.009832 -0.024400 -0.037926 0.049633 -0.009425 0.030061 0.064543 0.025699 0.034475 -0.079638 0.044027 0.003617 0.005367 0.045568 -0.037470 -0.000824 -0.019227 0.007201 0.071962 0.049759 0.034783 -0.044066 -0.046106 0.008852 0.057964 -0.022659 -0.060457 -0.061987 0.014641 0.013662 0.013044 -0.015387 0.019846 0.061996 0.064934 0.079195 -0.135546 -0.057367 -0.019230 -0.069109 0.054528 0.016360 0.063101 0.082993
también 0.056024 0.003942 0.039196 -0.031698 0.027447 0.027889 -0.000046 -0.035949 -0.009669 0.022522 -0.004124 0.043201 0.030404 0.012812 0.007667 -0.042204 0.036301 0.008200 -0.009946 0.026282 -0.024839 -0.006222 -0.004452 0.003959 0.040099 0.040670 0.034394 -0.036217 -0.016640 0.003247 0.019892 -0.007319 -0.034517 -0.029147 0.000240 -0.005004 0.003209 0.009895 0.006245 0.052964 0.041115 0.037313 -0.052926 -0.031676 -0.002973 -0.057564 0.018056 0.010063 0.014786 0.028153
visto 0.015429 0.011378 0.023108 -0.012614 0.020299 -0.003048 -0.001880 -0.008419 -0.002266 0.002444 -0.007925 0.022575 0.003248 0.007466 0.014026 -0.023361 0.027312 -0.011597 0.012946 0.007504 -0.021146 0.006933 -0.001174 0.011194 0.017938 0.004714 0.012544 -0.020948 -0.008176 -0.003605 -0.009902 0.002239 -0.003564 -0.022738 0.004339 0.002122 -0.013563 -0.005389 0.020407 0.022080 0.017454 0.000487 -0.025862 0.003071 -0.001090 -0.008980 0.002664 -0.010758 0.010787 0.024344
claro 0.026574 0.007051 0.001553 -0.016851 0.021693 0.001717 0.014594 -0.025058 -0.020621 0.007164 0.012144 0.027368 0.003929 0.001548 0.010266 -0.014767 0.020388 0.009574 -0.019349 0.016706 -0.013775 0.001087 -0.001619 -0.007367 0.024543 0.018071 0.003317 0.006910 -0.002890 -0.001126 -0.003137 -0.004827 -0.010526 -0.004715 0.011182 0.017640 0.014044 -0.009661 0.001068 0.007122 0.007529 0.011716 -0.009259 -0.009086 0.003930 -0.003833 0.014635 0.014287 -0.008187 0.002436
estoy 0.059183 -0.007245 0.066140 -0.060699 0.023764 0.019415 0.017657 -0.033832 -0.011628 0.027499 0.003137 0.034480 0.031776 0.022458 0.019835 -0.052135 0.038650 0.003346 -0.008454 0.025333 -0.029539 -0.013995 -0.018966 0.023818 0.066391 0.035191 0.047205 -0.009628 -0.022520 0.002840 0.040385 -0.006417 -0.044506 -0.044205 0.014107 -0.008189 0.021321 -0.010141 -0.001053 0.050820 0.063250 0.030396 -0.065893 -0.045751 -0.003299 -0.038976 0.010064 0.020477 0.013532 0.054284
hizo 0.070994 -0.011894 0.072209 -0.057814 0.038867 0.028469 -0.005408 -0.041880 -0.014355 0.004314 -0.003533 0.036940 0.047800 0.023423 0.021969 -0.062509 0.057711 -0.007145 -0.001947 0.033680 -0.028017 -0.002728 -0.015572 0.003936 0.074349 0.047406 0.029241 -0.034287 -0.051344 0.008615 0.032817 -0.021459 -0.043449 -0.045549 0.011034 -0.000575 0.007384 -0.017499 0.027773 0.054165 0.071436 0.064017 -0.080794 -0.042407 -0.016247 -0.058068 0.014704 0.039595 0.034287 0.052203
jugador-cesc_fábregas 0.012654 0.003534 0.025408 -0.027486 0.017292 -0.003742 -0.007890 -0.012859 -0.004791 -0.006410 0.002461 0.020185 0.019372 0.011576 -0.004967 0.001230 0.024274 0.000679 -0.009459 0.015661 0.003023 0.008814 0.004809 -0.007674 0.010134 0.010561 -0.005762 -0.009184 -0.008723 0.015415 0.018415 -0.011452 -0.016263 -0.011886 0.005981 -0.001999 0.006990 -0.006454 0.007656 0.018186 0.021973 0.015256 -0.017537 -0.000707 -0.007531 -0.011224 -0.011608 -0.002146 0.002230 0.007072
jugadores 0.030511 0.007618 0.019238 -0.040760 -0.001400 0.016926 -0.001916 -0.013055 0.007407 0.013288 -0.012443 0.007352 0.023540 0.010633 0.008701 -0.016610 0.009250 -0.005458 -0.004428 -0.004791 0.006118 0.007564 -0.008838 -0.003010 0.040310 0.019657 -0.000242 -0.010957 -0.018978 0.003734 0.021015 -0.004307 -0.015327 -0.013895 0.015805 0.001454 0.010321 -0.015127 0.010665 0.037439 0.038193 0.024360 -0.038764 -0.028323 -0.000395 -0.022387 0.006468 0.024074 0.006079 0.012631
millones 0.050195 0.000399 0.065179 -0.066045 0.053302 0.028824 -0.007704 -0.023320 -0.011420 0.028884 -0.003890 0.039083 0.046358 0.041451 0.001206 -0.065206 0.055337 0.012902 0.000079 0.046609 -0.019628 -0.004177 -0.000496 0.001932 0.067375 0.043269 0.028819 -0.029077 -0.039390 0.007941 0.040380 -0.014395 -0.026514 -0.061106 0.022534 -0.009568 0.028327 -0.009258 0.015818 0.045094 0.076127 0.044579 -0.076530 -0.048434 -0.011976 -0.074468 0.027821 0.026208 0.031309 0.059323
nunca 0.025697 0.011185 0.042299 -0.033933 0.025406 0.008195 -0.001102 -0.001233 -0.007428 0.013342 -0.004651 0.019914 0.017475 0.000036 0.012482 -0.016033 0.021481 0.004775 -0.010913 0.027051 -0.010718 -0.001879 -0.004298 0.007464 0.020666 0.022172 0.024119 -0.024204 -0.019299 -0.000478 0.005187 0.001244 -0.016262 -0.021209 0.017076 0.013523 0.004791 -0.016891 0.006258 0.011161 0.031150 0.024973 -0.039058 -0.011644 0.000040 -0.022092 0.005341 0.014230 0.000836 0.030782
soy 0.051058 0.002004 0.046764 -0.079603 0.025545 0.007959 0.012324 -0.029935 -0.007807 0.023495 -0.009815 0.038266 0.044072 0.026185 0.022124 -0.045555 0.042517 0.002753 -0.003564 0.022379 -0.017375 -0.014599 0.009375 0.010865 0.058206 0.023718 0.025942 -0.007252 -0.017962 -0.002998 0.019776 0.016720 -0.041157 -0.058423 -0.005050 0.015999 0.024694 -0.011754 0.022934 0.046570 0.048541 0.037831 -0.077251 -0.046131 -0.008572 -0.038890 0.012322 0.022770 0.010690 0.047623
tener 0.038124 0.000495 0.031865 -0.050869 0.027541 0.030220 0.001949 -0.022859 -0.016553 0.019718 -0.011447 0.040733 0.031469 0.036460 0.010666 -0.014079 0.034843 0.002466 0.007338 0.017336 -0.024024 -0.015992 -0.000726 0.001153 0.062380 0.048172 0.024690 -0.003433 -0.019633 0.006361 0.016473 -0.005127 -0.029473 -0.038457 0.012300 0.009822 0.022759 0.007016 0.010772 0.027758 0.055107 0.024854 -0.057716 -0.040247 0.003041 -0.035341 0.018413 0.013745 0.028013 0.044495
eh 0.091945 -0.011924 0.072300 -0.092191 0.064973 0.043426 -0.002138 -0.033807 -0.030824 0.025447 -0.008181 0.034274 0.057297 0.031164 0.033261 -0.062640 0.066316 0.015000 -0.002876 0.027322 -0.022142 -0.013076 -0.015056 -0.000778 0.065546 0.040500 0.026815 -0.043836 -0.056412 -0.002318 0.035419 -0.019161 -0.054597 -0.054350 0.007546 -0.003124 0.027675 -0.009305 0.019215 0.046852 0.078333 0.052034 -0.093499 -0.058744 0.007499 -0.065165 0.024673 0.018650 0.033607 0.060981
gano 0.080804 0.003022 0.070766 -0.081688 0.036938 0.040530 0.005415 -0.030811 -0.008137 0.024785 0.001245 0.016413 0.044892 0.027544 0.045643 -0.053592 0.041726 0.014253 -0.005668 0.027867 -0.025168 0.015538 -0.008652 0.008014 0.067830 0.047205 0.035435 -0.029888 -0.051629 0.006917 0.025923 0.003058 -0.057970 -0.059792 0.026858 -0.007741 0.011698 0.002215 0.017461 0.063861 0.067964 0.059722 -0.093423 -0.050948 -0.003842 -0.053417 0.034893 0.017528 0.008721 0.062062
jugador-dani_carvajal 0.039084 -0.005711 0.040888 -0.046283 0.028974 0.016694 0.015204 -0.028541 -0.011751 0.026168 -0.002130 0.025237 0.036774 0.014177 0.016263 -0.037187 0.024905 0.016608 0.005101 0.020172 -0.025619 0.000864 -0.005851 -0.005831 0.038437 0.030955 0.015741 -0.024053 -0.018590 0.010523 0.026726 -0.011127 -0.014067 -0.033186 -0.006508 -0.013744 0.020078 -0.008320 0.008528 0.046112 0.031957 0.027988 -0.048087 -0.032180 0.000704 -0.036791 0.027433 0.007056 0.034593 0.027965
pena 0.038665 0.025349 0.035883 -0.037521 0.007359 0.035211 0.014160 -0.018848 -0.021538 -0.003161 0.000678 0.033849 0.003788 0.003198 0.011362 -0.009879 0.017196 -0.016395 0.000289 0.010229 -0.011596 -0.009896 0.001374 0.014354 0.034278 0.022435 0.004582 0.004068 -0.012162 -0.003090 0.028281 -0.006561 -0.021196 -0.026197 -0.013279 0.006548 0.011656 -0.001982 -0.001266 0.026856 0.031299 0.030816 -0.026916 -0.023798 0.008472 -0.009983 0.012146 0.015244 0.002120 0.018436
pierde 0.067209 0.012044 0.071928 -0.090329 0.053259 0.030114 0.007070 -0.026182 -0.026345 0.026776 -0.015960 0.040412 0.066608 0.027367 0.033092 -0.043713 0.050059 -0.005082 -0.022162 0.015102 -0.029569 -0.010154 -0.009897 -0.003869 0.052128 0.049187 0.035549 -0.038181 -0.041902 0.012266 0.029710 -0.008257 -0.052049 -0.059979 0.007131 0.005143 0.034730 -0.006308 0.025225 0.050894 0.073068 0.070726 -0.095084 -0.058438 -0.008760 -0.041227 0.024152 0.033653 0.024523 0.053792
buen 0.038562 -0.009606 0.020080 -0.046891 0.033891 0.028901 0.004573 -0.020899 -0.002680 0.023566 -0.002733 0.025648 0.026513 -0.001422 0.020707 -0.032377 0.024859 0.005727 -0.008202 0.019075 -0.007115 0.001132 -0.009535 -0.001288 0.029684 0.038061 0.027563 -0.024842 -0.022053 0.005524 0.023528 -0.011303 -0.021738 -0.039413 0.005750 0.011711 0.024677 0.001180 0.006072 0.029415 0.033572 0.026023 -0.058984 -0.020171 -0.012366 -0.024412 0.013860 0.005978 0.013927 0.041712
cojones -0.001075 -0.009348 -0.006798 0.000892 0.005652 -0.015596 0.015742 0.004570 -0.015474 0.006188 0.006860 -0.000704 0.000021 0.005850 0.001231 -0.000405 -0.002426 0.004664 0.009255 0.006504 -0.012995 0.000518 0.006143 0.000541 0.009963 -0.006485 -0.000593 -0.001442 0.000580 -0.000352 0.013509 -0.003279 -0.011648 -0.022552 0.019123 -0.013847 0.005465 0.011252 0.008221 -0.002819 0.008065 0.012391 -0.001292 -0.005032 0.011857 0.008618 -0.000524 -0.008890 0.013641 0.003912
cosas 0.023775 -0.002457 0.021108 -0.017565 0.013190 -0.000067 0.008716 -0.029622 0.012527 -0.011553 0.006730 0.017187 0.014311 0.021816 0.000982 -0.008821 0.013112 0.001444 -0.013434 0.012900 -0.003084 -0.007578 -0.007007 0.002398 0.020894 0.014475 0.009222 0.007319 -0.016991 0.002875 0.013037 0.012043 -0.014103 -0.011099 -0.011805 0.018762 0.005581 0.015021 -0.002360 0.023329 0.022632 0.032794 -0.022239 -0.001141 -0.009931 -0.005413 0.011083 0.002549 0.003189 0.019247
están -0.001434 0.009093 0.004923 0.006261 -0.008477 0.014146 -0.001199 0.011292 -0.022092 -0.014142 0.000746 -0.000680 0.005152 0.014647 0.003772 -0.006475 0.004381 0.001277 -0.005740 0.001501 -0.015626 0.012189 -0.000626 0.003396 -0.003464 0.012005 0.004953 -0.022755 0.002319 0.009564 0.008827 0.012686 0.003171 -0.000762 0.009565 -0.005512 -0.001551 -0.009958 0.008675 0.003430 -0.001185 0.009958 0.005860 0.001842 -0.000180 0.004187 -0.016756 -0.008075 -0.008347 0.001891
grandes 0.005199 0.005947 0.012306 -0.015503 -0.000945 -0.004085 -0.006095 -0.021412 -0.003696 0.010785 0.007698 0.002558 0.009094 0.004243 0.015373 -0.027516 0.005312 0.009425 0.009571 0.008889 0.003633 0.000096 -0.007994 -0.008736 0.011654 0.014192 0.004971 -0.008789 -0.012256 -0.008693 0.011835 -0.009517 -0.018632 -0.023824 0.007952 0.005632 0.004939 -0.003899 -0.002708 0.009652 0.002869 0.029305 -0.033768 -0.010220 -0.007443 -0.009273 0.027491 -0.005719 0.020382 0.021623
jugador-carles_puyol 0.026158 0.012433 0.032567 -0.050207 0.019425 0.014137 -0.020242 -0.022660 -0.007293 0.026506 -0.007831 0.014154 0.015573 0.024906 0.014632 -0.020125 0.016049 0.009843 -0.002889 0.007300 -0.018493 -0.008316 0.004450 0.000177 0.024852 0.032086 -0.001729 -0.000744 -0.022453 0.003239 0.013778 0.004813 -0.036125 -0.037669 0.009514 -0.008521 0.015959 -0.001620 0.005830 0.028462 0.037183 0.040396 -0.043025 -0.024708 -0.008403 -0.036357 0.007986 0.015352 0.017907 0.025921
van 0.042255 -0.006873 0.034032 -0.030994 0.024501 0.016924 0.012864 -0.011577 -0.002981 0.021956 0.002276 0.023684 0.039169 0.020940 0.006545 -0.029919 0.022218 0.011126 0.004755 0.024805 -0.030106 0.013865 -0.003597 -0.002057 0.018230 0.014707 0.021045 -0.020664 -0.011900 0.003286 0.022500 -0.013094 -0.032899 -0.032501 0.014321 0.001042 0.025744 -0.004828 0.004696 0.051554 0.040529 0.036819 -0.061973 -0.042487 -0.019211 -0.040583 0.017931 0.009966 0.034920 0.039435
visca 0.063274 -0.003298 0.057637 -0.053500 0.028587 0.026750 0.004465 -0.019978 0.004130 0.023466 -0.010359 0.050728 0.037985 0.033769 0.028666 -0.026599 0.035839 0.014392 -0.012488 0.027145 -0.008899 0.004467 -0.000763 0.006895 0.046253 0.050566 0.047088 -0.015197 -0.033171 -0.010897 0.025967 -0.011794 -0.055329 -0.044038 -0.006133 -0.006178 0.003466 -0.001876 0.000737 0.053192 0.062259 0.056787 -0.057550 -0.045554 0.006234 -0.042437 0.005432 0.024638 0.020752 0.028300
único -0.003489 0.010128 -0.005196 0.004785 0.001010 0.005413 0.010706 -0.003124 0.008704 0.004945 0.005745 0.005183 -0.003785 -0.003335 0.000649 0.009967 0.009719 -0.011537 0.003357 0.009147 0.018491 -0.004358 0.012155 -0.006493 0.005575 0.000628 0.009381 0.007773 -0.010447 0.000894 -0.000428 -0.007039 0.007152 0.002465 -0.005108 -0.003825 0.001257 0.000216 0.012665 0.007846 0.002952 0.003344 0.009986 0.015850 0.018228 -0.004372 -0.003750 -0.006411 -0.004549 -0.001189
ganamos 0.106067 0.001189 0.105483 -0.112000 0.067570 0.039043 0.006328 -0.068580 -0.009638 0.044122 -0.012402 0.048757 0.083921 0.037589 0.044110 -0.079489 0.079695 0.021758 -0.006900 0.048009 -0.033766 -0.005750 -0.042258 -0.006550 0.084229 0.059160 0.042380 -0.039716 -0.034692 0.012793 0.081307 -0.030052 -0.069720 -0.085926 0.029300 -0.005241 0.039507 -0.021643 0.027327 0.082478 0.097827 0.083502 -0.125659 -0.057240 -0.000838 -0.067094 0.055229 0.038120 0.049020 0.086798
hemos 0.038820 -0.004501 0.031347 -0.053055 0.009397 0.016110 -0.015682 -0.011085 0.005699 0.024666 -0.001023 0.025188 0.016183 0.034171 -0.004940 -0.035578 0.026062 0.020076 0.006789 0.022544 -0.025675 0.002178 -0.003326 -0.005817 0.032443 0.038248 0.025141 -0.023249 -0.015268 0.015429 0.024122 -0.015043 -0.017790 -0.019778 -0.006783 -0.005519 -0.001053 -0.010428 -0.014309 0.041361 0.026217 0.036172 -0.068163 -0.028338 -0.010962 -0.036428 0.021889 0.010096 0.022393 0.033219
puto -0.020174 -0.010332 -0.001353 0.015567 0.008518 -0.016698 -0.015546 0.010423 0.005833 -0.019793 0.004464 0.018961 -0.005265 -0.000515 -0.014235 -0.012880 -0.000136 0.012331 0.006145 0.004448 0.016144 -0.006455 -0.008140 -0.009039 0.008084 -0.013158 -0.022657 -0.001525 0.005461 0.005313 -0.001780 0.005248 0.005768 -0.011007 -0.003744 -0.006035 -0.015754 -0.002159 0.001399 0.009571 -0.006838 -0.002230 0.003047 -0.010465 -0.002943 0.002686 -0.020571 -0.007376 -0.007881 0.002854
sí 0.046509 0.021323 0.047275 -0.045776 0.037843 0.031211 0.004743 -0.025233 -0.003901 0.019223 0.006204 0.020502 0.036815 0.025619 0.019780 -0.033805 0.037503 -0.003196 -0.011747 0.034277 -0.007109 -0.006979 -0.005193 0.006179 0.049610 0.024118 0.033625 -0.011449 -0.031938 0.013604 0.012578 0.010241 -0.029704 -0.038244 0.005517 -0.004361 0.035642 -0.007803 0.004599 0.028170 0.035276 0.028855 -0.047073 -0.036723 0.000132 -0.045046 0.029512 0.031130 0.022596 0.041945
tira 0.102125 -0.023151 0.029904 -0.087854 0.090290 0.021451 0.010986 -0.069201 0.038728 0.045217 -0.022135 0.044383 0.071577 0.067269 -0.004323 -0.034128 0.074086 -0.010245 0.032274 -0.022946 -0.033546 -0.029620 -0.017247 0.028043 0.083002 0.073526 0.025263 -0.031002 -0.040378 -0.011869 -0.000096 0.015146 -0.067547 -0.048636 0.017055 -0.015631 0.027308 0.020616 0.000456 0.053336 0.081275 0.071186 -0.114366 -0.042346 0.026495 -0.058471 -0.005413 -0.011719 0.042101 0.096018
viva 0.070171 -0.015873 0.075431 -0.053211 0.029213 0.028032 0.005022 -0.032193 -0.029026 0.054350 0.010507 0.012518 0.056821 0.018917 0.023670 -0.059738 0.028313 -0.006437 -0.008786 0.013853 -0.032695 0.017250 -0.012201 -0.001020 0.053317 0.050581 0.028548 -0.044214 -0.048815 -0.002806 0.050057 -0.031557 -0.050628 -0.053891 0.040746 -0.017138 0.006696 -0.010790 0.018668 0.035848 0.049621 0.045013 -0.084878 -0.037554 -0.016241 -0.049627 0.046706 0.004760 0.022460 0.049992
ganó 0.074597 0.017224 0.074876 -0.079447 0.050029 0.025563 0.003406 -0.053715 -0.021553 0.052902 -0.015298 0.035283 0.051371 0.028032 0.042965 -0.072561 0.052806 0.006660 -0.012315 0.032264 -0.029002 -0.005859 -0.014659 -0.001489 0.081740 0.047900 0.039985 -0.030437 -0.047513 0.002844 0.053292 -0.009681 -0.050489 -0.053336 0.024417 0.003143 0.029150 -0.000939 0.000951 0.051309 0.079047 0.050115 -0.107458 -0.053263 -0.012711 -0.067929 0.050621 0.032025 0.029885 0.075243
haber 0.022322 0.014200 0.020775 -0.033062 0.012221 -0.002100 -0.000264 -0.009227 -0.022771 0.006211 0.001013 0.027836 0.032563 0.006507 0.000061 -0.021112 0.022095 -0.004629 0.000835 0.032477 -0.011877 0.002940 -0.003147 0.017839 0.025473 0.016534 0.011618 -0.023078 -0.011459 0.005788 0.007701 -0.011562 -0.008793 -0.030651 -0.008792 -0.007833 -0.000574 -0.006250 0.016892 0.022489 0.008437 0.026659 -0.026193 -0.032098 -0.001844 -0.012246 0.001963 0.002705 0.025247 0.034757
jugador-alexis_sánchez -0.003460 0.009458 -0.012071 0.023042 -0.026530 -0.003464 0.012470 0.010013 -0.002248 -0.009464 0.003237 0.003223 -0.009202 -0.004819 -0.003181 0.000493 -0.009785 0.001720 0.001386 -0.012318 0.012086 0.007172 0.009965 0.003007 -0.013128 -0.018130 -0.013327 0.024675 0.004108 -0.006627 0.004927 0.011788 0.003209 0.010849 0.001990 -0.012946 0.012159 0.011547 -0.000746 -0.015346 -0.015738 -0.002691 0.038716 0.019095 0.004049 0.008868 -0.018860 -0.002432 -0.015991 -0.013450
jugador-pepe -0.015421 -0.000719 -0.023393 0.014928 -0.014287 0.002275 -0.002457 0.010858 -0.017111 -0.007547 -0.007669 -0.001346 -0.015124 -0.001917 -0.006770 0.002284 -0.008994 0.002885 -0.002441 -0.001547 -0.000179 -0.004794 -0.000064 0.001953 -0.006240 -0.006575 -0.004251 0.003029 0.009572 0.002857 -0.010372 -0.000906 0.012896 0.015979 -0.015343 0.001959 -0.009230 0.009235 -0.009486 -0.012801 -0.026140 -0.010672 0.001580 0.005095 -0.003085 0.009080 -0.005112 0.002955 -0.000065 0.003122
momento 0.047101 0.009887 0.032175 -0.032538 0.011979 0.023990 -0.008125 -0.000764 -0.002191 0.016702 0.000118 0.023242 0.017912 0.000558 0.003705 -0.020798 0.031097 0.004719 -0.003095 0.011481 -0.017335 0.005771 -0.003274 0.012857 0.042404 0.021371 0.015570 -0.015229 -0.005992 0.009132 0.024065 -0.002331 -0.017876 -0.009940 -0.007734 -0.008089 0.009311 0.001200 0.006669 0.032878 0.022331 0.023652 -0.038294 -0.017455 0.003902 -0.024849 0.017600 -0.002046 0.011135 0.013655
muerte 0.043858 0.007030 0.062144 -0.061523 0.030259 0.012291 0.009970 -0.019586 -0.015716 0.016776 0.002438 0.024481 0.030865 0.014455 0.030709 -0.022027 0.031134 -0.004918 -0.022389 0.030124 -0.011249 -0.011447 -0.003499 -0.005965 0.044389 0.029191 0.026600 -0.036720 -0.032259 0.006091 0.032241 -0.006911 -0.052626 -0.049507 -0.000517 -0.000111 0.016909 -0.015308 0.021211 0.046399 0.040254 0.058140 -0.062422 -0.041713 -0.009410 -0.052875 0.019706 0.022071 0.039193 0.043375
sólo -0.001591 0.006582 0.002109 -0.011703 -0.001956 -0.004840 -0.004187 0.004856 0.016347 0.000598 0.000185 0.003400 -0.007631 0.003944 0.015658 -0.003777 0.010279 0.012144 0.016554 -0.012136 -0.010729 0.016420 -0.004981 -0.000238 0.000155 0.005961 0.006867 -0.002987 -0.006549 0.004665 -0.002811 0.002616 -0.010381 -0.013244 -0.004071 0.003159 -0.001398 0.016121 0.000871 0.007642 0.019628 0.004486 -0.017531 0.006423 -0.003665 -0.003751 -0.008337 0.001533 0.002492 -0.014588
será 0.046546 -0.000310 0.001721 -0.022311 0.017807 0.001932 -0.001239 -0.017290 -0.016487 0.019339 -0.001965 0.001873 0.014140 0.017335 0.004971 -0.030467 0.020729 -0.000514 -0.018929 0.005483 -0.007719 0.007039 -0.005589 0.007816 0.034548 0.019457 -0.002083 0.004884 -0.020474 -0.002647 0.002099 -0.017895 -0.016826 -0.034599 0.005288 0.010102 -0.007116 0.008434 0.021169 0.015881 0.024187 0.004754 -0.034589 -0.019275 -0.002360 -0.011147 0.013399 0.003309 0.019912 0.026226
vale 0.018127 -0.000237 0.021837 -0.027841 0.020747 0.015039 -0.004844 -0.016339 -0.006465 0.003020 0.001663 0.019263 0.015598 0.010748 0.017285 -0.014948 0.027812 -0.000943 -0.001560 0.025702 -0.016127 0.000569 -0.021290 0.018870 0.025097 0.027327 0.010590 -0.006813 -0.013360 0.001741 0.018939 0.006159 -0.014344 -0.021824 0.000633 -0.004361 0.000257 -0.004512 0.013675 0.019967 0.010151 0.036264 -0.032016 -0.020379 0.000342 -0.015766 0.009923 0.017992 0.010590 0.024892
ah 0.039821 0.009942 0.041875 -0.059085 0.035126 0.019895 -0.003579 -0.011448 -0.010736 -0.001911 0.009860 0.033674 0.032564 0.039875 0.031649 -0.023056 0.028758 0.000558 0.011191 0.007020 -0.025461 -0.013428 0.000728 0.013054 0.050473 0.042762 0.031573 -0.022093 -0.033282 0.006521 0.016952 0.013586 -0.042786 -0.036657 -0.014729 -0.001448 0.014749 -0.015323 -0.003292 0.046376 0.038599 0.026869 -0.060702 -0.029160 -0.005574 -0.024194 0.002094 0.010679 0.026274 0.044506
buscando -0.030991 0.001492 -0.040060 0.028507 -0.010479 0.004967 0.001561 -0.000839 0.014142 -0.017304 -0.004499 0.015600 -0.020295 0.014039 -0.006388 0.015131 -0.011526 0.013575 -0.002150 -0.023508 0.020495 0.018846 -0.014015 -0.009492 -0.002200 -0.017419 0.001670 0.015849 0.012136 -0.010645 -0.001388 0.005595 0.021724 0.015503 -0.012135 -0.006740 -0.016771 0.002038 -0.017931 -0.032701 -0.027051 -0.021987 0.015415 0.012415 0.005238 0.025375 -0.008168 -0.020031 -0.004501 -0.018553
dado -0.038888 -0.008006 -0.039644 0.040363 -0.018573 -0.023415 -0.010459 0.017364 0.007273 -0.020986 0.005391 -0.025979 -0.030736 -0.009809 -0.019701 0.042205 -0.017252 -0.008119 0.012650 -0.025299 0.027046 -0.002673 0.007233 -0.018122 -0.045511 -0.029299 -0.000706 0.022512 0.009920 0.013150 -0.005177 -0.005414 0.023614 0.028730 0.008349 -0.013709 -0.002412 0.004221 -0.019343 -0.020223 -0.030077 -0.045060 0.066422 0.033074 0.014955 0.054590 -0.021946 -0.009761 -0.021202 -0.035445
dar 0.006718 0.005642 0.001564 -0.000166 -0.015365 -0.009331 -0.001746 -0.004380 -0.011396 -0.005886 -0.000926 0.016408 0.002002 0.015401 0.010378 0.009130 -0.004429 -0.013231 -0.002071 0.005956 -0.011898 0.005767 -0.001958 0.009001 -0.001639 0.012375 0.017461 0.014925 -0.008627 0.001331 -0.001988 0.007380 0.001045 -0.008719 0.011103 -0.007157 0.011191 -0.003207 0.011642 0.002612 -0.003941 0.002902 -0.014883 0.002492 0.002898 -0.015716 0.010073 0.007498 0.014172 0.007536
derrota 0.022263 -0.005350 0.001620 -0.013802 0.010007 0.000198 -0.004359 -0.000639 -0.000811 0.004525 0.011760 0.006657 0.018650 -0.003180 -0.008835 -0.015021 0.005557 0.008730 0.006627 0.000126 -0.003664 0.014631 -0.013690 0.006045 -0.001702 0.004457 0.008894 -0.006723 -0.002489 -0.009667 -0.001903 -0.005703 -0.009025 -0.009173 -0.002830 0.003806 -0.001636 -0.005447 -0.002908 -0.005459 0.011929 -0.001052 -0.011620 -0.000254 -0.017737 -0.001255 -0.003698 0.008198 -0.004001 -0.006203
estan -0.015626 -0.008167 0.002611 0.006220 -0.013758 -0.017148 0.007245 0.017538 -0.011396 -0.010141 -0.000201 -0.024777 -0.015333 -0.008393 -0.006241 0.004623 -0.007604 -0.001839 0.019075 0.003699 -0.005717 -0.000745 0.009260 0.010166 -0.013576 -0.009705 0.003504 0.000389 0.003114 -0.007664 0.016765 -0.000682 0.017927 -0.000576 0.004376 -0.003299 0.009535 -0.002433 -0.000620 -0.003874 -0.011676 -0.004606 0.010013 0.005867 -0.003743 0.012914 0.001273 -0.013105 0.004607 -0.016945
goles 0.020399 0.000149 0.031930 -0.010657 0.027110 0.016942 -0.009395 -0.005746 -0.014378 -0.001349 0.010101 0.004485 0.022388 0.011662 0.001302 -0.023675 0.009352 -0.001099 -0.003199 0.010818 -0.004845 0.002377 -0.000159 0.000303 0.016881 0.020780 0.011066 -0.022587 -0.001470 -0.005483 0.022341 -0.016476 -0.008757 -0.011242 -0.006594 -0.002019 0.004791 -0.001664 0.003938 0.028170 0.020316 0.034661 -0.037114 0.001902 -0.008176 -0.031251 0.020699 0.004510 0.016947 0.021590
i -0.036462 -0.005149 -0.039954 0.038730 -0.039869 -0.032936 -0.001610 0.023346 0.016672 -0.009871 -0.004695 -0.040442 -0.054322 -0.033126 -0.002179 0.038751 -0.033579 0.009157 0.017453 -0.019112 0.022580 0.003044 0.017589 -0.008053 -0.042475 -0.044406 -0.028576 0.028789 0.027261 0.012578 -0.021507 0.012033 0.036820 0.041151 -0.013741 -0.004052 -0.023327 0.004496 -0.001380 -0.028222 -0.046677 -0.026502 0.067338 0.020956 -0.004075 0.030772 -0.030079 -0.015871 -0.032044 -0.047732
jugó 0.047894 0.012985 0.040289 -0.046309 0.023415 0.015691 0.001376 -0.029060 -0.014890 0.028670 -0.017460 0.033336 0.037247 0.026444 0.012425 -0.024439 0.022469 0.004396 -0.004864 0.008724 -0.013672 -0.013339 -0.017715 0.002087 0.044966 0.037582 0.018362 -0.021088 -0.022447 0.013625 0.032980 -0.005104 -0.047027 -0.036335 0.021531 0.007345 0.013719 -0.015623 0.000134 0.026549 0.044307 0.017155 -0.067360 -0.050336 -0.008182 -0.027339 0.012977 0.023931 0.012518 0.031372
lleva -0.024721 -0.010416 -0.034632 0.016999 -0.023675 -0.011845 0.010299 -0.006204 -0.003106 -0.013473 -0.002574 -0.013648 -0.009257 -0.018310 -0.000723 0.016698 -0.021716 -0.000886 -0.002733 -0.013447 0.018933 -0.002863 0.003358 -0.003086 -0.023765 -0.006426 -0.008724 0.005288 -0.005838 0.017294 -0.025608 -0.007630 0.019189 0.026572 -0.007733 -0.004767 -0.008984 -0.003999 0.000861 -0.025327 -0.027302 -0.008743 0.036610 0.020956 0.005463 0.031752 -0.021106 0.008686 0.004860 -0.014697
mestalla 0.013134 -0.008030 0.013060 0.005958 0.010299 0.007814 0.002187 0.007521 0.006470 0.022768 -0.009243 0.008743 0.011896 0.007570 -0.004529 -0.008233 0.007124 -0.005067 -0.013997 0.005764 0.005502 -0.012369 0.001418 -0.003467 0.010632 0.020896 0.022128 0.001490 0.004273 0.005102 -0.009349 -0.004210 -0.020233 0.001025 0.004099 0.008786 0.010322 0.010052 0.003054 0.017756 0.004293 0.003672 -0.015786 -0.004714 -0.004982 -0.011577 0.000617 -0.005269 0.010980 0.005251
perdió 0.038216 -0.002299 0.011515 -0.031345 0.016439 0.020209 -0.012044 -0.009985 -0.003991 0.022042 0.012012 0.028237 0.018625 0.019759 0.014084 -0.015973 0.007722 0.010753 -0.010788 0.018520 -0.020884 0.006703 0.002755 0.010464 0.022057 0.011231 0.012200 -0.012729 0.002291 0.003391 0.016082 -0.006262 -0.041198 -0.030924 0.010589 0.009305 0.012648 0.006607 0.010802 0.032490 0.030714 0.022290 -0.031528 -0.019926 -0.009385 -0.031793 -0.002102 0.031506 -0.006169 0.034141
real -0.027688 -0.002214 -0.042847 0.041815 -0.029397 -0.017094 -0.003349 0.018730 -0.015294 -0.013004 0.019460 -0.035417 -0.019669 -0.028022 -0.002171 -0.007824 -0.022491 -0.013013 0.019299 -0.013142 0.009887 0.026630 -0.006584 0.009498 -0.042932 -0.029406 -0.007972 -0.005587 0.030633 -0.007542 -0.003195 -0.002228 0.012640 0.022776 0.007391 0.002400 -0.009778 0.000457 -0.012780 -0.008513 -0.036894 -0.019685 0.042639 0.019409 -0.008604 0.029748 -0.013965 -0.014059 -0.008461 -0.004845
sos -0.027571 0.004971 -0.025448 0.041315 -0.026188 -0.012077 -0.006038 0.005932 0.002741 -0.005848 0.006223 -0.027376 -0.015137 -0.007679 -0.010637 0.018355 -0.023543 0.000981 -0.002285 -0.000687 0.006844 0.026281 -0.004028 -0.004198 -0.024469 -0.014735 -0.012388 -0.007940 0.013192 -0.001806 -0.012279 0.002811 0.021344 0.001689 0.013943 -0.013295 -0.013955 0.016719 0.006107 -0.024001 -0.031358 -0.020510 0.042158 0.025393 -0.002884 0.015258 0.004645 -0.001354 0.003840 -0.018772
vida -0.018474 0.019511 -0.007970 0.016633 -0.014228 -0.004729 0.003574 0.018460 -0.001891 -0.018829 0.014333 -0.013083 -0.025423 -0.000357 0.005789 0.020956 -0.016793 -0.004117 -0.006659 -0.014267 0.003734 0.000115 -0.001101 0.001006 -0.033878 -0.017148 -0.017682 0.015740 0.015602 -0.014429 -0.000106 -0.005298 0.011034 0.018625 0.017064 -0.000190 -0.003784 -0.005764 0.004292 -0.028916 -0.036389 -0.008907 0.029188 0.023710 -0.016645 0.038982 -0.011498 -0.013544 -0.027385 -0.035709
caiga 0.097109 -0.013038 0.074490 -0.107756 0.086926 0.033680 0.010189 -0.064321 -0.010991 0.052433 -0.010444 0.055998 0.079203 0.082894 0.024969 -0.043655 0.076563 -0.012767 0.007167 0.010135 -0.035283 -0.034625 -0.011826 0.026620 0.086875 0.068184 0.040439 -0.038218 -0.058258 0.009543 0.035655 0.006912 -0.081745 -0.046530 0.007549 -0.004585 0.007443 0.011666 0.014797 0.063213 0.087374 0.054429 -0.129780 -0.050683 0.008424 -0.076289 0.020851 0.014815 0.048755 0.093281
cierto 0.032076 -0.001501 0.003779 -0.005028 0.010770 -0.002195 -0.005570 -0.008642 -0.008253 0.011405 0.002142 0.016792 0.019023 0.012782 -0.000161 -0.008644 0.004821 0.013169 -0.002335 0.000024 -0.009439 -0.015957 0.000298 -0.012916 0.020196 0.010848 0.002444 -0.013370 -0.012287 0.015212 0.001108 -0.012911 -0.025415 -0.026042 0.015722 -0.000696 0.015703 -0.026292 -0.000405 0.012173 0.034192 0.000593 -0.036517 -0.002427 0.001671 -0.020533 0.004179 -0.003379 0.002283 0.015388
contra -0.013633 -0.013722 -0.020156 0.006966 -0.015957 0.003563 -0.004819 0.017373 -0.012342 0.011773 -0.005964 -0.004328 -0.019535 0.001201 -0.001681 0.002302 -0.022716 -0.005540 0.000575 -0.001442 0.010332 0.004823 -0.003258 -0.008136 -0.002194 -0.018463 -0.002431 0.008530 0.011620 0.002180 -0.002234 -0.006754 0.009899 -0.000951 -0.011647 0.004497 0.012690 0.003793 0.012157 -0.004813 -0.028233 -0.004139 0.016445 0.010800 -0.006572 0.004108 -0.000340 0.013244 -0.019262 -0.018377
debe -0.067009 -0.012402 -0.077777 0.072538 -0.044700 -0.041617 0.010740 0.040501 0.013331 -0.007661 -0.002077 -0.045767 -0.063195 -0.043087 -0.026372 0.043836 -0.046106 0.004360 -0.002525 -0.023170 0.038219 0.003734 0.010902 -0.011867 -0.066943 -0.042765 -0.020046 0.018486 0.050967 0.001230 -0.022302 0.000675 0.051696 0.031453 -0.008415 0.025977 -0.036278 0.005655 -0.020934 -0.042075 -0.046544 -0.049842 0.081740 0.047988 0.015708 0.057721 -0.018305 -0.008794 -0.020896 -0.054946
dice 0.001002 0.019481 0.020446 -0.017004 0.016309 0.010040 -0.006187 -0.012681 -0.005555 0.015534 0.006784 0.022751 0.021861 0.011622 0.008486 0.010785 0.005889 -0.012616 0.000719 0.004923 -0.000100 0.004926 0.001252 0.003882 0.032664 0.023097 -0.001978 -0.001520 -0.007841 0.009714 0.011910 -0.007138 0.000818 -0.009278 0.006702 -0.004546 0.007779 -0.003177 0.008098 0.027132 0.016864 0.011229 -0.022256 -0.021910 0.000398 0.001182 -0.007681 0.019917 0.007796 0.015038
espero -0.004048 0.005262 -0.011949 0.005149 0.003728 0.004472 -0.007659 -0.000211 0.004626 -0.007470 0.002117 -0.014562 -0.005026 -0.005991 0.006226 -0.009827 -0.000786 -0.008251 0.014986 -0.013939 -0.002264 -0.005839 -0.007235 0.003621 -0.007567 -0.000687 0.001362 0.001239 0.006597 0.004660 0.003689 0.003500 -0.000724 0.013398 0.006694 -0.001352 0.003854 0.000427 0.008704 -0.009906 0.004241 -0.005111 0.006934 0.006512 0.005730 0.004776 0.007269 -0.001359 0.000153 0.002068
haya -0.023103 0.002042 -0.003699 0.017710 -0.008623 -0.018855 -0.007658 0.022601 -0.003500 0.005351 0.006843 -0.012595 -0.004997 -0.013268 0.001431 0.004128 -0.005718 -0.002658 -0.012265 -0.016791 0.014351 -0.014499 0.005120 -0.013399 -0.008644 -0.023983 -0.006577 0.005352 0.015796 0.006986 -0.015694 0.004487 0.015899 0.019852 -0.013156 -0.017066 -0.017443 0.019134 -0.009361 -0.000850 -0.040656 -0.028413 0.031494 0.007891 -0.005903 0.011637 -0.015531 -0.010004 0.003815 -0.023885
he 0.011062 0.009143 0.012111 -0.019064 0.017783 -0.000726 0.018353 -0.017331 -0.002018 0.004120 0.011618 0.013909 -0.001225 0.012916 0.019879 -0.020280 0.003947 -0.010183 0.002600 0.006607 0.003361 -0.001977 -0.012699 0.013847 0.015120 0.008001 0.016794 -0.014264 -0.001874 -0.012257 -0.010514 -0.006021 -0.005564 -0.017996 -0.015736 0.000169 -0.012343 -0.008023 0.013921 0.009647 0.012744 0.015223 0.004124 0.006086 -0.003192 0.003528 0.001795 0.003396 0.004389 -0.000023
hijo -0.057838 0.009619 -0.070280 0.072166 -0.051609 -0.034518 -0.014447 0.037952 0.019485 -0.034917 0.008649 -0.018118 -0.062506 -0.033579 -0.038164 0.051301 -0.030610 -0.015041 0.002570 -0.034958 0.039800 0.007917 0.029827 -0.012284 -0.072007 -0.048607 -0.030276 0.031879 0.022267 0.011580 -0.027247 0.021133 0.054190 0.068939 -0.005675 0.015842 -0.022595 0.021298 -0.017618 -0.050932 -0.075422 -0.045608 0.096981 0.051474 0.003126 0.064184 -0.043180 -0.031381 -0.042898 -0.050399
himno -0.055988 -0.010889 -0.027458 0.069918 -0.047273 -0.031156 0.007010 0.023939 -0.002011 -0.025258 -0.014919 -0.041938 -0.042503 -0.043087 -0.004199 0.027114 -0.049900 -0.011809 0.022482 -0.034698 -0.002461 0.011621 0.009680 -0.022416 -0.055225 -0.034303 -0.030476 0.004516 0.024932 0.008340 -0.037173 0.008324 0.035800 0.035470 -0.019545 -0.003546 -0.020277 0.008053 -0.031111 -0.039376 -0.048398 -0.032417 0.069710 0.029767 0.013652 0.044311 -0.015324 -0.021760 -0.014307 -0.042271
jugar -0.008272 0.001057 -0.031803 0.012602 0.002996 -0.004146 -0.006935 0.018579 0.003173 -0.025879 -0.013674 -0.022666 -0.011962 -0.021320 -0.011483 0.018118 0.000450 -0.003489 -0.000801 -0.001455 0.011131 -0.004384 0.007012 0.008971 -0.016648 -0.010092 -0.012347 0.016945 0.020898 -0.010322 -0.007466 -0.003667 0.015725 0.008367 -0.009885 0.005100 -0.008740 0.004054 -0.002560 -0.018929 -0.008898 -0.028388 0.032675 0.019925 0.012113 0.012128 -0.008034 0.003710 -0.010011 -0.018543
primer -0.052696 -0.009024 -0.058856 0.063919 -0.023394 -0.023342 -0.000275 0.021605 -0.007177 -0.012614 0.016402 -0.038464 -0.045660 -0.023373 -0.020599 0.035637 -0.022977 0.009263 0.025741 -0.030767 0.026829 0.002964 0.000418 -0.010158 -0.050951 -0.040281 -0.015154 0.017850 0.017372 -0.007502 -0.028431 0.002706 0.032794 0.045815 -0.001592 -0.015165 -0.021436 0.004316 -0.020565 -0.039435 -0.052614 -0.033384 0.072870 0.048803 -0.023469 0.036883 -0.007550 -0.024405 -0.033523 -0.069910
quedo -0.011616 0.001265 -0.004619 0.007507 0.003023 -0.001292 0.000858 -0.003526 -0.009726 0.000477 0.013435 0.010597 -0.000221 -0.009744 -0.003285 0.003120 -0.022036 -0.008696 -0.005281 -0.013754 0.001324 0.000972 0.004391 0.002142 0.001415 0.003329 -0.013416 0.009350 0.023295 0.006810 0.009518 -0.013411 0.012131 0.007294 -0.000878 -0.004007 -0.016129 0.013378 0.013214 0.005552 -0.005992 -0.013398 0.026061 0.016455 0.000329 0.015244 -0.010822 0.003541 -0.004131 -0.024087
correr -0.025931 -0.006763 -0.041280 0.039824 -0.030507 -0.019597 -0.008718 0.012079 0.002176 -0.013172 -0.006541 -0.027172 -0.032638 -0.009807 -0.026159 0.027522 -0.023713 0.007119 -0.002789 -0.019969 0.027455 0.014565 0.008750 0.007351 -0.049458 -0.037993 -0.012648 0.021293 0.019072 0.012409 -0.017950 0.015647 0.039986 0.032196 -0.001196 0.003886 0.002909 -0.002552 -0.008476 -0.027335 -0.027420 -0.038971 0.033482 0.019762 -0.009098 0.018633 -0.021525 -0.019110 -0.012197 -0.028079
corrido -0.028605 -0.005436 -0.031690 0.033082 -0.004859 0.002668 -0.003045 0.001328 0.003848 -0.001616 -0.012522 -0.013855 -0.007400 0.000213 -0.012361 0.034194 -0.025463 0.008363 -0.022328 -0.006611 0.017129 0.005945 0.015582 -0.001097 -0.013583 -0.019872 -0.017132 0.023082 0.015438 0.002096 -0.007021 0.005591 0.010139 0.037089 -0.007129 -0.000828 -0.002582 -0.008586 -0.011854 -0.022552 -0.023870 -0.037856 0.036338 0.012176 0.009626 0.026856 -0.019109 -0.014703 -0.031399 -0.011935
cuidado 0.035947 -0.018556 0.026226 -0.046627 0.052657 0.015973 0.001977 -0.042871 0.013980 0.025501 -0.007818 0.034619 0.016396 0.042900 -0.007894 -0.026689 0.026013 0.005942 0.005425 -0.001357 -0.003046 -0.025642 0.006236 0.009403 0.032079 0.034005 0.029123 -0.009000 -0.006733 -0.019881 0.001530 -0.000730 -0.026718 -0.027884 0.005822 -0.000577 0.006994 -0.006694 0.002012 0.017159 0.049301 0.034944 -0.057312 -0.003440 0.005852 -0.027306 0.020837 -0.005923 0.025761 0.051082
dios -0.017419 0.000647 -0.029587 0.016060 -0.013876 -0.018419 0.011479 0.021437 0.013622 0.003715 -0.011613 -0.015482 -0.011139 -0.005080 -0.011449 0.018590 -0.016534 -0.012509 -0.007911 -0.003080 -0.009340 -0.013011 0.014802 -0.007887 -0.004978 -0.019963 0.005313 0.005622 0.025453 -0.006818 0.000023 0.010385 0.018901 0.015601 0.008132 -0.003046 -0.011688 0.002133 -0.018406 -0.004045 -0.018622 -0.009955 0.023250 0.007878 0.000218 0.011972 -0.026979 -0.004873 -0.012479 -0.011558
entre 0.001235 -0.003069 -0.004803 0.016839 0.002549 0.003050 0.004379 0.013821 -0.005770 -0.020105 -0.001618 -0.007716 -0.013684 0.005809 0.000320 0.011214 -0.016209 0.002897 -0.003708 -0.001276 0.003059 0.000893 0.010784 -0.012140 -0.007272 0.003534 -0.011614 -0.004120 0.009438 0.002586 -0.011449 0.002006 0.004160 0.022894 0.010528 -0.006326 -0.005829 0.007698 0.004980 0.009240 -0.017706 0.001357 0.009749 0.006841 -0.000607 0.015657 0.000984 -0.000822 -0.004164 -0.002206
has -0.040584 0.009460 -0.053267 0.052671 -0.026446 -0.022047 -0.012382 0.025289 0.013996 -0.035112 0.020197 -0.011680 -0.028971 -0.017173 -0.011934 0.038140 -0.025073 -0.001223 -0.005695 -0.021582 0.017372 -0.015542 0.003995 -0.019733 -0.035381 -0.029843 -0.007016 0.020523 0.024830 0.003835 -0.028036 0.008740 0.026104 0.023228 -0.010746 0.011194 -0.023612 -0.003838 -0.002151 -0.040539 -0.036274 -0.039337 0.065202 0.028120 0.011819 0.035300 -0.025742 -0.016705 -0.019931 -0.027253
