equipo-real_madrid 0.033556 -0.377700 0.317494 0.582945 0.052680 -0.312007 0.366082 -0.522949 0.252668 -0.735466 -0.437566 0.146363 -0.570953 -0.133048 0.005775 -0.494537 0.551284 0.083468 -0.278019 0.208261 0.112562 0.494875 -0.829683 -0.057651 -0.535480 1.000873 -0.270074 -0.582071 -0.215312 0.858832 -0.314008 -0.636693 0.520574 -0.765207 -0.629362 -0.063823 0.070964 0.122908 0.132328 -0.083140 0.169866 -0.174038 -0.532855 -0.507858 0.085959 0.236470 0.374550 0.433677 0.333132 0.070537
partido 0.044737 -0.375426 0.303839 0.556954 0.054023 -0.318542 0.369419 -0.500563 0.258387 -0.707982 -0.424148 0.146194 -0.554905 -0.122907 -0.001330 -0.479561 0.549347 0.076271 -0.265445 0.202343 0.110447 0.490421 -0.805010 -0.045160 -0.508765 0.990437 -0.265876 -0.564378 -0.201872 0.837002 -0.316178 -0.619735 0.501957 -0.757948 -0.607677 -0.047501 0.060209 0.112760 0.122032 -0.076607 0.161681 -0.157872 -0.519818 -0.492672 0.079280 0.224062 0.363988 0.427083 0.333137 0.060019
no 0.045420 -0.411955 0.349850 0.609611 0.053340 -0.346984 0.391456 -0.544251 0.278024 -0.790327 -0.463444 0.150436 -0.614504 -0.127622 -0.013007 -0.526914 0.588129 0.098478 -0.288165 0.233167 0.107613 0.541092 -0.862279 -0.059261 -0.567507 1.064834 -0.298311 -0.606724 -0.207383 0.921126 -0.334004 -0.690407 0.545143 -0.819746 -0.677052 -0.069905 0.079146 0.125567 0.152470 -0.091522 0.167136 -0.173055 -0.550991 -0.547475 0.078082 0.261404 0.402078 0.456550 0.371920 0.080228
equipo-barcelona 0.052853 -0.442377 0.358948 0.651920 0.038597 -0.360024 0.427725 -0.588480 0.303202 -0.835974 -0.474650 0.160953 -0.644695 -0.135060 0.004127 -0.565419 0.623656 0.098349 -0.325865 0.254506 0.109549 0.572297 -0.946384 -0.051150 -0.599203 1.156093 -0.311402 -0.642350 -0.240072 0.968501 -0.365813 -0.733485 0.583003 -0.874317 -0.718503 -0.054020 0.081769 0.141028 0.165011 -0.081819 0.173718 -0.200264 -0.600850 -0.575735 0.094100 0.279457 0.428142 0.489209 0.384297 0.081621
@user 0.046308 -0.373876 0.312635 0.577179 0.048447 -0.313834 0.361631 -0.510297 0.265677 -0.727625 -0.423750 0.143715 -0.562059 -0.107064 0.004482 -0.476536 0.550730 0.077472 -0.268865 0.201061 0.109491 0.490086 -0.815255 -0.046330 -0.522014 0.989834 -0.269194 -0.561585 -0.207878 0.831413 -0.302593 -0.628858 0.506457 -0.758837 -0.628198 -0.061295 0.064802 0.121510 0.144131 -0.065936 0.155949 -0.170195 -0.526055 -0.505058 0.082311 0.223698 0.370934 0.434505 0.339073 0.080370
es 0.056158 -0.405719 0.341577 0.605853 0.041685 -0.349452 0.393526 -0.541986 0.281277 -0.780992 -0.448529 0.156977 -0.616830 -0.121367 -0.001632 -0.517051 0.599414 0.085356 -0.290181 0.222865 0.106412 0.533170 -0.876493 -0.057702 -0.573719 1.088773 -0.310787 -0.612298 -0.217593 0.919987 -0.348445 -0.682865 0.546583 -0.830522 -0.684084 -0.054198 0.072019 0.134432 0.141222 -0.073659 0.166142 -0.182026 -0.561715 -0.550812 0.081068 0.265294 0.397513 0.468211 0.372849 0.082250
se 0.037530 -0.427152 0.352863 0.628558 0.046987 -0.342460 0.399347 -0.565530 0.280794 -0.811841 -0.462024 0.148587 -0.611887 -0.135956 -0.003125 -0.524823 0.598764 0.105678 -0.304639 0.228810 0.113579 0.548159 -0.891370 -0.056547 -0.567396 1.112651 -0.311741 -0.630334 -0.228418 0.933957 -0.347616 -0.702599 0.560425 -0.848723 -0.688451 -0.066903 0.081276 0.128243 0.153981 -0.083255 0.161763 -0.185939 -0.576831 -0.558652 0.080090 0.250933 0.414776 0.471822 0.373301 0.086081
jugador-gareth_bale 0.056291 -0.430860 0.367343 0.633056 0.054194 -0.359148 0.420079 -0.572968 0.296134 -0.813160 -0.464128 0.149213 -0.642065 -0.138553 0.003582 -0.546558 0.609216 0.102653 -0.321858 0.244938 0.113240 0.545020 -0.926766 -0.063730 -0.593295 1.112161 -0.319085 -0.633861 -0.228764 0.949194 -0.355417 -0.726286 0.556654 -0.868657 -0.694765 -0.055583 0.068021 0.125838 0.144335 -0.093527 0.179067 -0.199355 -0.579568 -0.559889 0.100708 0.270782 0.403693 0.477431 0.388447 0.074481
afición 0.035582 -0.378577 0.320559 0.557902 0.040110 -0.313732 0.370860 -0.504441 0.264893 -0.725735 -0.418867 0.141959 -0.562516 -0.120341 0.000657 -0.487841 0.554520 0.090770 -0.285534 0.218140 0.097365 0.479312 -0.817015 -0.057897 -0.516812 1.004510 -0.271125 -0.568755 -0.200800 0.837623 -0.314150 -0.634374 0.494066 -0.766325 -0.610767 -0.050247 0.065273 0.118398 0.130073 -0.073898 0.162324 -0.164952 -0.522997 -0.490224 0.087636 0.235263 0.361779 0.431236 0.345784 0.075944
por 0.055641 -0.447822 0.355287 0.637417 0.044099 -0.368221 0.424152 -0.568497 0.304502 -0.813265 -0.469154 0.146399 -0.644226 -0.129722 0.001651 -0.555424 0.628134 0.102547 -0.316430 0.244326 0.120786 0.560819 -0.932557 -0.058827 -0.597816 1.133667 -0.311300 -0.649831 -0.223826 0.951727 -0.364926 -0.727071 0.577344 -0.866024 -0.703670 -0.068715 0.066523 0.131106 0.164284 -0.087887 0.187749 -0.184299 -0.598448 -0.558586 0.096839 0.277036 0.414717 0.486816 0.387988 0.083450
jugador-lionel_messi 0.053100 -0.424062 0.355071 0.632987 0.054244 -0.357222 0.393700 -0.550741 0.289301 -0.801026 -0.454137 0.152922 -0.613679 -0.132281 -0.001143 -0.539490 0.610843 0.091629 -0.307770 0.237112 0.113229 0.548067 -0.898030 -0.046780 -0.581957 1.110795 -0.304357 -0.624997 -0.213516 0.936905 -0.341384 -0.710380 0.548455 -0.846919 -0.690215 -0.058607 0.067099 0.124559 0.141681 -0.089873 0.171990 -0.181959 -0.583955 -0.539917 0.081726 0.271247 0.416304 0.479298 0.370056 0.083543
jugador-sergio_ramos 0.029691 -0.384305 0.309353 0.573342 0.031181 -0.317304 0.370946 -0.506599 0.245513 -0.735199 -0.411644 0.140387 -0.560722 -0.119954 -0.002775 -0.476909 0.546702 0.083866 -0.286046 0.214419 0.091710 0.487322 -0.795349 -0.042374 -0.525911 0.996769 -0.279849 -0.551574 -0.211662 0.850638 -0.305121 -0.634519 0.483844 -0.769991 -0.630446 -0.065918 0.076640 0.107423 0.132406 -0.081716 0.154007 -0.165911 -0.514327 -0.498912 0.080409 0.229797 0.353443 0.425355 0.335889 0.070050
ja 0.034356 -0.325081 0.267216 0.467274 0.032746 -0.256920 0.289143 -0.409759 0.210761 -0.597512 -0.351653 0.112437 -0.464522 -0.091003 -0.008755 -0.399883 0.456999 0.078005 -0.225047 0.175876 0.073916 0.398729 -0.666983 -0.050705 -0.422700 0.816411 -0.224353 -0.467480 -0.164670 0.698077 -0.256846 -0.513275 0.400277 -0.628167 -0.517912 -0.050785 0.058225 0.091405 0.101715 -0.053596 0.116305 -0.145186 -0.415500 -0.401785 0.069181 0.187475 0.309183 0.350510 0.280146 0.058393
copa 0.029238 -0.331102 0.277625 0.463000 0.039371 -0.258740 0.299750 -0.430399 0.224020 -0.616364 -0.363933 0.111428 -0.472614 -0.100270 0.006952 -0.401507 0.460554 0.074604 -0.231362 0.167451 0.068999 0.420103 -0.664178 -0.046003 -0.442018 0.836096 -0.239557 -0.486378 -0.176772 0.722270 -0.271619 -0.526667 0.414651 -0.646207 -0.535081 -0.052388 0.062558 0.102021 0.120427 -0.063351 0.139589 -0.143622 -0.421835 -0.410478 0.066469 0.191554 0.306623 0.346331 0.284169 0.063946
si 0.031180 -0.371624 0.306567 0.543550 0.030700 -0.305393 0.351421 -0.487222 0.235586 -0.695048 -0.399079 0.137374 -0.532857 -0.106494 -0.005862 -0.464664 0.514588 0.072765 -0.253665 0.197878 0.091549 0.475255 -0.770582 -0.058471 -0.492561 0.953726 -0.258207 -0.539401 -0.186181 0.801679 -0.296590 -0.611711 0.481716 -0.723540 -0.601924 -0.043572 0.051823 0.106514 0.121988 -0.072584 0.153380 -0.154493 -0.488947 -0.481425 0.074744 0.215642 0.358461 0.407555 0.311606 0.061997
pero 0.036975 -0.403928 0.338252 0.589555 0.049615 -0.320678 0.378968 -0.526738 0.262659 -0.743712 -0.440307 0.135641 -0.584390 -0.114526 -0.012937 -0.503485 0.561230 0.091088 -0.289905 0.226996 0.111583 0.514573 -0.849994 -0.061594 -0.531965 1.027107 -0.285513 -0.584328 -0.201473 0.877114 -0.325543 -0.645208 0.524860 -0.798877 -0.640504 -0.057353 0.074011 0.126079 0.144740 -0.067431 0.161990 -0.176136 -0.526525 -0.515261 0.073356 0.248342 0.375524 0.430110 0.346984 0.067412
jugador-cristiano_ronaldo 0.035853 -0.297802 0.253348 0.446727 0.036925 -0.245238 0.290154 -0.380898 0.193174 -0.552097 -0.319252 0.103600 -0.439634 -0.090560 0.006505 -0.373426 0.417841 0.074982 -0.217849 0.169172 0.075271 0.379901 -0.631079 -0.041112 -0.414214 0.777168 -0.219994 -0.434502 -0.143010 0.645630 -0.236709 -0.488853 0.390705 -0.590686 -0.490088 -0.046423 0.051613 0.081168 0.104958 -0.051912 0.119395 -0.137236 -0.396222 -0.384737 0.053977 0.179368 0.276116 0.323837 0.260273 0.058127
hala 0.028310 -0.290321 0.233124 0.424857 0.031258 -0.239123 0.281937 -0.380418 0.184559 -0.536205 -0.323135 0.099708 -0.422741 -0.094196 -0.000984 -0.359541 0.413707 0.069182 -0.219884 0.153477 0.070881 0.382543 -0.609977 -0.044910 -0.401699 0.756424 -0.205818 -0.431906 -0.160441 0.642456 -0.237692 -0.466159 0.390404 -0.566730 -0.456261 -0.034242 0.036608 0.096040 0.099654 -0.048888 0.125769 -0.119047 -0.403576 -0.384244 0.048329 0.179202 0.278959 0.317148 0.255374 0.045247
sin 0.025528 -0.295996 0.250042 0.436526 0.041207 -0.243803 0.281159 -0.389562 0.189463 -0.546243 -0.332787 0.103164 -0.435762 -0.100740 -0.007889 -0.380320 0.414602 0.061352 -0.208825 0.175804 0.084511 0.384209 -0.638111 -0.048984 -0.416327 0.780538 -0.220673 -0.432632 -0.156397 0.651456 -0.239608 -0.484748 0.395665 -0.583625 -0.483989 -0.042473 0.048809 0.099742 0.108660 -0.055680 0.118326 -0.138701 -0.410970 -0.377075 0.058369 0.185668 0.287105 0.337217 0.264949 0.066564
entrenador 0.050124 -0.396152 0.319010 0.582960 0.050701 -0.329665 0.372454 -0.509713 0.261440 -0.734768 -0.425268 0.147370 -0.577167 -0.113878 0.004879 -0.480281 0.560526 0.095952 -0.283125 0.226260 0.104209 0.491967 -0.822394 -0.060403 -0.520294 1.014064 -0.280206 -0.568705 -0.203382 0.860197 -0.325877 -0.647859 0.517529 -0.785246 -0.646541 -0.059520 0.056156 0.130464 0.139130 -0.081190 0.155776 -0.168376 -0.535076 -0.509814 0.073150 0.243902 0.379737 0.423283 0.351235 0.072563
mejor 0.048755 -0.350042 0.286090 0.511985 0.027801 -0.274060 0.331488 -0.453367 0.230333 -0.632643 -0.368137 0.126461 -0.506075 -0.119758 0.007641 -0.431053 0.482528 0.072062 -0.256769 0.178453 0.103292 0.441698 -0.733605 -0.049872 -0.463157 0.897553 -0.248599 -0.506627 -0.171521 0.755320 -0.280314 -0.558348 0.452062 -0.672274 -0.547248 -0.050008 0.063208 0.099151 0.110711 -0.058399 0.128511 -0.141261 -0.457464 -0.439671 0.066398 0.205150 0.328446 0.386211 0.291779 0.060998
jugador 0.033706 -0.307369 0.258866 0.460700 0.035441 -0.245356 0.300464 -0.395298 0.201112 -0.587708 -0.340939 0.117036 -0.460511 -0.101196 -0.010298 -0.396924 0.450086 0.073908 -0.224964 0.172237 0.090730 0.397476 -0.654274 -0.032111 -0.425782 0.803353 -0.219920 -0.461456 -0.167633 0.671572 -0.254383 -0.519418 0.396175 -0.622039 -0.510951 -0.039380 0.058827 0.092925 0.109748 -0.063524 0.117933 -0.138748 -0.414988 -0.399968 0.072662 0.200234 0.284820 0.343722 0.273788 0.052366
equipo 0.030764 -0.332524 0.293295 0.496456 0.032826 -0.272499 0.328690 -0.451540 0.220704 -0.631892 -0.380195 0.131931 -0.504997 -0.109491 0.003128 -0.435271 0.494646 0.075832 -0.252639 0.193516 0.099258 0.448927 -0.733213 -0.044865 -0.471486 0.887547 -0.241682 -0.503774 -0.171012 0.742847 -0.277601 -0.559584 0.445100 -0.676314 -0.549413 -0.051216 0.048055 0.104234 0.112209 -0.057125 0.135692 -0.147056 -0.475584 -0.441678 0.066319 0.213302 0.326355 0.378243 0.311311 0.056708
jugador-neymar_jr 0.035491 -0.394048 0.312171 0.567792 0.050508 -0.320801 0.373729 -0.499436 0.267512 -0.733298 -0.426615 0.147381 -0.565016 -0.116636 -0.013646 -0.480591 0.554633 0.085895 -0.272169 0.207341 0.111966 0.504134 -0.824640 -0.053102 -0.515831 0.991469 -0.284103 -0.555922 -0.202546 0.840846 -0.314051 -0.640192 0.499865 -0.762107 -0.631284 -0.065756 0.073782 0.126450 0.136917 -0.082128 0.149772 -0.173899 -0.522936 -0.501510 0.082463 0.234049 0.369890 0.435481 0.342757 0.060912
campeones 0.036721 -0.259218 0.210318 0.377917 0.036083 -0.203946 0.247980 -0.339370 0.173768 -0.466257 -0.271464 0.087408 -0.369283 -0.089011 0.005839 -0.320816 0.369740 0.049156 -0.191409 0.137850 0.068358 0.327050 -0.546865 -0.036493 -0.344821 0.664118 -0.186294 -0.365915 -0.141326 0.545871 -0.206396 -0.415375 0.331196 -0.503563 -0.405095 -0.038701 0.032204 0.072107 0.095174 -0.040188 0.114316 -0.103010 -0.349550 -0.334334 0.047431 0.164996 0.245712 0.283379 0.215802 0.035238
ya 0.030935 -0.367838 0.298466 0.520100 0.030783 -0.297475 0.343607 -0.473685 0.241053 -0.680506 -0.399799 0.130618 -0.529120 -0.109267 -0.008952 -0.448145 0.510375 0.083880 -0.254233 0.200025 0.101645 0.455246 -0.758083 -0.045758 -0.476923 0.935490 -0.261972 -0.531128 -0.189225 0.785344 -0.291126 -0.591393 0.474446 -0.721804 -0.591006 -0.058350 0.060795 0.106278 0.118238 -0.060583 0.140407 -0.148440 -0.478951 -0.467413 0.069928 0.222007 0.346165 0.399241 0.324187 0.060616
jugador-iker_casillas 0.040743 -0.387450 0.326289 0.556574 0.051757 -0.304401 0.374293 -0.493458 0.251667 -0.721770 -0.421617 0.143714 -0.569463 -0.121960 -0.011675 -0.484581 0.556594 0.076199 -0.269646 0.210476 0.110822 0.497458 -0.801122 -0.046506 -0.511403 0.998131 -0.287810 -0.565518 -0.199177 0.845305 -0.305729 -0.639817 0.509464 -0.767627 -0.624385 -0.052828 0.052303 0.120748 0.128876 -0.070806 0.145030 -0.168061 -0.525396 -0.507601 0.089896 0.230520 0.357422 0.414146 0.344848 0.067386
ahora 0.030630 -0.302493 0.251913 0.460664 0.033464 -0.250426 0.293765 -0.412875 0.215798 -0.585746 -0.347250 0.104873 -0.461089 -0.086543 -0.003663 -0.382556 0.443472 0.060758 -0.219247 0.174194 0.087502 0.408831 -0.658023 -0.048064 -0.430877 0.816505 -0.232305 -0.464396 -0.165257 0.686799 -0.252216 -0.508554 0.409393 -0.615014 -0.510852 -0.038850 0.061218 0.090593 0.118833 -0.051694 0.129659 -0.133324 -0.421628 -0.401885 0.062663 0.192423 0.304535 0.353986 0.277265 0.053091
hoy 0.034886 -0.315190 0.264973 0.453922 0.025896 -0.264001 0.294119 -0.404963 0.213815 -0.584424 -0.341715 0.104426 -0.450394 -0.100680 0.001518 -0.393138 0.446497 0.063647 -0.229475 0.164454 0.079775 0.395296 -0.664748 -0.037293 -0.426687 0.800660 -0.218544 -0.451632 -0.167479 0.681264 -0.249394 -0.513564 0.409566 -0.614918 -0.506146 -0.039586 0.043243 0.091202 0.108333 -0.062039 0.128730 -0.140486 -0.421489 -0.409181 0.074013 0.183124 0.297254 0.331826 0.275515 0.049407
grande 0.040250 -0.308259 0.250522 0.449406 0.040892 -0.251692 0.296659 -0.407887 0.204443 -0.583414 -0.332368 0.104635 -0.445700 -0.090359 0.008662 -0.381381 0.452214 0.063571 -0.220398 0.178141 0.082661 0.408682 -0.655154 -0.038082 -0.418782 0.802676 -0.234155 -0.455602 -0.165717 0.670476 -0.260343 -0.516811 0.411813 -0.623672 -0.504356 -0.038070 0.043707 0.102920 0.109892 -0.063714 0.122568 -0.124636 -0.410985 -0.395897 0.074228 0.195500 0.290514 0.348090 0.273387 0.059439
más 0.051436 -0.384914 0.320557 0.559430 0.032207 -0.303471 0.365732 -0.493528 0.242300 -0.710235 -0.403250 0.142532 -0.546283 -0.123382 -0.002775 -0.463105 0.545185 0.080361 -0.272443 0.214608 0.097905 0.484495 -0.787399 -0.048977 -0.511393 0.982478 -0.282847 -0.540659 -0.194316 0.816627 -0.300690 -0.626899 0.486472 -0.753814 -0.607234 -0.044041 0.056908 0.108511 0.126702 -0.071851 0.146190 -0.157053 -0.515248 -0.488310 0.086014 0.223714 0.349540 0.410310 0.328569 0.070224
mas 0.034809 -0.343819 0.304042 0.520726 0.030783 -0.285404 0.332486 -0.460364 0.234226 -0.668432 -0.389229 0.135167 -0.514477 -0.117020 -0.007808 -0.443730 0.501635 0.069611 -0.255369 0.194814 0.084895 0.454700 -0.747513 -0.050330 -0.483340 0.920955 -0.258289 -0.515007 -0.190633 0.765942 -0.289207 -0.591135 0.468041 -0.705521 -0.581306 -0.056300 0.068499 0.099920 0.124314 -0.079235 0.151377 -0.152518 -0.486007 -0.461446 0.079218 0.217324 0.334773 0.397262 0.301621 0.058228
todo 0.041343 -0.355757 0.301963 0.518642 0.043884 -0.291118 0.325624 -0.453322 0.227873 -0.653602 -0.382654 0.122177 -0.513964 -0.113044 0.006234 -0.448925 0.498128 0.084266 -0.263001 0.188199 0.101364 0.450410 -0.756432 -0.052241 -0.479444 0.914805 -0.249628 -0.521283 -0.184262 0.776061 -0.292467 -0.582162 0.464104 -0.700594 -0.566482 -0.048973 0.049140 0.113681 0.133486 -0.070855 0.136481 -0.158655 -0.479012 -0.459873 0.067449 0.208697 0.346894 0.391490 0.305926 0.065000
campeón 0.031477 -0.236507 0.213908 0.366803 0.031780 -0.205011 0.236086 -0.330680 0.164720 -0.466702 -0.273117 0.093154 -0.362239 -0.078546 0.006217 -0.312241 0.355078 0.064871 -0.178651 0.134213 0.065783 0.323920 -0.535762 -0.027398 -0.331767 0.636538 -0.176177 -0.354749 -0.134818 0.538449 -0.192979 -0.400965 0.325647 -0.502667 -0.401875 -0.042711 0.046976 0.078888 0.087150 -0.057900 0.104507 -0.109456 -0.335727 -0.319277 0.044274 0.154664 0.227195 0.267174 0.225024 0.043812
gol 0.051509 -0.370747 0.311718 0.547418 0.033492 -0.309300 0.353444 -0.492787 0.251875 -0.710535 -0.404573 0.123685 -0.547671 -0.118738 0.003090 -0.466939 0.537764 0.080072 -0.267240 0.203833 0.093289 0.480272 -0.795226 -0.062067 -0.502533 0.965938 -0.273965 -0.542117 -0.189718 0.817483 -0.311319 -0.629957 0.486795 -0.749953 -0.604407 -0.042935 0.054751 0.111323 0.130587 -0.074689 0.150577 -0.162567 -0.504344 -0.500695 0.091618 0.238154 0.364656 0.411766 0.335730 0.067004
jugador-josé_manuel_pinto 0.027798 -0.316467 0.274676 0.484586 0.028663 -0.256506 0.309231 -0.420238 0.217523 -0.614082 -0.365082 0.107902 -0.474384 -0.098563 -0.012256 -0.404353 0.471521 0.065238 -0.237456 0.185730 0.091295 0.407749 -0.694465 -0.035868 -0.445654 0.851060 -0.243021 -0.471201 -0.175507 0.712346 -0.271935 -0.532655 0.429171 -0.642504 -0.527334 -0.044131 0.051884 0.106221 0.123051 -0.066626 0.139948 -0.137956 -0.434841 -0.427158 0.077903 0.195458 0.301053 0.358881 0.285091 0.068722
todos 0.033471 -0.315950 0.261721 0.462274 0.029931 -0.264079 0.293735 -0.413378 0.222405 -0.594908 -0.344394 0.115525 -0.459699 -0.091745 0.001161 -0.403589 0.454904 0.079915 -0.235002 0.176761 0.080550 0.401911 -0.678527 -0.036833 -0.425169 0.823637 -0.224026 -0.463144 -0.165825 0.701859 -0.258451 -0.518920 0.421019 -0.638307 -0.513634 -0.049543 0.056310 0.099206 0.112279 -0.068477 0.122341 -0.130582 -0.420489 -0.416709 0.068663 0.194186 0.309791 0.343018 0.283487 0.056072
ver 0.033232 -0.310944 0.255636 0.457068 0.027062 -0.256475 0.293982 -0.409645 0.206767 -0.589367 -0.343918 0.116292 -0.440508 -0.084352 0.003888 -0.376674 0.447407 0.072838 -0.213228 0.174966 0.086668 0.397271 -0.644630 -0.044321 -0.419621 0.797343 -0.232027 -0.451557 -0.170515 0.682613 -0.242502 -0.503933 0.399957 -0.616085 -0.494122 -0.043645 0.043153 0.089866 0.111326 -0.067522 0.121570 -0.130392 -0.416392 -0.405812 0.066738 0.192790 0.291508 0.345773 0.278583 0.047479
nada 0.025785 -0.296487 0.243736 0.435320 0.031435 -0.250942 0.285717 -0.393150 0.204766 -0.569090 -0.327323 0.108141 -0.438931 -0.103686 -0.001329 -0.373484 0.424118 0.067747 -0.221761 0.173629 0.089936 0.385801 -0.638262 -0.038269 -0.393571 0.775858 -0.212144 -0.434681 -0.159210 0.650061 -0.235047 -0.493712 0.387393 -0.591689 -0.479766 -0.040694 0.046269 0.099470 0.116188 -0.063073 0.108960 -0.131933 -0.409902 -0.381627 0.055680 0.179959 0.289193 0.332159 0.265762 0.053823
va 0.041882 -0.327343 0.266972 0.465882 0.041844 -0.257755 0.314735 -0.427180 0.212210 -0.614477 -0.350937 0.109055 -0.472060 -0.099365 -0.001244 -0.405297 0.458269 0.070533 -0.221299 0.170072 0.088921 0.413632 -0.678682 -0.048329 -0.431161 0.831388 -0.237185 -0.472595 -0.170998 0.706469 -0.256932 -0.522803 0.418139 -0.646474 -0.521304 -0.038986 0.050392 0.096718 0.111296 -0.068873 0.126763 -0.131536 -0.429723 -0.422026 0.062527 0.189113 0.302781 0.362087 0.289626 0.068611
tiene 0.029038 -0.287037 0.233065 0.404859 0.025011 -0.236594 0.258876 -0.357901 0.192009 -0.516258 -0.305977 0.091610 -0.402374 -0.077601 0.001978 -0.342187 0.390979 0.054173 -0.203075 0.153906 0.071914 0.345252 -0.584376 -0.032704 -0.383550 0.717854 -0.191427 -0.396598 -0.152275 0.604474 -0.224036 -0.459652 0.356092 -0.548766 -0.458566 -0.041167 0.037469 0.095128 0.096690 -0.058704 0.114879 -0.119562 -0.383861 -0.368536 0.055062 0.170201 0.256739 0.315719 0.246202 0.057792
siempre 0.048075 -0.348407 0.283491 0.501753 0.030314 -0.282397 0.314880 -0.456293 0.237389 -0.640734 -0.383086 0.132921 -0.498678 -0.113850 -0.006957 -0.425379 0.493242 0.069749 -0.245223 0.197381 0.096117 0.434170 -0.728497 -0.054373 -0.469705 0.892544 -0.243681 -0.509719 -0.174669 0.752303 -0.268582 -0.566447 0.442980 -0.682335 -0.549439 -0.048588 0.048143 0.113009 0.119824 -0.065970 0.142159 -0.148219 -0.465826 -0.438301 0.060674 0.219426 0.325985 0.374732 0.299318 0.068383
ser 0.039496 -0.307834 0.262264 0.458794 0.037171 -0.245227 0.287490 -0.399892 0.205353 -0.580235 -0.341093 0.112667 -0.451426 -0.093338 -0.005934 -0.381272 0.435874 0.065575 -0.231725 0.172341 0.078177 0.392969 -0.652509 -0.036132 -0.426343 0.802621 -0.221355 -0.463058 -0.162389 0.680620 -0.251604 -0.509017 0.399018 -0.621902 -0.500142 -0.043847 0.043233 0.104287 0.106880 -0.067524 0.128042 -0.135697 -0.430245 -0.398917 0.071400 0.199691 0.298554 0.346298 0.274702 0.057078
jugador-marc_bartra 0.034752 -0.349629 0.285947 0.511307 0.027327 -0.283380 0.341476 -0.453661 0.241916 -0.656640 -0.386775 0.129966 -0.517337 -0.105581 -0.011211 -0.443185 0.509617 0.073660 -0.258695 0.195151 0.102967 0.452790 -0.744813 -0.056756 -0.468082 0.907510 -0.260819 -0.511395 -0.179153 0.754954 -0.273766 -0.584074 0.465127 -0.705462 -0.570211 -0.052158 0.067337 0.109808 0.127831 -0.077984 0.142355 -0.147672 -0.476880 -0.462548 0.074466 0.208622 0.334596 0.390573 0.304485 0.067181
año 0.034359 -0.289500 0.231006 0.416741 0.029114 -0.237944 0.267917 -0.376063 0.200852 -0.545223 -0.307492 0.107444 -0.419127 -0.098572 -0.006893 -0.350248 0.414252 0.068175 -0.204834 0.167772 0.082716 0.370427 -0.594421 -0.037422 -0.391872 0.747238 -0.215444 -0.426957 -0.156858 0.626203 -0.227352 -0.458808 0.381888 -0.565599 -0.464022 -0.042441 0.042735 0.087816 0.110368 -0.053425 0.109927 -0.132219 -0.386656 -0.361101 0.053013 0.177258 0.268177 0.307868 0.255595 0.048885
vez 0.031787 -0.274501 0.234300 0.420122 0.028990 -0.235899 0.268637 -0.370446 0.184170 -0.538952 -0.308484 0.099736 -0.417370 -0.079031 -0.002338 -0.353513 0.402048 0.058705 -0.206802 0.150893 0.075847 0.369532 -0.593791 -0.038257 -0.377727 0.731348 -0.195716 -0.413156 -0.142041 0.620892 -0.228932 -0.469235 0.357342 -0.553249 -0.465450 -0.040478 0.045065 0.079472 0.102968 -0.052651 0.115649 -0.120278 -0.385000 -0.368146 0.057390 0.171541 0.262463 0.312433 0.245831 0.052424
enhorabuena 0.019238 -0.258329 0.217221 0.382845 0.025600 -0.215244 0.244068 -0.340525 0.187182 -0.495102 -0.289752 0.090707 -0.396266 -0.090364 0.008235 -0.331245 0.382688 0.062105 -0.182163 0.150591 0.069693 0.342102 -0.566889 -0.028385 -0.351039 0.684185 -0.196722 -0.392386 -0.143753 0.580429 -0.216230 -0.439473 0.348123 -0.527949 -0.439214 -0.031777 0.053162 0.075636 0.088023 -0.055706 0.112686 -0.118514 -0.355145 -0.349928 0.059552 0.154457 0.256702 0.299247 0.231505 0.051225
bien 0.025768 -0.319234 0.274312 0.478418 0.035421 -0.267574 0.301740 -0.431315 0.224953 -0.621524 -0.365730 0.119980 -0.484888 -0.096438 -0.002034 -0.405513 0.460030 0.081559 -0.240226 0.175949 0.078430 0.411649 -0.686538 -0.050170 -0.443973 0.844664 -0.246214 -0.474790 -0.160522 0.705272 -0.269268 -0.535486 0.418841 -0.657692 -0.535347 -0.048927 0.052847 0.093223 0.113141 -0.059278 0.131280 -0.142782 -0.451587 -0.415843 0.072710 0.196571 0.317077 0.367081 0.287560 0.049802
final 0.023949 -0.256984 0.209394 0.392616 0.021484 -0.216631 0.249300 -0.330857 0.178258 -0.488049 -0.283078 0.100879 -0.371787 -0.082547 0.009101 -0.336468 0.362499 0.055763 -0.179750 0.148735 0.075760 0.330778 -0.554557 -0.041515 -0.353498 0.683867 -0.198217 -0.392025 -0.140223 0.572014 -0.202335 -0.420965 0.338208 -0.517148 -0.424425 -0.027594 0.043571 0.075666 0.098726 -0.051133 0.114232 -0.102877 -0.352250 -0.341078 0.055999 0.169560 0.246110 0.291425 0.232497 0.043792
gana 0.023384 -0.271893 0.227984 0.408345 0.034180 -0.239506 0.268797 -0.358260 0.198313 -0.530032 -0.308612 0.109325 -0.414120 -0.095709 0.003192 -0.347878 0.402403 0.065771 -0.204571 0.156541 0.068457 0.354226 -0.596603 -0.028657 -0.370588 0.726289 -0.211058 -0.400013 -0.140468 0.611256 -0.226433 -0.462626 0.373862 -0.556199 -0.459038 -0.046134 0.043508 0.092001 0.094511 -0.055167 0.111341 -0.125211 -0.375711 -0.360036 0.059439 0.162287 0.255450 0.315175 0.253202 0.060496
solo 0.033899 -0.314089 0.268126 0.458918 0.039795 -0.264134 0.304366 -0.415260 0.206365 -0.585188 -0.336055 0.120338 -0.455284 -0.097525 0.004023 -0.398660 0.446065 0.071875 -0.232986 0.163408 0.075108 0.404408 -0.671589 -0.034291 -0.420656 0.826864 -0.239446 -0.469164 -0.163114 0.700887 -0.266074 -0.517518 0.419227 -0.633807 -0.514407 -0.053678 0.060650 0.087458 0.112036 -0.051618 0.132338 -0.143541 -0.430730 -0.415721 0.057491 0.182962 0.305016 0.349516 0.278378 0.050684
vamos 0.033806 -0.236306 0.197869 0.347099 0.030476 -0.196892 0.231250 -0.318013 0.164876 -0.462012 -0.268841 0.091737 -0.357360 -0.085079 -0.006864 -0.312711 0.350354 0.051436 -0.176527 0.127775 0.056140 0.319052 -0.515634 -0.025358 -0.325807 0.642498 -0.171039 -0.362074 -0.124925 0.532490 -0.195797 -0.390341 0.321655 -0.474961 -0.384603 -0.038697 0.033392 0.084403 0.094957 -0.043775 0.092165 -0.102307 -0.322686 -0.324505 0.046706 0.143235 0.229186 0.259444 0.215409 0.037062
o 0.036012 -0.277999 0.249217 0.422581 0.026694 -0.234633 0.265685 -0.383230 0.200331 -0.539181 -0.324335 0.100932 -0.409402 -0.087790 0.005070 -0.366391 0.414052 0.073773 -0.217540 0.161510 0.069884 0.364359 -0.603746 -0.038186 -0.398113 0.744214 -0.218438 -0.411375 -0.149155 0.631832 -0.236462 -0.480473 0.364580 -0.576167 -0.468566 -0.035365 0.055921 0.098085 0.101483 -0.050806 0.126670 -0.122500 -0.380706 -0.367243 0.051817 0.184618 0.276830 0.311915 0.260706 0.055779
porque 0.033812 -0.352365 0.283942 0.521455 0.034260 -0.288953 0.344226 -0.463990 0.240215 -0.670503 -0.383813 0.130604 -0.506245 -0.113872 -0.009383 -0.449952 0.494413 0.076197 -0.253267 0.194536 0.100254 0.443726 -0.752079 -0.042903 -0.470901 0.915975 -0.258423 -0.523511 -0.178882 0.774371 -0.277756 -0.586666 0.459615 -0.706981 -0.574088 -0.042443 0.069473 0.100354 0.114411 -0.066414 0.144055 -0.153057 -0.473398 -0.457223 0.072910 0.211846 0.344208 0.384315 0.313610 0.070202
ganar 0.044777 -0.303758 0.269243 0.464492 0.027160 -0.257296 0.295504 -0.408005 0.208258 -0.587240 -0.342064 0.122247 -0.449805 -0.090820 0.000293 -0.385048 0.439187 0.076818 -0.218184 0.166713 0.073937 0.396371 -0.670950 -0.046832 -0.427706 0.814326 -0.226461 -0.448581 -0.154719 0.675448 -0.260039 -0.512204 0.416833 -0.618612 -0.505598 -0.051451 0.049937 0.102096 0.115972 -0.051026 0.125025 -0.143987 -0.422604 -0.402611 0.061454 0.183021 0.307601 0.339017 0.283504 0.062479
nos 0.036827 -0.336568 0.283702 0.487523 0.037760 -0.275775 0.308195 -0.431823 0.232006 -0.632020 -0.359497 0.117099 -0.494234 -0.109594 -0.001663 -0.419708 0.486924 0.083974 -0.231423 0.175810 0.082920 0.419153 -0.711454 -0.049731 -0.459189 0.873893 -0.237280 -0.497498 -0.166735 0.742246 -0.277477 -0.553396 0.445026 -0.669835 -0.534305 -0.039290 0.046628 0.093690 0.122747 -0.061171 0.128195 -0.141232 -0.457849 -0.434260 0.068989 0.211303 0.321701 0.378474 0.285280 0.061930
jugador-dani_alves 0.036762 -0.369343 0.294620 0.527440 0.038062 -0.283700 0.340705 -0.469314 0.247290 -0.667027 -0.391219 0.130549 -0.517614 -0.106187 -0.000696 -0.438051 0.519142 0.078720 -0.260868 0.206883 0.099957 0.451069 -0.762033 -0.056541 -0.477869 0.935087 -0.260071 -0.518327 -0.191469 0.784245 -0.282145 -0.595462 0.472383 -0.717153 -0.574990 -0.047941 0.068782 0.114427 0.127375 -0.076340 0.145420 -0.166215 -0.482961 -0.469154 0.067874 0.216498 0.334533 0.405435 0.319090 0.068029
ganado 0.026662 -0.287307 0.243871 0.432105 0.024020 -0.247826 0.269764 -0.374990 0.202662 -0.536607 -0.316018 0.100035 -0.428583 -0.097636 -0.011076 -0.370831 0.420471 0.071088 -0.201487 0.151346 0.076387 0.380569 -0.614958 -0.033935 -0.393564 0.759109 -0.216418 -0.420167 -0.158674 0.642340 -0.240785 -0.476705 0.386135 -0.586641 -0.466058 -0.037806 0.054942 0.090253 0.095074 -0.060688 0.114156 -0.124299 -0.393031 -0.369488 0.061448 0.185132 0.278402 0.320103 0.254738 0.055224
mundo 0.036740 -0.220541 0.189438 0.342882 0.028666 -0.184604 0.221155 -0.301562 0.149713 -0.431851 -0.257718 0.073707 -0.340868 -0.075998 -0.002741 -0.292893 0.331517 0.048512 -0.177568 0.120677 0.054102 0.312868 -0.489926 -0.038299 -0.310459 0.613898 -0.167402 -0.349018 -0.125104 0.504043 -0.181595 -0.387770 0.306628 -0.463747 -0.385823 -0.037101 0.044567 0.076865 0.088918 -0.038856 0.085323 -0.101926 -0.329922 -0.295391 0.042839 0.155697 0.221700 0.254309 0.214815 0.045639
jugador-angel_di_maría 0.045938 -0.322967 0.272352 0.494162 0.041584 -0.269783 0.325545 -0.422540 0.222803 -0.609705 -0.360001 0.108423 -0.481900 -0.100990 -0.000378 -0.411098 0.479017 0.084749 -0.248515 0.173042 0.098544 0.414016 -0.699577 -0.044119 -0.454625 0.857725 -0.237673 -0.485144 -0.165091 0.713888 -0.264538 -0.536516 0.425213 -0.666214 -0.532056 -0.038754 0.045646 0.099042 0.111134 -0.056705 0.143766 -0.142299 -0.453664 -0.426578 0.076643 0.197205 0.307756 0.366629 0.285416 0.061220
gracias 0.024965 -0.239648 0.198328 0.366846 0.019429 -0.210387 0.233642 -0.318211 0.174831 -0.466508 -0.267114 0.081210 -0.370919 -0.074769 0.001255 -0.310042 0.346540 0.048678 -0.177241 0.139665 0.055086 0.313099 -0.536851 -0.023857 -0.345221 0.636225 -0.172076 -0.372788 -0.124446 0.541253 -0.202460 -0.410746 0.334539 -0.490291 -0.400172 -0.032878 0.037834 0.067996 0.092560 -0.057029 0.096213 -0.109120 -0.347714 -0.324995 0.048780 0.160566 0.229078 0.284286 0.211591 0.042620
hay 0.036497 -0.369650 0.314717 0.544602 0.031536 -0.306004 0.357968 -0.486364 0.246144 -0.691348 -0.395567 0.131004 -0.539393 -0.106622 -0.003766 -0.458267 0.531041 0.077530 -0.260267 0.207307 0.101783 0.476685 -0.776185 -0.051072 -0.491178 0.954619 -0.264309 -0.546657 -0.193358 0.813510 -0.288298 -0.614471 0.486626 -0.734325 -0.588318 -0.048030 0.069964 0.113014 0.123347 -0.067704 0.147210 -0.154250 -0.499375 -0.472436 0.069855 0.225289 0.341596 0.409835 0.318715 0.063868
- 0.040539 -0.313703 0.267904 0.476191 0.039206 -0.249240 0.297455 -0.426759 0.224955 -0.586364 -0.352394 0.113397 -0.465525 -0.096042 0.004172 -0.398270 0.447671 0.080014 -0.224442 0.167661 0.078905 0.399099 -0.682619 -0.052777 -0.423742 0.827269 -0.224681 -0.477770 -0.164609 0.698002 -0.262098 -0.524162 0.412741 -0.630326 -0.520231 -0.040408 0.043833 0.107997 0.101355 -0.064019 0.134014 -0.149802 -0.422447 -0.410823 0.065179 0.190090 0.293932 0.343354 0.284514 0.054373
bueno 0.038405 -0.264703 0.218085 0.401182 0.031272 -0.228694 0.255375 -0.340436 0.179640 -0.499845 -0.282489 0.102369 -0.381210 -0.077016 -0.006182 -0.336314 0.380633 0.054842 -0.199825 0.141600 0.077224 0.336196 -0.561620 -0.025989 -0.357298 0.691958 -0.186618 -0.399249 -0.129830 0.584495 -0.218474 -0.446662 0.338227 -0.538293 -0.434985 -0.039025 0.043271 0.073280 0.087667 -0.042617 0.109564 -0.119269 -0.369289 -0.343760 0.053087 0.162814 0.263437 0.302885 0.231307 0.042160
felicidades 0.020156 -0.238396 0.203112 0.367234 0.035491 -0.212013 0.241688 -0.330513 0.169193 -0.476431 -0.275227 0.080349 -0.367937 -0.078081 0.007749 -0.316202 0.347535 0.059415 -0.177449 0.141305 0.074217 0.314013 -0.519302 -0.031853 -0.333556 0.636773 -0.187315 -0.365266 -0.137126 0.549272 -0.207496 -0.401601 0.324611 -0.490813 -0.401102 -0.031993 0.032730 0.065778 0.085373 -0.053744 0.101420 -0.108893 -0.328054 -0.323492 0.047069 0.158694 0.228131 0.274143 0.215999 0.055783
fue 0.029217 -0.236305 0.196221 0.346433 0.021767 -0.187938 0.229898 -0.295409 0.157038 -0.431384 -0.259708 0.078277 -0.346264 -0.080937 -0.008666 -0.290205 0.328802 0.061360 -0.158564 0.130411 0.064525 0.306908 -0.496383 -0.041458 -0.319701 0.601293 -0.169229 -0.333346 -0.116732 0.511698 -0.179204 -0.384886 0.309126 -0.461212 -0.384789 -0.026482 0.035203 0.079934 0.089211 -0.054086 0.085299 -0.112171 -0.305454 -0.305604 0.054595 0.140900 0.228571 0.256994 0.201089 0.045080
han 0.028498 -0.301542 0.264637 0.448047 0.038252 -0.244897 0.301977 -0.410197 0.207549 -0.583300 -0.335630 0.120008 -0.449255 -0.099739 0.007462 -0.386296 0.454708 0.077353 -0.228019 0.180725 0.079284 0.393291 -0.658135 -0.035418 -0.422954 0.814331 -0.225102 -0.454758 -0.159731 0.689170 -0.250718 -0.515779 0.398381 -0.620159 -0.504886 -0.032521 0.050711 0.099736 0.119633 -0.056294 0.119777 -0.142836 -0.409979 -0.401619 0.056241 0.191954 0.295782 0.344062 0.277152 0.047938
sido 0.029308 -0.302599 0.251454 0.455438 0.029597 -0.258962 0.287705 -0.410566 0.215537 -0.571689 -0.343795 0.104349 -0.453219 -0.099577 -0.013025 -0.390562 0.435926 0.061013 -0.211271 0.177766 0.090909 0.383585 -0.649147 -0.042237 -0.408439 0.790570 -0.225233 -0.440908 -0.165148 0.673020 -0.249937 -0.506211 0.405309 -0.602297 -0.496202 -0.047830 0.049851 0.089889 0.116108 -0.055101 0.129330 -0.134850 -0.414100 -0.406241 0.073745 0.179478 0.285557 0.341649 0.275494 0.049129
madrid 0.032148 -0.308053 0.260620 0.458661 0.039196 -0.251983 0.285424 -0.391662 0.204215 -0.582410 -0.343223 0.119588 -0.448030 -0.093729 -0.009248 -0.378741 0.430649 0.079662 -0.225237 0.179682 0.077016 0.391463 -0.653270 -0.050995 -0.423763 0.796728 -0.229613 -0.453839 -0.168997 0.670081 -0.245562 -0.498200 0.392758 -0.620533 -0.495893 -0.053857 0.057539 0.095403 0.104830 -0.060184 0.133384 -0.126034 -0.409415 -0.403574 0.059500 0.190418 0.299227 0.341318 0.267627 0.055994
retransmisión 0.029455 -0.286182 0.244207 0.437844 0.038290 -0.230542 0.286869 -0.380127 0.203939 -0.545826 -0.309451 0.108730 -0.428075 -0.088194 0.007517 -0.373931 0.415327 0.059815 -0.208429 0.154818 0.073611 0.370084 -0.613154 -0.034728 -0.396098 0.766054 -0.211047 -0.434504 -0.154385 0.634565 -0.245425 -0.471275 0.381747 -0.573225 -0.481841 -0.036427 0.039702 0.089118 0.093728 -0.063648 0.124980 -0.123615 -0.397456 -0.379740 0.055668 0.188629 0.284689 0.312762 0.265769 0.062126
son 0.023314 -0.276753 0.241037 0.410154 0.030199 -0.240268 0.257603 -0.358835 0.183611 -0.519511 -0.317098 0.098120 -0.414241 -0.079929 0.001370 -0.340423 0.390805 0.070876 -0.205208 0.145629 0.084992 0.361092 -0.587523 -0.037765 -0.383524 0.725723 -0.202834 -0.410814 -0.147358 0.609443 -0.228482 -0.468000 0.354450 -0.561893 -0.453259 -0.035812 0.051840 0.090782 0.099070 -0.063481 0.120600 -0.117670 -0.383651 -0.363785 0.066922 0.172585 0.267381 0.308816 0.249160 0.059033
autoridades 0.041489 -0.284728 0.242829 0.427225 0.039770 -0.222089 0.266542 -0.362970 0.183409 -0.526859 -0.309783 0.104191 -0.407551 -0.091034 -0.000876 -0.350444 0.401707 0.056293 -0.193834 0.154838 0.079117 0.354535 -0.604042 -0.031322 -0.376873 0.730103 -0.211119 -0.423338 -0.146145 0.631894 -0.220935 -0.468822 0.375905 -0.558704 -0.462418 -0.041756 0.049203 0.090253 0.097140 -0.051097 0.104463 -0.132168 -0.379723 -0.360439 0.051959 0.177808 0.274493 0.324770 0.251530 0.046736
españa 0.029283 -0.299114 0.246030 0.463862 0.031918 -0.264435 0.304772 -0.414599 0.219215 -0.591042 -0.331576 0.110652 -0.457554 -0.091189 0.007204 -0.391584 0.446057 0.071552 -0.235222 0.166951 0.083296 0.401408 -0.663029 -0.051127 -0.422544 0.808262 -0.223405 -0.453857 -0.154630 0.675028 -0.244398 -0.520432 0.404369 -0.628514 -0.512153 -0.050109 0.047015 0.101038 0.107586 -0.050828 0.123226 -0.128147 -0.410174 -0.392735 0.071366 0.195986 0.293439 0.343456 0.275240 0.051030
gran 0.029303 -0.338878 0.284588 0.496067 0.031159 -0.261858 0.310089 -0.431770 0.229006 -0.621439 -0.352171 0.111537 -0.480425 -0.101524 0.002469 -0.416098 0.478863 0.065803 -0.230978 0.186345 0.083147 0.428035 -0.706123 -0.048241 -0.450249 0.857889 -0.234767 -0.487336 -0.173860 0.717873 -0.259795 -0.544304 0.442918 -0.658300 -0.533787 -0.038894 0.051300 0.106721 0.112013 -0.071269 0.132160 -0.152848 -0.439924 -0.437708 0.066979 0.205232 0.308254 0.362771 0.294395 0.058465
cara 0.025622 -0.218124 0.181522 0.318712 0.027747 -0.181759 0.213464 -0.279520 0.149068 -0.409073 -0.243406 0.080475 -0.315673 -0.072176 -0.002893 -0.267388 0.304278 0.046119 -0.164147 0.123479 0.066580 0.273746 -0.454760 -0.030616 -0.301533 0.561281 -0.155457 -0.320085 -0.120232 0.484395 -0.175516 -0.354815 0.277808 -0.443591 -0.365852 -0.028204 0.032939 0.073382 0.079440 -0.050189 0.077817 -0.094867 -0.301392 -0.278765 0.054403 0.137728 0.209355 0.231594 0.202475 0.035156
victoria 0.031455 -0.240817 0.206788 0.351705 0.028263 -0.204232 0.238208 -0.320347 0.170450 -0.460584 -0.268353 0.077250 -0.348443 -0.080226 0.000824 -0.312929 0.343718 0.061109 -0.176499 0.135345 0.055168 0.317266 -0.506340 -0.025868 -0.324505 0.638005 -0.177362 -0.355181 -0.134597 0.527252 -0.194781 -0.397338 0.328525 -0.481283 -0.386204 -0.032080 0.040879 0.081740 0.085951 -0.057396 0.099735 -0.104040 -0.333483 -0.312930 0.048640 0.150552 0.234011 0.276021 0.223498 0.036746
mucho 0.027894 -0.316138 0.260215 0.471206 0.034437 -0.268908 0.313728 -0.416892 0.226702 -0.617297 -0.342845 0.121884 -0.464696 -0.091848 -0.000746 -0.408221 0.462405 0.075417 -0.241765 0.184872 0.086592 0.407481 -0.675743 -0.037647 -0.429724 0.832905 -0.224649 -0.478035 -0.172120 0.707465 -0.268989 -0.531503 0.427898 -0.646179 -0.520483 -0.052474 0.053481 0.099387 0.109978 -0.067403 0.126611 -0.138667 -0.432236 -0.419020 0.059645 0.203209 0.305486 0.349790 0.291945 0.050634
menos 0.036409 -0.265412 0.204870 0.385116 0.027750 -0.209731 0.245846 -0.333443 0.180103 -0.471119 -0.281971 0.097536 -0.373977 -0.070357 -0.011817 -0.318639 0.371147 0.061411 -0.187078 0.133983 0.071900 0.317334 -0.540382 -0.039292 -0.341377 0.662852 -0.188170 -0.371031 -0.127393 0.560067 -0.204514 -0.415126 0.322766 -0.500641 -0.421605 -0.030588 0.043617 0.087824 0.083254 -0.046443 0.105495 -0.114836 -0.336142 -0.339581 0.058825 0.159601 0.234395 0.280563 0.215686 0.056799
era 0.035209 -0.259555 0.226178 0.389243 0.035142 -0.207610 0.249336 -0.336774 0.174680 -0.494122 -0.290880 0.098782 -0.388063 -0.079335 -0.009686 -0.327124 0.378139 0.061580 -0.195168 0.148022 0.060645 0.339438 -0.549215 -0.034775 -0.357659 0.670221 -0.190458 -0.378378 -0.145431 0.564869 -0.204262 -0.433507 0.340165 -0.518526 -0.420232 -0.046487 0.038260 0.071917 0.087174 -0.053101 0.108997 -0.108929 -0.363102 -0.344220 0.052924 0.155737 0.254175 0.287273 0.222748 0.046932
favor 0.015588 -0.174716 0.160943 0.271591 0.015128 -0.153141 0.176980 -0.245921 0.124487 -0.337883 -0.203734 0.063581 -0.256468 -0.054607 0.004314 -0.229420 0.263299 0.036660 -0.124106 0.097627 0.047537 0.241545 -0.367255 -0.022671 -0.251622 0.467540 -0.123520 -0.269126 -0.095184 0.401213 -0.153386 -0.305508 0.234677 -0.360143 -0.298683 -0.031054 0.037203 0.055079 0.065516 -0.044063 0.063200 -0.086346 -0.232336 -0.239413 0.028549 0.114140 0.167849 0.189404 0.157540 0.027834
rey 0.030839 -0.266519 0.217424 0.386940 0.026920 -0.219990 0.237276 -0.341606 0.164077 -0.487014 -0.276624 0.090783 -0.381229 -0.074928 -0.004797 -0.312386 0.378474 0.058973 -0.178792 0.133518 0.063516 0.333676 -0.540625 -0.024389 -0.358390 0.657692 -0.186376 -0.367610 -0.140984 0.567820 -0.213389 -0.434646 0.342514 -0.519893 -0.415504 -0.031315 0.052427 0.088030 0.088162 -0.048242 0.100856 -0.118220 -0.341232 -0.339467 0.055300 0.157428 0.242315 0.283597 0.233842 0.050676
puede 0.029205 -0.237500 0.192429 0.340131 0.018426 -0.198379 0.229247 -0.305407 0.168314 -0.440657 -0.263386 0.080486 -0.344052 -0.071292 -0.009859 -0.302805 0.350208 0.057753 -0.167800 0.142930 0.058927 0.313453 -0.496814 -0.028011 -0.318718 0.624831 -0.164123 -0.356981 -0.131974 0.535848 -0.192139 -0.387184 0.311361 -0.472061 -0.397282 -0.024811 0.032469 0.073074 0.090315 -0.049684 0.096331 -0.105312 -0.318545 -0.312591 0.039534 0.139920 0.239243 0.261580 0.212169 0.052803
está 0.035484 -0.284394 0.228631 0.414046 0.025596 -0.236556 0.268818 -0.370610 0.190055 -0.515060 -0.297079 0.095645 -0.411827 -0.082667 0.003795 -0.344219 0.395226 0.071495 -0.190059 0.143872 0.083043 0.356937 -0.586423 -0.039251 -0.377418 0.721792 -0.205422 -0.415154 -0.146505 0.601687 -0.227010 -0.459378 0.355557 -0.552191 -0.453857 -0.031983 0.050122 0.082247 0.089669 -0.059134 0.113507 -0.128710 -0.378724 -0.357033 0.063107 0.168882 0.274639 0.309669 0.244650 0.055678
golazo 0.019349 -0.202297 0.177414 0.304716 0.020159 -0.177770 0.191712 -0.268500 0.140608 -0.392257 -0.236221 0.068035 -0.314230 -0.072636 -0.007545 -0.273647 0.311309 0.054222 -0.144738 0.117492 0.055935 0.263959 -0.443950 -0.037784 -0.291648 0.544390 -0.164513 -0.312540 -0.107949 0.456976 -0.173489 -0.357292 0.276521 -0.419405 -0.344068 -0.037953 0.038881 0.068839 0.068620 -0.037780 0.086780 -0.095416 -0.279099 -0.268730 0.051820 0.134943 0.192923 0.241622 0.188404 0.038660
da 0.033229 -0.261270 0.212153 0.370622 0.030371 -0.206918 0.243930 -0.325593 0.170200 -0.464250 -0.266300 0.087147 -0.367865 -0.085345 -0.004404 -0.308308 0.370300 0.054518 -0.181750 0.132897 0.059619 0.321208 -0.533622 -0.033362 -0.336939 0.644322 -0.187750 -0.367933 -0.141216 0.557510 -0.206442 -0.422530 0.322476 -0.498108 -0.404285 -0.044318 0.039990 0.082751 0.089826 -0.045177 0.093200 -0.103110 -0.336243 -0.333018 0.048287 0.156687 0.244030 0.285062 0.220557 0.037976
jugador-isco 0.032741 -0.270442 0.235189 0.406763 0.035230 -0.211266 0.265181 -0.356541 0.180125 -0.514737 -0.292790 0.086880 -0.404713 -0.076634 -0.008169 -0.329691 0.393424 0.057417 -0.196025 0.151037 0.082930 0.350868 -0.576387 -0.041660 -0.372547 0.687754 -0.199851 -0.404462 -0.136351 0.591739 -0.217876 -0.452079 0.360864 -0.547664 -0.428468 -0.027832 0.043662 0.076929 0.084080 -0.051048 0.117155 -0.119392 -0.369082 -0.342248 0.066817 0.157492 0.255647 0.300531 0.247079 0.045239
queda 0.033857 -0.217866 0.176548 0.315743 0.016908 -0.184030 0.199073 -0.283113 0.140972 -0.412473 -0.239458 0.071496 -0.320442 -0.059119 -0.001532 -0.266865 0.304420 0.050018 -0.148092 0.120927 0.057834 0.280959 -0.459247 -0.018980 -0.287731 0.563075 -0.148862 -0.305773 -0.112808 0.461888 -0.182259 -0.350744 0.285230 -0.423166 -0.352612 -0.022323 0.032149 0.069419 0.069503 -0.044989 0.084367 -0.097547 -0.293099 -0.272443 0.036480 0.139557 0.210619 0.238067 0.182866 0.039251
juega 0.017579 -0.214567 0.169748 0.303296 0.022719 -0.167523 0.202435 -0.272442 0.145611 -0.394310 -0.232463 0.083378 -0.307922 -0.068666 -0.006616 -0.268169 0.299219 0.046723 -0.152924 0.107928 0.045770 0.275066 -0.451702 -0.034152 -0.285053 0.548928 -0.161969 -0.316158 -0.113473 0.456692 -0.167234 -0.349874 0.278102 -0.418977 -0.350677 -0.025470 0.042976 0.071368 0.068283 -0.042975 0.076846 -0.101553 -0.280532 -0.272650 0.052989 0.126031 0.195109 0.239199 0.176208 0.044498
campeon 0.015883 -0.113777 0.084972 0.152023 0.017373 -0.087135 0.106709 -0.148439 0.081809 -0.203203 -0.116838 0.045626 -0.160394 -0.038540 0.009353 -0.137288 0.158891 0.033927 -0.085028 0.069756 0.034376 0.143061 -0.227164 -0.006562 -0.148484 0.293668 -0.071927 -0.157587 -0.047642 0.231886 -0.083151 -0.184594 0.146910 -0.219514 -0.180877 -0.012610 0.012103 0.029465 0.030681 -0.011776 0.043377 -0.038678 -0.158538 -0.144737 0.024589 0.070830 0.104532 0.111339 0.089500 0.021117
tan 0.021898 -0.252938 0.194532 0.356917 0.036275 -0.192816 0.236504 -0.318797 0.165372 -0.461122 -0.271731 0.081999 -0.366520 -0.078582 0.007419 -0.298403 0.357581 0.053722 -0.170531 0.141073 0.060527 0.317802 -0.509296 -0.034353 -0.329176 0.638306 -0.172507 -0.357964 -0.120909 0.529801 -0.189522 -0.408980 0.318421 -0.479201 -0.402229 -0.041231 0.034550 0.077522 0.087103 -0.045967 0.098570 -0.103027 -0.334596 -0.308407 0.048256 0.158750 0.233861 0.274758 0.207217 0.047627
mundial 0.028071 -0.271938 0.214654 0.390036 0.028293 -0.211199 0.247204 -0.351378 0.169556 -0.491937 -0.283573 0.104136 -0.386458 -0.073835 -0.010247 -0.326685 0.379529 0.051171 -0.194590 0.152848 0.077879 0.345558 -0.559712 -0.036977 -0.356859 0.677793 -0.196626 -0.388043 -0.143346 0.578770 -0.207458 -0.431615 0.340324 -0.522888 -0.419543 -0.040107 0.045987 0.079229 0.094340 -0.061767 0.111573 -0.124599 -0.361956 -0.331728 0.062776 0.166407 0.244790 0.290295 0.223086 0.048779
hecho 0.013648 -0.216505 0.182154 0.306147 0.019563 -0.162967 0.197755 -0.262985 0.132665 -0.397641 -0.233359 0.076170 -0.304322 -0.059869 -0.006771 -0.272059 0.304950 0.041697 -0.150713 0.120823 0.059445 0.267568 -0.450497 -0.029482 -0.285305 0.552842 -0.155972 -0.305637 -0.111364 0.458595 -0.163103 -0.339024 0.274942 -0.416013 -0.349088 -0.024802 0.027786 0.074673 0.082089 -0.038475 0.094160 -0.087242 -0.287503 -0.274357 0.037646 0.126682 0.209981 0.225748 0.182729 0.030600
puta 0.035691 -0.251500 0.205116 0.369027 0.034790 -0.202674 0.226107 -0.329433 0.159450 -0.465409 -0.272441 0.080260 -0.366553 -0.069062 0.008965 -0.295619 0.345057 0.046137 -0.182823 0.144270 0.056740 0.320848 -0.513215 -0.035049 -0.325353 0.644250 -0.180196 -0.360961 -0.123127 0.545784 -0.188966 -0.412470 0.309718 -0.495208 -0.398096 -0.031372 0.050892 0.084172 0.092524 -0.037777 0.089702 -0.110416 -0.327637 -0.314662 0.055740 0.152137 0.227860 0.274862 0.220584 0.048531
medalla 0.031565 -0.225749 0.191980 0.334531 0.031526 -0.191179 0.216583 -0.304786 0.144609 -0.422505 -0.245030 0.087205 -0.337458 -0.059941 0.005857 -0.277552 0.331873 0.052846 -0.165713 0.125837 0.061792 0.283309 -0.477173 -0.023910 -0.302779 0.589584 -0.159068 -0.327783 -0.108379 0.493986 -0.189089 -0.381759 0.297784 -0.448115 -0.376698 -0.038957 0.043800 0.062900 0.078684 -0.037131 0.084184 -0.097213 -0.312761 -0.301448 0.051455 0.141477 0.215731 0.246923 0.206974 0.046124
voy 0.039659 -0.278786 0.232826 0.399442 0.019805 -0.226441 0.269843 -0.370427 0.179693 -0.518418 -0.310421 0.110706 -0.396503 -0.083352 -0.006738 -0.356431 0.403889 0.058050 -0.208932 0.158023 0.069145 0.355362 -0.592078 -0.040926 -0.373755 0.719932 -0.203395 -0.407986 -0.145322 0.604005 -0.221501 -0.467732 0.368621 -0.556714 -0.461878 -0.042950 0.053332 0.088316 0.101266 -0.046727 0.121616 -0.117248 -0.374354 -0.370952 0.057157 0.165137 0.255617 0.312176 0.255376 0.047932
mierda 0.015269 -0.188990 0.166158 0.290012 0.024381 -0.168304 0.194514 -0.247293 0.142044 -0.366542 -0.209138 0.071484 -0.279954 -0.059708 0.000546 -0.238705 0.289012 0.042605 -0.145633 0.100200 0.057847 0.251073 -0.421877 -0.017658 -0.274960 0.517670 -0.152670 -0.285436 -0.104786 0.436955 -0.158059 -0.315949 0.262041 -0.398068 -0.318521 -0.030025 0.036294 0.064651 0.071073 -0.034928 0.080479 -0.085904 -0.273719 -0.244925 0.041576 0.122816 0.192159 0.214396 0.170406 0.032434
decir 0.029384 -0.245596 0.197892 0.356368 0.026268 -0.198950 0.227509 -0.316925 0.150230 -0.449210 -0.257411 0.075081 -0.350569 -0.066141 -0.001007 -0.295280 0.341965 0.049383 -0.170860 0.138833 0.055569 0.306886 -0.501336 -0.032423 -0.321731 0.604140 -0.161401 -0.344855 -0.121668 0.516303 -0.188475 -0.396931 0.305694 -0.468453 -0.384327 -0.039078 0.045669 0.077348 0.091362 -0.053833 0.098718 -0.101113 -0.330690 -0.307073 0.057019 0.149229 0.231825 0.259078 0.217096 0.037738
ole 0.026094 -0.187940 0.157241 0.294537 0.012938 -0.171080 0.179422 -0.249041 0.136427 -0.370768 -0.208339 0.080106 -0.293814 -0.054345 0.008052 -0.239902 0.287858 0.043208 -0.149030 0.099905 0.057543 0.248229 -0.424570 -0.026987 -0.268532 0.511869 -0.146948 -0.292992 -0.104787 0.437688 -0.161437 -0.323237 0.249495 -0.397769 -0.317298 -0.033165 0.023332 0.063315 0.076390 -0.043847 0.076649 -0.077957 -0.268287 -0.253277 0.032152 0.116150 0.184435 0.207042 0.166372 0.030035
creo 0.024874 -0.165699 0.148260 0.248216 0.011255 -0.136085 0.152089 -0.210816 0.107808 -0.315486 -0.190234 0.051311 -0.234857 -0.043901 -0.003912 -0.215890 0.232499 0.045786 -0.119330 0.097553 0.037777 0.224028 -0.345236 -0.027714 -0.236171 0.425265 -0.123313 -0.238270 -0.077888 0.369663 -0.125559 -0.276452 0.225259 -0.337802 -0.273414 -0.032890 0.024494 0.053128 0.053486 -0.029449 0.069308 -0.071834 -0.220878 -0.213969 0.036971 0.094769 0.167684 0.179222 0.156244 0.025692
palo 0.030823 -0.273042 0.216359 0.393569 0.037146 -0.217910 0.240708 -0.332437 0.172956 -0.497687 -0.286242 0.102842 -0.384754 -0.074446 -0.005547 -0.318825 0.382901 0.052024 -0.190339 0.142568 0.063485 0.331391 -0.551823 -0.030240 -0.344605 0.681405 -0.187934 -0.391286 -0.138868 0.575400 -0.217965 -0.439492 0.337845 -0.515577 -0.433203 -0.044936 0.038010 0.070689 0.102208 -0.056224 0.111553 -0.105727 -0.344349 -0.341518 0.052709 0.165490 0.244278 0.283648 0.225655 0.054498
den 0.001367 -0.116207 0.078955 0.155324 0.012576 -0.083997 0.105421 -0.140200 0.077820 -0.205655 -0.126817 0.036422 -0.158256 -0.024836 0.003560 -0.134540 0.157467 0.032521 -0.086431 0.047768 0.032370 0.132338 -0.213637 -0.003770 -0.152289 0.281569 -0.073586 -0.153330 -0.065542 0.243822 -0.086949 -0.177177 0.130163 -0.211024 -0.183341 -0.021542 0.023741 0.024993 0.046832 -0.025243 0.047024 -0.048436 -0.135129 -0.149145 0.032205 0.073713 0.094836 0.125361 0.090918 0.018811
temporada 0.032393 -0.270098 0.220601 0.387315 0.030526 -0.213852 0.254303 -0.344239 0.168920 -0.490011 -0.294676 0.100304 -0.391717 -0.081295 -0.011892 -0.321868 0.378955 0.062580 -0.178927 0.152402 0.069923 0.324393 -0.545839 -0.028854 -0.349958 0.682636 -0.199205 -0.374717 -0.142556 0.583479 -0.215761 -0.435888 0.342304 -0.528765 -0.421352 -0.027579 0.036351 0.086682 0.092534 -0.050277 0.101140 -0.112837 -0.352767 -0.340029 0.049593 0.157654 0.255557 0.296947 0.237887 0.042237
hace 0.015730 -0.190754 0.168521 0.303880 0.023559 -0.159569 0.187077 -0.254530 0.131450 -0.375631 -0.213260 0.062577 -0.289653 -0.064434 -0.000327 -0.243393 0.290954 0.043614 -0.140231 0.117737 0.048336 0.267331 -0.420212 -0.020286 -0.278312 0.521531 -0.153316 -0.301813 -0.112591 0.437639 -0.168393 -0.335368 0.258768 -0.400333 -0.320262 -0.038721 0.041720 0.066905 0.070827 -0.041277 0.072580 -0.088374 -0.274168 -0.267570 0.035833 0.127427 0.197562 0.222658 0.179221 0.042088
vaya 0.027745 -0.183895 0.150822 0.284095 0.013896 -0.148176 0.188389 -0.249971 0.134874 -0.355307 -0.204628 0.070091 -0.286005 -0.047963 -0.005195 -0.226179 0.268683 0.042375 -0.129975 0.100733 0.045575 0.232760 -0.398845 -0.030432 -0.252205 0.495859 -0.127230 -0.269032 -0.096786 0.418606 -0.157707 -0.302969 0.242581 -0.387323 -0.316390 -0.033932 0.038928 0.052381 0.076145 -0.043698 0.073405 -0.073931 -0.251957 -0.250508 0.045829 0.111873 0.186298 0.200707 0.167356 0.027665
título 0.027441 -0.220196 0.193815 0.325782 0.029151 -0.176844 0.223304 -0.297808 0.156808 -0.422403 -0.248926 0.070751 -0.325822 -0.062672 -0.006899 -0.287899 0.315276 0.055476 -0.170737 0.120333 0.058533 0.285853 -0.484916 -0.039082 -0.308243 0.591590 -0.158289 -0.331693 -0.121209 0.501427 -0.173005 -0.369461 0.299388 -0.445547 -0.369177 -0.040889 0.029217 0.065284 0.074133 -0.049108 0.082310 -0.092263 -0.310708 -0.294328 0.042820 0.144078 0.214549 0.252089 0.206433 0.033412
quien 0.017592 -0.247985 0.200220 0.352416 0.022950 -0.203579 0.231722 -0.315423 0.167658 -0.441337 -0.259103 0.093481 -0.354516 -0.075217 -0.004715 -0.296893 0.351318 0.053904 -0.171574 0.122722 0.069765 0.315269 -0.511793 -0.035632 -0.321212 0.614114 -0.168858 -0.343137 -0.132363 0.514982 -0.192562 -0.395834 0.307296 -0.465877 -0.383082 -0.025237 0.031369 0.072719 0.090727 -0.037510 0.097585 -0.095410 -0.321743 -0.310153 0.051261 0.143031 0.220401 0.254697 0.217698 0.042589
estaba 0.033289 -0.219369 0.188053 0.326696 0.028302 -0.170098 0.212869 -0.275888 0.142700 -0.401286 -0.226826 0.070315 -0.311335 -0.075867 -0.011235 -0.263668 0.311659 0.056214 -0.164581 0.114740 0.054727 0.281247 -0.464406 -0.026562 -0.298827 0.563374 -0.160792 -0.313696 -0.120093 0.461780 -0.177560 -0.359445 0.276035 -0.427954 -0.345363 -0.025846 0.043020 0.063166 0.078549 -0.033272 0.091374 -0.085976 -0.282636 -0.273451 0.051557 0.130759 0.209379 0.237827 0.192683 0.045493
bandera 0.026840 -0.269206 0.214848 0.391733 0.034595 -0.207970 0.256941 -0.349092 0.181464 -0.495184 -0.283583 0.092364 -0.392799 -0.081714 -0.010172 -0.328828 0.368085 0.047929 -0.186457 0.140632 0.072309 0.339715 -0.557357 -0.027176 -0.353507 0.679317 -0.186545 -0.390808 -0.141582 0.583706 -0.220379 -0.429662 0.332419 -0.532264 -0.428505 -0.044367 0.049716 0.072041 0.089255 -0.042484 0.100674 -0.117469 -0.347340 -0.346852 0.064334 0.170449 0.250016 0.291760 0.234410 0.054522
quiero 0.022931 -0.158571 0.121272 0.214814 0.021100 -0.120526 0.142329 -0.192237 0.103442 -0.283021 -0.160811 0.045497 -0.218551 -0.049517 -0.003088 -0.190640 0.215163 0.039757 -0.107536 0.087425 0.043595 0.184596 -0.317729 -0.010735 -0.210711 0.382309 -0.099724 -0.214051 -0.075020 0.328948 -0.130410 -0.255859 0.192526 -0.299042 -0.245609 -0.031462 0.027191 0.049855 0.045111 -0.036806 0.062524 -0.075127 -0.210413 -0.200416 0.036928 0.085989 0.150563 0.174468 0.126690 0.026685
amo 0.031265 -0.220008 0.185352 0.324355 0.026885 -0.172469 0.201842 -0.300711 0.141738 -0.411789 -0.234017 0.078809 -0.318516 -0.073148 0.009034 -0.283179 0.326669 0.046439 -0.155883 0.127848 0.069832 0.292628 -0.463777 -0.023287 -0.309035 0.586237 -0.168347 -0.331439 -0.107024 0.481433 -0.184727 -0.368178 0.291168 -0.450972 -0.370745 -0.034413 0.045192 0.061204 0.072756 -0.034029 0.083602 -0.103317 -0.301954 -0.284160 0.046847 0.130207 0.221767 0.254943 0.201951 0.035940
falta 0.033519 -0.270441 0.213271 0.400126 0.029611 -0.226084 0.247837 -0.348392 0.172650 -0.506745 -0.285861 0.099680 -0.389847 -0.076170 -0.003732 -0.331037 0.387289 0.053594 -0.191637 0.147325 0.063014 0.336855 -0.559602 -0.042114 -0.363286 0.679854 -0.191798 -0.390592 -0.133072 0.581699 -0.217858 -0.440980 0.354638 -0.519131 -0.423036 -0.034903 0.036015 0.082930 0.097559 -0.051221 0.110517 -0.112766 -0.367049 -0.347096 0.061224 0.169871 0.252541 0.286066 0.224870 0.050269
mal 0.035989 -0.254862 0.214710 0.377920 0.016833 -0.215978 0.248590 -0.317779 0.159393 -0.470828 -0.272802 0.100062 -0.356931 -0.066825 -0.002544 -0.312651 0.365136 0.061616 -0.185437 0.138827 0.068020 0.317001 -0.521112 -0.033106 -0.329196 0.660094 -0.173508 -0.369975 -0.129931 0.553091 -0.200992 -0.420707 0.331054 -0.502559 -0.398808 -0.039636 0.032246 0.076935 0.095457 -0.047689 0.099415 -0.115241 -0.328684 -0.329955 0.044115 0.144851 0.231699 0.267125 0.216849 0.037398
mismo 0.018422 -0.159095 0.143234 0.239043 0.022326 -0.120568 0.151497 -0.207481 0.110241 -0.306316 -0.179408 0.051594 -0.226184 -0.054489 -0.000738 -0.202438 0.222827 0.033883 -0.108287 0.096716 0.042470 0.206467 -0.346708 -0.024551 -0.216975 0.426161 -0.119011 -0.226411 -0.090433 0.349565 -0.125268 -0.273750 0.210011 -0.309942 -0.263780 -0.029765 0.035224 0.056534 0.064054 -0.026644 0.071021 -0.070868 -0.216941 -0.210255 0.031401 0.090545 0.150521 0.184502 0.140514 0.027521
pasa 0.030083 -0.188048 0.158935 0.273331 0.015238 -0.150679 0.175711 -0.247375 0.118880 -0.348256 -0.193468 0.070687 -0.276498 -0.050932 0.003349 -0.234078 0.272352 0.044006 -0.141323 0.099161 0.054502 0.244583 -0.397578 -0.015297 -0.248922 0.478432 -0.131550 -0.273389 -0.086772 0.401181 -0.152697 -0.304492 0.241015 -0.372371 -0.293986 -0.020239 0.040533 0.047057 0.072645 -0.028507 0.066237 -0.080906 -0.240577 -0.230707 0.036174 0.106196 0.170378 0.198363 0.159881 0.033407
campo 0.012535 -0.210747 0.172695 0.314307 0.028300 -0.171226 0.204722 -0.267342 0.144206 -0.383672 -0.219706 0.076499 -0.306351 -0.053968 0.005116 -0.266175 0.305207 0.052220 -0.155061 0.108195 0.058753 0.253927 -0.432840 -0.030778 -0.284104 0.532391 -0.143004 -0.295780 -0.117551 0.448617 -0.157171 -0.337397 0.260053 -0.417147 -0.328671 -0.038800 0.025420 0.062158 0.080580 -0.040260 0.090060 -0.099415 -0.277097 -0.275468 0.045000 0.120545 0.187770 0.223115 0.186493 0.038232
juego 0.020649 -0.204709 0.153123 0.295798 0.014712 -0.165054 0.196136 -0.257046 0.137691 -0.364096 -0.213002 0.076283 -0.281834 -0.064247 0.004895 -0.246112 0.288221 0.045822 -0.150307 0.107067 0.060752 0.256534 -0.412304 -0.028703 -0.262713 0.504735 -0.151119 -0.282398 -0.092151 0.429314 -0.153892 -0.328457 0.255387 -0.390703 -0.326011 -0.033565 0.037411 0.052743 0.072748 -0.033407 0.083875 -0.082886 -0.259649 -0.254626 0.032557 0.114526 0.193661 0.213201 0.180395 0.030121
fin 0.028782 -0.203494 0.170752 0.293429 0.027722 -0.167007 0.191518 -0.254877 0.135873 -0.370995 -0.217309 0.079617 -0.295761 -0.061123 -0.000630 -0.253791 0.286751 0.052849 -0.150475 0.116357 0.063834 0.260468 -0.423066 -0.020695 -0.260966 0.523698 -0.152017 -0.295022 -0.113596 0.439579 -0.170837 -0.319766 0.267688 -0.401412 -0.313247 -0.030864 0.029687 0.058311 0.064072 -0.046179 0.087860 -0.078637 -0.263138 -0.268178 0.045655 0.120066 0.197373 0.228111 0.167052 0.030326
fuera 0.018874 -0.208369 0.183407 0.318046 0.024014 -0.167609 0.210309 -0.279476 0.143677 -0.397807 -0.223011 0.080312 -0.304367 -0.072472 0.007968 -0.267475 0.295925 0.057728 -0.160541 0.123465 0.048527 0.267493 -0.455600 -0.021527 -0.286321 0.545506 -0.159909 -0.302589 -0.102005 0.455804 -0.167190 -0.354877 0.286193 -0.424127 -0.337821 -0.030936 0.029380 0.071355 0.076879 -0.038210 0.081320 -0.084646 -0.290375 -0.273033 0.051330 0.133807 0.194439 0.226612 0.189592 0.042496
jugado 0.009699 -0.179598 0.148866 0.267996 0.018944 -0.138408 0.158511 -0.226359 0.127231 -0.323278 -0.203197 0.068052 -0.260638 -0.059410 0.001701 -0.214337 0.248706 0.049748 -0.122374 0.097591 0.055883 0.229790 -0.381273 -0.018774 -0.240825 0.463087 -0.131383 -0.249167 -0.093689 0.390072 -0.141277 -0.283066 0.237532 -0.353539 -0.295091 -0.015510 0.032212 0.053993 0.064062 -0.038599 0.065228 -0.084779 -0.247733 -0.227546 0.033772 0.113317 0.167625 0.197371 0.146509 0.041846
tanto 0.014744 -0.167326 0.130398 0.243782 0.024859 -0.141128 0.161612 -0.215634 0.114115 -0.310646 -0.180864 0.061156 -0.241990 -0.056482 0.006273 -0.206638 0.236841 0.033806 -0.127831 0.086601 0.051563 0.212290 -0.341177 -0.011988 -0.223808 0.412997 -0.113662 -0.232500 -0.086735 0.350969 -0.139470 -0.265611 0.213577 -0.320669 -0.257619 -0.020881 0.021979 0.045530 0.055070 -0.029684 0.056939 -0.077432 -0.218846 -0.206331 0.024933 0.101695 0.153884 0.179582 0.147211 0.029286
titulo 0.036610 -0.238135 0.205367 0.369653 0.025347 -0.199437 0.227818 -0.316545 0.163081 -0.456246 -0.257870 0.083188 -0.361922 -0.070125 0.001503 -0.301588 0.357289 0.059414 -0.182205 0.146199 0.060107 0.313025 -0.526616 -0.031368 -0.339486 0.631953 -0.188517 -0.363021 -0.122690 0.536070 -0.208295 -0.397771 0.318712 -0.494198 -0.401858 -0.032534 0.046852 0.077648 0.079293 -0.042437 0.097458 -0.103950 -0.338310 -0.330304 0.043739 0.142572 0.234736 0.273786 0.209858 0.039238
otro 0.018623 -0.201086 0.165560 0.295882 0.032077 -0.173970 0.190453 -0.273720 0.142003 -0.385841 -0.229900 0.065027 -0.302608 -0.066177 0.004928 -0.249793 0.289279 0.040862 -0.155418 0.117582 0.058081 0.263313 -0.442568 -0.023624 -0.269761 0.528616 -0.139932 -0.307609 -0.110426 0.456282 -0.166976 -0.332436 0.275177 -0.408884 -0.325230 -0.025928 0.031070 0.060886 0.072463 -0.036829 0.075302 -0.084693 -0.280403 -0.276960 0.052322 0.116001 0.202324 0.226548 0.171130 0.042175
pa 0.030344 -0.189536 0.143285 0.262344 0.016018 -0.157597 0.174678 -0.232498 0.128889 -0.345911 -0.199279 0.069011 -0.265510 -0.057188 0.005918 -0.239009 0.261055 0.045856 -0.130497 0.107391 0.050522 0.233606 -0.389053 -0.026493 -0.251222 0.470647 -0.130989 -0.275061 -0.089712 0.411304 -0.142997 -0.311874 0.233435 -0.372551 -0.297692 -0.022963 0.029469 0.056435 0.062973 -0.030782 0.065831 -0.089152 -0.250655 -0.245359 0.039848 0.103271 0.170510 0.213677 0.159418 0.034259
años 0.022309 -0.183078 0.155566 0.285276 0.020311 -0.152965 0.187386 -0.239708 0.130478 -0.355020 -0.204080 0.059557 -0.283275 -0.048736 0.003791 -0.233484 0.268670 0.039275 -0.128616 0.102617 0.043261 0.234471 -0.387228 -0.026468 -0.262685 0.475865 -0.141279 -0.264494 -0.087734 0.400685 -0.149860 -0.302105 0.240424 -0.370448 -0.313753 -0.021276 0.029420 0.058666 0.069916 -0.039899 0.083162 -0.088068 -0.250185 -0.246278 0.034977 0.106677 0.185571 0.206487 0.162618 0.031587
semana 0.034258 -0.235986 0.198594 0.329688 0.016497 -0.182262 0.225530 -0.308796 0.163249 -0.425866 -0.242278 0.072233 -0.333847 -0.067667 -0.008487 -0.278055 0.331146 0.058687 -0.170934 0.119157 0.061695 0.294579 -0.479860 -0.030317 -0.312762 0.604050 -0.161364 -0.335710 -0.111221 0.498882 -0.190793 -0.371331 0.297162 -0.464192 -0.366521 -0.030111 0.046105 0.063270 0.073922 -0.053567 0.100960 -0.104674 -0.313085 -0.294509 0.044052 0.139771 0.208975 0.256322 0.191561 0.044321
arbitro 0.026442 -0.173411 0.143892 0.276069 0.018420 -0.149229 0.165664 -0.243628 0.119840 -0.349897 -0.204505 0.057328 -0.267422 -0.053751 -0.010787 -0.219683 0.257019 0.040448 -0.128008 0.104964 0.052478 0.232116 -0.390138 -0.027760 -0.241540 0.472661 -0.132210 -0.258172 -0.102865 0.403303 -0.139965 -0.293679 0.228510 -0.370217 -0.288634 -0.027660 0.022098 0.053494 0.072475 -0.036968 0.067882 -0.085183 -0.245440 -0.237235 0.028481 0.121106 0.183383 0.211361 0.153215 0.035828
capote 0.011171 -0.143759 0.125327 0.200389 0.010655 -0.126079 0.135811 -0.197354 0.091318 -0.260296 -0.153176 0.042657 -0.200350 -0.050972 -0.007054 -0.179183 0.197969 0.031376 -0.094167 0.083712 0.027834 0.188988 -0.301308 -0.025422 -0.186130 0.378717 -0.104450 -0.216041 -0.079495 0.316025 -0.118305 -0.232248 0.189642 -0.293427 -0.233801 -0.029115 0.015606 0.046623 0.049339 -0.019448 0.048560 -0.072929 -0.185423 -0.188931 0.020811 0.081160 0.142783 0.165068 0.118782 0.015808
fútbol 0.032854 -0.269816 0.226633 0.387534 0.025340 -0.213361 0.246458 -0.339493 0.175447 -0.489035 -0.289017 0.095512 -0.390202 -0.080431 0.002762 -0.340017 0.378389 0.054037 -0.184707 0.145502 0.063469 0.332562 -0.564067 -0.043394 -0.359285 0.678285 -0.191486 -0.395126 -0.137429 0.574849 -0.218815 -0.429564 0.353430 -0.529032 -0.430593 -0.043917 0.054511 0.080058 0.093321 -0.059339 0.096957 -0.118806 -0.354782 -0.332420 0.065184 0.155993 0.257056 0.292372 0.235756 0.041614
crack 0.034705 -0.247449 0.203117 0.355756 0.018278 -0.198294 0.233831 -0.319904 0.166640 -0.457186 -0.252671 0.076861 -0.351773 -0.082702 0.002566 -0.308158 0.332613 0.044120 -0.169622 0.131631 0.054547 0.305867 -0.498559 -0.024587 -0.326209 0.618857 -0.174769 -0.356741 -0.129597 0.531245 -0.189799 -0.383782 0.302761 -0.479424 -0.389611 -0.038001 0.040222 0.080541 0.079171 -0.053252 0.087585 -0.104705 -0.321393 -0.313112 0.056692 0.144531 0.231175 0.266023 0.212483 0.035752
jugador-xavi_hernández 0.034002 -0.283675 0.224621 0.415795 0.027372 -0.230071 0.266432 -0.364563 0.188214 -0.526381 -0.297367 0.104184 -0.399111 -0.078591 -0.005520 -0.349646 0.404498 0.055308 -0.201700 0.146363 0.066882 0.359075 -0.596691 -0.036802 -0.375816 0.718490 -0.202522 -0.400158 -0.136375 0.604467 -0.214962 -0.457627 0.361409 -0.549369 -0.448047 -0.035932 0.041389 0.076292 0.107660 -0.046657 0.117046 -0.130498 -0.378760 -0.364363 0.059117 0.169064 0.275246 0.307247 0.246517 0.043293
hubiera 0.020648 -0.202077 0.167539 0.278288 0.018970 -0.159554 0.184965 -0.248713 0.126030 -0.351725 -0.214709 0.070055 -0.285915 -0.058498 -0.006114 -0.243612 0.267658 0.046135 -0.135580 0.095863 0.041738 0.240708 -0.400634 -0.025033 -0.264524 0.493291 -0.141205 -0.276698 -0.100025 0.425469 -0.146185 -0.326622 0.243739 -0.384750 -0.306624 -0.018355 0.036726 0.048856 0.060364 -0.041547 0.073955 -0.086011 -0.247882 -0.252515 0.038537 0.107227 0.186449 0.203584 0.178073 0.027995
hacer 0.015515 -0.204900 0.169363 0.305810 0.020828 -0.170114 0.204245 -0.272716 0.133260 -0.398720 -0.229092 0.079772 -0.302579 -0.070201 0.008677 -0.272946 0.310989 0.055596 -0.163153 0.121553 0.051741 0.265210 -0.450306 -0.024844 -0.289671 0.550998 -0.160080 -0.308124 -0.112023 0.476183 -0.166871 -0.350294 0.274966 -0.434678 -0.342001 -0.037222 0.033781 0.064787 0.067946 -0.050426 0.090544 -0.089845 -0.298946 -0.277027 0.054741 0.133262 0.211797 0.242282 0.187039 0.029327
perder 0.011777 -0.184275 0.153647 0.291935 0.012088 -0.153912 0.176466 -0.254759 0.138257 -0.362391 -0.208689 0.072010 -0.273696 -0.060808 0.001150 -0.252105 0.285490 0.053894 -0.142433 0.109235 0.052101 0.244357 -0.404575 -0.032420 -0.258404 0.508808 -0.136340 -0.283863 -0.107527 0.426128 -0.165320 -0.313912 0.255206 -0.381571 -0.323957 -0.022038 0.037333 0.056991 0.061330 -0.027932 0.088667 -0.092072 -0.270966 -0.250670 0.039026 0.109677 0.193080 0.210581 0.170093 0.035519
también 0.022330 -0.213278 0.181770 0.308296 0.018298 -0.161256 0.205844 -0.270327 0.147889 -0.388889 -0.234920 0.080441 -0.295904 -0.068510 -0.001248 -0.254414 0.300521 0.053410 -0.145754 0.104982 0.053382 0.259889 -0.442454 -0.024182 -0.273081 0.541152 -0.154111 -0.301644 -0.114687 0.444716 -0.176679 -0.339180 0.278440 -0.408158 -0.328605 -0.034068 0.037544 0.071783 0.076847 -0.032798 0.084567 -0.094841 -0.279748 -0.260186 0.038286 0.128433 0.204235 0.228343 0.180734 0.040661
somos 0.005708 -0.129321 0.107368 0.200266 0.020249 -0.119668 0.129708 -0.184616 0.102373 -0.267096 -0.152432 0.052661 -0.208055 -0.042084 0.010072 -0.181307 0.204918 0.030060 -0.109097 0.080180 0.032830 0.180980 -0.288566 -0.009294 -0.199001 0.363913 -0.102749 -0.204476 -0.074690 0.308535 -0.111067 -0.233213 0.177607 -0.288787 -0.236564 -0.026522 0.026224 0.038704 0.053506 -0.018226 0.055367 -0.062363 -0.192049 -0.183040 0.032924 0.088576 0.129588 0.147205 0.120852 0.017649
mejores 0.019869 -0.158147 0.127247 0.233452 0.019687 -0.120070 0.147896 -0.200739 0.101618 -0.299644 -0.173471 0.060631 -0.235930 -0.048754 -0.006029 -0.197450 0.220343 0.026551 -0.114105 0.081627 0.048945 0.193451 -0.327108 -0.011624 -0.203433 0.411911 -0.120012 -0.237668 -0.074668 0.337498 -0.131900 -0.258981 0.202811 -0.317379 -0.258973 -0.027082 0.024543 0.057937 0.065460 -0.021736 0.072908 -0.068082 -0.217155 -0.202522 0.028026 0.099976 0.144408 0.173211 0.130968 0.024071
visto 0.019119 -0.219923 0.192988 0.337337 0.027924 -0.183325 0.217646 -0.293848 0.160022 -0.429015 -0.255395 0.074737 -0.336540 -0.067527 -0.001091 -0.282811 0.324796 0.050122 -0.171190 0.129128 0.053134 0.288517 -0.474336 -0.022241 -0.305162 0.581245 -0.159500 -0.325887 -0.125773 0.498218 -0.180804 -0.364176 0.290334 -0.455476 -0.366284 -0.033525 0.039966 0.076217 0.088466 -0.039095 0.081849 -0.098371 -0.306627 -0.297640 0.039190 0.146956 0.218775 0.252254 0.190836 0.047598
jugadores 0.016857 -0.204956 0.180510 0.304218 0.021796 -0.176924 0.201082 -0.286402 0.135898 -0.400000 -0.224624 0.073710 -0.304728 -0.067593 0.001806 -0.255666 0.308309 0.052950 -0.155369 0.108034 0.063507 0.270541 -0.442459 -0.024204 -0.294224 0.548050 -0.155239 -0.306670 -0.102011 0.470108 -0.171945 -0.358065 0.266641 -0.430629 -0.341719 -0.027585 0.031491 0.056612 0.082793 -0.039945 0.079524 -0.101525 -0.289315 -0.281074 0.048543 0.134355 0.196414 0.243569 0.181453 0.033363
estoy 0.026087 -0.157911 0.146571 0.245269 0.012472 -0.127144 0.151304 -0.220051 0.121288 -0.311123 -0.180117 0.058243 -0.238626 -0.040805 -0.000542 -0.208349 0.234660 0.045479 -0.119180 0.081890 0.044239 0.211672 -0.344843 -0.023436 -0.225615 0.431895 -0.125342 -0.245642 -0.081491 0.366707 -0.130047 -0.276599 0.218176 -0.334855 -0.269354 -0.014049 0.017514 0.047715 0.054636 -0.029366 0.058631 -0.065574 -0.235204 -0.223540 0.032311 0.095076 0.155523 0.185837 0.150892 0.040432
millones 0.018070 -0.162478 0.148574 0.250511 0.010054 -0.144229 0.168138 -0.219631 0.117172 -0.325521 -0.184588 0.062002 -0.250738 -0.062527 -0.010440 -0.204143 0.246184 0.042027 -0.114699 0.099621 0.041793 0.225213 -0.357445 -0.029015 -0.224200 0.447361 -0.130102 -0.239585 -0.094091 0.364425 -0.135540 -0.277223 0.227694 -0.334583 -0.278639 -0.028480 0.019930 0.042693 0.051167 -0.026491 0.062022 -0.069586 -0.222528 -0.228053 0.033208 0.097549 0.159343 0.196057 0.156130 0.028913
claro 0.015944 -0.133664 0.121182 0.192984 0.014634 -0.117147 0.139159 -0.176603 0.090796 -0.267829 -0.144278 0.047993 -0.195054 -0.051325 0.008022 -0.180100 0.198984 0.024425 -0.106484 0.084021 0.040809 0.171528 -0.292395 -0.022858 -0.186393 0.351844 -0.110245 -0.194984 -0.069248 0.293276 -0.108559 -0.225451 0.182176 -0.270352 -0.221791 -0.010249 0.023102 0.039372 0.057672 -0.035039 0.054195 -0.063564 -0.181424 -0.173193 0.026743 0.091473 0.138804 0.161839 0.124289 0.021042
soy 0.025874 -0.228933 0.185837 0.326446 0.028909 -0.181053 0.210472 -0.305958 0.159569 -0.434572 -0.241259 0.090308 -0.327226 -0.075058 -0.004042 -0.277392 0.314491 0.042306 -0.156963 0.127004 0.065049 0.285492 -0.480395 -0.031727 -0.301123 0.595816 -0.160760 -0.327066 -0.126772 0.501646 -0.193940 -0.383511 0.298569 -0.462715 -0.376876 -0.039864 0.035702 0.066784 0.077331 -0.053181 0.081419 -0.101358 -0.313984 -0.301355 0.041615 0.136375 0.216134 0.242456 0.202565 0.048388
jugador-cesc_fábregas 0.028817 -0.180598 0.150669 0.265850 0.010524 -0.147111 0.180837 -0.232982 0.123663 -0.340990 -0.193662 0.059778 -0.273269 -0.056549 0.008695 -0.231833 0.267583 0.040583 -0.142036 0.105648 0.054300 0.233910 -0.397638 -0.030776 -0.240665 0.471914 -0.132763 -0.260244 -0.089742 0.412570 -0.147487 -0.304724 0.247952 -0.375362 -0.308842 -0.031441 0.040209 0.066973 0.071767 -0.037896 0.071528 -0.079973 -0.257906 -0.232540 0.044567 0.120219 0.168565 0.198833 0.159610 0.039349
hizo 0.021857 -0.158744 0.116802 0.223165 0.023095 -0.122820 0.134541 -0.204054 0.107948 -0.281924 -0.154189 0.047162 -0.216161 -0.045077 -0.009000 -0.181917 0.221092 0.026917 -0.097900 0.076151 0.045297 0.196445 -0.316623 -0.021432 -0.211127 0.382475 -0.107733 -0.213425 -0.083986 0.331386 -0.122577 -0.249169 0.191121 -0.290601 -0.236422 -0.028904 0.027875 0.050901 0.045633 -0.031258 0.058902 -0.059857 -0.205145 -0.196921 0.021961 0.093482 0.140249 0.156444 0.127048 0.034977
nunca 0.013708 -0.172477 0.149140 0.258359 0.025850 -0.143665 0.164295 -0.224723 0.121199 -0.321399 -0.181067 0.060737 -0.253149 -0.055680 -0.004129 -0.212235 0.244995 0.043357 -0.126567 0.087230 0.049779 0.223286 -0.356459 -0.023252 -0.236603 0.436783 -0.119691 -0.259369 -0.092831 0.382039 -0.143886 -0.276223 0.213516 -0.339770 -0.280418 -0.027690 0.021743 0.044318 0.059830 -0.032393 0.074437 -0.065553 -0.220832 -0.224681 0.030956 0.111463 0.171412 0.189905 0.149578 0.028269
tener 0.027260 -0.200776 0.175952 0.305415 0.028081 -0.156057 0.194651 -0.261841 0.144408 -0.379325 -0.215599 0.066292 -0.303920 -0.066219 -0.000946 -0.260049 0.293041 0.045039 -0.141822 0.109931 0.048340 0.249830 -0.428110 -0.022658 -0.263942 0.528259 -0.154979 -0.293329 -0.098807 0.438518 -0.171084 -0.331277 0.258366 -0.394593 -0.335226 -0.021838 0.042255 0.069977 0.076411 -0.036527 0.081686 -0.096825 -0.275746 -0.259501 0.036459 0.119582 0.198765 0.215881 0.187626 0.040627
pierde 0.011967 -0.152798 0.122167 0.214313 0.006841 -0.121384 0.149502 -0.189309 0.095721 -0.273878 -0.155670 0.059844 -0.217138 -0.051970 -0.001965 -0.196353 0.222195 0.036203 -0.099127 0.077980 0.035950 0.199411 -0.320409 -0.025723 -0.198883 0.398603 -0.107585 -0.223592 -0.073879 0.322482 -0.128024 -0.237857 0.199661 -0.295531 -0.245777 -0.022589 0.031216 0.039450 0.050463 -0.038980 0.064070 -0.057228 -0.202670 -0.200574 0.039039 0.084788 0.137664 0.163110 0.128638 0.020212
gano 0.020219 -0.123009 0.093208 0.179233 0.006225 -0.107653 0.115389 -0.150425 0.083605 -0.235259 -0.128480 0.047797 -0.177692 -0.039196 -0.009017 -0.147060 0.179417 0.032738 -0.086489 0.064715 0.025875 0.164147 -0.249870 -0.026299 -0.172613 0.322665 -0.095318 -0.172176 -0.071285 0.260294 -0.090182 -0.211717 0.165934 -0.239481 -0.195463 -0.013947 0.019841 0.036659 0.040537 -0.032264 0.041972 -0.059228 -0.176282 -0.166409 0.028722 0.086023 0.112361 0.125651 0.106561 0.026578
eh 0.004430 -0.107936 0.077758 0.147235 0.008160 -0.089504 0.100944 -0.122131 0.067258 -0.181934 -0.102441 0.031275 -0.135215 -0.040424 -0.003308 -0.116364 0.132618 0.017266 -0.066666 0.047947 0.036250 0.132397 -0.202818 -0.013858 -0.133529 0.260120 -0.078913 -0.144290 -0.054848 0.209015 -0.070885 -0.170390 0.125459 -0.191479 -0.168717 -0.013683 0.025569 0.030549 0.030378 -0.009673 0.044925 -0.047090 -0.130976 -0.120243 0.026100 0.051943 0.089692 0.116932 0.078446 0.025988
jugador-dani_carvajal 0.015966 -0.181017 0.140445 0.249477 0.026041 -0.150594 0.155126 -0.220894 0.125021 -0.322347 -0.187447 0.062159 -0.248578 -0.052108 0.001413 -0.217608 0.238594 0.045613 -0.118618 0.101164 0.046088 0.223062 -0.374054 -0.022626 -0.243083 0.447358 -0.133946 -0.256036 -0.095136 0.369704 -0.149503 -0.277650 0.228773 -0.341470 -0.289931 -0.030273 0.018408 0.043748 0.059997 -0.038938 0.068280 -0.084745 -0.226544 -0.230660 0.043692 0.103702 0.162186 0.182519 0.162258 0.041369
pena 0.028063 -0.159248 0.147272 0.236072 0.026059 -0.129869 0.153631 -0.224153 0.114676 -0.320965 -0.189002 0.060474 -0.240329 -0.054399 -0.008933 -0.214099 0.234467 0.038265 -0.122244 0.086826 0.051251 0.204152 -0.346142 -0.022672 -0.228076 0.434202 -0.113378 -0.240895 -0.092454 0.364645 -0.131419 -0.278342 0.218227 -0.339292 -0.267263 -0.014401 0.022740 0.058305 0.054407 -0.027301 0.057683 -0.078293 -0.223256 -0.221974 0.039218 0.100490 0.166461 0.187248 0.144252 0.034942
cojones 0.029861 -0.184354 0.157916 0.264568 0.029034 -0.155473 0.172637 -0.250102 0.131529 -0.345324 -0.205156 0.067092 -0.267631 -0.060691 -0.000705 -0.228465 0.264841 0.050739 -0.139134 0.109896 0.041006 0.235861 -0.386797 -0.023723 -0.248812 0.488117 -0.139516 -0.275744 -0.098717 0.396755 -0.140059 -0.306729 0.236722 -0.363299 -0.293289 -0.034126 0.025758 0.054724 0.070690 -0.030525 0.077233 -0.073706 -0.247266 -0.234492 0.034115 0.124159 0.184300 0.209795 0.169549 0.036733
cosas 0.027203 -0.186087 0.146491 0.272653 0.022572 -0.141612 0.163662 -0.242871 0.113111 -0.344833 -0.203508 0.070153 -0.253141 -0.054598 -0.002304 -0.220927 0.259459 0.044071 -0.126977 0.100292 0.057501 0.222673 -0.375611 -0.017053 -0.234494 0.468090 -0.126752 -0.262680 -0.084927 0.382131 -0.138780 -0.286984 0.224476 -0.359102 -0.293469 -0.022511 0.028436 0.062265 0.070609 -0.036640 0.076942 -0.083054 -0.241221 -0.237479 0.027704 0.115275 0.169043 0.197138 0.163735 0.028689
van 0.027558 -0.187773 0.152107 0.254295 0.029354 -0.147215 0.163657 -0.241127 0.122527 -0.328438 -0.203148 0.054881 -0.256112 -0.059601 0.002973 -0.225650 0.251007 0.035404 -0.122633 0.102378 0.039356 0.222766 -0.384335 -0.020796 -0.233730 0.468602 -0.124957 -0.262893 -0.101089 0.389509 -0.153562 -0.296785 0.240345 -0.356245 -0.297412 -0.015521 0.032585 0.051661 0.053852 -0.026398 0.069555 -0.069223 -0.241390 -0.229642 0.033078 0.111191 0.165394 0.191961 0.154782 0.036134
visca 0.011684 -0.145580 0.113520 0.196312 0.009744 -0.120697 0.129815 -0.181423 0.086793 -0.250242 -0.146367 0.047418 -0.208203 -0.034125 0.002117 -0.174755 0.200121 0.031060 -0.101458 0.071194 0.038058 0.174780 -0.284687 -0.018528 -0.193305 0.355809 -0.096481 -0.194489 -0.071004 0.310134 -0.110238 -0.221984 0.181900 -0.275560 -0.215519 -0.013139 0.022779 0.051045 0.045514 -0.026102 0.051710 -0.051308 -0.193873 -0.183678 0.024584 0.087729 0.128214 0.147967 0.113712 0.022008
jugador-carles_puyol 0.025687 -0.195692 0.166876 0.296038 0.011094 -0.162042 0.195574 -0.263370 0.141061 -0.370139 -0.212078 0.067070 -0.283173 -0.064831 -0.005166 -0.242580 0.270092 0.049239 -0.138792 0.104722 0.061477 0.243660 -0.406114 -0.021864 -0.273339 0.499072 -0.143393 -0.278685 -0.103931 0.424269 -0.149429 -0.330183 0.246160 -0.384655 -0.328295 -0.024267 0.023102 0.058166 0.063720 -0.035965 0.085319 -0.089058 -0.274375 -0.245777 0.048320 0.118822 0.183469 0.216493 0.176754 0.034253
buen 0.007409 -0.126664 0.097839 0.192033 0.012745 -0.111150 0.119900 -0.174148 0.078532 -0.247262 -0.147507 0.045420 -0.193358 -0.033323 0.007309 -0.164435 0.185043 0.030163 -0.093889 0.076264 0.040544 0.167638 -0.263572 -0.016345 -0.170424 0.341768 -0.100425 -0.192325 -0.059329 0.278949 -0.095817 -0.217839 0.171746 -0.253956 -0.209811 -0.020645 0.027923 0.031651 0.036639 -0.016236 0.061254 -0.063152 -0.183342 -0.174947 0.017150 0.072662 0.122958 0.148522 0.108437 0.026399
están 0.008044 -0.160259 0.119188 0.212195 0.021486 -0.120357 0.143179 -0.204763 0.106444 -0.293212 -0.163623 0.047559 -0.226563 -0.038036 0.005568 -0.185329 0.212447 0.029618 -0.110168 0.077331 0.033161 0.201907 -0.324647 -0.011503 -0.204532 0.396306 -0.100392 -0.222211 -0.070540 0.333939 -0.113736 -0.238653 0.193457 -0.290152 -0.236182 -0.019684 0.033496 0.052100 0.044223 -0.019486 0.066923 -0.056411 -0.200437 -0.199942 0.037734 0.090723 0.149598 0.170614 0.135005 0.029741
grandes 0.020262 -0.157781 0.140120 0.235712 0.023264 -0.126519 0.150307 -0.222003 0.108301 -0.320548 -0.189528 0.060678 -0.237166 -0.047285 -0.002093 -0.203188 0.230710 0.030027 -0.125117 0.100185 0.036346 0.206988 -0.356669 -0.013107 -0.215127 0.436375 -0.112931 -0.240321 -0.090510 0.361690 -0.144731 -0.275659 0.210568 -0.331598 -0.265710 -0.027196 0.033071 0.053965 0.064048 -0.037122 0.063412 -0.074281 -0.216252 -0.206489 0.031805 0.107435 0.150535 0.183228 0.149636 0.037498
ganamos 0.003986 -0.112124 0.089467 0.160199 0.015654 -0.095714 0.095895 -0.147744 0.075807 -0.196520 -0.121530 0.028459 -0.158470 -0.041800 0.001608 -0.137473 0.162341 0.026664 -0.071832 0.060626 0.024692 0.136262 -0.228537 -0.021724 -0.146541 0.285940 -0.070093 -0.150442 -0.055452 0.230339 -0.087899 -0.171674 0.147757 -0.214194 -0.180970 -0.013647 0.025231 0.025141 0.029086 -0.012968 0.048332 -0.042376 -0.150078 -0.143185 0.018794 0.068926 0.111901 0.116895 0.098414 0.012513
tira 0.015429 -0.125619 0.090343 0.177563 0.007591 -0.096720 0.111416 -0.158101 0.080031 -0.219727 -0.127217 0.050399 -0.170484 -0.030162 -0.009459 -0.145689 0.154588 0.018664 -0.088519 0.055336 0.018655 0.142737 -0.239919 -0.007580 -0.148817 0.294143 -0.088301 -0.173425 -0.062440 0.260649 -0.102354 -0.182727 0.141954 -0.220914 -0.192486 -0.020871 0.026813 0.028967 0.032836 -0.023938 0.056313 -0.057912 -0.160364 -0.143882 0.023341 0.078580 0.115636 0.117948 0.105048 0.012527
sí 0.029473 -0.173760 0.136110 0.264098 0.017764 -0.144702 0.155348 -0.220825 0.120053 -0.319253 -0.194882 0.058870 -0.261792 -0.043873 -0.000874 -0.213959 0.248322 0.046513 -0.123602 0.100194 0.037290 0.227961 -0.371711 -0.030287 -0.231457 0.446792 -0.117980 -0.262216 -0.094601 0.373969 -0.148734 -0.281446 0.228947 -0.343152 -0.283693 -0.024482 0.025464 0.057531 0.052664 -0.036414 0.062545 -0.081335 -0.236973 -0.226621 0.032297 0.106179 0.174744 0.187512 0.159188 0.038551
puto 0.025826 -0.183919 0.151229 0.275633 0.019658 -0.144511 0.163546 -0.244439 0.132373 -0.335585 -0.191260 0.058779 -0.261986 -0.051324 -0.005966 -0.226038 0.251598 0.049190 -0.136888 0.099062 0.048491 0.236695 -0.388390 -0.015220 -0.239677 0.466667 -0.141564 -0.258877 -0.096641 0.399890 -0.156437 -0.304726 0.229407 -0.363895 -0.291353 -0.033647 0.021398 0.064365 0.064156 -0.031936 0.068557 -0.080175 -0.252647 -0.227432 0.039360 0.111671 0.178297 0.195554 0.164978 0.026190
único 0.015514 -0.169406 0.150908 0.263832 0.009537 -0.142378 0.172507 -0.224101 0.123576 -0.320969 -0.184460 0.054418 -0.259012 -0.064365 0.001801 -0.215209 0.252540 0.040141 -0.117577 0.088941 0.051679 0.215482 -0.381039 -0.023141 -0.245454 0.463405 -0.132874 -0.263183 -0.100425 0.387827 -0.139728 -0.291093 0.230788 -0.348580 -0.277116 -0.019854 0.028407 0.060854 0.052758 -0.037807 0.077128 -0.070856 -0.242598 -0.224323 0.037506 0.117135 0.158088 0.185999 0.157907 0.039254
hemos 0.021397 -0.130427 0.120206 0.207001 0.018710 -0.103176 0.127972 -0.190586 0.085432 -0.257330 -0.157972 0.042641 -0.202965 -0.051856 0.006054 -0.173595 0.205495 0.032244 -0.099315 0.070894 0.037838 0.174267 -0.291225 -0.009062 -0.185855 0.366882 -0.105334 -0.197759 -0.070834 0.312838 -0.120641 -0.236565 0.189138 -0.268881 -0.222357 -0.009905 0.032018 0.039901 0.058869 -0.029270 0.053463 -0.062232 -0.196812 -0.181088 0.034512 0.092429 0.137977 0.148975 0.117772 0.018064
viva 0.010261 -0.151642 0.115983 0.231477 0.024846 -0.116800 0.139156 -0.193346 0.095220 -0.286372 -0.172329 0.050093 -0.228121 -0.037745 0.003603 -0.194771 0.213863 0.037926 -0.102563 0.089073 0.041430 0.186713 -0.314510 -0.025354 -0.213747 0.383478 -0.101606 -0.212944 -0.074683 0.339100 -0.113280 -0.240238 0.199024 -0.293471 -0.246341 -0.031880 0.022446 0.038631 0.049584 -0.027737 0.060215 -0.071306 -0.196915 -0.198158 0.023571 0.096973 0.135027 0.168506 0.124553 0.026619
momento 0.006293 -0.088390 0.082584 0.145646 0.016218 -0.078896 0.092105 -0.119302 0.069538 -0.180825 -0.099705 0.043134 -0.133811 -0.027848 -0.001240 -0.125123 0.140285 0.012095 -0.061646 0.041640 0.029462 0.128869 -0.198071 -0.006760 -0.119899 0.245345 -0.062606 -0.142195 -0.056416 0.196688 -0.067731 -0.143396 0.124233 -0.182584 -0.145701 -0.021438 0.018108 0.025084 0.037244 -0.011954 0.038744 -0.036132 -0.131890 -0.114014 0.020870 0.062558 0.092260 0.108829 0.072361 0.015808
vale 0.011700 -0.130941 0.110275 0.181643 0.005738 -0.105477 0.119229 -0.157656 0.091766 -0.237479 -0.145829 0.050020 -0.173987 -0.036145 -0.006537 -0.154220 0.185071 0.036042 -0.080970 0.064558 0.026267 0.157975 -0.254392 -0.018679 -0.164993 0.317835 -0.089294 -0.184592 -0.065901 0.270846 -0.099366 -0.206653 0.171674 -0.256510 -0.207224 -0.021403 0.018169 0.039701 0.034608 -0.018871 0.058916 -0.056002 -0.173301 -0.154440 0.019436 0.076790 0.125334 0.134245 0.101368 0.021667
ganó 0.017935 -0.121013 0.102067 0.188925 0.014893 -0.105463 0.112441 -0.158205 0.086591 -0.230894 -0.143517 0.041792 -0.181517 -0.032572 0.001008 -0.159944 0.180430 0.027903 -0.084521 0.074549 0.033781 0.167842 -0.269458 -0.012778 -0.171061 0.332921 -0.095754 -0.186469 -0.072566 0.284197 -0.109114 -0.209539 0.173717 -0.252678 -0.200903 -0.017787 0.011485 0.030201 0.047636 -0.030168 0.048938 -0.047259 -0.184207 -0.168186 0.021334 0.084213 0.114134 0.140818 0.104371 0.015707
será 0.017777 -0.114998 0.094367 0.169569 0.011704 -0.103173 0.110383 -0.140523 0.080720 -0.222925 -0.132986 0.036476 -0.159668 -0.035033 0.002729 -0.146234 0.157282 0.029891 -0.075537 0.071321 0.025534 0.156275 -0.251163 -0.024938 -0.156433 0.294439 -0.079167 -0.173182 -0.069384 0.257578 -0.088655 -0.196157 0.158767 -0.231949 -0.186067 -0.023978 0.021743 0.035962 0.037494 -0.024354 0.040742 -0.041413 -0.160766 -0.142520 0.023102 0.064112 0.119450 0.117430 0.100022 0.020917
haber 0.007236 -0.141747 0.115307 0.203930 0.016686 -0.127000 0.140926 -0.177991 0.102539 -0.268562 -0.154321 0.044170 -0.217802 -0.049118 -0.007085 -0.177103 0.206003 0.036419 -0.106971 0.071429 0.033973 0.192199 -0.306996 -0.012788 -0.202453 0.360024 -0.110552 -0.204951 -0.072558 0.303787 -0.122094 -0.244928 0.194881 -0.293027 -0.224218 -0.023240 0.021548 0.037995 0.042059 -0.034969 0.050772 -0.058813 -0.192095 -0.186584 0.024035 0.085006 0.127494 0.154073 0.122745 0.028390
sólo 0.014292 -0.173371 0.134003 0.237085 0.009805 -0.135731 0.165531 -0.221971 0.112090 -0.313068 -0.181268 0.052584 -0.238069 -0.052744 0.006483 -0.207527 0.242266 0.033705 -0.129753 0.085942 0.049347 0.224280 -0.344206 -0.023454 -0.221554 0.428787 -0.119337 -0.238813 -0.077324 0.376393 -0.134699 -0.284745 0.211066 -0.326757 -0.266743 -0.026391 0.024217 0.056959 0.063866 -0.032244 0.060925 -0.078308 -0.217419 -0.221898 0.027020 0.093356 0.156454 0.187403 0.152732 0.034041
muerte 0.011681 -0.076892 0.063361 0.121617 0.005832 -0.065155 0.080909 -0.112969 0.056652 -0.145495 -0.098321 0.034371 -0.129553 -0.026072 0.009057 -0.104990 0.107886 0.024742 -0.055675 0.051781 0.029432 0.108408 -0.175254 -0.010966 -0.111270 0.205373 -0.059211 -0.111129 -0.041292 0.185945 -0.073390 -0.136367 0.098461 -0.164771 -0.125133 -0.008221 0.004408 0.034940 0.038024 -0.025664 0.042428 -0.042316 -0.109082 -0.099948 0.018212 0.056294 0.086297 0.100820 0.067099 0.020805
jugador-pepe 0.026620 -0.188120 0.146483 0.273811 0.013356 -0.140218 0.165342 -0.242187 0.125579 -0.334536 -0.197071 0.072827 -0.260429 -0.049713 -0.000861 -0.238224 0.252446 0.032677 -0.123544 0.103359 0.038315 0.240011 -0.386763 -0.027929 -0.255442 0.476501 -0.131382 -0.273972 -0.094043 0.392315 -0.151339 -0.302590 0.242700 -0.364568 -0.306476 -0.034418 0.035547 0.051143 0.056841 -0.034932 0.069756 -0.089582 -0.238762 -0.245486 0.042475 0.120518 0.168692 0.203339 0.170480 0.042790
jugador-alexis_sánchez 0.018765 -0.173901 0.142793 0.244483 0.018627 -0.145454 0.153538 -0.231117 0.111496 -0.324192 -0.183887 0.069067 -0.245746 -0.061865 -0.007403 -0.212152 0.249590 0.039322 -0.127489 0.089837 0.055059 0.227292 -0.355545 -0.029491 -0.222758 0.448967 -0.118215 -0.249997 -0.084612 0.373749 -0.148037 -0.278094 0.215617 -0.341912 -0.285983 -0.017326 0.027243 0.052190 0.052880 -0.038028 0.076073 -0.070361 -0.224379 -0.226645 0.044473 0.094743 0.162029 0.190922 0.159968 0.037205
estan 0.003446 -0.080642 0.059688 0.114224 0.005162 -0.060978 0.068724 -0.103401 0.045748 -0.155787 -0.095088 0.024787 -0.122126 -0.019368 0.000133 -0.101426 0.117844 0.018836 -0.063856 0.049299 0.028266 0.097018 -0.171937 -0.005283 -0.101824 0.217890 -0.053450 -0.119575 -0.046494 0.186832 -0.067977 -0.133138 0.114143 -0.162068 -0.135014 -0.009638 0.012701 0.020428 0.032404 -0.010146 0.040219 -0.026560 -0.112363 -0.107646 0.011823 0.048653 0.074910 0.084349 0.065624 0.014311
sos 0.008715 -0.149186 0.139252 0.242252 0.010251 -0.123060 0.149287 -0.211509 0.097941 -0.294561 -0.164074 0.049199 -0.230519 -0.039886 -0.003006 -0.202833 0.225753 0.044624 -0.111515 0.078854 0.035050 0.208863 -0.325208 -0.019348 -0.207774 0.399479 -0.124875 -0.235782 -0.089674 0.338820 -0.123941 -0.263517 0.211894 -0.313628 -0.256937 -0.021336 0.019478 0.050107 0.049064 -0.039307 0.061440 -0.076459 -0.215473 -0.210044 0.033280 0.093064 0.145820 0.176265 0.133585 0.033601
derrota 0.004810 -0.121624 0.101204 0.191130 0.006373 -0.098232 0.124011 -0.158896 0.092889 -0.235423 -0.132037 0.037833 -0.190780 -0.043434 0.006533 -0.158239 0.171440 0.027520 -0.092434 0.070035 0.040608 0.168669 -0.272536 -0.022182 -0.163132 0.322448 -0.096639 -0.181164 -0.066550 0.281410 -0.107996 -0.217028 0.163654 -0.257064 -0.207918 -0.017415 0.026013 0.032242 0.045486 -0.016316 0.055024 -0.060089 -0.166501 -0.164604 0.019315 0.081773 0.119142 0.144255 0.106518 0.013032
dar 0.012209 -0.113619 0.091564 0.181876 0.019967 -0.109287 0.107979 -0.167121 0.072078 -0.224466 -0.130068 0.039755 -0.178517 -0.032866 -0.001141 -0.152916 0.178126 0.022422 -0.094516 0.076064 0.024326 0.146589 -0.253257 -0.014154 -0.174317 0.323603 -0.090108 -0.179575 -0.067872 0.263905 -0.090773 -0.199228 0.148037 -0.240012 -0.188540 -0.015270 0.013566 0.028832 0.039596 -0.033977 0.048276 -0.061118 -0.168801 -0.150953 0.027721 0.066938 0.114972 0.133686 0.111236 0.026015
jugó 0.006168 -0.121999 0.103993 0.199559 0.013377 -0.104057 0.115178 -0.167539 0.093086 -0.241358 -0.145710 0.050926 -0.196858 -0.032107 -0.007706 -0.170741 0.179020 0.038271 -0.102788 0.075135 0.030908 0.169879 -0.275795 -0.020695 -0.182931 0.338731 -0.093119 -0.188191 -0.071046 0.281440 -0.115241 -0.224994 0.167447 -0.260431 -0.206632 -0.009957 0.026621 0.046270 0.042824 -0.016601 0.047916 -0.064156 -0.169970 -0.161656 0.031061 0.079904 0.125509 0.142720 0.124498 0.026819
vida 0.019434 -0.148939 0.116428 0.227089 0.009018 -0.125613 0.138411 -0.197703 0.093446 -0.278639 -0.161386 0.044330 -0.225208 -0.036815 0.000367 -0.180530 0.210304 0.039537 -0.115605 0.072082 0.039781 0.192264 -0.311316 -0.023966 -0.202859 0.389699 -0.101207 -0.222312 -0.075359 0.314234 -0.117128 -0.247636 0.183492 -0.302821 -0.245257 -0.017707 0.019652 0.055128 0.056443 -0.031500 0.066553 -0.056462 -0.209804 -0.199655 0.039338 0.090645 0.145175 0.172284 0.125687 0.029484
ah 0.005267 -0.133716 0.097634 0.180678 0.018769 -0.102299 0.123021 -0.166620 0.090414 -0.247371 -0.143061 0.054857 -0.186859 -0.044768 -0.010213 -0.165476 0.180864 0.023884 -0.090328 0.063372 0.032182 0.161579 -0.261023 -0.025100 -0.172822 0.338592 -0.083777 -0.193449 -0.071334 0.272200 -0.100367 -0.212453 0.173490 -0.244372 -0.209561 -0.024192 0.027071 0.046800 0.039634 -0.016204 0.053604 -0.056785 -0.162612 -0.161078 0.035450 0.079787 0.120766 0.146995 0.106032 0.027629
goles 0.022920 -0.123656 0.105690 0.181113 0.015665 -0.096915 0.115759 -0.161344 0.078098 -0.217032 -0.140403 0.037952 -0.181942 -0.027411 -0.009988 -0.149892 0.175026 0.018775 -0.095019 0.056758 0.033632 0.157983 -0.253370 -0.014384 -0.167601 0.306455 -0.090087 -0.178878 -0.065661 0.258191 -0.100222 -0.198566 0.150937 -0.243209 -0.203701 -0.020457 0.029626 0.029209 0.050141 -0.026537 0.054710 -0.052210 -0.168479 -0.163537 0.035433 0.079564 0.113600 0.123874 0.101983 0.025771
buscando 0.015677 -0.131191 0.101568 0.186933 0.022067 -0.106178 0.127616 -0.174811 0.088979 -0.240153 -0.132535 0.038840 -0.188784 -0.033410 -0.003936 -0.157460 0.185016 0.017665 -0.095993 0.062789 0.042013 0.165158 -0.273844 -0.020040 -0.167096 0.321701 -0.095728 -0.185416 -0.073933 0.275359 -0.094848 -0.215730 0.157473 -0.257663 -0.199854 -0.024915 0.019554 0.044913 0.041748 -0.031785 0.054488 -0.056834 -0.167134 -0.172059 0.022753 0.077022 0.119081 0.131838 0.117766 0.025378
lleva 0.018960 -0.158662 0.124691 0.219326 0.026090 -0.120243 0.149370 -0.193497 0.107190 -0.292357 -0.171474 0.045447 -0.226679 -0.041384 0.005349 -0.193558 0.205085 0.028863 -0.108610 0.076557 0.040145 0.202520 -0.321001 -0.022830 -0.194585 0.396984 -0.113842 -0.216072 -0.070770 0.327116 -0.113667 -0.238842 0.191233 -0.291024 -0.243681 -0.017718 0.016454 0.051648 0.045494 -0.029201 0.058103 -0.071856 -0.196202 -0.185787 0.026369 0.092629 0.147681 0.163295 0.139093 0.032808
dado 0.029326 -0.181069 0.144039 0.264599 0.020017 -0.136140 0.163339 -0.220438 0.121551 -0.323873 -0.194469 0.057196 -0.259797 -0.045398 -0.000536 -0.211449 0.250304 0.048807 -0.130127 0.099317 0.039736 0.230025 -0.362076 -0.024755 -0.230865 0.443415 -0.134352 -0.250019 -0.100371 0.382074 -0.140624 -0.285037 0.216794 -0.355977 -0.291539 -0.018879 0.029994 0.048395 0.064044 -0.025350 0.070448 -0.079425 -0.226287 -0.216520 0.043953 0.099035 0.168841 0.184969 0.150657 0.024058
mestalla 0.007077 -0.129287 0.115542 0.202860 0.014502 -0.116290 0.118372 -0.183584 0.095797 -0.261565 -0.147926 0.045821 -0.197963 -0.034224 -0.008433 -0.158543 0.196637 0.033799 -0.102333 0.064961 0.033362 0.168537 -0.280059 -0.026320 -0.190759 0.355510 -0.103571 -0.192728 -0.073308 0.295420 -0.113630 -0.213584 0.168174 -0.266823 -0.227560 -0.011904 0.025592 0.033433 0.056499 -0.021393 0.055300 -0.056466 -0.177071 -0.166417 0.035644 0.078736 0.129965 0.140750 0.119563 0.019161
perdió 0.019177 -0.158186 0.137225 0.235022 0.026018 -0.118053 0.145921 -0.200729 0.103617 -0.300843 -0.169983 0.055908 -0.221483 -0.042180 -0.000771 -0.193185 0.229814 0.028622 -0.108253 0.077583 0.036894 0.204393 -0.334568 -0.026572 -0.202222 0.405201 -0.121911 -0.229712 -0.090584 0.336706 -0.134306 -0.254441 0.210078 -0.313665 -0.257174 -0.028743 0.026212 0.050696 0.057503 -0.036699 0.059445 -0.060187 -0.215490 -0.198608 0.032698 0.084620 0.153726 0.173835 0.133706 0.021911
i 0.018389 -0.134012 0.099029 0.184373 0.019376 -0.100146 0.115474 -0.169717 0.090885 -0.222915 -0.126369 0.036726 -0.189430 -0.046575 -0.002265 -0.152960 0.185708 0.027232 -0.095219 0.064904 0.033896 0.151708 -0.256372 -0.012182 -0.159704 0.318322 -0.081858 -0.177754 -0.057588 0.277391 -0.100081 -0.213852 0.165669 -0.243922 -0.208825 -0.018937 0.017656 0.043939 0.041341 -0.030670 0.057242 -0.046526 -0.157970 -0.163008 0.029564 0.082990 0.120568 0.140489 0.115828 0.028478
real 0.017501 -0.171588 0.133520 0.250678 0.022050 -0.133450 0.152766 -0.218394 0.120421 -0.316845 -0.182379 0.060698 -0.252026 -0.046848 -0.000011 -0.215225 0.234099 0.029277 -0.117619 0.091399 0.055749 0.222911 -0.354645 -0.027148 -0.225215 0.446149 -0.118815 -0.246999 -0.096540 0.372046 -0.131458 -0.284576 0.231287 -0.332322 -0.269608 -0.021566 0.031508 0.048573 0.060445 -0.031947 0.068024 -0.082751 -0.229746 -0.225978 0.031502 0.108934 0.166979 0.180586 0.156100 0.038695
quedo 0.025601 -0.133323 0.127324 0.207602 0.017287 -0.121022 0.138066 -0.189426 0.096088 -0.257488 -0.152636 0.046705 -0.215403 -0.046885 -0.006056 -0.183420 0.204082 0.038522 -0.105451 0.067052 0.047481 0.179607 -0.305516 -0.022860 -0.185407 0.363195 -0.107950 -0.205008 -0.082377 0.312732 -0.114805 -0.230777 0.185880 -0.276136 -0.236299 -0.027830 0.016514 0.033171 0.042809 -0.021582 0.049470 -0.063263 -0.199297 -0.188185 0.039000 0.080531 0.133305 0.144890 0.128305 0.031695
haya 0.023732 -0.161330 0.143207 0.252253 0.011240 -0.145839 0.159053 -0.217546 0.103022 -0.321807 -0.179187 0.067080 -0.251310 -0.059759 -0.002110 -0.214787 0.247060 0.029068 -0.130338 0.095148 0.045496 0.204806 -0.357199 -0.031361 -0.221097 0.423160 -0.126913 -0.247130 -0.079766 0.363871 -0.142336 -0.281600 0.222378 -0.334850 -0.272410 -0.020922 0.036034 0.048642 0.055224 -0.028404 0.059209 -0.072922 -0.228652 -0.225038 0.040205 0.110781 0.167001 0.194020 0.143812 0.022532
caiga 0.006793 -0.045179 0.038508 0.064266 -0.000751 -0.038199 0.050422 -0.050508 0.020576 -0.078306 -0.045445 0.016768 -0.064063 -0.014135 0.006894 -0.055133 0.056733 0.009865 -0.028455 0.013133 0.005288 0.053181 -0.088511 0.001065 -0.052369 0.119766 -0.022385 -0.055902 -0.032355 0.097835 -0.038452 -0.080502 0.061326 -0.084795 -0.066615 -0.008266 0.016803 0.008006 0.006205 -0.003405 0.010858 -0.014376 -0.049441 -0.050809 0.001905 0.020399 0.047841 0.052591 0.029347 0.013847
cierto 0.008478 -0.151051 0.127168 0.217564 0.014044 -0.115847 0.130161 -0.198264 0.109496 -0.276962 -0.168917 0.052058 -0.218709 -0.035486 0.000271 -0.182612 0.220303 0.039693 -0.100380 0.075271 0.029365 0.197724 -0.313226 -0.028080 -0.201245 0.379714 -0.108846 -0.220911 -0.073251 0.317886 -0.124850 -0.245529 0.191322 -0.286856 -0.248434 -0.018814 0.027111 0.044552 0.049889 -0.038861 0.064725 -0.056682 -0.204230 -0.193138 0.028955 0.095508 0.132816 0.168804 0.134934 0.036847
debe 0.013046 -0.147335 0.121221 0.209203 0.015434 -0.132168 0.133690 -0.204362 0.093646 -0.272807 -0.171688 0.052047 -0.210158 -0.043952 -0.006802 -0.176845 0.212736 0.037344 -0.099234 0.079839 0.040399 0.192509 -0.319139 -0.014310 -0.193604 0.390988 -0.106182 -0.218966 -0.070649 0.331010 -0.113498 -0.254089 0.196373 -0.289557 -0.249606 -0.027405 0.018574 0.050536 0.058994 -0.021451 0.063858 -0.061373 -0.201297 -0.200742 0.029857 0.099101 0.144604 0.166707 0.124849 0.029836
contra 0.025639 -0.153450 0.133295 0.226347 0.012262 -0.137619 0.157902 -0.202953 0.099502 -0.296988 -0.168168 0.050760 -0.231661 -0.056308 0.001406 -0.194939 0.232269 0.036928 -0.115269 0.097408 0.049987 0.194228 -0.344591 -0.016894 -0.223846 0.420161 -0.107783 -0.233605 -0.090911 0.354533 -0.128173 -0.257241 0.209341 -0.322425 -0.250081 -0.024754 0.022469 0.043439 0.058171 -0.036773 0.064322 -0.064352 -0.212221 -0.213978 0.027172 0.105059 0.150964 0.167045 0.137109 0.034706
hijo 0.019707 -0.156082 0.117696 0.223855 0.017090 -0.110494 0.136564 -0.184070 0.092988 -0.282221 -0.167051 0.051540 -0.222325 -0.045949 0.006962 -0.184503 0.214331 0.033006 -0.095999 0.088962 0.044001 0.177202 -0.313614 -0.027289 -0.191866 0.376163 -0.104281 -0.210155 -0.071378 0.317140 -0.111447 -0.246997 0.182809 -0.289675 -0.230044 -0.022381 0.018088 0.048461 0.055053 -0.038354 0.051569 -0.059678 -0.199899 -0.189146 0.036740 0.082372 0.142907 0.151893 0.137171 0.018728
he 0.019125 -0.141786 0.114734 0.191453 0.018969 -0.117639 0.121338 -0.179672 0.094041 -0.246966 -0.150662 0.056424 -0.191768 -0.040583 0.006430 -0.163285 0.186210 0.031241 -0.088842 0.066873 0.031302 0.170578 -0.281274 -0.015043 -0.188791 0.354434 -0.089794 -0.194283 -0.073446 0.299694 -0.117670 -0.228531 0.167831 -0.275175 -0.222508 -0.023514 0.021189 0.046823 0.049444 -0.025635 0.048322 -0.063837 -0.181768 -0.173214 0.035775 0.082974 0.138906 0.152237 0.109150 0.017810
jugar 0.023567 -0.139956 0.114862 0.205160 0.013087 -0.115291 0.135298 -0.179256 0.094198 -0.266021 -0.152696 0.050759 -0.215979 -0.038257 0.007696 -0.174228 0.199353 0.025006 -0.099313 0.068876 0.029495 0.189459 -0.295882 -0.028742 -0.200208 0.373040 -0.110808 -0.211798 -0.076396 0.316424 -0.116353 -0.227412 0.185487 -0.279495 -0.240412 -0.021238 0.034089 0.037221 0.048750 -0.028666 0.048519 -0.072870 -0.189472 -0.185861 0.026415 0.092479 0.129409 0.161119 0.118649 0.032286
primer 0.013814 -0.203523 0.176894 0.299023 0.031076 -0.173340 0.188619 -0.275136 0.128933 -0.397411 -0.216836 0.068457 -0.303347 -0.071956 0.002868 -0.263341 0.288455 0.050349 -0.148841 0.104486 0.063161 0.265882 -0.428750 -0.018950 -0.281748 0.533679 -0.158264 -0.305532 -0.112478 0.457087 -0.171742 -0.336796 0.271303 -0.402426 -0.334026 -0.021329 0.040307 0.065372 0.063169 -0.048711 0.091239 -0.087472 -0.282174 -0.272719 0.050036 0.117375 0.197578 0.226987 0.183382 0.036391
himno 0.015591 -0.181458 0.146610 0.272670 0.017025 -0.150289 0.178648 -0.248476 0.130548 -0.347204 -0.214981 0.072186 -0.273224 -0.052904 0.003612 -0.234859 0.264078 0.043466 -0.134842 0.098880 0.043371 0.239546 -0.406906 -0.025605 -0.263365 0.496612 -0.141714 -0.282209 -0.091372 0.408701 -0.149175 -0.302431 0.241909 -0.377079 -0.304138 -0.027181 0.039203 0.048597 0.072894 -0.035652 0.067700 -0.090186 -0.259246 -0.249181 0.040370 0.113987 0.190185 0.210835 0.172889 0.039076
espero 0.008157 -0.141187 0.122674 0.205413 0.011935 -0.120968 0.124994 -0.174347 0.086999 -0.273628 -0.159865 0.045598 -0.208595 -0.043914 0.004528 -0.166361 0.203761 0.027725 -0.105601 0.068533 0.040436 0.187778 -0.301662 -0.018448 -0.194976 0.369696 -0.108762 -0.201496 -0.075001 0.308094 -0.116829 -0.237455 0.173230 -0.285520 -0.221002 -0.017210 0.014188 0.032871 0.054545 -0.033272 0.059188 -0.068222 -0.179474 -0.179863 0.039100 0.091438 0.139611 0.150456 0.131142 0.023884
dice 0.024223 -0.133903 0.104407 0.204502 0.022269 -0.108933 0.134767 -0.181745 0.093362 -0.252643 -0.156570 0.048885 -0.204511 -0.046079 -0.003470 -0.174094 0.191518 0.023987 -0.098508 0.084173 0.030873 0.175605 -0.282212 -0.017348 -0.176865 0.352678 -0.098825 -0.204654 -0.062616 0.301283 -0.111923 -0.221362 0.187149 -0.266981 -0.225340 -0.017752 0.020502 0.049891 0.039159 -0.032740 0.062917 -0.050147 -0.186022 -0.172508 0.018994 0.078337 0.128252 0.144340 0.121013 0.027842
cuidado 0.006352 -0.076810 0.066311 0.125602 0.019180 -0.069485 0.072999 -0.103380 0.054331 -0.170594 -0.102406 0.032385 -0.129370 -0.017099 0.007637 -0.109179 0.127401 0.022704 -0.067840 0.049248 0.015857 0.115315 -0.177479 -0.007368 -0.110137 0.228698 -0.066270 -0.125900 -0.040221 0.191260 -0.062418 -0.135283 0.109050 -0.170721 -0.137145 -0.014473 0.024225 0.017821 0.030951 -0.009134 0.041130 -0.042636 -0.119738 -0.111647 0.022080 0.045336 0.072809 0.090254 0.085190 0.011746
hora 0.021053 -0.142029 0.122456 0.199007 0.013470 -0.122562 0.123992 -0.189332 0.085589 -0.257397 -0.149075 0.055884 -0.197095 -0.046485 0.001039 -0.184377 0.207115 0.034682 -0.092596 0.077870 0.030803 0.187913 -0.301578 -0.028469 -0.189288 0.371545 -0.096917 -0.206051 -0.080413 0.302635 -0.105881 -0.237733 0.190252 -0.286619 -0.230805 -0.026446 0.030180 0.033779 0.043477 -0.023197 0.053342 -0.054532 -0.180162 -0.176175 0.023088 0.078609 0.141935 0.158504 0.118857 0.027174
dios 0.006342 -0.103842 0.091667 0.170694 0.010715 -0.089636 0.106374 -0.156281 0.085336 -0.214389 -0.129620 0.034790 -0.154553 -0.038067 -0.001366 -0.147171 0.169149 0.031139 -0.076921 0.058878 0.033709 0.133741 -0.229882 -0.022658 -0.143745 0.295467 -0.091094 -0.167730 -0.056651 0.248129 -0.086252 -0.188713 0.143350 -0.220989 -0.187892 -0.019257 0.016166 0.033774 0.037806 -0.026203 0.048483 -0.040883 -0.149408 -0.137335 0.018319 0.077224 0.107056 0.116170 0.102241 0.020070
merecido 0.007441 -0.144296 0.129497 0.231169 0.013057 -0.134244 0.146647 -0.192435 0.108659 -0.287335 -0.160152 0.050553 -0.233791 -0.050474 -0.009812 -0.198150 0.215676 0.034135 -0.105931 0.093797 0.048547 0.189555 -0.321858 -0.019543 -0.201760 0.393310 -0.110846 -0.218101 -0.087925 0.333870 -0.121620 -0.264313 0.197595 -0.312925 -0.251292 -0.027010 0.020866 0.050100 0.047855 -0.038466 0.058791 -0.072370 -0.218556 -0.204310 0.028103 0.102434 0.154659 0.169118 0.128407 0.030294
