@user 0.389 -0.32574 -0.091329 -0.074742 0.20934 0.077264 -0.41364 0.19847 -0.11968 -0.38275 0.15242 0.11924 0.05635 0.46148 0.28693 0.052121 0.17512 0.047383 -0.025488 -0.36731 -0.24644 0.057644 0.38829 0.17883 -0.40172 0.32113 0.32107 -0.043126 -0.21964 -0.22808 0.311 0.38684 0.17564 0.17254 -0.36936 -0.30304 0.29536 -0.07098 0.16145 0.066439 -0.044216 0.20924 -0.32466 -0.1734 0.072732 0.068029 -0.18367 0.33504 -0.063688 0.43706 
no 0.43325 -0.13936 -0.096449 -0.17477 0.24189 0.14551 -0.17784 -0.060945 -0.28301 -0.48568 0.3622 0.26306 0.22374 0.04079 -0.038556 -0.23927 0.25168 0.037233 -0.067631 -0.3792 -0.14094 0.34123 0.4936 0.53419 -0.063515 0.15877 0.5282 -0.29703 -0.44957 -0.3509 0.11514 -0.030611 0.54358 0.031316 -0.18329 -0.051738 0.76803 0.33246 -0.031209 0.33835 -0.0044987 0.13482 -0.55912 -0.012117 -0.11308 0.382 -0.39205 0.47772 -0.52271 -0.17887 
es 0.42789 -0.10584 -0.036069 -0.28491 0.34578 -0.26429 -0.14588 0.050919 -0.30116 -0.83526 0.45737 -0.022702 0.040615 0.37661 0.44695 -0.22582 0.18011 -0.156 0.089472 -0.11381 -0.29669 -0.052421 0.60876 0.52053 -0.16161 0.59598 0.18328 -0.26223 -0.095112 -0.30288 0.38366 0.051813 0.09829 0.25921 -0.43459 -0.0773 0.82484 0.25462 0.46112 0.19996 -0.13139 0.17426 -0.83416 -0.29855 -0.17524 0.35257 -0.018046 0.59361 -0.70578 -0.086359 
por 0.3347 -0.1545 -0.034623 -0.24495 0.37984 -0.049957 -0.34129 0.2086 -0.16821 -0.50823 0.24909 0.077592 0.041802 0.41947 0.22859 -0.082735 0.36564 -0.094806 0.070535 -0.42179 -0.15525 0.1542 0.4228 0.17258 -0.43868 0.2524 0.33246 -0.031203 -0.2468 -0.30127 0.30296 0.26233 0.1915 0.006354 -0.31952 -0.22228 0.48783 0.040979 0.1025 -0.023097 0.086923 0.16962 -0.65408 -0.064478 0.023412 0.18521 -0.12506 0.25647 -0.35819 0.19514 
se 0.017557 0.10425 -0.067045 0.027054 -0.024767 0.19132 -0.4034 0.06324 -0.10057 -0.36542 0.14727 0.23437 0.30872 0.44245 0.06899 -0.066024 0.19118 0.17916 0.15879 0.081163 -0.077399 0.19966 0.55648 0.50589 -0.30977 0.34774 0.43345 -0.25206 -0.26884 -0.34032 0.24944 0.028283 0.30826 0.058067 -0.19565 0.18527 0.59878 0.069682 0.17937 0.16151 -0.04766 0.20702 -0.37848 -0.44603 0.12359 0.048259 -0.32381 0.41984 -0.36029 0.16416 
n 0.031324 -0.29637 -0.064126 0.11603 -0.0094744 0.1519 -0.32128 0.11576 -0.12628 -0.25555 0.34753 0.26657 0.44763 0.068413 0.42922 0.041397 -0.067358 0.30052 -0.16977 -0.090832 -0.41222 0.1475 0.83591 0.61395 -0.30142 0.48401 0.65387 -0.38413 -0.68065 -0.28873 0.32464 -0.15366 0.377 0.40578 -0.40735 0.17117 0.64853 0.34975 0.086255 0.36719 -0.24225 0.27535 -0.11992 -0.45817 0.11315 0.14108 -0.29863 0.57516 0.15638 0.14339 
si 0.38798 -0.23065 -0.16279 -0.094967 0.048368 0.19482 -0.19795 0.14162 -0.35729 -0.42151 0.33494 0.12958 0.16995 0.2608 0.29208 -0.13938 0.11067 0.083879 -0.012036 -0.10322 -0.1962 0.21281 0.53223 0.45279 -0.19985 0.24487 0.39601 -0.20361 -0.34752 -0.24746 0.2914 0.2881 0.31774 0.27866 -0.27625 -0.07456 0.41746 0.15838 0.12057 0.29987 -0.095574 0.19085 -0.18625 -0.20898 -0.0032719 0.17223 -0.31438 0.48348 -0.15889 0.19471 
pero 0.28393 -0.272 -0.096007 -0.12267 0.39847 0.081068 -0.11557 0.013663 -0.31585 -0.54667 0.3432 0.29713 0.13173 0.074473 -0.061621 -0.21635 0.28605 -0.065478 -0.027684 -0.45185 -0.10987 0.35941 0.21328 0.37944 0.0023879 0.10627 0.6622 -0.1962 -0.35782 -0.2579 0.16082 0.16498 0.60503 -0.052612 -0.28895 -0.20662 0.68963 0.22578 -0.018383 0.21593 0.097983 0.17061 -0.63572 0.04135 -0.1102 0.36784 -0.39472 0.29323 -0.52187 0.061405 
rt 0.061202 0.12562 0.10271 -0.16324 0.10614 -0.12238 -0.11489 -0.015383 -0.12217 -0.53214 0.19342 -0.049058 0.14864 0.11974 0.1813 -0.2452 0.31821 -0.17414 0.083956 -0.060091 -0.099061 0.1724 0.17433 0.34548 -0.32593 0.15119 0.33035 -0.15308 -0.089081 -0.4119 0.38939 0.37203 0.29205 0.040898 -0.2059 -0.055209 0.80602 0.11954 0.37801 -0.083157 0.04525 0.3303 -0.93142 -0.47153 -0.025571 0.0089647 -0.24631 0.32833 -0.63595 0.22536 
ya 0.20209 0.026575 0.075788 0.025937 -0.12685 -0.20431 -0.14782 0.033431 -0.32852 -0.43772 0.36822 0.050833 0.30909 0.42389 0.16124 -0.30954 0.18372 -0.012902 0.12494 0.39381 -0.11498 0.22771 0.38543 0.46469 -0.13872 0.16705 0.45593 -0.38826 -0.19963 -0.3882 0.42255 0.43294 0.22959 0.11445 -0.12068 0.21237 0.77375 0.16881 0.29591 0.097568 -0.057195 0.23695 -0.66883 -0.34812 -0.090722 -0.019861 -0.34024 0.64028 -0.70106 0.066025 
más 0.32557 -0.059956 -0.041143 -0.18277 0.13276 0.032834 -0.12627 0.10467 -0.25874 -0.55662 0.37295 -0.026805 0.091816 0.23805 0.4014 -0.17627 0.12195 0.030226 -0.089751 -0.13984 -0.36614 -0.025955 0.49234 0.49633 -0.13834 0.43419 0.28455 -0.30606 -0.19821 -0.22456 0.27491 0.048284 0.23246 0.27178 -0.41822 0.0079012 0.69366 0.25064 0.27763 0.2262 -0.16836 0.22778 -0.56339 -0.25411 -0.1612 0.11957 -0.057442 0.44591 -0.35843 0.0099356 
hoy 0.21481 0.26368 0.13951 -0.21714 0.05032 -0.18615 -0.28806 0.065059 -0.19217 -0.39445 0.15599 0.0078871 0.16325 0.26503 0.037767 -0.32628 0.40346 -0.0042532 -0.030255 -0.20304 -0.064654 0.12881 0.14643 0.35222 -0.40837 0.19287 0.29524 -0.1066 -0.095448 -0.38525 0.32131 0.28049 0.315 -0.011329 -0.20102 0.064056 0.68057 0.11539 0.2815 -0.14966 0.045966 0.2599 -0.66582 -0.36031 0.0040053 -0.027397 -0.2071 0.20555 -0.50855 0.063904 
gracias 0.17715 -0.21595 0.12888 -0.096031 0.2439 -0.33746 -0.19815 -0.030958 -0.24495 -0.67332 0.33507 -0.11683 -0.008787 0.11012 0.34887 -0.24433 0.201 -0.22998 -0.016103 -0.29156 -0.23414 -0.12858 0.31041 0.47723 -0.29781 0.41678 0.24761 -0.11715 0.0096094 -0.40469 0.44653 0.49676 0.13672 0.24667 -0.17034 -0.17178 0.659 0.11851 0.55701 0.018303 -0.11274 0.20155 -0.89222 -0.43312 -0.16988 0.13276 -0.18053 0.5476 -0.65619 0.11058 
- 0.054367 0.3589 0.20219 -0.2683 0.10938 -0.31716 -0.10309 0.04167 -0.13054 -0.47618 0.21197 -0.099905 0.14738 0.12275 0.20219 -0.36906 0.33383 -0.13822 0.032959 -0.085398 -0.15029 0.17368 0.32827 0.41137 -0.38488 0.24728 0.2765 -0.1422 -0.18499 -0.43836 0.43064 0.19742 0.33289 -0.011151 -0.20085 0.072166 0.95254 0.19939 0.39125 -0.1015 -0.0022883 0.3533 -0.89903 -0.454 -0.043099 0.068213 -0.18489 0.3275 -0.66489 0.036142 
hay 0.40786 -0.23311 -0.095933 -0.12304 0.029423 0.19606 -0.29915 0.15976 -0.2795 -0.41665 0.24161 0.13693 0.19845 0.30271 0.20447 -0.13302 0.16694 0.15887 -0.080164 -0.21279 -0.27709 0.070817 0.32828 0.41294 -0.19364 0.28172 0.39853 -0.20988 -0.2602 -0.24309 0.1734 0.18867 0.32108 0.21005 -0.31112 0.0067437 0.44755 0.11425 0.13837 0.16715 -0.07637 0.1404 -0.25863 -0.20473 -0.012527 0.10096 -0.21061 0.3607 -0.1742 0.084861 
rajoy -0.10649 0.36309 0.036673 -0.19872 -0.16068 0.30803 -0.53852 0.095148 -0.25365 -0.19684 0.044868 0.19909 0.29513 0.59023 -0.23824 -0.34382 0.53104 0.42464 -0.15414 -0.081932 0.011256 0.1616 0.30865 0.3954 -0.45432 0.19094 0.19518 -0.18654 -0.15945 -0.21633 0.079114 -0.1369 0.32578 -0.1107 -0.26757 0.30788 0.59236 0.075853 -0.013859 -0.11854 0.086277 0.18713 -0.33374 -0.18337 0.11876 -0.15896 -0.069753 0.09704 -0.22729 0.0077467 
nos 0.12269 -0.12472 -0.055332 -0.168 0.35652 -0.28768 -0.03334 0.18466 -0.27667 -0.57557 0.60466 -0.19191 -0.035073 0.19047 0.84448 -0.048858 -0.099796 -0.18938 -0.17115 -0.62768 -0.51097 0.0074135 0.77268 0.62876 -0.47816 0.61409 0.38528 -0.27794 -0.19301 -0.16635 0.32904 0.23328 -0.052169 0.30752 -0.5687 -0.082655 0.38742 0.44385 0.22614 0.26885 -0.21957 0.2637 -0.55331 -0.37587 -0.20393 0.15192 0.051185 0.33708 -0.1035 0.034535 
o 0.35149 -0.042514 -0.07172 -0.26306 0.4127 0.10137 -0.091276 -0.13965 -0.25023 -0.63175 0.43907 0.3186 0.22422 -0.095373 -0.078219 -0.30969 0.26191 0.0031982 -0.065507 -0.37392 -0.22403 0.35906 0.57987 0.66449 0.14117 0.24644 0.59364 -0.34339 -0.5588 -0.39302 0.080977 -0.29502 0.72786 0.015319 -0.26649 -0.092173 1.172 0.44114 0.083097 0.48397 -0.027747 0.17014 -0.76157 0.013766 -0.2005 0.6123 -0.37533 0.5827 -0.8225 -0.32148 
pp -0.37954 -0.17373 -0.18789 -0.12564 -0.11112 0.45646 -0.31654 0.22018 -0.35155 -0.30441 0.19426 0.1928 0.32193 0.3684 0.15967 -0.15875 0.29135 0.26568 -0.035865 -0.028598 -0.13121 0.33458 0.60896 0.44907 -0.35839 0.20953 0.44486 -0.29548 -0.40861 -0.18394 0.22549 -0.090578 0.32536 0.070173 -0.22345 0.19419 0.45737 0.17825 -0.10115 0.1052 -0.0034509 0.1757 -0.27562 -0.17218 0.16072 0.065486 -0.23071 0.30744 -0.054013 0.10719 
todos 0.055506 -0.080285 -0.051155 -0.20945 0.36043 -0.21624 -0.020602 0.082753 -0.20239 -0.59391 0.49162 -0.15279 -0.062413 0.11778 0.65993 -0.082816 0.0041901 -0.21965 -0.12519 -0.63195 -0.41738 0.02068 0.57044 0.52568 -0.49701 0.51297 0.30645 -0.16116 -0.15103 -0.22614 0.30764 0.29402 0.060881 0.22194 -0.50197 -0.17699 0.44969 0.38718 0.27415 0.18059 -0.10282 0.27818 -0.6998 -0.40834 -0.20983 0.15425 0.018232 0.28011 -0.25138 0.12145 
gobierno -0.39991 0.32171 -0.022752 -0.40761 -0.07241 0.36046 -0.24572 0.11206 -0.33819 -0.29283 0.10362 0.019043 0.15226 0.22591 0.058239 -0.36518 0.48062 0.33504 -0.35523 -0.43589 -0.22219 0.098809 0.32115 0.39778 -0.35729 0.19913 0.099672 -0.18215 -0.26567 -0.13663 0.0086544 -0.1259 0.43664 -0.016019 -0.30925 0.12109 0.60284 0.25097 0.050035 0.012295 -0.011106 0.27003 -0.35563 -0.069904 -0.088379 -0.039259 -0.067774 0.058532 -0.064119 -0.051742 
españa -0.29017 0.22443 0.022973 -0.025883 -0.13349 0.071378 -0.30774 0.077836 -0.24676 -0.16893 0.21087 0.13162 0.29922 0.43681 0.036096 -0.20709 0.27074 0.33814 -0.17906 0.010743 -0.14058 0.12598 0.40563 0.44588 -0.29473 0.274 0.34981 -0.2953 -0.30319 -0.21347 0.23261 0.075323 0.33021 0.083396 -0.27421 0.22602 0.54634 0.14758 0.085731 0.038315 -0.058568 0.30338 -0.27567 -0.30483 0.012874 -0.14169 -0.19329 0.35366 -0.12278 0.17381 
está 0.42877 -0.10769 -0.1588 -0.10498 0.013653 0.21777 -0.4228 0.016484 -0.15796 -0.5074 0.24619 0.21498 0.21452 0.43885 -0.0014773 -0.062751 0.29191 0.20762 -0.02552 0.067824 -0.14907 -0.051981 0.32044 0.42085 0.0020511 0.33591 0.30253 -0.23897 -0.11225 -0.27324 0.22405 0.077798 0.30995 0.20351 -0.32243 -0.052572 0.69435 -0.014807 0.27335 0.223 -0.078843 0.1305 -0.3823 -0.20771 -0.014781 0.028459 -0.23285 0.5258 -0.41973 0.18781 
porque 0.60033 -0.25551 -0.1894 -0.07015 -0.0045549 0.31893 -0.28027 0.25088 -0.28819 -0.43441 0.23333 0.10592 0.1392 0.33142 0.11506 -0.10532 0.21054 0.11737 -0.0053772 -0.11658 -0.20051 0.16658 0.25499 0.31679 -0.10144 0.20516 0.4913 -0.17649 -0.20812 -0.24395 0.19775 0.28542 0.3745 0.11289 -0.23975 -0.11261 0.48297 -0.0010999 0.11674 0.13667 0.0061188 0.16728 -0.24743 -0.18757 0.005698 0.089426 -0.3117 0.37275 -0.21444 0.24299 
ahora -0.058177 0.11326 0.0062547 -0.073612 -0.18095 0.057118 -0.22782 0.11944 -0.37624 -0.36462 0.25387 0.057508 0.29073 0.43416 0.074245 -0.3355 0.31139 0.087059 0.016 0.19965 -0.079817 0.25182 0.27398 0.39957 -0.20204 0.07823 0.37957 -0.30836 -0.15745 -0.3137 0.29863 0.3136 0.28855 0.04575 -0.14779 0.18462 0.65857 0.12007 0.12303 -0.0013121 0.009026 0.24361 -0.45487 -0.26554 -0.011818 -0.11122 -0.26937 0.41579 -0.45381 0.1037 
he 0.32903 0.15502 0.071133 -0.038627 0.19273 -0.40169 -0.20063 0.17913 -0.087161 -0.48018 0.24478 0.016677 0.10406 0.17939 0.15452 -0.14911 0.14717 -0.13226 0.15885 -0.07452 -0.2045 0.16447 0.30297 0.49907 -0.1325 0.40333 0.66874 -0.16814 -0.11455 -0.45225 0.41745 0.45607 0.4204 0.15695 -0.2283 -0.11075 0.84005 -0.024926 0.44658 0.15208 0.017803 0.30147 -0.51789 -0.51758 0.065871 0.1846 -0.48424 0.59264 -0.60121 0.28902 
mañana 0.042575 0.42874 0.28967 -0.10389 -0.11802 -0.39147 -0.088992 0.096282 -0.2728 -0.30563 0.17881 -0.11936 0.17008 0.23766 0.080987 -0.43974 0.37128 -0.063662 -0.011175 0.11662 -0.099679 0.21331 0.078054 0.31979 -0.34786 0.11902 0.37267 -0.15929 -0.13238 -0.42446 0.4647 0.51736 0.39916 -0.015714 -0.13721 0.1693 0.82718 0.12446 0.36024 -0.24878 0.037075 0.40587 -0.74074 -0.5048 -0.064599 -0.17545 -0.29152 0.30011 -0.60037 0.19229 
todo 0.36077 -0.074231 -0.091946 -0.38433 0.35789 0.040725 -0.05572 0.020581 -0.33389 -0.56295 0.37717 0.070023 -0.0066716 -0.052757 0.00067602 -0.36133 0.25861 -0.032868 -0.1826 -0.60475 -0.29823 0.18087 0.39524 0.52694 -0.029159 0.19991 0.34778 -0.076081 -0.22074 -0.3311 0.10213 0.09442 0.60746 0.034977 -0.25931 -0.34405 0.85339 0.2655 0.19352 0.27527 0.093082 0.17947 -0.55123 -0.016849 -0.24422 0.5177 -0.24697 0.45836 -0.67211 -0.10195 
día 0.17504 0.12863 0.068753 0.095483 -0.16456 -0.13316 -0.23221 -0.018166 -0.22889 -0.4155 0.31331 0.11947 0.36594 0.52288 -0.020545 -0.2901 0.26752 0.056223 0.14869 0.56277 -0.03093 0.2199 0.4329 0.4615 -0.069221 0.16319 0.53868 -0.41873 -0.16028 -0.37964 0.42335 0.37593 0.29092 0.072765 -0.11588 0.25609 0.92076 0.08103 0.23295 0.077694 -0.018637 0.20497 -0.675 -0.35288 -0.027577 -0.12129 -0.38733 0.69084 -0.75641 0.15821 
psoe -0.29251 -0.12564 -0.10375 0.037914 -0.14939 0.28958 -0.35087 0.28573 -0.29367 -0.16561 0.095007 0.20339 0.30527 0.30754 0.13848 -0.12644 0.1932 0.31072 -0.021566 -0.094144 -0.15064 0.33928 0.64952 0.52276 -0.45771 0.36125 0.56592 -0.26935 -0.47784 -0.21776 0.21986 -0.024049 0.36671 0.090794 -0.13531 0.28418 0.33503 0.1495 -0.076325 0.13353 -0.03654 0.17258 -0.09991 -0.37547 0.23544 0.060605 -0.35159 0.3494 0.092838 0.16352 
sin 0.045094 -0.21026 -0.04174 -0.068755 0.078674 0.096405 -0.30629 0.11686 -0.24914 -0.36242 0.24474 0.18676 0.2904 0.15822 0.24519 -0.12953 0.14693 0.10941 -0.072729 -0.22391 -0.18817 0.19256 0.47552 0.43172 -0.35347 0.25311 0.4374 -0.12938 -0.39549 -0.3109 0.25197 0.063483 0.34755 0.13887 -0.25815 0.044723 0.50867 0.22799 0.11752 0.081957 -0.056192 0.18028 -0.32586 -0.31701 0.047409 0.15848 -0.21827 0.27391 -0.15714 0.092774 
son 0.20389 -0.30593 -0.095685 -0.028094 0.08574 0.23527 -0.10302 0.0788 -0.16435 -0.37979 0.24825 0.084668 0.15714 0.00029955 0.42217 -0.0073886 -0.031626 0.059701 -0.11064 -0.22635 -0.36912 0.085217 0.40479 0.36562 -0.26324 0.29663 0.41543 -0.17055 -0.34889 -0.24712 0.27537 0.21816 0.33704 0.30429 -0.37556 -0.10427 0.47332 0.23816 0.21843 0.12959 -0.10603 0.27924 -0.36524 -0.40291 -0.068613 0.10393 -0.19096 0.33581 -0.053697 0.28432 
va 0.025762 0.16164 0.03923 0.21446 -0.24991 -0.04813 -0.34774 -0.043486 -0.23292 -0.26721 0.29059 0.27899 0.47889 0.64604 -0.17174 -0.26605 0.27097 0.19355 0.14462 0.63808 0.038892 0.33978 0.36627 0.45299 -0.10429 0.10616 0.56741 -0.51741 -0.27566 -0.33716 0.34675 0.27084 0.27339 0.012716 -0.13472 0.38596 0.79151 0.075718 0.12123 0.072143 -0.048021 0.27417 -0.48856 -0.35236 0.063383 -0.23418 -0.4101 0.64541 -0.58524 0.19407 
ser 0.40328 -0.30115 -0.14098 -0.05293 0.35179 0.13506 -0.43053 0.18143 -0.069598 -0.39256 0.17852 0.28791 0.11 0.58235 0.19082 0.11771 0.1921 0.0086453 0.1448 -0.29161 -0.11428 0.21082 0.50745 0.17664 -0.43347 0.25024 0.39566 -0.052452 -0.26962 -0.25457 0.32092 0.30741 0.20538 0.093097 -0.42019 -0.28696 0.34658 -0.065091 0.0041853 0.065125 0.051806 0.21014 -0.42784 -0.1013 0.17155 0.10935 -0.19009 0.29926 -0.17782 0.455 
dice 0.1518 0.025201 -0.036387 -0.086646 -0.048295 0.15144 -0.41703 0.20192 -0.20885 -0.34109 0.095146 0.14127 0.21099 0.42007 -0.057687 -0.18419 0.29953 0.21726 0.016115 -0.015851 -0.10189 0.15858 0.30745 0.37652 -0.20674 0.22673 0.4547 -0.16425 -0.16068 -0.2929 0.17726 0.21727 0.39971 0.039218 -0.21388 0.081255 0.61505 -0.032844 0.15628 0.072577 0.0055793 0.13732 -0.2487 -0.26235 0.095303 0.035638 -0.31876 0.38077 -0.30432 0.16521 
ver 0.53208 -0.32919 -0.031623 0.030464 0.41789 -0.24648 -0.43124 0.24744 -0.11074 -0.41506 0.2063 0.258 0.071253 0.5409 0.027564 0.015176 0.27319 -0.16872 0.23816 -0.29056 -0.023427 0.32156 0.241 0.1406 -0.38559 0.20293 0.63564 -0.026574 -0.21146 -0.36475 0.4314 0.61657 0.2673 0.018828 -0.30732 -0.33009 0.41634 -0.15081 0.084743 -0.039453 0.15663 0.22285 -0.53903 -0.20222 0.21386 0.13533 -0.37944 0.36041 -0.38166 0.50935 
mas 0.28033 -0.029631 0.038026 -0.26613 0.19209 -0.31289 -0.13344 0.1104 -0.37171 -0.72927 0.52501 -0.15585 0.075024 0.20887 0.63654 -0.2422 0.16106 -0.12532 -0.077011 -0.12228 -0.4126 -0.15389 0.65386 0.70578 -0.13456 0.57916 0.17624 -0.33903 -0.05627 -0.27445 0.45819 0.13037 0.03088 0.41823 -0.29874 -0.0064849 0.8002 0.27855 0.48157 0.27837 -0.29345 0.20314 -0.75005 -0.27619 -0.17389 0.19648 -0.025815 0.66425 -0.57033 -0.15743 
han 0.12797 -0.29543 -0.070023 -0.20675 0.06918 0.10181 -0.12683 0.18613 -0.19941 -0.42865 0.27357 -0.051086 0.20624 -0.090126 0.56495 -0.06176 0.023867 -0.0077701 -0.14434 -0.41385 -0.43462 0.0064642 0.4035 0.41909 -0.33482 0.3212 0.38284 -0.11696 -0.29851 -0.26971 0.27764 0.1878 0.27373 0.29786 -0.2944 -0.035444 0.48993 0.27177 0.28254 0.05893 -0.10225 0.19233 -0.43577 -0.36491 -0.07219 0.15936 -0.14535 0.26728 -0.078432 0.059128 
días -0.14529 -0.097745 0.11258 -0.20782 0.25327 -0.35469 -0.10116 -0.0014974 -0.26472 -0.69938 0.39337 -0.26537 -0.045038 0.075853 0.59174 -0.27057 0.13362 -0.22013 -0.10289 -0.30236 -0.35502 -0.19694 0.55185 0.57966 -0.35233 0.53623 0.18363 -0.19012 0.00049881 -0.33755 0.45742 0.37203 0.036518 0.3213 -0.21716 -0.10546 0.71704 0.27032 0.55806 0.060945 -0.20253 0.2042 -0.98478 -0.43302 -0.21512 0.15463 -0.027067 0.59315 -0.6171 -0.030875 
mejor 0.26127 -0.070187 -0.032264 -0.16596 0.27243 -0.012316 -0.31788 0.15806 -0.16661 -0.42777 0.21121 0.1383 0.02901 0.40515 0.12303 -0.095405 0.31996 0.035688 -0.01668 -0.28359 -0.19572 0.091281 0.29741 0.23326 -0.26807 0.27231 0.33478 -0.10388 -0.21938 -0.26366 0.27456 0.29264 0.32081 0.1405 -0.41903 -0.17999 0.56077 0.029137 0.14902 0.081676 0.0095381 0.23223 -0.44082 -0.11973 -0.0018509 0.067304 -0.18201 0.3156 -0.26848 0.2807 
hacer 0.36526 -0.267 -0.063794 -0.066419 0.29769 -0.013715 -0.4281 0.23214 -0.13326 -0.35882 0.19881 0.23958 0.10011 0.48177 0.13415 0.020179 0.26491 0.081112 -0.041788 -0.40701 -0.24856 0.10353 0.25039 0.20302 -0.30429 0.28676 0.44996 -0.094865 -0.25321 -0.21554 0.22369 0.34754 0.30976 0.14485 -0.45925 -0.26074 0.39644 -0.058418 0.044108 0.092676 0.041357 0.20956 -0.26527 -0.10921 0.10491 0.047367 -0.22198 0.28721 -0.10214 0.38916 
madrid -0.035751 0.026002 0.10298 -0.13046 -0.037818 -0.12935 -0.25794 0.081273 -0.30946 -0.38606 0.21951 0.012161 0.21941 0.18333 0.16117 -0.2861 0.34227 0.033295 -0.062194 -0.19749 -0.1483 0.16547 0.26407 0.33691 -0.42431 0.16462 0.31314 -0.1418 -0.32867 -0.41625 0.30893 0.24976 0.35318 0.099727 -0.12228 0.11538 0.5061 0.18545 0.17841 -0.0082942 -0.084218 0.24689 -0.42626 -0.32158 -0.038159 0.016335 -0.28852 0.23716 -0.26948 0.027763 
tiene 0.16562 0.028164 -0.021561 0.0091582 0.05253 0.018095 -0.45471 0.10624 -0.18468 -0.40339 0.18833 0.18685 0.1742 0.47352 -0.04029 -0.11709 0.27015 0.15567 0.03005 -0.052956 -0.12579 0.10301 0.24351 0.39496 -0.19194 0.32723 0.44753 -0.17487 -0.20324 -0.31503 0.22396 0.24853 0.33833 0.11143 -0.23915 -0.010932 0.54726 -0.056231 0.22271 0.18279 -0.0019812 0.20634 -0.27943 -0.31147 0.062062 0.028376 -0.33156 0.44782 -0.30276 0.26185 
años 0.048301 -0.067331 -0.045195 -0.18156 0.35835 -0.27476 -0.14651 0.17143 -0.28732 -0.57819 0.5523 -0.1013 0.015923 0.24415 0.64291 -0.10553 0.017049 -0.12926 -0.1461 -0.61005 -0.42212 0.039711 0.63978 0.63246 -0.44533 0.58172 0.40661 -0.2361 -0.20921 -0.20075 0.29693 0.15613 0.054317 0.2403 -0.51047 -0.060929 0.43313 0.37018 0.20256 0.29241 -0.15812 0.23505 -0.51096 -0.32703 -0.14026 0.16552 -0.017434 0.32224 -0.18768 -0.0018685 
bien 0.34269 -0.13049 -0.047972 -0.082896 0.034504 -0.039103 -0.18612 0.22883 -0.29081 -0.38028 0.22726 0.047928 0.2047 0.19094 0.22592 -0.15698 0.19169 0.04262 -0.080174 -0.18133 -0.2418 0.19727 0.12745 0.27384 -0.16986 0.13285 0.48773 -0.10182 -0.21076 -0.26639 0.28975 0.43973 0.36453 0.14573 -0.29266 -0.14731 0.51954 0.079257 0.21896 0.0777 0.0056156 0.25782 -0.24321 -0.26552 0.023804 0.07336 -0.30083 0.28804 -0.13553 0.31825 
gran 0.032018 -0.098632 0.11976 -0.28885 0.15917 -0.16293 -0.3358 0.15238 -0.26102 -0.52421 0.22388 -0.024492 0.17342 0.04651 0.27852 -0.24662 0.29545 -0.079771 -0.086473 -0.47455 -0.24494 0.025919 0.19842 0.33659 -0.43978 0.25926 0.27373 0.06933 -0.22693 -0.40653 0.30242 0.20783 0.31783 0.064392 -0.18718 -0.044297 0.6021 0.18691 0.38158 -0.07424 -0.03704 0.16656 -0.60211 -0.30714 -0.093337 0.19567 -0.14521 0.13481 -0.38354 -0.065441 
% -0.32282 0.42929 0.12914 -0.27373 0.026151 -0.043846 -0.16707 0.18042 -0.19533 -0.26422 0.14732 -0.017095 0.23974 0.1638 0.29591 -0.32272 0.30916 0.1888 -0.16743 -0.13424 -0.26207 0.17223 0.69191 0.5532 -0.41432 0.3791 0.28442 -0.27574 -0.45034 -0.24261 0.25009 -0.21153 0.36619 0.10546 -0.37615 0.27436 0.8333 0.30939 0.1506 0.089376 -0.093619 0.3547 -0.47875 -0.34581 0.030019 0.10215 -0.096683 0.31403 -0.13243 -0.043482 
vía -0.20302 0.43492 0.1643 -0.074336 -0.21965 -0.084767 -0.30339 -0.028484 -0.25795 -0.30703 0.21923 0.11386 0.37984 0.57027 -0.044351 -0.40858 0.39474 0.17034 0.012804 0.3638 6.6757e-06 0.21668 0.46482 0.49256 -0.30294 0.21148 0.29478 -0.34477 -0.20764 -0.32226 0.32722 0.051329 0.2266 -0.069192 -0.12035 0.43253 0.86164 0.17043 0.19006 -0.075907 -0.017331 0.27368 -0.6836 -0.36519 -0.008936 -0.17983 -0.17752 0.42673 -0.62356 0.016506 
hace 0.31934 0.030532 0.053332 -0.063554 0.12694 -0.14213 -0.35268 0.1424 -0.13161 -0.41222 0.15161 0.12003 0.16682 0.31261 0.053658 -0.13722 0.25625 0.03079 0.027937 -0.19249 -0.20432 0.077684 0.15538 0.37103 -0.20918 0.30921 0.48868 -0.11469 -0.12917 -0.34081 0.2352 0.32964 0.38809 0.075028 -0.26869 -0.041504 0.63742 -0.016231 0.29758 0.039632 0.031075 0.21858 -0.41811 -0.3787 0.040279 0.056753 -0.30665 0.35766 -0.42611 0.22528 
estoy 0.52661 -0.14672 -0.085657 -0.081108 0.095589 -0.041066 -0.32149 0.095355 -0.26025 -0.49316 0.24233 0.16619 0.15422 0.36195 -0.057436 -0.16005 0.33302 -0.034913 0.07721 -0.059864 -0.018128 0.16972 0.00838 0.29524 -0.0753 0.11551 0.47655 -0.10327 -0.016548 -0.38132 0.31151 0.51473 0.38371 0.069964 -0.24781 -0.20168 0.59856 -0.062503 0.27906 0.023087 0.087782 0.19513 -0.47423 -0.26609 0.018351 0.032619 -0.38893 0.35719 -0.55313 0.32412 
tengo 1 -0.21709 -0.12167 -0.044506 0.27454 0.079621 -0.23696 -0.048427 -0.20382 -0.58168 0.36676 0.27179 0.12362 0.16906 -0.11229 -0.17316 0.25511 -0.074596 0.032673 -0.26479 -0.083141 0.25914 0.12799 0.39606 -0.035656 0.13703 0.56467 -0.17989 -0.22541 -0.35359 0.19601 0.31362 0.5 0.041274 -0.25427 -0.22321 0.73626 0.13429 0.16727 0.22983 0.10815 0.16203 -0.63485 -0.16045 -0.08242 0.2476 -0.38437 0.42851 -0.6667 0.14389 
mucho 0.34472 -0.25539 -0.0030584 -0.25455 0.26712 0.0029058 -0.098437 0.069174 -0.33751 -0.59456 0.28711 0.021515 0.0096512 -0.027742 0.13649 -0.26051 0.2731 -0.14273 -0.10117 -0.57402 -0.28267 0.18126 0.073489 0.33272 -0.092293 0.11602 0.4091 -0.025471 -0.20357 -0.35798 0.1663 0.39508 0.54642 0.043192 -0.21278 -0.28622 0.64325 0.18431 0.25346 0.064937 0.0013872 0.16709 -0.61615 -0.084032 -0.26516 0.32175 -0.28764 0.2538 -0.54824 0.036374 
buenos 0.15658 -0.10369 0.028551 -0.26883 0.29698 -0.2917 -0.0056866 0.088256 -0.28622 -0.67191 0.48671 -0.26838 -0.078977 0.11243 0.67338 -0.20803 0.067289 -0.2922 -0.10372 -0.56913 -0.36388 0.010592 0.4344 0.45709 -0.50065 0.39809 0.22915 -0.12606 -0.06658 -0.32038 0.34041 0.44316 0.045816 0.17932 -0.36712 -0.17369 0.49684 0.38819 0.40374 0.072316 -0.10514 0.26223 -0.8279 -0.39265 -0.25362 0.13663 0.0019576 0.24643 -0.43949 0.027566 
ja 0.31058 0.066238 0.021588 0.097845 -0.14705 -0.22031 -0.13936 0.03604 -0.31284 -0.47501 0.39344 0.12479 0.37587 0.48361 0.0048672 -0.31134 0.25262 -0.072155 0.26575 0.62525 0.010294 0.36287 0.19281 0.39423 0.035871 0.016331 0.62546 -0.42478 -0.13664 -0.44173 0.50276 0.60087 0.3337 0.070311 -0.12545 0.12657 0.9152 0.059106 0.28088 0.074926 0.040955 0.28846 -0.68357 -0.35902 -0.0084171 -0.088124 -0.49995 0.67507 -0.86141 0.25254 
voto 0.56697 -0.52964 -0.22621 0.21968 0.18708 0.44447 -0.37424 -0.086301 -0.29588 -0.26644 0.3862 0.59212 0.22353 0.20671 -0.21398 -0.014883 0.1195 0.38216 -0.20928 -0.36079 -0.24784 0.4172 0.50665 0.62393 0.013473 0.31171 0.8209 -0.38992 -0.755 -0.24011 0.025284 -0.12032 0.73809 0.19531 -0.32345 -0.053775 0.52652 0.23916 -0.21539 0.58403 -0.1358 0.21885 -0.011944 -0.10573 0.024233 0.28101 -0.51063 0.60999 -0.016348 0.17416 
m 0.091003 0.20139 -0.03112 -0.1878 -0.0088704 0.186 -0.24806 0.1018 -0.15843 -0.41565 0.251 0.13238 0.27824 0.31561 0.15025 -0.20988 0.28548 0.19421 -0.027178 0.1475 -0.2366 0.14144 0.50937 0.45846 -0.12899 0.30581 0.37275 -0.37407 -0.39276 -0.25566 0.24812 -0.16143 0.42508 0.14436 -0.38948 0.18871 0.91642 0.22198 0.16406 0.23263 -0.12005 0.26708 -0.46995 -0.21099 -0.023505 0.071631 -0.19151 0.43409 -0.36692 -0.011048 
votar 0.33587 -0.71368 -0.36756 0.28463 0.257 0.63266 -0.4196 0.13548 -0.069633 -0.050684 0.17502 0.5373 0.05356 0.5111 0.033534 0.31917 0.04428 0.38806 -0.12275 -0.33344 -0.25363 0.32767 0.69474 0.32779 -0.36753 0.37935 0.63686 -0.22203 -0.61537 -0.044158 0.18012 0.14677 0.37836 0.29891 -0.52353 -0.29456 0.12373 -0.046072 -0.301 0.36146 0.036464 0.29199 0.089728 -0.1664 0.29091 0.036794 -0.30334 0.55439 0.45703 0.80687 
gente 0.21019 -0.14308 -0.068547 0.038621 0.034853 -0.020192 -0.47319 0.24037 -0.26792 -0.42002 0.18342 0.24467 0.19076 0.39523 -0.088866 -0.13067 0.2676 0.14109 0.075243 -0.13789 -0.15618 0.18568 0.14904 0.42554 -0.055767 0.27578 0.61646 -0.11274 -0.2318 -0.35423 0.1679 0.32835 0.46152 0.047593 -0.1749 -0.064739 0.60007 -0.078577 0.21831 0.19265 -2.0406e-05 0.21587 -0.079808 -0.27613 0.076463 0.10022 -0.55327 0.46005 -0.3549 0.22309 
solo 0.39076 -0.22376 -0.11615 -0.19122 0.18627 0.21486 -0.10703 0.074531 -0.38149 -0.53281 0.32973 0.1628 0.099066 0.086581 0.10745 -0.22949 0.18902 -0.020116 -0.060039 -0.32735 -0.18839 0.28137 0.29069 0.40028 -0.051525 0.10095 0.44313 -0.14015 -0.29985 -0.30201 0.16218 0.25288 0.51424 0.095614 -0.23206 -0.19869 0.58222 0.19815 0.1051 0.22292 -0.004753 0.17931 -0.41649 -0.06613 -0.13311 0.33115 -0.33979 0.36812 -0.44871 0.056369 
puede -0.0096603 -0.056772 -0.12198 -0.063469 0.14029 0.15271 -0.40981 0.087117 -0.17921 -0.42246 0.21583 0.21296 0.18035 0.4189 0.030819 -0.082609 0.29647 0.15742 0.022543 -0.17319 -0.10324 0.15531 0.39592 0.38087 -0.26534 0.3315 0.43529 -0.19694 -0.22533 -0.24735 0.19192 0.11222 0.34414 0.077946 -0.26399 -0.024366 0.54471 0.062844 0.077903 0.17879 0.043695 0.15605 -0.36022 -0.21083 0.085554 0.068613 -0.28959 0.38978 -0.27089 0.1973 
vamos 0.13839 -0.11998 -0.18577 -0.13548 0.23411 -0.10292 -0.2278 0.21499 -0.27913 -0.56576 0.58495 -0.019483 0.037553 0.39878 0.48828 -0.02639 0.025105 -0.10383 -0.069832 -0.56111 -0.27728 0.14516 0.51713 0.54097 -0.39312 0.44829 0.46894 -0.21169 -0.13153 -0.20426 0.24117 0.29835 0.030959 0.13605 -0.45043 -0.1144 0.30467 0.2479 0.099892 0.17674 -0.06929 0.20252 -0.36986 -0.2754 -0.070233 0.081076 -0.068533 0.23026 -0.17755 0.097705 
contra -0.30505 0.13927 -0.041133 0.0085814 -0.29982 0.37646 -0.46046 -0.048136 -0.22461 -0.24076 0.14517 0.27952 0.41932 0.59583 -0.16706 -0.32215 0.3932 0.43019 -0.1338 0.19407 -0.060352 0.15894 0.35552 0.52023 -0.33088 0.16434 0.20289 -0.41247 -0.32278 -0.22197 0.085789 -0.18237 0.33121 -0.026695 -0.19309 0.43652 0.70612 0.19508 -0.030753 0.017834 -0.048188 0.20479 -0.37311 -0.26202 -0.016895 -0.31384 -0.12691 0.25268 -0.32627 -0.037918 
nada 0.21827 0.15806 0.072274 0.018529 -0.21132 -0.067285 -0.246 0.13066 -0.34363 -0.28189 0.29893 0.074806 0.31367 0.52827 0.037397 -0.30021 0.31308 0.15999 0.011578 0.3868 -0.093991 0.25936 0.38168 0.4274 -0.16026 0.15217 0.45299 -0.37381 -0.2414 -0.29698 0.35542 0.33644 0.28405 0.10307 -0.20279 0.22201 0.68949 0.033138 0.11996 0.077914 -0.032573 0.28205 -0.35275 -0.27719 0.039186 -0.12789 -0.32504 0.58967 -0.39847 0.17941 
congreso -0.18729 -0.030745 -0.06708 -0.24001 -0.10879 0.32843 -0.28504 0.022023 -0.28408 -0.38321 0.13481 0.15295 0.27559 0.13969 -0.17714 -0.4381 0.46633 0.1252 -0.094449 -0.34836 0.017102 0.27031 0.19277 0.43562 -0.39754 -0.040122 0.20628 -0.14242 -0.19505 -0.34612 0.071215 -0.074055 0.41919 -0.1886 0.026282 0.19377 0.64528 0.23639 -0.020489 -0.1769 0.12521 0.16114 -0.6382 -0.21931 -0.046659 0.0022264 -0.21319 0.050824 -0.51465 -0.21498 
menos 0.073829 -0.159 -0.12564 -0.16705 0.2862 0.020669 -0.14131 0.030766 -0.18236 -0.60559 0.46798 -0.018315 0.051325 0.25922 0.49027 -0.070819 0.088893 -0.096277 -0.069157 -0.40799 -0.31467 0.026358 0.52213 0.47266 -0.37403 0.41127 0.3017 -0.23536 -0.14084 -0.22422 0.22822 0.11829 0.086055 0.14522 -0.47541 -0.028635 0.53689 0.35749 0.19762 0.13271 -0.10491 0.1979 -0.71127 -0.29719 -0.20857 0.076216 0.03765 0.20741 -0.37215 0.009576 
bueno 0.52759 -0.0010781 0.056772 -0.29976 0.22251 -0.14528 -0.004645 0.019625 -0.31604 -0.58182 0.31582 -0.06224 0.043892 -0.011756 0.11957 -0.38346 0.32089 -0.22505 -0.025126 -0.39876 -0.12085 0.27917 0.15049 0.34613 -0.23677 0.052993 0.35901 -0.090797 -0.16197 -0.43897 0.27311 0.4272 0.46401 -0.032239 -0.12917 -0.20761 0.77102 0.26235 0.28367 0.031526 0.083527 0.25409 -0.8433 -0.20272 -0.17233 0.24458 -0.31537 0.30218 -0.7316 0.0042972 
nuevo -0.11437 0.10257 0.10531 -0.30272 0.17229 -0.084211 -0.21827 0.068964 -0.32892 -0.51976 0.23053 0.05589 0.11191 0.090817 -0.038803 -0.41613 0.40584 -0.062948 -0.085194 -0.4549 -0.095722 0.24197 0.18764 0.41889 -0.27859 0.13438 0.34026 -0.068827 -0.1862 -0.39678 0.17208 0.16443 0.48571 -0.11185 -0.14224 -0.037975 0.76343 0.1956 0.18463 -0.031628 0.071086 0.20337 -0.70633 -0.17666 -0.11118 0.22845 -0.25664 0.21103 -0.62708 -0.12078 
entre 0.058262 0.034916 0.025633 -0.058105 0.074474 -0.040879 -0.29618 0.015487 -0.10757 -0.40956 0.12462 0.080585 0.13014 0.1604 -0.0063604 -0.14302 0.30103 0.039364 -0.0031354 -0.17293 -0.11327 0.070803 0.1138 0.33128 -0.20942 0.27597 0.37138 -0.15578 -0.16294 -0.38019 0.25753 0.20497 0.40301 0.047574 -0.20106 -0.037689 0.67945 0.077852 0.35375 0.00048888 -0.028574 0.26655 -0.58206 -0.42108 -0.035139 -0.021162 -0.30835 0.28001 -0.45217 0.19067 
soy 0.73812 -0.16016 -0.07781 0.10833 0.094487 0.078848 -0.30727 -0.031377 -0.19368 -0.40707 0.26363 0.27703 0.19001 0.389 -0.059847 -0.072721 0.20869 0.08585 0.060167 -0.0068306 -0.056703 0.20181 0.11228 0.33028 -0.16007 0.16279 0.49906 -0.22416 -0.18292 -0.319 0.26878 0.46712 0.36191 0.13703 -0.30418 -0.1134 0.49736 0.025722 0.15724 0.16952 0.022796 0.22786 -0.35839 -0.30945 0.015692 -0.031914 -0.4046 0.40435 -0.37746 0.35853 
noche 0.0458 0.16336 0.094032 -0.12931 0.049979 -0.21323 -0.26312 0.12779 -0.18406 -0.43502 0.16166 -0.030327 0.088907 0.23957 0.090574 -0.29391 0.31245 -0.092352 0.043542 -0.13157 -0.092911 0.13402 0.17025 0.32374 -0.33963 0.24263 0.36349 -0.079253 -0.097085 -0.44282 0.38101 0.43414 0.35384 0.036563 -0.14269 -0.042585 0.64543 0.025877 0.37151 -0.044028 0.04206 0.27505 -0.58941 -0.44235 -0.00028112 0.022004 -0.34887 0.3608 -0.53983 0.20773 
también 0.076855 -0.15813 -0.048426 -0.047858 0.052482 0.2519 -0.28985 -0.0086632 -0.13796 -0.36591 0.15488 0.18952 0.20398 0.17376 0.061784 -0.1113 0.22215 0.11793 -0.085783 -0.22582 -0.13685 0.12225 0.26963 0.33492 -0.34993 0.22011 0.34123 -0.13122 -0.27464 -0.28827 0.19409 0.071975 0.34333 0.07798 -0.23356 0.0064198 0.52935 0.15035 0.13673 0.011279 0.014591 0.22375 -0.49288 -0.32984 0.0062534 0.012666 -0.18327 0.22343 -0.22591 0.19268 
voy 0.66287 -0.043881 -0.0076639 0.12407 0.16146 -0.12543 -0.23133 0.022616 -0.14797 -0.27572 0.26787 0.24412 0.13809 0.29486 -0.093422 -0.12372 0.17815 0.050841 0.0028667 -0.071448 -0.088265 0.28111 0.22319 0.3807 -0.15975 0.25382 0.62837 -0.21004 -0.24598 -0.29871 0.31638 0.36045 0.42152 0.10834 -0.32273 -0.12348 0.61137 0.034448 0.13579 0.14079 0.040781 0.30971 -0.36323 -0.37484 0.10071 0.033552 -0.39304 0.47073 -0.32153 0.41248 
cosas 0.38271 -0.47147 -0.14101 0.034764 0.17394 0.073252 -0.14151 -0.052818 -0.21757 -0.60192 0.43067 -0.0031718 0.051847 0.1346 0.46372 -0.084103 0.02662 -0.028136 -0.094378 -0.22182 -0.37761 -0.14075 0.49759 0.58381 -0.16646 0.44433 0.28747 -0.33497 -0.12807 -0.20537 0.32046 0.25604 0.10953 0.39575 -0.30068 -0.15451 0.5392 0.21664 0.32817 0.28731 -0.19807 0.18925 -0.63234 -0.32015 -0.18008 0.052709 -0.12531 0.59378 -0.32795 0.13965 
rubalcaba -0.39308 -0.038686 -0.067723 -0.019256 -0.29028 0.46161 -0.34681 0.089465 -0.34902 -0.15049 0.12998 0.15982 0.25046 0.44857 -0.053838 -0.22407 0.29727 0.43545 -0.23247 -0.016749 -0.1847 0.10445 0.15037 0.34339 -0.26067 0.11975 0.30757 -0.30076 -0.26114 -0.14537 0.087203 0.17065 0.37824 0.11817 -0.2292 0.20782 0.36965 0.092048 -0.010014 0.075343 -0.049624 0.20912 -0.13433 -0.13341 -0.04246 -0.26791 -0.19135 0.2652 0.02588 0.17437 
e -0.03133 0.0098726 -0.15007 -0.036254 0.039684 0.1486 -0.53786 0.17201 -0.074417 -0.51839 0.22604 0.32836 0.37549 0.4854 -0.0094976 -0.022813 0.21575 0.17581 0.24041 0.22775 -0.091315 0.20104 0.71341 0.62661 -0.028303 0.48813 0.6274 -0.32253 -0.31506 -0.42494 0.27518 -0.19333 0.4105 0.094556 -0.25361 0.14432 0.96333 -0.00025743 0.26866 0.31547 -0.059959 0.14169 -0.37533 -0.39885 0.18519 0.26759 -0.42195 0.66833 -0.62018 0.091545 
sí 0.4889 -0.00093707 0.041674 -0.035133 0.15015 -0.12457 -0.31609 0.011257 -0.24727 -0.43089 0.28143 0.18471 0.20015 0.32383 0.079009 -0.18455 0.24466 0.02933 0.031405 -0.15647 -0.11119 0.20979 0.33375 0.44189 -0.28961 0.26908 0.43868 -0.16735 -0.28291 -0.35839 0.29438 0.25109 0.34087 0.094122 -0.23551 0.014165 0.55985 0.11862 0.18798 0.14063 -0.049417 0.23555 -0.43924 -0.31194 -0.0026829 0.091772 -0.29467 0.37426 -0.40822 0.13893 
feliz 0.15385 0.12772 0.20118 -0.070528 0.40267 -0.56183 -0.034655 -0.0063786 -0.10593 -0.56191 0.26491 -0.053002 -0.047131 0.034702 0.10198 -0.23952 0.30766 -0.33888 -0.019061 -0.35213 -0.17011 0.14302 -0.035274 0.29396 -0.33604 0.2547 0.48663 0.00094523 -0.018416 -0.46985 0.49539 0.72371 0.46568 0.053346 -0.35257 -0.34896 0.86328 0.031472 0.47063 -0.10626 0.12277 0.42034 -0.94081 -0.55948 -0.111 0.053473 -0.36212 0.35003 -0.6979 0.48557 
tan 0.26802 -0.44539 -0.15359 -0.049954 0.26031 0.088967 -0.20953 0.0066266 -0.084702 -0.5855 0.3651 0.1565 0.19453 0.042428 0.29466 0.034669 0.03549 -0.13894 0.073782 -0.23982 -0.24465 0.10351 0.2965 0.37083 -0.21617 0.26612 0.51563 -0.12455 -0.23017 -0.36098 0.32798 0.28897 0.2908 0.21969 -0.33074 -0.20069 0.63614 0.17578 0.30175 0.16839 0.016063 0.16813 -0.64955 -0.36788 -0.048328 0.2073 -0.26258 0.38088 -0.43551 0.22657 
portada 0.12636 0.46186 0.27822 -0.35285 -0.23175 -0.17883 -0.13717 0.26461 -0.43861 -0.28772 0.13001 -0.26469 0.177 0.31918 0.16313 -0.57159 0.54799 -0.011206 -0.078072 -0.052006 -0.076972 0.29018 0.22472 0.28183 -0.57111 0.042075 0.18914 -0.060164 -0.14393 -0.3828 0.36255 0.35209 0.25518 -0.1923 -0.016837 0.28127 0.67339 0.12742 0.21009 -0.45356 0.089998 0.32052 -0.7449 -0.34372 -0.021873 -0.10365 -0.086839 0.13238 -0.49615 -0.047093 
crisis -0.23643 -0.038639 -0.094957 -0.30371 -0.12974 0.30605 -0.19073 0.2327 -0.39711 -0.40135 0.24872 -0.15973 0.077811 0.25058 0.49105 -0.25409 0.20846 0.18508 -0.27976 -0.3885 -0.36242 -0.05679 0.45045 0.45712 -0.42292 0.34668 0.11136 -0.19221 -0.22103 -0.12778 0.17905 0.10463 0.15927 0.24313 -0.28755 0.053768 0.33412 0.25946 0.16468 0.0462 -0.16541 0.20818 -0.28789 -0.22625 -0.12827 -0.023818 0.020942 0.19963 0.067822 0.0014522 
partido 0.40668 -0.47763 -0.23026 0.10949 0.17107 0.33106 -0.25664 -0.026302 -0.30019 -0.29288 0.29932 0.37598 0.15779 0.14907 -0.18937 -0.13122 0.15285 0.24024 -0.16081 -0.40415 -0.20577 0.32796 0.43149 0.5394 -0.12342 0.23753 0.62777 -0.27007 -0.45314 -0.23212 0.058965 0.11275 0.6183 0.050964 -0.17926 -0.14203 0.4592 0.17446 -0.11914 0.34875 0.056468 0.12203 -0.16046 -0.1194 -0.040772 0.26686 -0.42309 0.5119 -0.23203 0.15209 
poco 0.48238 -0.27276 -0.03988 -0.11766 0.30317 0.082042 -0.14124 0.065869 -0.30777 -0.48689 0.31769 0.18783 0.13467 0.039804 -0.027641 -0.21107 0.25566 -0.059199 -0.036745 -0.47333 -0.18761 0.35097 0.23784 0.37283 -0.10474 0.11209 0.61833 -0.13954 -0.35941 -0.32426 0.12284 0.16997 0.57844 -0.057555 -0.20163 -0.1662 0.68503 0.21098 0.024515 0.12866 0.079712 0.16596 -0.60834 -0.046403 -0.13607 0.33792 -0.32378 0.30565 -0.50346 0.011132 
siempre 0.047928 -0.10659 0.010121 0.031532 0.13061 -0.049415 -0.24133 0.026693 -0.17732 -0.38294 0.19141 0.097088 0.073457 0.16756 0.12983 -0.086466 0.18072 0.037446 -0.04634 -0.24765 -0.19196 0.070008 0.19901 0.38 -0.24544 0.32364 0.43012 -0.15379 -0.20084 -0.29955 0.27062 0.37435 0.37052 0.19023 -0.25403 -0.10807 0.47806 0.073364 0.26808 0.12908 -0.044888 0.26308 -0.41439 -0.40088 -0.042653 0.021572 -0.3352 0.39688 -0.24575 0.32073 
año 0.17098 0.0046809 0.050409 -0.21937 0.34208 -0.16347 0.011786 -0.037387 -0.23655 -0.54601 0.30935 0.053697 0.075733 -0.15684 0.065708 -0.32596 0.27733 -0.20912 -0.036029 -0.44966 -0.16351 0.30924 0.24487 0.46584 -0.12644 0.1457 0.50129 -0.15207 -0.30206 -0.41518 0.25007 0.24257 0.59423 0.010794 -0.18986 -0.18321 0.89696 0.26742 0.23089 0.15439 0.057586 0.27313 -0.83256 -0.24292 -0.1632 0.34475 -0.38373 0.41669 -0.70475 -0.0013904 
ley -0.25064 -0.13368 -0.19162 -0.26893 -0.082926 0.56703 -0.47633 0.10333 -0.30137 -0.4679 0.25092 0.2073 0.2378 0.48658 0.1062 -0.19654 0.32106 0.3738 -0.18778 -0.099957 -0.22585 -0.005154 0.43016 0.42979 -0.15346 0.28331 0.16697 -0.29162 -0.25689 -0.1708 0.046557 -0.13747 0.3179 0.18701 -0.39022 0.059525 0.57998 0.17807 0.076697 0.25478 -0.132 0.098371 -0.23996 -0.035521 -0.066933 0.021236 -0.093054 0.3304 -0.18626 -0.036446 
trabajo 0.15392 -0.11663 -0.13185 -0.3491 0.065496 0.36105 0.040634 0.19305 -0.3622 -0.41675 0.23567 -0.0014817 0.0015674 0.0056806 0.25416 -0.29663 0.1847 0.082378 -0.22589 -0.46204 -0.32946 0.15179 0.3539 0.35802 -0.17283 0.15007 0.22971 -0.13509 -0.29372 -0.14513 0.10106 0.13497 0.46992 0.16702 -0.31955 -0.14523 0.56557 0.25166 0.08286 0.16284 -0.020323 0.23698 -0.33883 -0.077568 -0.1351 0.17318 -0.18156 0.28815 -0.13691 0.07677 
via -0.31076 0.22946 0.12478 -0.054733 -0.32229 -0.066865 -0.22849 0.046145 -0.34646 -0.32134 0.24625 0.040059 0.35596 0.48626 0.037558 -0.44293 0.35541 0.076713 0.045561 0.44849 -0.014934 0.22727 0.32442 0.37936 -0.19043 0.044711 0.31837 -0.36224 -0.16598 -0.36006 0.35616 0.32216 0.21837 -0.0094801 -0.11413 0.34205 0.81975 0.11517 0.2736 -0.12984 -0.052092 0.29332 -0.5898 -0.35766 -0.033024 -0.19376 -0.27205 0.46112 -0.59216 0.077661 
vez 0.054894 0.17713 0.037973 -0.0066852 0.04717 0.052262 -0.27194 -0.025212 -0.057538 -0.29894 0.15456 0.17048 0.20582 0.34058 -0.041618 -0.16019 0.30418 0.12631 -0.0070256 0.031288 -0.046397 0.18326 0.29088 0.35527 -0.33919 0.23609 0.37392 -0.19687 -0.23038 -0.28733 0.3132 0.11388 0.34483 0.0061749 -0.26568 0.11244 0.69346 0.072497 0.16089 -0.040222 0.0099236 0.29947 -0.57107 -0.40269 0.091559 -0.10575 -0.2195 0.29851 -0.35219 0.26032 
estado 0.1531 0.03273 -0.094247 -0.35745 0.25424 0.083167 -0.14261 0.037689 -0.33926 -0.3706 0.26075 0.11991 0.037158 0.068636 -0.10917 -0.3255 0.3198 0.15481 -0.27217 -0.59376 -0.25652 0.14588 0.47879 0.58189 -0.10095 0.26173 0.30491 -0.049622 -0.16211 -0.26896 0.083768 -0.066342 0.60311 -0.036164 -0.24017 -0.17141 0.77957 0.18581 0.12672 0.095021 0.12179 0.19991 -0.40039 -0.060459 -0.1507 0.3852 -0.18792 0.38055 -0.52463 -0.047245 
espero 0.20993 -0.071921 -0.10219 -0.2485 0.2715 0.052713 -0.027721 0.085035 -0.26461 -0.52052 0.26084 0.11341 0.064379 0.049558 0.032341 -0.24872 0.29389 -0.11977 -0.067048 -0.42053 -0.12097 0.26376 0.07982 0.2979 -0.060613 0.063204 0.4447 -0.07583 -0.12489 -0.26887 0.22255 0.32777 0.5394 -0.049086 -0.3255 -0.26239 0.69466 0.14524 0.18537 -0.0064476 0.12157 0.26512 -0.68211 -0.13416 -0.11553 0.21132 -0.31008 0.20831 -0.55 0.20814 
creo 0.32635 -0.19601 -0.11083 -0.12166 0.205 0.14953 -0.12569 0.059399 -0.31228 -0.47396 0.34902 0.19108 0.14705 0.050818 -0.0028933 -0.25074 0.23847 0.067758 -0.13072 -0.36868 -0.22474 0.26142 0.32228 0.47711 0.0034494 0.16211 0.50789 -0.23477 -0.38406 -0.27789 0.12074 0.077352 0.57724 0.086935 -0.25508 -0.15971 0.74527 0.205 0.051843 0.28642 0.003633 0.2081 -0.38735 -0.047875 -0.11291 0.28448 -0.35456 0.40771 -0.38675 0.011842 
parece 0.039496 -0.042959 -0.083529 -0.056785 0.01068 0.19216 -0.3424 0.12267 -0.18028 -0.33014 0.10235 0.17495 0.21364 0.34362 -0.015374 -0.16697 0.34953 0.091303 0.061871 -0.12208 -0.0023073 0.26073 0.29044 0.31931 -0.40716 0.17325 0.40638 -0.13601 -0.22076 -0.28431 0.21563 0.18284 0.33328 -0.051359 -0.17299 0.08869 0.46644 0.054857 0.047656 -0.04595 0.10834 0.16527 -0.41669 -0.3225 0.12705 0.006302 -0.2687 0.20382 -0.2769 0.21814 
quiero 0.3577 -0.21603 -0.063475 0.093622 0.092227 0.1378 -0.10669 0.080789 -0.38955 -0.35097 0.14477 0.20535 0.11235 0.16963 -0.063592 -0.22228 0.2431 0.01309 -0.096295 -0.23753 -0.17384 0.3673 -0.14146 0.23579 -0.10768 0.013995 0.59404 -0.23432 -0.26583 -0.18717 0.12989 0.63608 0.52039 0.028144 -0.22772 -0.19445 0.3797 0.087903 0.053315 0.18613 0.050224 0.22929 -0.29597 -0.16207 -0.037987 0.075515 -0.5 0.33893 -0.16505 0.34223 
quien 0.37236 -0.24107 -0.11091 0.17462 -0.17925 0.2099 -0.36794 0.27171 -0.43285 -0.23094 0.085646 0.20964 0.30788 0.44005 0.037887 -0.14488 0.25719 0.24202 -0.11408 0.032745 -0.21106 0.28163 -0.1302 0.16401 -0.21784 0.036133 0.57235 -0.23079 -0.25234 -0.1543 0.17085 0.66025 0.3337 0.12342 -0.23995 -0.051156 0.21755 -0.038189 0.05454 0.14343 0.0047206 0.20154 0.11882 -0.2334 0.13507 -0.12639 -0.44331 0.29461 0.17866 0.45207 
mundo 0.042224 -0.0045624 0.0070552 -0.3336 0.17265 -0.031674 -0.063095 0.053448 -0.3688 -0.46671 0.26758 -0.0029813 0.05443 -0.064654 -0.0027944 -0.4445 0.33839 -0.026917 -0.15026 -0.51607 -0.21259 0.23002 0.27677 0.43793 -0.15085 0.10098 0.33822 -0.043644 -0.22617 -0.39554 0.1599 0.18905 0.61839 -0.049405 -0.11077 -0.1516 0.81769 0.25335 0.20457 0.017993 0.092484 0.21351 -0.59222 -0.13987 -0.21095 0.35304 -0.28838 0.29298 -0.63842 -0.13036 
presidente -0.19296 0.071402 -0.0090813 -0.17949 0.0066794 0.08599 -0.52502 0.19974 -0.30289 -0.37669 0.13113 0.16099 0.23503 0.3647 -0.035565 -0.23643 0.46244 0.24058 -0.082547 -0.39595 -0.08209 0.087824 0.32782 0.42674 -0.35977 0.2994 0.31238 -0.13445 -0.22323 -0.28787 0.10375 -0.071541 0.33476 -0.068397 -0.11672 0.17372 0.55478 0.11793 0.063572 -0.037449 0.015308 0.17665 -0.36392 -0.19459 0.027846 0.0078317 -0.23491 0.15922 -0.27279 -0.097827 
ir 0.30552 -0.30392 -0.12248 -0.090957 0.39052 -0.016558 -0.34677 0.29845 -0.14173 -0.38835 0.22968 0.25883 0.091056 0.49788 0.17584 0.019475 0.25433 -0.073834 0.15736 -0.24856 -0.11022 0.31626 0.52746 0.2039 -0.38124 0.1974 0.49626 -0.092326 -0.33072 -0.27164 0.35312 0.37014 0.23797 0.093291 -0.40934 -0.27779 0.43959 -0.044214 -0.022717 0.098097 0.141 0.2007 -0.42155 -0.073272 0.21294 0.20322 -0.273 0.37336 -0.22207 0.42539 
país -0.061185 -0.037038 -0.016183 -0.16678 0.17052 -0.0073037 -0.29987 0.042412 -0.26581 -0.47803 0.31411 0.028995 0.13109 0.34128 0.28313 -0.18929 0.29541 0.06901 -0.075088 -0.32138 -0.20192 0.067598 0.50263 0.45193 -0.4744 0.42394 0.24741 -0.22848 -0.2197 -0.22077 0.25414 0.025489 0.14757 0.088747 -0.29754 0.082573 0.49819 0.27277 0.13265 0.077088 -0.054306 0.16491 -0.61318 -0.24624 -0.040797 0.067516 -0.033473 0.27392 -0.27172 -0.020582 
verdad 0.3393 -0.33636 -0.1406 -0.019407 0.054482 0.21073 -0.1985 0.12703 -0.23165 -0.4557 0.25577 0.15821 0.1605 0.26316 0.046832 -0.16052 0.26076 -0.04193 0.049076 -0.13101 -0.087009 0.21989 0.21786 0.22763 -0.19569 0.018462 0.41906 -0.16285 -0.14318 -0.32504 0.27135 0.45261 0.34615 0.10514 -0.26232 -0.16595 0.48149 -0.014182 0.095307 -0.019353 0.036897 0.2258 -0.36375 -0.28761 0.020517 0.024086 -0.33263 0.30984 -0.27983 0.36066 
otro 0.14922 0.032093 -0.014443 -0.24692 0.26992 -0.029899 -0.064748 0.098757 -0.35397 -0.52679 0.32246 0.14236 0.11789 0.024046 0.0038394 -0.35592 0.29053 -0.046457 -0.11565 -0.43508 -0.18241 0.33423 0.22853 0.45127 -0.015663 0.14831 0.53481 -0.17162 -0.32142 -0.30206 0.144 0.11118 0.60389 -0.031777 -0.26473 -0.13003 0.82627 0.25706 0.099165 0.20252 0.045174 0.23324 -0.53597 -0.038351 -0.12552 0.34511 -0.34961 0.32296 -0.52097 -0.057967 
millones 0.076138 0.16172 -0.081361 -0.4638 -0.048362 0.42974 0.030605 0.16826 -0.30033 -0.46634 0.16033 -0.22841 0.007089 0.13298 0.62679 -0.31208 0.21949 0.23057 -0.32438 -0.32436 -0.49142 -0.11567 0.65382 0.42243 -0.38956 0.48478 -0.12686 -0.28667 -0.29679 -0.022028 0.12652 -0.20647 0.22522 0.30821 -0.50422 0.13378 0.62096 0.38562 0.22409 0.11864 -0.2076 0.31798 -0.51613 -0.24512 -0.23386 0.03454 0.16222 0.27003 0.053283 -0.04188 
buenas 0.13577 0.067654 0.17634 -0.26804 0.24478 -0.40824 -0.036169 -0.00075056 -0.26376 -0.6581 0.35256 -0.29144 -0.096304 0.069869 0.48065 -0.35693 0.24787 -0.27211 -0.094301 -0.35838 -0.28426 -0.13642 0.28065 0.45634 -0.40378 0.40951 0.090037 -0.10907 0.066516 -0.38241 0.47823 0.50783 0.12538 0.22269 -0.21479 -0.19927 0.72098 0.25166 0.62032 -0.01189 -0.088866 0.31052 -1.0557 -0.45175 -0.22756 0.075194 -0.066608 0.45381 -0.68064 0.09719 
@ -0.073694 0.39015 0.13535 -0.33356 0.055941 -0.073755 -0.20079 0.03791 -0.071661 -0.48327 0.16567 -0.053542 0.18528 0.2246 0.17965 -0.36012 0.37868 0.0080495 -0.023429 -0.070638 -0.16468 0.096552 0.47096 0.41778 -0.40113 0.32515 0.16841 -0.1554 -0.173 -0.36001 0.34337 -0.072964 0.29768 -0.028085 -0.25538 0.14655 1.0036 0.20437 0.36615 -0.11269 -0.032799 0.29507 -0.87956 -0.3845 -0.043398 0.065486 -0.068391 0.28142 -0.60894 -0.041327 
#sumatealcambio -0.20646 -0.29662 -0.28088 0.0096776 -0.078413 0.71968 -0.020555 0.043528 -0.24674 -0.12824 0.23006 0.12413 0.02923 -0.015821 0.35365 0.027437 -0.0013462 0.46013 -0.47926 -0.47146 -0.44712 0.061889 0.59574 0.48607 -0.29767 0.40634 0.29748 -0.32672 -0.5602 0.030965 0.040715 0.0039713 0.44395 0.44783 -0.43998 -0.11182 0.20489 0.28478 -0.07754 0.42671 -0.1912 0.36393 0.085214 -0.23507 -0.038168 -0.063357 -0.23457 0.42431 0.59491 0.44004 
#cadavotovale 0.1503 -0.35593 -0.13709 0.29151 -0.13975 0.57516 -0.42627 -0.0723 -0.1002 -0.086803 0.10467 0.34862 0.21575 0.31468 -0.029536 0.092367 0.087547 0.49661 -0.2602 -0.19116 -0.26214 0.06458 0.40981 0.45085 -0.31348 0.38533 0.51114 -0.32811 -0.49104 -0.15264 0.085666 0.0046362 0.44905 0.24397 -0.30254 0.10778 0.30232 0.096332 -0.041247 0.2616 -0.13903 0.26966 -0.015223 -0.41992 0.041331 -0.19444 -0.30753 0.40759 0.25882 0.42464 
reforma -0.3955 0.28429 0.08937 0.019437 -0.20488 0.25824 -0.56836 -0.041944 -0.31323 -0.16098 0.15743 0.30418 0.40663 0.60987 -0.12521 -0.24774 0.47298 0.59736 -0.26412 -0.028739 -0.18166 0.028301 0.4562 0.54965 -0.40827 0.35042 0.20501 -0.4199 -0.37895 -0.14168 0.045247 -0.27818 0.31546 0.069602 -0.31687 0.4655 0.51788 0.1976 -0.051651 0.15712 -0.10507 0.22081 -0.21445 -0.1838 0.016656 -0.29486 -0.10512 0.25659 -0.0052891 -0.063594 
están 0.34092 -0.13135 -0.064635 -0.019861 0.038516 0.05942 -0.2405 0.044394 -0.12197 -0.34467 0.1987 0.14588 0.20809 0.14956 0.15641 -0.03511 0.15722 0.1053 -0.090804 -0.11785 -0.23232 0.037655 0.24903 0.36201 -0.16682 0.28144 0.41493 -0.15951 -0.20456 -0.28474 0.28838 0.21481 0.3558 0.19971 -0.31996 -0.078266 0.59843 0.079658 0.28213 0.076561 -0.048041 0.26178 -0.38085 -0.39922 0.00099389 -0.0041358 -0.25295 0.36091 -0.21594 0.32221 
h 0.16197 0.26073 0.10832 -0.21467 0.080382 -0.12268 -0.32322 -0.021201 -0.050307 -0.5052 0.25708 0.060195 0.2983 0.24922 0.19371 -0.20777 0.26707 -0.010441 0.062219 -0.019866 -0.15929 0.044281 0.4195 0.47678 -0.32967 0.35435 0.32104 -0.27015 -0.26132 -0.4609 0.33057 0.004097 0.28742 0.12266 -0.24332 0.17089 0.89923 0.18153 0.33052 0.0968 -0.070378 0.21903 -0.7366 -0.38919 -0.0059595 0.071767 -0.19371 0.41321 -0.60022 -0.1378 
vida 0.23831 0.092784 0.048477 0.070841 -0.091007 -0.23782 -0.21369 0.095074 -0.33769 -0.37463 0.34227 0.07051 0.25072 0.48588 -0.013334 -0.30379 0.31711 0.0033537 0.089166 0.3428 -0.04754 0.26683 0.1641 0.34501 -0.023119 0.081536 0.53572 -0.34331 -0.13719 -0.33333 0.3787 0.58068 0.30626 0.083746 -0.20292 0.053082 0.72926 -0.0092002 0.2187 0.051529 0.0077383 0.2894 -0.44791 -0.26856 -0.0075952 -0.1012 -0.4191 0.5707 -0.5469 0.28254 
será -0.061089 0.069103 -0.042597 -0.048818 0.057625 0.19047 -0.43571 -0.056518 -0.15109 -0.37559 0.19375 0.25854 0.25702 0.43849 -0.048808 -0.1079 0.30572 0.22298 -0.033842 -0.10347 -0.060093 0.11371 0.3377 0.41517 -0.33311 0.27628 0.31341 -0.19091 -0.25463 -0.29862 0.19422 -0.017062 0.32673 0.045017 -0.27263 0.096437 0.56193 0.11112 0.10304 0.10164 -0.032177 0.20793 -0.42884 -0.25679 0.032414 -0.049955 -0.1906 0.26863 -0.32001 0.096025 
domingo 0.37995 -0.12539 -0.19675 -0.1254 0.051403 0.33525 -0.13878 0.068423 -0.25028 -0.40504 0.28299 0.14742 0.11147 0.16484 0.06046 -0.16662 0.2192 0.13243 -0.13633 -0.21651 -0.18451 0.21778 0.34793 0.39675 -0.094374 0.17303 0.40781 -0.24385 -0.2757 -0.197 0.15309 0.18006 0.46486 0.11807 -0.28453 -0.1356 0.62302 0.1635 0.058974 0.2294 0.018889 0.21646 -0.36234 -0.13659 -0.055723 0.12331 -0.29842 0.41904 -0.26715 0.189 
mismo 0.49877 -0.13888 -0.0064629 -0.12029 0.094106 0.25354 -0.14086 -0.031468 -0.26586 -0.41465 0.21827 0.18733 0.167 0.031613 0.0033818 -0.26924 0.25935 0.1138 -0.1675 -0.30318 -0.2225 0.21812 0.31285 0.44564 -0.12932 0.16054 0.39105 -0.25117 -0.40466 -0.25552 0.078142 -0.01165 0.5484 0.067354 -0.23553 0.049469 0.69154 0.28009 0.074133 0.14447 -0.059469 0.20681 -0.52309 -0.17415 -0.15257 0.16437 -0.23359 0.28774 -0.349 -0.024309 
política -0.18241 -0.010428 -0.084476 -0.07269 -0.26318 0.4911 -0.2198 0.14391 -0.30567 -0.18744 0.11861 0.08373 0.22788 0.39948 0.15274 -0.18947 0.27923 0.3376 -0.23099 -0.078296 -0.25756 0.11543 0.34161 0.31595 -0.3412 0.12787 0.23514 -0.26025 -0.27681 -0.089502 0.12121 0.064319 0.27887 0.049234 -0.24115 0.17171 0.40792 0.15812 0.0077576 -0.062345 -0.039861 0.27653 -0.27762 -0.23984 -0.06014 -0.22273 -0.076303 0.21914 0.044523 0.26083 
hemos 0.16635 -0.22424 -0.24282 -0.25974 0.17641 0.080603 -0.21413 0.30706 -0.37766 -0.62862 0.59013 -0.098617 0.0014187 0.37371 0.63369 -0.036295 -0.0010294 -0.089081 -0.12246 -0.65511 -0.36811 0.049991 0.52923 0.54463 -0.376 0.43793 0.3485 -0.18201 -0.092768 -0.17104 0.19247 0.2717 0.0039435 0.20174 -0.44473 -0.12011 0.23547 0.28154 0.10867 0.15452 -0.11376 0.12924 -0.33035 -0.19808 -0.14032 0.13761 0.02029 0.17461 -0.12781 -0.019528 
mal 0.45563 -0.012345 0.041248 -0.13908 -0.098787 0.083443 -0.20394 0.10452 -0.26402 -0.53874 0.22555 0.094257 0.29865 0.19792 0.021335 -0.30492 0.36737 -0.046027 0.1434 0.31283 -0.093661 0.24119 0.069079 0.32058 -0.056887 0.011282 0.40272 -0.25377 -0.27511 -0.4703 0.30495 0.21764 0.50027 0.10119 -0.20487 0.16264 0.86234 0.11267 0.3106 0.036517 -0.081181 0.24247 -0.58088 -0.27734 -0.059024 0.021895 -0.35496 0.2837 -0.64706 0.029289 
campaña -0.33226 0.13908 0.12078 0.2088 -0.14777 -0.0070026 -0.33743 -0.018529 -0.21102 -0.06776 0.20409 0.2012 0.32324 0.34138 -0.080597 -0.19602 0.22397 0.38521 -0.22927 -0.035312 -0.20391 0.13966 0.27644 0.49021 -0.30064 0.28455 0.50493 -0.32643 -0.43396 -0.27421 0.20522 0.092038 0.46482 0.11813 -0.1964 0.22875 0.54701 0.14819 0.04015 0.096908 -0.091318 0.35764 -0.21508 -0.36461 0.012204 -0.2296 -0.29118 0.38379 -0.044579 0.22736 
sido 0.4331 -0.34907 -0.11556 -0.16345 0.41005 0.083433 -0.087097 -0.17168 -0.31013 -0.53652 0.37985 0.19004 -0.024113 -0.13151 -0.091924 -0.28564 0.1403 0.015902 -0.18603 -0.67169 -0.27102 0.16889 0.41576 0.60822 -0.022599 0.24976 0.41495 -0.089924 -0.28518 -0.35757 0.077682 0.092729 0.65036 0.050048 -0.14627 -0.32595 0.70975 0.29687 0.17982 0.31224 0.056241 0.1177 -0.55292 -0.10561 -0.30091 0.54139 -0.32518 0.5185 -0.70851 -0.10199 
claro -0.13722 -0.091835 -0.097061 -0.2785 0.12937 0.23294 -0.16592 0.11793 -0.39106 -0.52028 0.28046 0.14448 0.14848 0.15161 0.051341 -0.33377 0.30093 0.070336 -0.13779 -0.3769 -0.18957 0.24817 0.28022 0.43186 -0.08794 0.12631 0.38268 -0.15653 -0.31042 -0.26421 0.10664 0.041633 0.52219 0.011275 -0.23687 -0.097155 0.6865 0.22563 0.062409 0.15868 0.0071391 0.18302 -0.44942 -0.0079417 -0.10927 0.28074 -0.2583 0.27862 -0.39531 -0.040865 
da 0.20811 0.44458 0.16847 -0.039937 -0.27016 -0.26375 -0.31128 0.14385 -0.36685 -0.28754 0.30998 0.05564 0.41951 0.70099 -0.056231 -0.43474 0.40395 0.18952 0.092603 0.68489 -0.032612 0.28727 0.45237 0.49668 -0.06675 0.12265 0.46943 -0.45656 -0.19895 -0.33472 0.35854 0.29697 0.29942 0.009292 -0.16676 0.41225 0.95752 0.044423 0.15959 0.056181 -0.032241 0.23329 -0.46457 -0.20842 0.018512 -0.13446 -0.32118 0.6925 -0.68421 0.019431 
sea 0.084973 0.15308 0.043513 0.17775 -0.14935 0.013946 -0.19884 0.0052183 -0.25861 -0.23622 0.28714 0.26064 0.37251 0.50133 -0.013641 -0.1852 0.17624 0.19695 0.088739 0.4248 -0.088429 0.30104 0.41601 0.4823 -0.12363 0.17203 0.55636 -0.43004 -0.33168 -0.2995 0.33229 0.25373 0.37694 0.11011 -0.23921 0.26892 0.73375 0.12328 0.081858 0.15713 -0.039348 0.33494 -0.41808 -0.35543 0.014409 -0.16318 -0.37312 0.54746 -0.41898 0.24912 
iu 0.43721 -0.15118 -0.10777 0.10535 -0.069786 0.26463 -0.63662 0.038718 -0.29278 -0.31739 0.31627 0.42649 0.49327 0.57664 -0.022625 -0.076769 0.31632 0.45444 -0.10106 0.073589 -0.16187 0.20688 0.70241 0.64022 -0.26004 0.40988 0.51932 -0.45122 -0.60884 -0.26331 0.18357 -0.27397 0.35694 0.18425 -0.31232 0.31239 0.55005 0.18379 -0.078271 0.47715 -0.15474 0.1286 -0.020599 -0.18133 0.14092 0.038581 -0.33939 0.5068 -0.046397 -0.016502 
#votapp -0.21752 -0.37874 -0.34047 0.027447 -0.24069 0.84229 -0.11367 0.20289 -0.34666 -0.076556 0.19758 0.14559 0.12653 0.17905 0.38227 0.014965 -0.025988 0.54623 -0.39644 -0.21681 -0.43265 0.14953 0.71214 0.50982 -0.29019 0.39125 0.37378 -0.35957 -0.5706 0.0511 0.11191 0.016869 0.41983 0.45727 -0.44621 -0.009892 0.16756 0.20516 -0.12246 0.42596 -0.18231 0.33364 0.27292 -0.26131 0.079519 -0.0518 -0.25295 0.4947 0.64244 0.49456 
buen 0.22674 -0.23347 0.012951 -0.14147 0.12359 -0.12762 -0.029941 0.093252 -0.21701 -0.55405 0.27866 -0.11753 0.10727 -0.029972 0.41809 -0.19281 0.1435 -0.22454 -0.010021 -0.26919 -0.25237 0.12776 0.16228 0.263 -0.32993 0.14146 0.37084 -0.077064 -0.12905 -0.39922 0.40413 0.57621 0.29162 0.15939 -0.22001 -0.21208 0.63228 0.22572 0.42189 -0.025529 0.0131 0.29065 -0.75583 -0.43994 -0.097053 0.10217 -0.26619 0.30217 -0.44412 0.27657 
decir 0.40178 -0.10803 -0.088714 -0.2247 0.11936 0.25593 -0.49442 0.29417 -0.23203 -0.29498 0.1095 0.19667 0.12601 0.56029 0.0061162 -0.15036 0.34277 0.2207 -0.078991 -0.28763 -0.10862 0.18876 0.45708 0.25909 -0.40765 0.17322 0.30903 -0.042544 -0.25131 -0.19806 0.15787 0.13594 0.30572 0.0089102 -0.32286 -0.06209 0.41039 -0.028521 -0.079707 0.010946 0.096517 0.11031 -0.19777 0.0015032 0.15088 0.096384 -0.13374 0.22543 -0.074806 0.19638 
cambio -0.5286 -0.2087 -0.17913 -0.071269 0.021177 0.5333 0.087734 -0.051635 -0.18584 -0.26096 0.21206 0.10955 0.085301 -0.1804 0.23935 -0.14044 0.088801 0.17205 -0.30066 -0.45949 -0.298 0.21799 0.48934 0.46559 -0.31875 0.21758 0.30514 -0.23241 -0.4792 -0.15021 0.096673 -0.021556 0.48875 0.18739 -0.26144 -0.10101 0.48844 0.35097 -0.0023446 0.15486 -0.044878 0.35462 -0.42187 -0.26847 -0.063945 0.06417 -0.23841 0.29893 0.0921 0.27234 
andalucía -0.74752 0.07819 -0.075378 -0.19139 -0.23099 0.39527 -0.35225 0.026586 -0.29993 -0.36718 0.16657 0.10459 0.26003 0.43936 0.096749 -0.28317 0.38508 0.29746 -0.17848 0.025935 -0.1188 0.0053145 0.36273 0.42136 -0.35022 0.21657 0.059992 -0.26304 -0.15038 -0.22313 0.17423 0.023434 0.20132 0.086443 -0.14324 0.22923 0.5512 0.16544 0.1651 0.040658 -0.067624 0.21458 -0.4657 -0.25 -0.068212 -0.20054 -0.11727 0.29631 -0.27859 0.058553 
ayer -0.0027326 -0.078555 0.0043294 -0.27641 0.28413 -0.090133 -0.40908 0.28345 -0.19647 -0.4573 0.16455 0.10126 0.086516 0.46403 0.13941 -0.17465 0.38306 -0.07162 0.07549 -0.3533 -0.078788 0.20867 0.33621 0.18241 -0.4531 0.19552 0.31573 0.023682 -0.17992 -0.33677 0.32086 0.28284 0.24089 -0.014279 -0.30059 -0.18426 0.51696 -0.040255 0.10673 -0.065315 0.095736 0.18941 -0.52832 -0.10764 0.13155 0.17486 -0.17472 0.21463 -0.36138 0.20838 
sólo 0.25118 -0.092531 -0.10145 -0.19214 0.17124 0.31073 -0.16139 -0.036221 -0.27504 -0.45137 0.27078 0.20798 0.14522 0.098276 0.034455 -0.21875 0.25151 0.1345 -0.16381 -0.37002 -0.20771 0.19552 0.36651 0.45887 -0.12224 0.1763 0.35906 -0.21869 -0.3676 -0.23708 0.077996 -0.0037489 0.52015 0.053499 -0.28142 -0.084215 0.66331 0.2705 0.051405 0.24667 -0.019404 0.19886 -0.46399 -0.082193 -0.14829 0.22817 -0.25284 0.32455 -0.35888 -0.0054074 
programa -0.011561 -0.027719 -0.11398 -0.04376 -0.1366 0.35638 -0.21882 0.09767 -0.26686 -0.24394 0.18751 0.12051 0.23576 0.35647 0.12674 -0.16211 0.2622 0.2759 -0.15599 -0.05109 -0.1884 0.15483 0.44546 0.39587 -0.30087 0.23053 0.32092 -0.30759 -0.29012 -0.11997 0.19194 0.02101 0.29832 0.079189 -0.26994 0.15865 0.48886 0.17677 -0.0035099 0.033754 -0.001066 0.25477 -0.384 -0.22557 -0.0048277 -0.11737 -0.13231 0.29326 -0.072323 0.2021 
gusta 0.31203 0.057805 0.075616 0.11007 -0.11512 -0.073784 -0.18786 0.00032933 -0.25778 -0.2718 0.23552 0.12192 0.22754 0.40013 -0.0017415 -0.24129 0.22169 0.11451 0.034408 0.29572 -0.13043 0.19423 0.2439 0.39633 -0.12589 0.16265 0.4675 -0.3241 -0.1845 -0.26846 0.3674 0.44465 0.31127 0.08894 -0.1733 0.10335 0.69037 0.065696 0.21705 0.040629 -0.021853 0.32012 -0.49886 -0.35282 -0.019227 -0.16191 -0.37486 0.52756 -0.45465 0.3148 
tiempo 0.46223 -0.23763 -0.087891 -0.13313 0.17647 0.047225 -0.21591 0.084428 -0.35872 -0.53204 0.32318 0.151 0.11398 0.14984 0.008295 -0.25142 0.2886 -0.066066 -0.0077637 -0.33738 -0.10232 0.27612 0.15038 0.37482 -0.11478 0.08782 0.48812 -0.11987 -0.25654 -0.37202 0.21713 0.39818 0.46778 0.076335 -0.1642 -0.20671 0.56655 0.11414 0.15741 0.15305 0.066284 0.17588 -0.47218 -0.13952 -0.063261 0.2311 -0.39932 0.38771 -0.48121 0.1239 
#nomeolvido 0.2221 -0.35004 -0.27838 -0.088309 -0.11554 0.80038 -0.16441 0.085442 -0.36271 -0.16373 0.2069 0.14258 0.0521 0.089965 0.17299 -0.11414 0.05418 0.55549 -0.53671 -0.49163 -0.51156 0.0097799 0.49712 0.51479 -0.10631 0.33886 0.30322 -0.29195 -0.50362 -0.00028649 -0.065953 -0.090124 0.57506 0.31189 -0.38785 -0.11349 0.32025 0.2536 -0.047213 0.41755 -0.17217 0.24616 0.14833 -0.082109 -0.17653 0.077398 -0.17776 0.41739 0.33256 0.21365 
muchas -0.025392 -0.26845 0.012004 -0.1304 0.26325 -0.22638 -0.19251 0.035563 -0.28166 -0.67497 0.39974 -0.077896 -0.028925 0.15305 0.40623 -0.15757 0.16751 -0.15174 -0.090488 -0.3629 -0.3439 -0.13616 0.22884 0.46957 -0.17203 0.42678 0.28417 -0.14462 -0.018481 -0.31324 0.36969 0.46319 0.18684 0.30516 -0.27298 -0.26498 0.57158 0.13681 0.46692 0.15733 -0.1464 0.19148 -0.67297 -0.28671 -0.22455 0.12792 -0.15145 0.47972 -0.49612 0.12901 
tanto 0.54852 -0.17025 0.018256 -0.076516 0.40697 -0.062804 -0.24969 -0.12542 -0.20557 -0.57796 0.32618 0.30996 0.084052 0.13925 -0.2295 -0.24264 0.31273 -0.072943 0.0040017 -0.4289 -0.11374 0.27207 0.09161 0.38933 -0.052489 0.15794 0.58713 -0.13449 -0.28847 -0.39304 0.1317 0.15274 0.63081 -0.03102 -0.2694 -0.18771 0.82494 0.15453 0.13033 0.21171 0.067005 0.16516 -0.67791 -0.098287 -0.12516 0.31145 -0.37133 0.35394 -0.70357 0.0092161 
tener 0.35032 -0.22614 -0.16268 -0.15792 0.16578 0.28139 -0.39177 0.25302 -0.15697 -0.39325 0.15189 0.1786 0.090778 0.51552 0.11285 -0.043945 0.29045 0.058566 0.040972 -0.2612 -0.12194 0.17272 0.26536 0.13754 -0.35925 0.13865 0.32701 -0.05634 -0.17951 -0.2141 0.2328 0.30363 0.24684 0.050379 -0.38248 -0.21476 0.37736 -0.054943 0.041279 -0.013439 0.11255 0.19028 -0.38423 -0.090623 0.13602 0.035973 -0.15469 0.20955 -0.15645 0.39723 
casa -0.2903 0.017712 0.010914 0.17049 -0.18949 0.010095 -0.19393 -0.058039 -0.18938 -0.28912 0.23425 0.14495 0.337 0.37269 -0.043063 -0.24276 0.27537 0.1314 0.060433 0.37902 -0.093376 0.21507 0.13451 0.37258 -0.12928 0.067164 0.47676 -0.37912 -0.19857 -0.33599 0.36571 0.38628 0.37969 0.070613 -0.15555 0.15749 0.76008 0.086917 0.17309 0.011287 0.015364 0.31833 -0.57806 -0.36011 -0.023785 -0.26629 -0.38652 0.48727 -0.47943 0.31291 
derechos 0.054016 -0.55042 -0.3733 -0.22417 0.0019322 0.62636 -0.14499 0.29687 -0.46026 -0.46424 0.46407 -0.0094593 0.020081 0.28756 0.62207 -0.035987 -0.037477 0.23158 -0.33812 -0.55598 -0.53589 0.051115 0.75997 0.55836 -0.2829 0.40551 0.31483 -0.309 -0.34286 -0.0086888 0.078393 0.11722 0.20481 0.3926 -0.50295 -0.1172 0.17952 0.31826 -0.053921 0.36989 -0.21677 0.12864 -0.0065328 -0.075075 -0.16584 0.14657 -0.042493 0.37446 0.29047 0.12771 
estamos 0.20748 -0.064069 -0.20822 -0.2274 0.19022 0.0090233 -0.23243 0.22799 -0.28302 -0.54857 0.46893 -0.0043463 0.028755 0.39935 0.40728 -0.038341 0.11428 -0.032098 -0.10726 -0.47801 -0.27905 0.046906 0.4354 0.49752 -0.27232 0.40832 0.34552 -0.16414 -0.042163 -0.17783 0.20625 0.24382 0.10578 0.13547 -0.47709 -0.16617 0.39591 0.153 0.16689 0.12572 -0.038101 0.19707 -0.34715 -0.21917 -0.076548 0.066558 -0.035316 0.21555 -0.21236 0.15423 
hecho 0.2837 -0.18279 -0.03229 -0.32739 0.2441 0.00090465 -0.16011 0.11587 -0.447 -0.56654 0.34506 0.034712 0.042354 0.056678 0.1364 -0.32118 0.29272 -0.042599 -0.16891 -0.64606 -0.2703 0.16975 0.1869 0.40899 -0.13043 0.15768 0.37338 -0.063685 -0.22697 -0.31446 0.1275 0.30435 0.47692 0.08304 -0.20337 -0.24436 0.55271 0.20249 0.17424 0.15584 -0.0098625 0.13613 -0.43248 0.0049183 -0.20277 0.35211 -0.28454 0.29101 -0.42013 -0.08192 
semana 0.04101 0.37717 0.19401 -0.063511 -0.16346 -0.15061 -0.16144 0.029418 -0.23159 -0.24601 0.12563 -0.036248 0.21139 0.35588 0.074614 -0.35498 0.33062 0.065353 -0.008996 0.14802 -0.071553 0.18095 0.22099 0.33224 -0.42988 0.13782 0.25923 -0.18578 -0.15293 -0.34833 0.37263 0.3738 0.3048 -0.015309 -0.15736 0.2306 0.67685 0.11981 0.2606 -0.2014 0.033264 0.37803 -0.64351 -0.46871 -0.029427 -0.23729 -0.22576 0.27695 -0.45221 0.21146 
foto 0.3564 -0.074587 0.089209 -0.27395 0.28014 -0.1395 -0.041472 -0.0061671 -0.3305 -0.56748 0.22624 0.078552 0.057917 -0.126 -0.027728 -0.42973 0.37807 -0.285 0.031203 -0.47663 -0.03361 0.45158 0.12352 0.36327 -0.26274 -0.025436 0.4865 -0.0069618 -0.26398 -0.50677 0.25327 0.27067 0.61077 -0.16606 -0.041624 -0.10158 0.80167 0.25974 0.17651 -0.1193 0.13072 0.23485 -0.95464 -0.22625 -0.096822 0.38224 -0.36565 0.19484 -0.78772 -0.070363 
primera -0.169 0.22759 0.033968 0.074069 -0.20764 0.072085 -0.4159 0.020668 -0.27081 -0.2512 0.14021 0.2125 0.40715 0.56911 -0.19501 -0.30659 0.48441 0.23841 -0.018889 0.19942 0.070969 0.23044 0.13203 0.32403 -0.35075 0.099278 0.39384 -0.36857 -0.16911 -0.27555 0.25794 0.1667 0.27978 -0.12638 -0.11641 0.36637 0.60978 0.14235 0.007421 -0.12531 0.10065 0.23487 -0.55525 -0.26487 0.031564 -0.32162 -0.25197 0.22922 -0.394 0.073327 
tenemos 0.12392 -0.26499 -0.22863 -0.17015 0.13858 0.18066 -0.30785 0.21134 -0.3334 -0.58776 0.50184 0.023894 0.048475 0.42274 0.43965 -0.036069 0.069873 -0.023836 -0.086959 -0.53456 -0.27172 0.070365 0.41067 0.47177 -0.37682 0.35467 0.35239 -0.1724 -0.12957 -0.19713 0.16657 0.27214 0.063482 0.17206 -0.39743 -0.10579 0.23595 0.22789 0.091534 0.15297 -0.067327 0.12668 -0.34351 -0.20322 -0.093106 0.073502 -0.039155 0.18172 -0.15318 0.061242 
buena 0.17714 0.28265 0.2656 -0.14691 -0.045857 -0.40831 -0.1404 -0.019337 -0.27886 -0.50715 0.24639 -0.13613 0.1487 0.3002 0.0905 -0.47595 0.37467 -0.16413 0.070046 0.11908 -0.037453 0.14218 0.057552 0.3349 -0.36264 0.10865 0.24861 -0.14772 -0.02328 -0.5054 0.46893 0.601 0.28916 -0.02391 -0.071817 0.085718 0.84537 0.16542 0.49851 -0.1892 0.040651 0.32628 -0.97318 -0.47371 -0.14891 -0.10264 -0.26086 0.37192 -0.89642 0.096846 
cont 0.088824 0.086129 0.067108 -0.11504 0.11571 -0.18293 -0.15404 0.042257 -0.11406 -0.45262 0.18444 0.026016 0.15362 0.18077 0.029906 -0.3345 0.30918 -0.11843 0.060157 -0.13706 -0.058852 0.22626 0.1534 0.42123 -0.33324 0.12416 0.34833 -0.10602 -0.15059 -0.39345 0.29864 0.27271 0.38054 -0.04551 -0.18069 -0.041339 0.84583 0.099169 0.28082 -0.11107 0.097063 0.31964 -0.75566 -0.4179 -0.011032 0.015014 -0.23783 0.22441 -0.66622 0.15904 
noches 0.26875 -0.029409 0.18339 -0.21899 0.28751 -0.44429 0.10955 0.024745 -0.25351 -0.63163 0.26846 -0.32004 -0.18353 -0.051488 0.52463 -0.34123 0.1857 -0.40929 -0.033425 -0.44325 -0.29799 -0.0071387 0.18794 0.28161 -0.49637 0.3664 0.18688 -0.046801 -0.029772 -0.40648 0.53385 0.68548 0.22553 0.20738 -0.25354 -0.26185 0.60937 0.24177 0.58012 -0.14273 -0.018147 0.37017 -1.0763 -0.5738 -0.25136 0.10299 -0.16452 0.39322 -0.58358 0.24926 
después 0.059686 -0.1792 0.031626 0.021026 0.1097 -0.077386 -0.17412 0.060464 -0.2056 -0.37654 0.24274 -0.00721 0.033205 0.20973 0.28735 -0.12908 0.083984 0.047094 -0.12941 -0.25514 -0.298 0.0078554 0.37769 0.43179 -0.31456 0.39197 0.41198 -0.20926 -0.18827 -0.22886 0.292 0.36666 0.27663 0.25344 -0.31575 -0.051263 0.45284 0.14191 0.24746 0.093799 -0.093872 0.23961 -0.4494 -0.39169 -0.078199 4.0701e-06 -0.21403 0.45136 -0.16139 0.24682 
era -0.014915 0.38446 0.13372 0.12851 -0.35171 -0.12252 -0.28785 0.080665 -0.35123 -0.16472 0.12216 0.15166 0.47684 0.58778 -0.17984 -0.38605 0.38516 0.16284 0.072949 0.55022 0.035363 0.35211 0.11418 0.39702 -0.19083 0.013651 0.51552 -0.42785 -0.16533 -0.32684 0.32729 0.35594 0.31278 -0.091062 -0.06808 0.45054 0.74425 0.0732 0.085552 -0.12968 0.056917 0.28581 -0.43235 -0.36458 0.073196 -0.33381 -0.34161 0.41147 -0.5013 0.1122 
empleo -0.50886 0.21234 -0.07781 -0.4797 0.035332 0.42757 -0.36048 0.1867 -0.40401 -0.41013 0.19427 0.10731 0.17782 0.29704 0.065043 -0.36581 0.44876 0.37889 -0.36717 -0.49476 -0.2633 0.1089 0.49679 0.46873 -0.27004 0.27377 0.15095 -0.1712 -0.40138 -0.15098 -0.02992 -0.35695 0.48025 0.021452 -0.36326 0.085975 0.67438 0.2751 0.0011729 0.16089 -0.054632 0.18304 -0.24539 0.076042 -0.078897 0.17907 -0.031355 0.15794 -0.10731 -0.20396 
déficit -0.51354 0.32443 0.16149 -0.26864 -0.097381 0.18409 -0.43703 0.12212 -0.28336 -0.21756 -0.015125 0.041757 0.19231 0.37722 0.00094041 -0.3724 0.49617 0.36179 -0.304 -0.29756 -0.17198 0.041035 0.30285 0.39908 -0.53157 0.2611 0.1501 -0.11567 -0.28461 -0.20605 0.067789 -0.090121 0.36743 -0.018535 -0.26471 0.2728 0.58075 0.15951 0.10454 -0.11076 -0.040682 0.24491 -0.37812 -0.24116 -0.017462 -0.12286 -0.025026 0.074254 -0.070314 -0.040144 
poder 0.29347 -0.18787 -0.12676 -0.14775 0.23354 0.13241 -0.48059 0.40133 -0.27294 -0.30974 0.22803 0.24575 0.14307 0.63537 0.12704 -0.055229 0.34674 0.18924 -0.038803 -0.37755 -0.18232 0.23284 0.51949 0.24111 -0.40155 0.27442 0.45605 -0.11047 -0.33286 -0.1442 0.20219 0.16103 0.25953 0.054879 -0.43338 -0.1552 0.35696 -0.040514 -0.15137 0.097241 0.066988 0.16716 -0.11411 0.053739 0.17889 0.10368 -0.17052 0.26108 0.044253 0.27318 
nunca 0.08067 0.033241 -0.0037857 0.020473 -0.10222 0.033125 -0.19484 0.090066 -0.3046 -0.31401 0.2904 0.11303 0.20869 0.40056 0.04768 -0.23521 0.2135 0.17288 -0.069347 0.15654 -0.17754 0.17649 0.27961 0.41539 -0.10212 0.1765 0.45276 -0.32501 -0.21903 -0.2383 0.28099 0.31035 0.33845 0.13295 -0.25894 0.084168 0.64155 0.087672 0.13613 0.15941 -0.029452 0.27728 -0.31769 -0.27315 -0.035635 -0.085074 -0.29562 0.51544 -0.31121 0.25341 
tras 0.015547 0.074006 0.048978 -0.41255 0.19335 -0.11143 -0.14218 0.10576 -0.30811 -0.67731 0.41056 -0.17711 -0.0080189 0.18265 0.58165 -0.32401 0.19718 -0.048234 -0.18688 -0.36701 -0.41668 -0.23277 0.63078 0.6212 -0.32502 0.57485 0.0083363 -0.22128 -0.033868 -0.19735 0.32126 -0.011877 0.016192 0.31101 -0.3419 -0.028697 0.73915 0.30884 0.45189 0.14985 -0.20229 0.20022 -0.80099 -0.25938 -0.18925 0.15141 0.12905 0.47883 -0.4591 -0.17362 
abrazo 0.039447 0.034185 0.11049 -0.31366 0.23814 -0.26546 -0.012641 0.11661 -0.34069 -0.61318 0.25549 -0.11297 0.0062411 -0.072781 0.08747 -0.42103 0.38734 -0.36703 0.026137 -0.46769 -0.085544 0.32961 -0.050863 0.29512 -0.27405 0.0016819 0.43516 0.053127 -0.062858 -0.51535 0.37577 0.63205 0.5323 -0.097216 -0.090057 -0.29869 0.80017 0.12623 0.36935 -0.15846 0.16925 0.32404 -0.93016 -0.32903 -0.13737 0.25727 -0.38421 0.23487 -0.83243 0.15006 
van 0.2772 -0.24729 -0.14666 -0.089937 0.020833 0.3456 -0.19259 0.071454 -0.10705 -0.33489 0.23932 0.088096 0.23874 0.048648 0.40709 -0.0040184 0.046367 0.14046 -0.15106 -0.26651 -0.32905 0.080334 0.49799 0.39676 -0.36936 0.32019 0.37302 -0.2003 -0.37584 -0.18604 0.25099 0.032097 0.26815 0.23504 -0.35628 0.016861 0.50717 0.26244 0.1644 0.10611 -0.1035 0.25062 -0.40057 -0.38074 -0.0096783 0.037197 -0.13027 0.28268 0.038388 0.21268 
alguien 0.44808 -0.19546 -0.15243 -0.11016 -0.06691 0.23467 -0.27286 0.27152 -0.34322 -0.38189 0.17984 0.091516 0.22496 0.30285 0.1311 -0.18174 0.25477 0.12827 -0.052651 -0.082139 -0.17271 0.19966 0.11678 0.23368 -0.17148 0.079166 0.42651 -0.12664 -0.17956 -0.22172 0.22777 0.37062 0.33379 0.10576 -0.24803 -0.085405 0.43205 0.021403 0.12364 0.078026 0.037906 0.19571 -0.15909 -0.1828 0.07091 0.024479 -0.29059 0.25328 -0.12005 0.27382 
elecciones 0.2148 -0.045647 -0.015683 -0.075109 0.017596 0.20903 -0.25213 0.17261 -0.31788 -0.22552 0.16015 0.063017 0.10549 0.29614 0.29034 -0.13007 0.14528 0.36452 -0.29821 -0.34218 -0.40481 0.021717 0.55856 0.47978 -0.34774 0.49677 0.2994 -0.27502 -0.43425 -0.084859 0.14988 -0.066346 0.32255 0.30111 -0.41677 0.092468 0.38277 0.18794 0.070128 0.22625 -0.18346 0.29228 -0.0849 -0.26992 -0.0085319 0.024174 -0.09107 0.3907 0.24768 0.17426 
#ff 0.012505 0.047431 0.086962 0.023054 0.063683 -0.094191 -0.19275 0.05895 -0.1941 -0.23321 0.24274 0.061104 0.1302 0.12297 0.20896 -0.15428 0.11936 0.12721 -0.19678 -0.24918 -0.27606 0.097182 0.45281 0.49089 -0.33352 0.40159 0.43018 -0.19419 -0.40476 -0.28637 0.27605 0.18069 0.37449 0.26632 -0.28804 0.0074595 0.51775 0.15941 0.20388 0.18871 -0.1278 0.33669 -0.27584 -0.42787 -0.017634 0.0292 -0.28065 0.46183 -0.071461 0.26732 
chacón -0.40371 -0.027406 0.030357 0.059561 -0.079634 -0.06655 -0.21274 0.073114 -0.14054 -0.23278 0.18764 0.14752 0.31001 0.055512 0.065806 -0.18375 0.28451 0.10711 -0.12692 -0.16416 -0.10999 0.20686 0.13071 0.33106 -0.38804 0.095672 0.48131 -0.17765 -0.30534 -0.34854 0.3078 0.25995 0.4181 0.053372 -0.17265 0.080556 0.61355 0.17608 0.10655 -0.12876 0.036263 0.35301 -0.39445 -0.45928 0.065922 -0.16858 -0.34355 0.18445 -0.14333 0.27873 
horas 0.17857 -0.051948 0.0055226 -0.2395 0.18244 -0.10472 -0.18328 0.015322 -0.26555 -0.63608 0.38847 -0.12757 0.018623 0.20042 0.4789 -0.20993 0.18821 -0.054563 -0.13003 -0.31378 -0.3303 -0.19879 0.52768 0.58139 -0.29294 0.5204 0.11423 -0.24985 -0.016499 -0.24343 0.34435 0.1543 0.034711 0.29013 -0.26035 -0.065586 0.62073 0.2329 0.41551 0.12897 -0.16295 0.16943 -0.77033 -0.29537 -0.16315 0.10828 0.022825 0.49352 -0.48006 -0.067023 
#elcambioandaluz -0.9864 0.048601 -0.095113 -0.30335 -0.19775 0.50887 0.032578 0.15474 -0.24595 -0.22616 0.031193 -0.15362 -0.00042088 -0.00055203 0.37467 -0.2582 0.25395 0.14951 -0.33952 -0.39468 -0.26141 0.083222 0.29492 0.27713 -0.55668 0.15316 0.026127 -0.061047 -0.16443 -0.13538 0.2106 0.20335 0.28661 0.10846 -0.21448 -0.029326 0.37785 0.20577 0.18786 -0.25062 -0.0025149 0.40036 -0.49464 -0.43094 -0.043028 -0.18185 -0.040131 0.055697 0.1082 0.39725 
sevilla -0.04007 0.086077 0.10163 0.17907 -0.20386 0.080166 -0.36502 -0.053876 -0.23635 -0.15365 0.15433 0.2306 0.33834 0.40639 -0.09541 -0.21134 0.24949 0.26803 -0.049394 0.10496 -0.06876 0.21125 0.21118 0.42574 -0.36014 0.17297 0.43691 -0.28098 -0.36774 -0.34884 0.23951 0.22786 0.3971 0.047859 -0.073957 0.29689 0.46128 0.12103 0.071456 0.038087 -0.071616 0.28375 -0.32965 -0.41772 -0.0035826 -0.22443 -0.34862 0.3496 -0.25498 0.16979 
muchos 0.079889 -0.44558 -0.14541 -0.13738 0.23105 0.011911 -0.059118 0.17142 -0.34825 -0.59382 0.48188 -0.11946 -0.044112 0.083308 0.67538 -0.034942 -0.030391 -0.13031 -0.17665 -0.64951 -0.49808 0.010967 0.43817 0.49069 -0.31591 0.42468 0.38992 -0.17887 -0.22547 -0.21314 0.24442 0.39442 0.17315 0.33401 -0.42273 -0.20672 0.27822 0.32768 0.23261 0.22757 -0.19567 0.20331 -0.42088 -0.27879 -0.2619 0.1652 -0.099949 0.28658 -0.089493 0.1218 
final -0.12297 -0.056722 0.087713 -0.12174 -0.16439 0.11947 -0.32903 0.13212 -0.33643 -0.39788 0.11171 0.076175 0.28599 0.19949 0.0067609 -0.35697 0.40059 0.059043 0.0003177 0.046276 -0.065587 0.19291 0.05844 0.30681 -0.30463 0.028292 0.32126 -0.16013 -0.29607 -0.43487 0.23624 0.21881 0.43719 0.025783 -0.10117 0.2042 0.56805 0.11783 0.22737 -0.09414 -0.044379 0.21563 -0.4602 -0.30846 -0.023266 -0.049429 -0.30631 0.14711 -0.40419 -0.010529 
ministro -0.24187 0.43896 0.10679 -0.41577 0.11308 0.13226 -0.21238 0.030839 -0.25579 -0.45043 0.18244 0.078091 0.17996 0.19967 -0.075738 -0.47421 0.51377 0.14497 -0.20545 -0.40004 -0.14514 0.19203 0.25138 0.40228 -0.26574 0.18852 0.18325 -0.1543 -0.25275 -0.27156 0.036702 -0.23528 0.54051 -0.19264 -0.29418 0.16097 0.99286 0.27235 0.077834 -0.068874 0.01851 0.25941 -0.70927 -0.05262 -0.13984 0.078608 -0.048277 0.067321 -0.52476 -0.22475 
luego 0.60598 0.0042064 -0.10446 -0.22898 0.12976 0.18593 0.0078028 0.049207 -0.26084 -0.45216 0.27551 0.059482 0.070251 0.0023965 0.067859 -0.28073 0.27476 -0.043539 -0.088005 -0.24876 -0.17359 0.26647 0.1958 0.37421 -0.048338 0.072101 0.39953 -0.18456 -0.21778 -0.24342 0.17377 0.22739 0.52196 0.037239 -0.26319 -0.15514 0.77358 0.20571 0.14362 0.11195 0.072356 0.2542 -0.58788 -0.13739 -0.11539 0.18033 -0.28576 0.33054 -0.48433 0.12474 
toda 0.067221 0.29826 0.084033 -0.13106 -0.078841 -0.079028 -0.31249 0.021091 -0.22408 -0.39456 0.28557 0.056466 0.25576 0.52433 0.019472 -0.31406 0.38961 0.14073 -0.03103 0.22919 -0.12729 0.064675 0.29686 0.39894 -0.16834 0.21488 0.2191 -0.30705 -0.12481 -0.29163 0.25521 0.19942 0.23189 0.073504 -0.27522 0.14361 0.7905 0.091878 0.25051 0.087219 -0.034128 0.23478 -0.54911 -0.2161 -0.092028 -0.1212 -0.14971 0.46398 -0.54721 0.077089 
tienen 0.16567 -0.37567 -0.21587 -0.012712 0.012487 0.39786 -0.39025 0.097537 -0.25352 -0.4488 0.2656 0.21663 0.22509 0.34341 0.188 -0.016443 0.16579 0.25113 -0.13336 -0.17931 -0.27844 0.048603 0.32016 0.34058 -0.1825 0.26435 0.38033 -0.22309 -0.30421 -0.18255 0.15356 0.15776 0.29753 0.25107 -0.35564 -0.078641 0.39809 0.10959 0.1059 0.25859 -0.071035 0.15913 -0.17367 -0.19691 -0.010631 0.029815 -0.21063 0.35076 -0.0041435 0.26713 
pide -0.14901 0.21979 -0.0033368 -0.13855 0.017259 0.2363 -0.49182 0.09721 -0.11109 -0.27556 0.068324 0.20822 0.2533 0.43577 -0.05715 -0.17901 0.37248 0.28428 -0.055195 -0.17626 -0.077777 0.16791 0.57852 0.49346 -0.46455 0.41449 0.3162 -0.18502 -0.28642 -0.24903 0.13847 -0.30045 0.33213 -0.099529 -0.23073 0.26725 0.65019 0.10767 0.044488 -0.0021189 0.038091 0.18124 -0.43937 -0.33954 0.11394 0.048307 -0.10628 0.21606 -0.25245 0.027289 
personas 0.034753 -0.15503 -0.17842 -0.23429 0.075654 0.27175 -0.21744 0.15344 -0.33895 -0.50723 0.33906 5.546e-05 0.066733 0.30849 0.32514 -0.18783 0.26238 0.15804 -0.1881 -0.21039 -0.29232 -0.053245 0.42349 0.42199 -0.15783 0.34747 0.21302 -0.24118 -0.1246 -0.11289 0.22138 0.12716 0.20245 0.25007 -0.36897 -0.12433 0.52194 0.14604 0.17647 0.2144 -0.091518 0.20563 -0.37598 -0.085485 -0.092874 0.044486 -0.070124 0.38933 -0.18989 0.13433 
i 0.24506 -0.12933 -0.068468 -0.071943 -0.18361 0.28351 -0.16408 0.17565 -0.30454 -0.24956 0.20664 0.051487 0.29236 0.14263 0.3452 -0.16573 0.12876 0.20999 -0.10708 0.060472 -0.27662 0.22437 0.65302 0.49588 -0.26621 0.26513 0.41467 -0.35141 -0.52568 -0.22331 0.32178 0.045496 0.35288 0.27764 -0.25409 0.18287 0.52989 0.22623 0.11018 0.18874 -0.17052 0.27677 -0.24908 -0.33083 0.049959 0.080473 -0.26897 0.48471 -0.016555 0.15503 
nueva -0.30876 0.2548 0.1358 -0.1236 -0.22963 -0.045896 -0.18498 0.11938 -0.29852 -0.31046 0.12676 -0.0546 0.2401 0.32761 0.052821 -0.41984 0.35588 0.018197 -0.0075993 0.12349 -0.025045 0.24559 0.20497 0.3368 -0.38338 0.059525 0.27299 -0.19339 -0.097991 -0.34076 0.32502 0.34977 0.2619 -0.09422 -0.077885 0.24839 0.65104 0.1107 0.21568 -0.25756 0.037841 0.29745 -0.67107 -0.40606 -0.015263 -0.16415 -0.21316 0.2524 -0.50108 0.12586 
educación -0.37338 0.12113 -0.099676 -0.18258 -0.18232 0.45867 -0.40771 0.12067 -0.14633 -0.2296 0.17137 0.28277 0.36452 0.24115 0.036035 -0.16011 0.39893 0.47397 -0.38298 -0.2536 -0.19674 0.034053 0.45761 0.39783 -0.34006 0.21658 0.18694 -0.27706 -0.40237 -0.15159 0.034322 -0.42813 0.40451 0.063581 -0.41621 0.24626 0.72287 0.27735 -0.076096 -0.080977 -0.07459 0.3062 -0.15176 -0.24662 0.03731 -0.18324 -0.012918 0.053274 0.113 0.064596 
electoral 0.051742 -0.0038383 0.015848 -0.029153 -0.29314 0.47276 -0.53018 0.16005 -0.35521 -0.10047 0.048712 0.22697 0.32276 0.40315 -0.017729 -0.19824 0.33277 0.55392 -0.31295 -0.12269 -0.25355 0.091889 0.39873 0.48001 -0.39351 0.29253 0.30852 -0.27801 -0.54041 -0.19207 0.052857 -0.2106 0.46704 0.16663 -0.25804 0.36729 0.34406 0.13603 -0.035074 0.0992 -0.18673 0.22403 0.092809 -0.23136 0.083297 -0.16999 -0.17398 0.1856 0.25355 0.051489 
euros -0.28836 0.094682 -0.071737 -0.38659 0.090424 0.19617 -0.039116 0.19712 -0.31542 -0.45499 0.31674 -0.23541 0.036537 0.16605 0.72628 -0.20385 0.099182 0.041684 -0.28966 -0.60591 -0.43113 -0.011181 0.74443 0.55404 -0.56739 0.50415 0.089406 -0.23414 -0.22719 -0.098709 0.16323 -0.11819 0.06191 0.16213 -0.48682 0.12658 0.46944 0.45287 0.16128 0.019748 -0.15531 0.28169 -0.56216 -0.31276 -0.18078 0.078417 0.19224 0.11574 0.012065 -0.063444 
falta 0.14638 -0.083636 -0.042954 -0.069418 -0.30981 0.37274 -0.26697 0.0070571 -0.30064 -0.31441 0.10903 0.078239 0.26534 0.39038 0.082906 -0.28362 0.29714 0.22206 -0.072715 0.19978 -0.12292 0.078095 0.25663 0.30454 -0.25185 0.091105 0.18247 -0.26676 -0.20262 -0.24054 0.23588 0.21826 0.24863 0.048905 -0.10185 0.23677 0.55315 0.15447 0.1852 -0.07493 -0.054245 0.21891 -0.54446 -0.29343 -0.10722 -0.19037 -0.18345 0.33775 -0.34222 0.13556 
nadie 0.15125 -0.094213 -0.081539 0.0031028 -0.0073399 0.16015 -0.39516 0.1739 -0.21749 -0.36469 0.212 0.19184 0.20512 0.41002 0.026947 -0.11391 0.22852 0.19668 -0.0023046 -0.039122 -0.14803 0.15978 0.35278 0.42125 -0.19697 0.29508 0.48818 -0.22206 -0.23578 -0.27748 0.22046 0.19457 0.35742 0.14202 -0.26813 0.013582 0.52237 -0.0092382 0.12216 0.20138 -0.033541 0.20115 -0.16202 -0.27842 0.09063 0.048102 -0.34928 0.44922 -0.20673 0.23697 
público -0.48091 -0.029659 -0.028963 -0.44485 0.060416 0.39618 -0.27933 0.085237 -0.36772 -0.48722 0.18253 0.03366 0.13202 0.15185 0.14288 -0.33718 0.42369 0.11738 -0.22481 -0.59528 -0.17909 0.14913 0.36972 0.38462 -0.43459 0.14755 0.12438 -0.051425 -0.30153 -0.28142 0.033674 -0.15329 0.3781 -0.079583 -0.14472 0.023029 0.58156 0.27582 0.093887 -0.041896 -0.0076282 0.15981 -0.60669 -0.077804 -0.15344 0.20296 -0.015791 0.073018 -0.29981 -0.18249 
recortes -0.56785 0.0409 0.0063966 -0.38004 -0.077766 0.44714 -0.055538 0.17987 -0.37167 -0.37226 0.087783 -0.19769 0.00071676 0.13446 0.49702 -0.33586 0.2408 0.21156 -0.34085 -0.418 -0.44797 -0.049621 0.59864 0.41359 -0.49547 0.39082 -0.044503 -0.17837 -0.22011 -0.053245 0.12676 -0.091684 0.25814 0.1973 -0.3976 0.10108 0.48192 0.32587 0.17091 -0.095431 -0.10427 0.29569 -0.55048 -0.3011 -0.1843 0.049929 0.1642 0.19906 0.01761 0.024637 
huelga -0.10435 0.44794 0.2375 -0.25116 -0.15552 -0.091362 -0.33102 0.12256 -0.35509 -0.24031 0.13284 -0.028897 0.24018 0.40438 0.14448 -0.44457 0.38028 0.31278 -0.29435 -0.17546 -0.26832 0.054958 0.3993 0.48981 -0.51779 0.34323 0.12449 -0.21773 -0.32022 -0.24621 0.18883 -0.031672 0.28692 0.058467 -0.22267 0.36044 0.59995 0.23826 0.17854 -0.044307 -0.12476 0.28843 -0.36133 -0.2926 -0.049023 -0.13057 -0.037199 0.20974 -0.13107 -0.1288 
amigos 0.24982 -0.056333 -0.042294 -0.33316 0.24211 -0.28453 0.19787 0.27551 -0.36317 -0.60761 0.44364 -0.3807 -0.13029 -0.067099 0.76175 -0.23012 0.047565 -0.42433 -0.092404 -0.65251 -0.37679 0.16211 0.34088 0.40653 -0.47068 0.2928 0.35853 -0.041235 -0.035109 -0.29761 0.45202 0.68221 0.14293 0.1945 -0.34319 -0.32877 0.4459 0.28839 0.38715 -0.031227 -0.0024433 0.38224 -0.74762 -0.47063 -0.1737 0.16307 -0.13533 0.24459 -0.31446 0.27262 
entrevista 0.0041116 0.13435 0.12126 -0.028925 -0.1174 0.0046914 -0.33314 -0.02342 -0.23533 -0.26891 0.12966 0.075293 0.20388 0.34256 -0.023527 -0.24934 0.33638 0.20897 -0.12559 -0.043379 -0.12905 0.053183 0.18182 0.36048 -0.3217 0.22135 0.26439 -0.22992 -0.22037 -0.2954 0.25641 0.20692 0.31348 0.035109 -0.16424 0.14799 0.59947 0.12373 0.21624 -0.074543 -0.068274 0.29353 -0.50438 -0.3469 -0.067645 -0.19335 -0.20604 0.28209 -0.32417 0.13958 
paro -0.29806 -0.0011263 -0.14467 -0.29278 0.15641 0.40526 -0.19456 0.10386 -0.32849 -0.40759 0.2307 0.24237 0.20756 0.17347 0.023311 -0.29183 0.3757 0.2127 -0.18289 -0.43899 -0.1693 0.32535 0.51194 0.46269 -0.23367 0.20982 0.37851 -0.28138 -0.46341 -0.14797 0.017314 -0.24894 0.53646 -0.075556 -0.30798 0.084307 0.6728 0.35979 -0.14175 0.1901 0.035506 0.14815 -0.47615 0.032439 -0.056638 0.25597 -0.17326 0.21259 -0.22268 -0.11574 
valencia -0.28963 0.19726 0.048084 -0.16499 -0.33993 0.33148 -0.16911 0.16823 -0.30967 -0.17103 0.059327 0.048977 0.27596 0.39767 0.018598 -0.4374 0.37854 0.20702 -0.11784 0.15948 -0.060186 0.2397 0.31352 0.30413 -0.29079 0.010679 0.25858 -0.23161 -0.17668 -0.18138 0.21311 0.15902 0.3114 -0.073665 -0.22068 0.26588 0.68412 0.0633 0.14016 -0.29477 0.0065185 0.35154 -0.39122 -0.32368 0.036068 -0.23737 -0.15241 0.19248 -0.23229 0.24772 
queda 0.35391 0.1779 0.1231 0.11666 -0.084311 -0.1945 -0.28443 0.041451 -0.30833 -0.25271 0.21799 0.094244 0.2546 0.48849 -0.061114 -0.2616 0.33245 0.13271 -0.036514 0.1657 -0.11212 0.20603 0.13405 0.36831 -0.21683 0.17285 0.47434 -0.30173 -0.18629 -0.28196 0.28048 0.47997 0.31917 0.060364 -0.19969 0.11537 0.58153 0.018327 0.13435 0.036604 0.007626 0.26465 -0.37392 -0.29401 0.0016677 -0.1738 -0.33431 0.47236 -0.3551 0.24089 
fin -0.071782 -0.012249 0.12536 -0.12599 0.039783 -0.16149 -0.32223 0.15673 -0.2704 -0.34587 0.18183 0.071081 0.27992 0.098358 0.16218 -0.27173 0.27767 0.042295 -0.1011 -0.27543 -0.18254 0.16594 0.26192 0.3841 -0.38207 0.22695 0.43126 -0.062465 -0.34579 -0.41109 0.28896 0.13451 0.41131 0.042196 -0.16438 0.087697 0.63622 0.19964 0.2207 -0.07605 -0.024369 0.23437 -0.46335 -0.36021 0.010935 0.12262 -0.24126 0.18947 -0.28861 -0.0030362 
mitin 0.098019 -0.25843 -0.095027 0.034632 -0.070664 0.32135 -0.24894 0.12759 -0.21505 -0.21678 0.19621 0.19191 0.26525 0.11556 0.15153 -0.072996 0.1112 0.26679 -0.17675 -0.15396 -0.29618 0.173 0.34909 0.38256 -0.20905 0.24987 0.5334 -0.24344 -0.48874 -0.24145 0.17224 0.064391 0.51012 0.22961 -0.29959 0.056074 0.52428 0.17895 0.034055 0.17827 -0.10523 0.25704 -0.15418 -0.30136 0.024255 0.02894 -0.28323 0.34471 0.043696 0.21671 
laboral 0.019241 0.083348 -0.0034333 -0.27584 -0.24614 0.46833 -0.59521 0.13087 -0.41587 -0.40437 0.12476 0.15324 0.33951 0.48007 0.040727 -0.35767 0.48154 0.46112 -0.27532 -0.1083 -0.22468 -0.011656 0.36456 0.48362 -0.38402 0.27785 0.060841 -0.27124 -0.41713 -0.24285 -0.0046686 -0.32632 0.35845 0.10592 -0.25435 0.41123 0.48001 0.22615 0.072611 0.13943 -0.1992 0.10749 -0.12801 -0.075408 -0.04675 -0.1026 -0.057826 0.095176 -0.053763 -0.30823 
debate -0.068265 0.11955 -0.13233 -0.29226 -0.12365 0.42038 -0.49818 0.20623 -0.19958 -0.38446 0.047779 0.13573 0.22252 0.50264 -0.092801 -0.24568 0.42668 0.23259 -0.045393 -0.16587 -0.014608 0.14888 0.36206 0.35225 -0.37367 0.17707 0.21985 -0.070154 -0.08647 -0.2643 0.10188 -0.022643 0.32106 -0.15166 -0.1603 0.13267 0.60323 0.0013975 0.0827 -0.13571 0.096763 0.12075 -0.36664 -0.21293 0.075318 -0.0025351 -0.14894 0.17459 -0.3478 0.05626 
somos 0.23063 -0.30685 -0.2874 -0.21973 0.17044 0.12914 -0.093668 0.26739 -0.38397 -0.64785 0.5849 -0.10092 -0.0056303 0.30155 0.67497 -0.012161 -0.050302 -0.16218 -0.057142 -0.53738 -0.31518 0.12619 0.51803 0.49498 -0.33391 0.35771 0.34669 -0.17747 -0.088893 -0.17737 0.25683 0.4063 0.0056075 0.23375 -0.43492 -0.20379 0.1843 0.27498 0.134 0.18154 -0.094028 0.17331 -0.34362 -0.23095 -0.13668 0.14116 -0.050933 0.21168 -0.13853 0.12255 
hora 0.11482 0.20605 0.06171 0.021357 -0.19764 -0.062352 -0.26264 0.067897 -0.32056 -0.32984 0.24722 0.10756 0.35339 0.51284 -0.031134 -0.32123 0.32979 0.081339 0.079817 0.30426 -0.017859 0.2748 0.25946 0.42678 -0.2211 0.075952 0.44946 -0.35856 -0.13525 -0.35705 0.34382 0.36386 0.2683 -0.010061 -0.099759 0.27042 0.70381 0.090869 0.10975 -0.066705 0.049843 0.22728 -0.51801 -0.31713 0.030717 -0.17198 -0.30444 0.45386 -0.5662 0.089739 
fue 0.099949 0.12169 -0.017557 -0.18763 0.058079 0.0066596 -0.33993 0.15119 -0.16724 -0.50669 0.17789 0.038453 0.13868 0.3005 0.09597 -0.19677 0.30346 0.042255 0.023828 -0.13179 -0.15528 0.060136 0.31337 0.43041 -0.20825 0.34667 0.32889 -0.1298 -0.11814 -0.35421 0.24626 0.11894 0.32805 0.061014 -0.20368 0.0058701 0.72025 0.063905 0.32129 0.095324 -0.015497 0.20126 -0.47392 -0.34465 -0.0039195 0.13788 -0.25828 0.35738 -0.4655 0.044376 
españoles -0.11597 -0.07869 -0.087067 -0.22237 0.074985 0.32971 -0.20584 -0.020007 -0.18039 -0.44134 0.19527 -0.033095 0.025171 0.24301 0.3808 -0.13178 0.17628 0.23727 -0.2881 -0.38837 -0.36355 -0.17598 0.47122 0.40997 -0.41542 0.49867 0.029354 -0.20559 -0.21902 -0.10903 0.15744 -0.052349 0.19748 0.23317 -0.43414 0.0050882 0.44657 0.28443 0.25593 0.06875 -0.15274 0.23895 -0.52756 -0.32287 -0.18057 0.0066382 0.081793 0.25925 -0.053439 0.093232 
estar 0.15067 -0.29017 -0.23938 -0.16156 0.36093 0.22259 -0.34509 0.28907 -0.13821 -0.32002 0.14314 0.28721 -0.0083552 0.52521 0.12251 0.094861 0.2819 0.096988 -0.020057 -0.35345 -0.19685 0.18478 0.50611 0.23305 -0.27943 0.26711 0.37134 -0.030932 -0.22851 -0.13871 0.23449 0.22561 0.28907 0.15061 -0.51989 -0.38043 0.40678 -0.13925 -0.014647 0.096536 0.13687 0.23161 -0.23839 -0.021644 0.20696 0.1418 -0.16829 0.36274 -0.024177 0.56517 
todas 0.11528 -0.095896 0.047779 -0.13817 0.32044 -0.16918 -0.23334 -0.085493 -0.14752 -0.6245 0.38643 -0.02576 -0.011816 0.1881 0.39122 -0.14768 0.16516 -0.040548 -0.16384 -0.35163 -0.37869 -0.25842 0.48446 0.57176 -0.26748 0.58606 0.14884 -0.24387 -0.061567 -0.24407 0.31406 0.13716 0.093429 0.32938 -0.38798 -0.16375 0.69337 0.22796 0.4549 0.24355 -0.18491 0.2117 -0.8088 -0.33207 -0.20324 0.10327 0.018317 0.53954 -0.47077 0.059499 
enhorabuena 0.10758 0.14172 0.1646 -0.11301 -0.031683 -0.16724 -0.23537 0.019395 -0.26122 -0.38053 0.1286 -0.032988 0.12085 0.25169 0.0073913 -0.35539 0.38043 -0.033179 -0.038938 -0.15213 -0.039607 0.12975 0.02509 0.29217 -0.42106 0.12846 0.26178 -0.060256 -0.081585 -0.40413 0.33995 0.46427 0.32941 -0.051012 -0.098076 0.043546 0.59951 0.096438 0.33471 -0.23846 0.064539 0.28422 -0.72464 -0.42343 -0.085257 -0.11512 -0.22065 0.19787 -0.57068 0.17338 
apoyo -0.13887 -0.012561 0.052428 -0.28748 0.10241 0.16911 -0.24938 0.061509 -0.36356 -0.41279 0.22292 0.10375 0.17112 0.096749 0.095535 -0.34058 0.3178 0.14091 -0.2195 -0.46574 -0.24292 0.17014 0.45331 0.5307 -0.32977 0.27361 0.28115 -0.16161 -0.42513 -0.3066 0.094609 -0.13402 0.47228 0.050067 -0.17465 0.084727 0.636 0.31393 0.10222 0.18093 -0.067974 0.17577 -0.47983 -0.15025 -0.10911 0.25631 -0.18026 0.29375 -0.29513 -0.17781 
tarde 0.37941 0.13596 0.037721 -0.13894 0.10165 -0.032795 -0.31012 0.14269 -0.13478 -0.41132 0.12663 0.10207 0.13584 0.32182 -0.028042 -0.22159 0.32746 -0.0536 0.10432 -0.15529 -0.022389 0.23582 0.25152 0.36048 -0.35076 0.23051 0.40541 -0.051939 -0.095944 -0.37446 0.27728 0.22841 0.35376 -0.080085 -0.18049 -0.0043773 0.67628 -0.020131 0.22445 -0.095445 0.14328 0.22782 -0.59448 -0.39102 0.094563 0.088578 -0.25705 0.28206 -0.5492 0.21381 
sanidad -0.1942 -0.043508 -0.16476 -0.30131 -0.14706 0.63692 -0.3052 0.25286 -0.30895 -0.37055 0.1816 0.13683 0.23429 0.41573 0.16683 -0.28207 0.36655 0.31862 -0.20057 -0.18168 -0.24031 0.072904 0.51806 0.29556 -0.28693 0.090135 0.079139 -0.20122 -0.28089 -0.17929 0.073462 -0.061123 0.38839 0.14621 -0.4446 0.051138 0.53942 0.076741 -0.034248 0.031418 -0.095213 0.23749 -0.049305 -0.084238 -0.024598 -0.032965 -0.047913 0.16587 0.061182 0.11571 
puedo 0.6795 -0.28325 -0.13702 -0.029822 0.49689 -0.11845 -0.078764 -0.05694 -0.28376 -0.505 0.42838 0.257 0.029281 0.031801 -0.18614 -0.19486 0.23031 -0.079231 -0.028335 -0.4676 -0.16079 0.34732 0.24239 0.45827 0.082591 0.1721 0.7291 -0.16137 -0.23876 -0.33644 0.19536 0.358 0.69846 0.031014 -0.2615 -0.42223 0.79911 0.13728 0.059717 0.32329 0.20191 0.20495 -0.51865 -0.052769 -0.10297 0.41647 -0.5094 0.57703 -0.6714 0.19752 
vota 0.28699 -0.24621 -0.14982 0.41777 -0.24188 0.38394 -0.32546 -0.094945 -0.17657 -0.0068675 0.27977 0.44273 0.34659 0.51896 -0.10011 0.016325 0.027422 0.48942 -0.10262 0.35812 -0.17433 0.30455 0.62927 0.56481 -0.13796 0.34827 0.64674 -0.52196 -0.54206 -0.13769 0.28897 0.11322 0.38462 0.23794 -0.28655 0.2188 0.51894 0.12647 -0.083858 0.32067 -0.11565 0.3595 -0.072464 -0.45306 0.11666 -0.21744 -0.41169 0.76493 0.031759 0.53544 
mercados 0.22975 0.043638 -0.14352 -0.24014 -0.0087841 0.32564 -0.36743 0.19847 -0.38078 -0.35552 0.34148 0.06031 0.14722 0.47919 0.40043 -0.17046 0.1984 0.37374 -0.33634 -0.42426 -0.38729 0.0053416 0.7375 0.60493 -0.48504 0.53671 0.20448 -0.27984 -0.38424 -0.075772 0.090404 -0.22127 0.18079 0.20292 -0.48928 0.22774 0.37 0.34463 -0.011155 0.25305 -0.18378 0.19146 -0.12261 -0.15785 -0.089886 0.017933 0.082632 0.22999 0.16423 -0.098777 
sociales -0.31964 -0.062227 -0.03791 -0.35707 -0.027504 0.57126 -0.014245 0.11756 -0.31389 -0.41875 0.15424 -0.18556 -0.1021 0.13177 0.69711 -0.21177 0.059465 0.30128 -0.45177 -0.53706 -0.61771 -0.2269 0.66815 0.45812 -0.52718 0.5638 -0.12801 -0.18981 -0.32295 0.029264 0.11004 -0.13294 0.1761 0.36282 -0.49434 0.021262 0.35854 0.37567 0.24203 0.025423 -0.27881 0.31642 -0.40362 -0.34367 -0.27299 0.024939 0.24283 0.22367 0.26397 0.11116 
junta -0.26475 0.30982 -0.037614 -0.21679 -0.28533 0.33019 -0.21292 0.009036 -0.21906 -0.33084 0.1582 0.072549 0.30446 0.46874 0.014004 -0.35415 0.41515 0.26696 -0.030027 0.32402 -0.074845 0.15994 0.36686 0.35451 -0.23964 0.10466 0.10788 -0.34652 -0.14531 -0.20502 0.26585 -0.031622 0.26069 -0.066341 -0.1978 0.30337 0.85494 0.19003 0.12968 -0.11222 0.020672 0.29213 -0.6876 -0.25787 -0.034686 -0.22307 -0.10783 0.28299 -0.4942 0.084196 
calle -0.023163 0.01599 -0.050614 0.020271 -0.098837 0.13232 -0.41558 0.060171 -0.12813 -0.36199 0.16231 0.15597 0.22783 0.37492 -0.028206 -0.17189 0.27109 0.24221 -0.018412 0.017011 -0.13748 0.052762 0.24826 0.41396 -0.19623 0.29137 0.38067 -0.20048 -0.19369 -0.31647 0.21387 0.14988 0.36488 0.10419 -0.18717 0.040517 0.6409 0.0042429 0.23756 0.13666 -0.044178 0.20829 -0.24645 -0.33678 0.048013 -0.06311 -0.33358 0.39408 -0.28365 0.17715 
justicia -0.29128 0.085668 -0.12137 -0.26764 -0.30132 0.55366 -0.3956 0.093424 -0.33445 -0.38491 0.16939 0.15902 0.31101 0.57749 -0.038756 -0.3759 0.44067 0.35382 -0.12654 0.2054 -0.090925 0.045733 0.28444 0.34729 -0.11713 0.064179 0.10662 -0.27675 -0.12083 -0.1859 0.10663 -0.031493 0.29967 -0.00037839 -0.28904 0.19685 0.73524 0.071393 0.11099 -0.023613 -0.037029 0.1751 -0.34288 -0.074835 -0.061857 -0.16385 -0.080448 0.24512 -0.38517 0.01451 
parte -0.25903 0.020547 -0.10308 -0.10758 0.04641 0.12334 -0.45206 0.23577 -0.21412 -0.35914 0.1433 0.21251 0.23495 0.44204 0.024182 -0.14425 0.34425 0.16082 0.031468 -0.20749 -0.081774 0.22799 0.45764 0.42061 -0.36089 0.3519 0.4218 -0.17098 -0.28957 -0.2491 0.14983 0.022182 0.32058 -0.036561 -0.20906 0.093789 0.49319 0.051648 0.020218 0.12197 0.041306 0.14514 -0.22424 -0.23753 0.12806 0.10572 -0.28556 0.31375 -0.22569 0.089316 
equipo -0.021113 -0.168 -0.11796 -0.25749 0.10518 0.1815 -0.26263 0.11804 -0.41144 -0.53984 0.29492 0.14911 0.16327 0.21083 -0.044252 -0.30315 0.37673 0.011651 -0.036968 -0.33641 -0.071741 0.28412 0.13307 0.35604 -0.11899 0.050472 0.39297 -0.10579 -0.21941 -0.35041 0.13494 0.23849 0.4644 -0.035235 -0.1431 -0.13282 0.60443 0.13688 0.10936 0.097409 0.064927 0.13248 -0.44266 -0.060346 -0.072756 0.23033 -0.33022 0.25662 -0.50319 -0.0090715 
igualdad -0.09869 -0.30444 -0.2037 -0.26746 -0.15748 0.68004 -0.30292 0.17166 -0.3504 -0.43871 0.21982 0.092358 0.15987 0.28957 0.26917 -0.21 0.29073 0.31391 -0.2847 -0.29685 -0.33498 -0.043392 0.44092 0.31739 -0.269 0.18109 0.052077 -0.22819 -0.29649 -0.16193 0.04881 -0.009644 0.3138 0.25372 -0.37875 0.012086 0.3699 0.16768 0.054656 0.122 -0.18207 0.16487 -0.091726 -0.12395 -0.1254 -0.026867 -0.058934 0.19691 0.10045 0.076712 
+ 0.087533 -0.068869 -0.033304 -0.10171 0.029815 0.11644 -0.16205 0.072491 -0.2078 -0.42566 0.26579 0.065655 0.22133 0.16904 0.32784 -0.17758 0.1463 0.065045 -0.0036791 -0.016864 -0.24973 0.15496 0.617 0.49646 -0.25742 0.32105 0.3643 -0.31844 -0.42092 -0.28897 0.29264 0.02603 0.33018 0.20667 -0.27623 0.14788 0.68446 0.26773 0.1766 0.2073 -0.13787 0.2374 -0.50303 -0.33012 -0.022844 0.13277 -0.22732 0.48686 -0.29094 0.028661 
#pp -0.15224 -0.41084 -0.23395 0.092058 -0.20171 0.65985 -0.23361 0.12067 -0.314 -0.12546 0.19094 0.2234 0.20912 0.20859 0.28726 -0.0033808 0.013462 0.47083 -0.30184 -0.16469 -0.36073 0.16356 0.62617 0.50388 -0.32305 0.35142 0.44782 -0.35722 -0.59815 -0.087937 0.14343 0.025278 0.41999 0.39845 -0.35559 0.062529 0.21804 0.20572 -0.066892 0.3618 -0.18376 0.29163 0.11125 -0.30507 0.089471 -0.052935 -0.29924 0.47914 0.43906 0.3869 
ti 0.45742 -0.2239 0.0079779 0.046278 0.15405 -0.15326 -0.19158 0.026599 -0.17863 -0.50845 0.30033 0.083582 0.12586 0.16282 0.15082 -0.10707 0.13429 -0.12036 0.093904 -0.058319 -0.19283 0.14712 0.19556 0.38027 -0.13359 0.23524 0.56469 -0.19815 -0.23549 -0.43019 0.43382 0.56516 0.36922 0.27196 -0.22863 -0.19211 0.64798 0.034657 0.35917 0.19628 -0.016692 0.27912 -0.58511 -0.4072 -0.038771 0.11924 -0.44287 0.6174 -0.49493 0.34801 
dia -0.16348 0.21126 0.16242 -0.069311 -0.24357 -0.11597 -0.12398 0.042006 -0.22307 -0.36947 0.1842 -0.042389 0.29002 0.38425 0.063315 -0.42085 0.28387 -0.055109 0.1274 0.47466 -0.04128 0.19834 0.32477 0.34447 -0.18661 0.014867 0.36913 -0.30343 -0.041017 -0.39997 0.41441 0.48891 0.28794 -0.013318 -0.12305 0.2406 0.99746 0.079387 0.35626 -0.20653 0.019577 0.2786 -0.83501 -0.43695 -0.067735 -0.14201 -0.26824 0.53763 -0.80425 0.15441 
primer -0.030884 -0.082279 -0.059937 -0.088 0.22631 0.021497 -0.46764 0.15075 -0.13277 -0.39307 0.15963 0.25018 0.20579 0.5277 -0.063691 -0.11929 0.45588 0.029997 0.088536 -0.22586 0.070137 0.23086 0.2723 0.16441 -0.45074 0.16858 0.38761 -0.121 -0.16791 -0.2902 0.29681 0.16582 0.22913 -0.12837 -0.25553 -0.035259 0.50553 0.029738 -0.012821 -0.13365 0.19867 0.17487 -0.66327 -0.10555 0.13025 -0.0037106 -0.17721 0.14122 -0.39693 0.20968 
dar 0.21791 -0.36561 -0.15181 -0.07977 0.36907 0.18995 -0.40914 0.30216 -0.10784 -0.2952 0.10827 0.29486 0.042489 0.57403 0.088276 0.044228 0.28828 0.055578 0.11494 -0.23551 -0.092741 0.32352 0.59693 0.15522 -0.463 0.17007 0.47175 -0.05368 -0.35361 -0.2184 0.28869 0.3181 0.26784 0.083701 -0.40679 -0.26447 0.40233 -0.11455 -0.13402 0.090211 0.17318 0.1817 -0.34436 0.018165 0.27887 0.18962 -0.2434 0.41389 -0.087649 0.49295 
quiere 0.28544 -0.22965 -0.18564 0.068318 -0.18044 0.42432 -0.42274 0.18939 -0.3828 -0.32466 0.087881 0.18993 0.21575 0.50168 0.054407 -0.11499 0.26552 0.27176 -0.065675 -0.0035834 -0.17441 0.18618 0.09205 0.27601 -0.27085 0.17794 0.36435 -0.28004 -0.22501 -0.14343 0.091693 0.43208 0.25892 0.16323 -0.19225 0.0018952 0.16397 -0.0091917 0.065041 0.2517 -0.072046 0.11613 0.070819 -0.22425 0.095234 -0.072786 -0.37701 0.37311 0.10302 0.28911 
twitter 0.16214 -0.10124 0.018402 -0.13361 0.19172 0.0040938 -0.38763 0.11788 -0.14008 -0.38156 0.13176 0.13063 0.081934 0.40892 0.07278 -0.13842 0.33224 0.0090548 0.01089 -0.34279 -0.086291 0.14289 0.25112 0.20674 -0.49183 0.2077 0.29702 -0.015722 -0.18952 -0.30885 0.28021 0.31508 0.25253 0.01421 -0.29482 -0.12308 0.43975 0.0093005 0.1293 -0.091871 0.082159 0.21752 -0.54167 -0.2401 0.075282 0.013083 -0.1589 0.19619 -0.27848 0.28919 
minutos -0.038138 0.15182 0.030097 -0.27285 0.1924 -0.11091 -0.16851 0.13494 -0.27056 -0.49223 0.38175 -0.09796 0.047385 0.24356 0.40133 -0.23712 0.2243 -0.023697 -0.19359 -0.54144 -0.32059 0.077996 0.4129 0.48095 -0.45088 0.40778 0.24995 -0.15275 -0.17075 -0.21745 0.1934 0.06939 0.19928 0.05424 -0.42129 0.039999 0.56408 0.32518 0.16514 -0.0028005 -0.087551 0.26819 -0.58961 -0.27681 -0.15825 0.04095 0.048899 0.087662 -0.2711 -0.042899 
miedo 0.33143 0.11551 0.033289 -0.22923 0.24198 -0.043405 -0.22898 0.0060335 -0.36189 -0.38654 0.31114 0.1882 0.10807 0.12637 -0.15277 -0.3881 0.34307 0.19897 -0.24734 -0.47593 -0.27019 0.19896 0.38551 0.58096 -0.074118 0.28539 0.42121 -0.17162 -0.36728 -0.30621 0.053427 -0.069573 0.68126 0.028352 -0.26531 -0.055045 0.83433 0.23492 0.080197 0.28626 0.00061298 0.20765 -0.31014 -0.044491 -0.16214 0.33435 -0.29261 0.41735 -0.4771 -0.14726 
#eligeiu 0.27152 -0.21423 -0.16586 0.014942 -0.13034 0.48995 -0.51142 0.093814 -0.35282 -0.24956 0.2492 0.27289 0.23447 0.47832 0.083924 -0.065103 0.23478 0.53927 -0.35586 -0.21897 -0.33328 -0.0073103 0.40938 0.47996 -0.22373 0.39139 0.32327 -0.33026 -0.48351 -0.123 0.056413 -0.038359 0.38119 0.32322 -0.38112 0.05455 0.30506 0.11984 -0.0041488 0.43217 -0.20695 0.21612 0.19142 -0.14379 -0.0052084 -0.10428 -0.24032 0.41631 0.28765 0.19828 
habrá -0.11632 -0.0545 0.028809 -0.14177 0.006213 0.082705 -0.42528 0.14599 -0.33182 -0.37938 0.17505 0.15032 0.25968 0.33677 0.077861 -0.22524 0.30828 0.17416 -0.094358 -0.27627 -0.17147 0.12331 0.31302 0.44414 -0.36731 0.28972 0.37539 -0.16239 -0.30156 -0.31018 0.18079 0.097081 0.33355 0.083691 -0.18053 0.15229 0.44425 0.13243 0.1029 0.044629 -0.046297 0.13828 -0.31197 -0.23476 0.031501 0.066505 -0.21294 0.26301 -0.21423 -0.05174 
general -0.20629 0.21726 0.077749 -0.17706 -0.28883 0.32566 -0.25638 0.15525 -0.33048 -0.2078 0.0204 0.0051352 0.2759 0.22215 0.10989 -0.36105 0.40327 0.30691 -0.24906 -0.077534 -0.22686 0.13201 0.21481 0.36355 -0.4661 0.14154 0.1477 -0.22238 -0.38303 -0.2245 0.12189 -0.04179 0.4083 0.069378 -0.22388 0.33381 0.48001 0.20659 0.13634 -0.059267 -0.12 0.32205 -0.23519 -0.29162 0.018355 -0.19443 -0.16592 0.053348 0.071862 0.034571 
dl -0.20179 0.2457 0.074095 -0.13894 -0.051598 0.030208 -0.26581 0.11257 -0.16627 -0.31701 0.15885 0.075454 0.27354 0.27266 0.056095 -0.27649 0.31891 0.1765 -0.050843 0.14829 -0.15021 0.1961 0.40208 0.42965 -0.24837 0.22123 0.37221 -0.28148 -0.36114 -0.30218 0.25936 -0.0016075 0.43408 0.086887 -0.31576 0.23688 0.82514 0.1361 0.20215 0.084873 -0.094658 0.2716 -0.40218 -0.3025 0.050569 -0.0030355 -0.23274 0.34794 -0.3073 0.069039 
sigue 0.15423 0.10298 -0.14572 -0.27666 -0.10827 0.30089 -0.27978 0.30163 -0.3217 -0.39528 0.16945 0.028642 0.16642 0.36278 0.22421 -0.24725 0.26397 0.15318 -0.023549 -0.073193 -0.12525 0.18433 0.50143 0.40718 -0.29533 0.24571 0.25099 -0.11511 -0.18549 -0.23613 0.23032 0.086757 0.27462 0.074363 -0.21455 0.060062 0.50099 0.076545 0.16074 0.044849 -0.014967 0.18745 -0.22473 -0.25308 0.076307 0.099477 -0.18946 0.29218 -0.19765 0.11541 
favor 0.32972 -0.16809 -0.093821 -0.16466 0.19229 0.21843 -0.23853 0.1368 -0.14371 -0.34367 0.13869 0.090784 -0.0065552 0.27669 0.20324 -0.042482 0.24733 0.066469 -0.11096 -0.34221 -0.24324 0.05904 0.29401 0.1967 -0.31968 0.23863 0.26118 -0.085608 -0.24085 -0.189 0.22039 0.25798 0.31224 0.15155 -0.38272 -0.23275 0.43212 0.037896 0.12731 0.059501 0.010312 0.26163 -0.4244 -0.16519 -0.0011721 0.031692 -0.14175 0.26499 -0.092641 0.36672 
noticias 0.18105 -0.18528 -0.019148 -0.15096 0.02341 0.29182 -0.50031 -0.098872 -0.17366 -0.60427 0.26727 0.0011133 0.07179 0.39517 0.34508 -0.15284 0.20596 0.29546 -0.28146 -0.18608 -0.41526 -0.44227 0.60378 0.58875 -0.24924 0.65138 -0.043541 -0.32008 -0.11098 -0.19333 0.17809 -0.15253 0.069483 0.37727 -0.33021 0.083611 0.64184 0.18307 0.40516 0.26212 -0.33082 0.083071 -0.61782 -0.24161 -0.2472 -0.019012 0.10782 0.58298 -0.29752 -0.13093 
dinero 0.23108 -0.056781 -0.16077 -0.37119 0.043393 0.52876 -0.18595 0.14269 -0.31945 -0.47539 0.14613 0.086383 0.097382 0.19605 0.047927 -0.29939 0.32919 0.203 -0.2279 -0.37379 -0.25291 0.11598 0.25681 0.31859 -0.06312 0.12144 0.23459 -0.1599 -0.20753 -0.12546 0.0062348 -0.0088035 0.52847 -0.022057 -0.34775 -0.069178 0.70418 0.19252 0.084309 0.093244 -0.014205 0.145 -0.46984 0.053413 -0.18237 0.17793 -0.11409 0.19456 -0.29245 -0.0058894 
derecha -0.099203 -0.36919 -0.31182 -0.086297 -0.31174 0.76869 -0.22013 0.21746 -0.38753 -0.2838 0.27435 0.13421 0.19636 0.45771 0.20734 -0.12462 0.12543 0.39526 -0.21758 0.077538 -0.31274 0.15622 0.5319 0.4321 -0.10493 0.14937 0.32422 -0.38852 -0.30341 -0.054265 0.11701 0.1798 0.33565 0.25709 -0.31943 0.062741 0.39247 0.12516 -0.067891 0.2204 -0.10762 0.15427 -0.024361 -0.090562 -0.061303 -0.084408 -0.19264 0.48251 0.09234 0.27449 
