@user 0.083617 -0.44622 -0.14858 0.68064 -0.68382 -0.03289 -0.15932 0.33737 0.099254 0.04218 -0.53596 0.14723 0.024665 0.006725 0.32989 0.01987 0.41617 -0.30845 -0.28801 0.38837 -0.30243 -0.29997 0.30915 0.08421 0.023272 -0.36482 -0.01071 -0.13349 0.31669 0.23392 -0.12858 -0.0092765 0.16823 0.080019 -0.25603 0.045233 -0.13011 0.15007 -0.19562 -0.075828 -0.10297 0.47751 0.17096 0.20179 -0.21221 -0.22454 -0.23903 0.23364 0.031554 0.076791 
no 0.43774 -0.43993 0.11903 0.65735 -0.65815 -0.1089 -0.20768 0.44037 0.19696 0.12095 -0.56302 -0.12045 0.1472 -0.11878 0.24477 -0.15633 0.5039 -0.23221 -0.36907 0.22144 0.1402 -0.058826 0.52267 0.24574 -0.073 -0.40041 0.10271 -0.15626 0.067065 0.28633 -0.20666 0.22215 0.20723 0.33108 -0.60487 0.22534 0.26054 0.12665 -0.031631 -0.1554 -0.40132 0.10351 0.43062 0.057224 -0.23765 -0.4601 -0.43214 0.3181 0.19498 0.41364 
es -0.0081441 -0.45946 0.056349 1.1823 -0.51079 0.28206 -0.29042 0.34309 0.0071681 -0.0010533 -0.44738 -0.17992 0.55191 0.13403 0.25287 -0.35231 0.2651 -0.44343 -0.54461 0.57081 -0.3493 -0.45447 0.18647 -0.13217 0.21709 -0.10946 0.36174 -0.24835 0.25864 0.53652 0.23165 0.11968 0.12916 0.17537 -0.15456 -0.1777 0.095491 0.39041 0.19673 0.42488 -0.35673 0.14686 0.13505 0.22119 -0.18729 -0.23049 -0.31333 -0.044624 0.32585 0.35945 
por 0.30426 -0.432 -0.08297 0.68592 -0.61156 -0.017562 -0.25522 0.40911 0.06222 0.072071 -0.42102 0.092473 0.09336 -0.027637 0.25097 0.069162 0.3112 -0.20012 -0.25164 0.29405 -0.14072 -0.35897 0.37985 0.054608 0.038608 -0.28455 0.0063614 -0.1705 0.3029 0.23409 -0.19151 -0.036629 0.2088 0.14384 -0.29023 0.063179 -0.11285 0.064228 -0.26818 -0.21901 -0.10695 0.30584 0.29203 0.056044 -0.23924 -0.19718 -0.16255 0.17289 0.083979 0.22929 
se 0.57764 -0.31731 0.049158 0.65363 -0.52799 0.018518 -0.27022 0.35029 -0.090183 -0.065892 -0.39765 -0.1448 0.40898 -0.027797 0.18056 -0.055249 0.24934 -0.15361 -0.34609 0.44582 -0.19469 -0.2137 0.28973 0.13784 0.027708 -0.31033 0.36571 -0.12194 0.27834 0.38138 -0.22819 -0.022778 0.012106 0.16703 -0.30988 0.024282 -0.15016 0.27218 -0.011479 -0.19502 -0.52647 0.32528 0.16951 -0.07603 -0.16508 -0.046385 -0.34915 0.21473 0.11337 0.34148 
n 0.60995 -0.63797 -0.10662 1.1708 -1.2271 0.18354 -0.44602 0.53444 0.081628 -0.11469 -0.48358 -0.14859 0.18066 0.0076322 0.282 0.12248 -0.036405 -0.071074 -0.091603 0.41045 -0.22685 -0.4277 0.016006 0.050593 0.18748 -0.48458 0.27058 -0.43176 0.37865 0.28565 -0.14613 0.20864 -0.12924 -0.053131 -0.062242 -0.35113 -0.065375 0.34766 0.082318 -0.027444 -0.56924 0.77454 0.34615 0.16072 -0.63272 -0.19004 -0.63451 0.35205 0.29628 0.51854 
si 0.35639 -0.40522 -0.047968 0.71449 -0.73103 -0.0070427 -0.23993 0.42021 0.059256 -0.037534 -0.54968 -0.053629 0.22429 0.0326 0.32322 -0.15759 0.3468 -0.26094 -0.29735 0.32495 -0.13953 -0.20917 0.27847 0.046793 -0.043297 -0.26578 0.12403 -0.17362 0.24223 0.30016 -0.13139 0.14899 0.033465 0.14539 -0.27225 0.002598 -0.017377 0.26107 -0.049295 -0.018033 -0.34386 0.28891 0.27234 0.10992 -0.33601 -0.29657 -0.41849 0.21961 0.0067759 0.25821 
pero 0.50504 -0.32344 0.11681 0.67502 -0.50922 -0.027575 -0.10887 0.4948 0.17182 0.032035 -0.59947 0.020189 0.20957 -0.03417 0.30403 -0.20281 0.43009 -0.34133 -0.36726 0.13011 0.19123 0.097581 0.35236 0.16626 -0.051268 -0.21603 -0.008227 -0.17384 -0.051907 0.27076 -0.24337 0.035193 0.28985 0.28843 -0.49323 0.39225 0.18205 -0.065732 -0.24667 -0.18307 -0.32119 -0.074845 0.34687 0.065807 -0.3486 -0.51119 -0.43054 0.048537 -0.2051 0.17589 
rt 0.19245 -0.17341 0.22301 0.43932 -0.057119 -0.013752 -0.3666 0.39795 -0.13979 -0.22032 -0.40067 0.092735 0.66292 0.028337 0.24398 -0.17831 0.16416 -0.24321 -0.204 0.43797 -0.13426 -0.30299 0.33087 -0.0019685 0.060541 0.0025931 0.31399 0.078558 0.37523 0.54342 -0.1348 -0.12795 0.17406 0.17526 -0.21049 0.03159 -0.37876 0.14044 -0.33942 -0.35679 -0.45035 0.070892 0.19868 -0.12234 -0.26984 0.015886 -0.35743 -0.13124 -0.075157 0.21912 
ya 0.36882 -0.28005 -0.002569 0.34497 -0.37593 -0.27704 -0.68336 0.4653 -0.05456 -0.26509 -0.44471 0.026498 0.67504 -0.05358 0.20471 -0.28968 0.40457 -0.17821 -0.31162 0.51376 -0.078086 -0.17732 0.43263 -0.066095 -0.072254 -0.20706 0.14343 0.017536 0.2478 0.38755 -0.31737 -0.058626 -0.17871 0.09688 -0.22796 -0.038784 -0.12682 0.27575 -0.13793 -0.17169 -0.28918 0.2324 0.5372 0.0052619 -0.43879 -0.23551 -0.58456 -0.018789 -0.0030078 0.45654 
más 0.22366 -0.43133 -0.11353 0.92492 -0.39448 0.17259 -0.18067 0.17606 0.0073837 -0.062516 -0.37423 -0.096302 0.3857 0.049197 0.18928 -0.22591 0.21768 -0.32852 -0.3483 0.43652 -0.25475 -0.37802 0.20811 -0.069027 0.1307 -0.15708 0.28087 -0.19517 0.23713 0.42466 0.12578 0.039277 0.21723 0.21367 -0.10117 -0.038456 -0.053587 0.26724 -0.066402 0.10932 -0.35513 0.27142 0.16192 0.16206 -0.20562 -0.17577 -0.31909 -0.0042743 0.19789 0.28504 
hoy 0.30129 -0.13281 -0.051566 0.39031 0.020422 0.019898 -0.16666 0.2046 -0.039902 -0.13523 -0.40913 0.030712 0.58016 0.079766 0.31109 -0.24822 0.23944 -0.3021 -0.2983 0.33686 -0.10024 -0.27991 0.36025 0.057472 -0.018437 -0.088211 0.3401 -0.14398 0.27723 0.48834 -0.14164 -0.11708 0.30274 0.25997 -0.23239 0.18318 -0.18941 0.099534 -0.38486 -0.44496 -0.277 -0.081924 0.16158 -0.24879 -0.16171 0.02838 -0.19618 0.0043243 0.13612 0.27135 
gracias -0.25735 -0.28623 0.20062 0.63568 -0.13194 0.24251 -0.13338 0.20388 -0.088943 -0.13506 -0.55859 0.20251 0.56551 0.20973 0.28032 -0.26457 0.29201 -0.47246 -0.4865 0.60922 -0.42673 -0.52082 0.24175 -0.077899 0.25884 -0.02056 0.20077 0.060005 0.28826 0.54385 0.17471 -0.17221 0.38134 0.20244 0.010697 0.041377 -0.26797 0.10988 -0.12737 0.081756 -0.25817 0.31475 -0.10092 0.17688 -0.083936 -0.082012 -0.26999 -0.17778 -0.001788 0.0017223 
hay 0.27892 -0.31927 -0.14573 0.56703 -0.66657 -0.012884 -0.22581 0.41107 0.076418 -0.047179 -0.45964 -0.004432 0.19387 -0.0040266 0.21913 -0.092605 0.31531 -0.23828 -0.31008 0.33429 -0.13209 -0.27024 0.25775 0.034758 -0.008628 -0.3417 0.3223 -0.26311 0.19081 0.21977 -0.027069 0.080489 0.068041 0.14939 -0.21176 -0.00086893 -0.014271 0.19287 -0.017159 0.0058433 -0.30662 0.37351 0.2145 0.17012 -0.26896 -0.27054 -0.39496 0.16193 0.050787 0.14714 
rajoy 0.38765 -0.037525 -0.13174 0.19403 -0.23053 -0.12421 -0.37843 0.45443 -0.16791 -0.16132 -0.091762 0.033893 0.34705 -0.049151 -0.1154 -0.021307 0.17054 -0.11046 -0.16105 0.20973 0.022696 -0.43021 0.4908 0.0090666 -0.073826 -0.21346 0.93373 -0.3502 0.28807 0.37159 0.00032349 0.060523 0.17304 0.20605 -0.19745 0.027742 -0.34549 0.073747 -0.23794 -0.35516 -0.34396 -0.059811 0.22013 -0.060451 -0.049024 0.10435 -0.069926 -0.049729 0.008411 0.047513 
nos -0.16664 -0.46259 0.12037 0.97009 -0.60605 0.44505 -0.18926 0.04981 -0.009085 -0.096324 -0.53687 -0.16517 0.32049 0.10584 0.18325 -0.29095 0.0873 -0.41978 -0.35659 0.55405 -0.34772 -0.72746 0.16921 -0.25088 0.27978 0.010032 0.26027 -0.27529 0.26937 0.43877 0.55034 0.0077134 0.41543 0.26911 0.1509 -0.16158 -0.0036009 0.37972 0.064504 0.46167 -0.33935 0.48321 0.15706 0.34869 -0.28354 -0.15422 -0.28829 -0.12539 0.19367 0.26253 
wink -0.062873 -0.075009 0.24641 0.26734 0.025781 0.046918 -0.19917 0.24522 -0.1291 -0.25638 -0.54635 0.15103 0.69719 0.12608 0.32076 -0.35233 0.32069 -0.47788 -0.3691 0.46024 -0.16885 -0.39614 0.44472 -0.015155 0.063571 0.12825 0.044283 0.15891 0.32797 0.54555 -0.030753 -0.17108 0.35293 0.24131 -0.13096 0.1906 -0.38939 0.038609 -0.49256 -0.40501 -0.36014 0.038807 0.11711 -0.041714 -0.24256 -0.034905 -0.32597 -0.17391 -0.1635 0.043811 
pp 0.68586 -0.37409 -0.076689 0.73724 -0.69075 0.016516 -0.3201 0.40574 -0.0061608 -0.048479 -0.099216 -0.10154 0.25843 -0.080963 0.0085896 0.059745 0.025079 0.0131 -0.12209 0.14361 -0.011073 -0.25781 0.30276 0.044426 0.083247 -0.38651 0.6391 -0.50253 0.24645 0.39419 -0.2299 0.049443 0.19738 0.16135 -0.22637 0.085128 -0.21691 0.08746 -0.30445 -0.46192 -0.39683 0.13228 0.35084 -0.06997 -0.26254 0.0012535 -0.13735 0.16666 0.13801 0.40948 
o 0.73943 -0.63889 0.21384 1.3324 -0.76199 -0.0069922 -0.16683 0.5511 0.29042 0.11396 -0.60543 -0.11111 0.23326 -0.070436 0.36358 -0.20893 0.28666 -0.22809 -0.2147 0.13059 0.19519 0.22963 0.35162 0.20469 -0.054693 -0.38534 0.1204 -0.1859 0.060725 0.42261 -0.32364 0.14589 0.34561 0.37485 -0.62185 0.33522 0.24001 0.095318 -0.12863 -0.18388 -0.29499 -0.22409 0.42136 -0.21149 -0.30959 -0.37619 -0.28884 0.19515 0.067067 0.52405 
todos -0.16427 -0.30982 0.14273 0.68433 -0.48027 0.36453 -0.084789 0.0687 -0.00013276 -0.13673 -0.56245 -0.1029 0.32541 0.12228 0.24051 -0.32046 0.16408 -0.47629 -0.38663 0.49736 -0.3394 -0.66481 0.25695 -0.19723 0.18755 0.029783 0.14611 -0.23298 0.24141 0.41891 0.43025 -0.023651 0.45567 0.30841 0.079619 0.012187 -0.047925 0.27438 -0.061982 0.27589 -0.29229 0.32947 0.096073 0.21816 -0.23132 -0.14508 -0.27227 -0.11588 0.086951 0.13211 
gobierno 0.49356 -0.10175 -0.15482 0.42499 -0.18894 0.039788 -0.2525 0.39056 -0.12076 -0.12176 -0.065804 -0.016179 0.28265 -0.052871 -0.085543 -0.029287 0.058035 -0.16579 -0.12257 0.15145 0.042802 -0.30425 0.32952 -0.01011 -0.014975 -0.16931 0.95212 -0.52721 0.20539 0.38445 0.082313 3.0236e-05 0.25511 0.20122 -0.1831 0.10265 -0.19436 -0.018385 -0.21012 -0.28122 -0.36759 -0.091592 0.13359 -0.024172 -0.15216 -0.029115 -0.1875 -0.12516 -0.044259 0.10559 
españa 0.64552 -0.22535 -0.32097 0.42128 -0.48154 -0.14617 -0.59091 0.47647 -0.065682 -0.19436 -0.28483 0.010787 0.3563 -0.082632 0.082785 -0.042758 0.14027 -0.06605 -0.15449 0.36768 -0.092415 -0.27034 0.33422 -0.090032 -0.034256 -0.29433 0.5068 -0.31859 0.23953 0.25196 -0.20127 -0.02707 -0.074896 0.07051 -0.11494 -0.042304 -0.16773 0.14556 -0.040898 -0.17114 -0.24949 0.25569 0.34513 0.03576 -0.38555 -0.10585 -0.46831 0.033084 -0.051394 0.2789 
está 0.41692 -0.23755 -0.11015 0.48686 -0.28527 -0.11665 -0.26617 0.31104 -0.021735 -0.085324 -0.45539 0.13697 0.24561 -0.0023434 0.23587 -0.036295 0.28065 -0.2578 -0.33843 0.37993 -0.11167 -0.21169 0.32632 0.057721 -0.0003179 -0.27117 0.21987 -0.09483 0.23396 0.31728 -0.2891 -0.071315 0.13242 0.19539 -0.23823 0.16486 -0.18636 0.071591 -0.070554 -0.25169 -0.28784 0.19712 0.20246 0.0011169 -0.19573 -0.085443 -0.40012 0.11861 -0.067921 0.055544 
ahora 0.37818 -0.09012 0.018885 0.22723 -0.28138 -0.14178 -0.43874 0.40393 -0.043018 -0.25106 -0.24851 0.050023 0.52939 -0.02286 0.0946 -0.20649 0.16415 -0.11638 -0.11656 0.25718 -0.037812 -0.16837 0.42454 -0.041903 -0.053737 -0.13329 0.39245 -0.1376 0.21968 0.42702 -0.19987 -0.091084 0.19059 0.14947 -0.16671 0.16294 -0.26284 0.10958 -0.38349 -0.44659 -0.2704 0.03363 0.32763 -0.093873 -0.31925 -0.049107 -0.30459 -0.065999 -0.10082 0.29073 
he 0.28279 -0.26718 0.42238 0.51005 -0.48328 -0.080158 -0.19038 0.32906 -0.0037316 -0.11373 -0.5819 0.055949 0.51397 -0.010294 0.30407 -0.18234 0.39121 -0.27163 -0.44038 0.44565 -0.094074 -0.040533 0.41267 0.17107 0.034523 -0.26135 0.029893 0.19583 0.24573 0.38302 -0.3834 -0.11141 0.12077 0.2837 -0.35086 0.24019 -0.25698 0.11676 -0.22158 -0.40566 -0.47834 0.24583 0.23906 -0.15643 -0.16354 -0.099871 -0.37167 0.11616 -0.12869 0.12824 
mañana 0.17714 -0.088542 0.15023 0.19061 -0.15145 -0.11179 -0.47743 0.3812 -0.1158 -0.31465 -0.43613 0.17463 0.73964 0.074708 0.22102 -0.30906 0.22663 -0.24453 -0.22231 0.36665 -0.13756 -0.35218 0.47932 -0.067026 0.00026291 0.01482 0.17362 0.080663 0.30427 0.51695 -0.16723 -0.18182 0.20644 0.12579 -0.11388 0.1022 -0.34882 0.11003 -0.4707 -0.50313 -0.19742 -0.042521 0.26036 -0.14966 -0.3155 0.047625 -0.27203 -0.10915 -0.090338 0.27297 
todo 0.27887 -0.25616 0.23244 0.59503 -0.46524 -0.0051798 0.11577 0.25081 0.24938 -0.017151 -0.55901 -0.060194 0.17503 0.0080784 0.27941 -0.3201 0.38665 -0.42731 -0.39009 0.13755 0.017738 0.013346 0.42177 0.13682 -0.072253 -0.19724 0.0073096 -0.11279 -0.048039 0.33757 -0.17899 0.070742 0.45813 0.44613 -0.40039 0.49899 0.1566 -0.029203 -0.22128 -0.21687 -0.36221 -0.018077 0.16411 0.006963 -0.20327 -0.43685 -0.50437 0.17275 -0.1173 0.095885 
psoe 0.95311 -0.40999 -0.37762 0.85324 -0.48861 -0.038702 -0.25028 0.30629 -0.086663 -0.056463 -0.11248 -0.044131 0.1849 -0.098844 -0.033363 0.082873 0.11581 -0.039712 -0.27766 0.26852 -0.048615 -0.19677 0.20385 0.083194 0.073776 -0.36578 0.49066 -0.30291 0.1988 0.25525 -0.22435 -0.040192 0.021288 0.15212 -0.16044 0.086178 -0.24967 0.066279 -0.13072 -0.28767 -0.48338 0.33193 0.26211 0.029788 -0.21708 -0.095764 -0.34159 0.10913 -0.084868 0.12153 
día 0.32912 -0.23581 0.15564 0.29278 -0.30855 -0.24796 -0.6757 0.49749 -0.077702 -0.2658 -0.37004 0.21684 0.64669 -0.007497 0.13856 -0.22012 0.3173 -0.092927 -0.2509 0.45323 -0.093549 -0.25928 0.45268 -0.066182 -0.026099 -0.20639 0.28695 0.064679 0.22688 0.456 -0.34374 -0.20758 0.01092 0.097867 -0.19211 0.070341 -0.26802 0.108 -0.25649 -0.35507 -0.16738 0.10287 0.42996 -0.095517 -0.35364 -0.053305 -0.40237 -0.082309 -0.10918 0.36111 
porque 0.3568 -0.20215 0.094781 0.30758 -0.54015 -0.051488 -0.17603 0.36724 0.040968 -0.047863 -0.54307 0.10561 0.24523 0.0040084 0.29181 -0.1225 0.35857 -0.19303 -0.39103 0.3051 -0.12361 -0.21696 0.36999 0.10367 0.03562 -0.25946 -0.002356 -0.065875 0.11086 0.21684 -0.25096 -0.12155 0.13091 0.19295 -0.24128 0.24718 -0.11402 0.025223 -0.22303 -0.30707 -0.23369 0.31807 0.18405 0.042521 -0.22623 -0.25323 -0.39469 0.15329 -0.13367 0.088064 
sin 0.41295 -0.32626 0.023139 0.68287 -0.6752 0.095527 -0.20805 0.36496 -0.021637 -0.18299 -0.47395 -0.050613 0.26522 0.072387 0.25635 -0.072542 0.13017 -0.29767 -0.16686 0.30224 -0.11849 -0.39366 0.21843 0.036822 0.032272 -0.19829 0.22562 -0.29327 0.31736 0.35721 -0.095749 0.10719 0.12467 0.1152 -0.11123 -0.034049 -0.15727 0.18099 -0.18214 -0.21642 -0.3681 0.16398 0.21816 -0.046389 -0.36604 -0.0019837 -0.21993 0.12619 0.064579 0.2496 
son 0.23603 -0.36246 -0.037586 0.70464 -0.67921 0.20956 -0.20364 0.364 -0.0028215 -0.15868 -0.62226 -0.064162 0.22642 0.11986 0.35346 -0.098078 0.17017 -0.38862 -0.25689 0.41413 -0.27422 -0.53119 0.16577 -0.041963 0.064096 -0.21176 0.2577 -0.35751 0.32196 0.31965 0.10176 0.13429 0.11304 0.089866 -0.029819 -0.14505 -0.012263 0.27573 -0.0012882 0.13215 -0.25078 0.23802 0.10531 0.029252 -0.35713 -0.072854 -0.26285 0.12239 0.13424 0.23116 
va 0.61571 -0.38671 -0.18578 0.50905 -0.59053 -0.38996 -0.78288 0.48131 -0.041517 -0.20582 -0.30952 -0.029099 0.47643 -0.17582 0.083444 -0.15392 0.37612 -0.051875 -0.18404 0.43196 -0.012737 -0.17891 0.54591 -0.046607 -0.13744 -0.37049 0.16859 -0.0012627 0.32503 0.36848 -0.43161 0.085 -0.17053 0.069386 -0.27061 -0.043457 -0.19827 0.33274 -0.10006 -0.23197 -0.26921 0.28979 0.69268 -0.0030571 -0.40625 -0.1089 -0.38129 0.13693 0.064026 0.5109 
ser 0.20622 -0.53203 -0.37785 0.68573 -0.66511 -0.068918 -0.20265 0.31519 0.067445 0.10564 -0.53603 -0.0076782 -0.054155 -0.0074194 0.32926 0.087133 0.49838 -0.38036 -0.28882 0.43046 -0.27355 -0.44867 0.42527 0.11419 -0.078609 -0.34637 -0.21848 -0.096489 0.40814 0.1816 -0.093538 0.18277 0.10079 0.075226 -0.34013 -0.073242 -0.051735 0.25556 -0.14838 -0.040101 -0.2147 0.53479 0.28103 0.26272 -0.27607 -0.31542 -0.26673 0.41102 0.20637 0.21694 
dice 0.52625 -0.19577 -0.074725 0.3459 -0.36579 -0.11785 -0.26187 0.30504 -0.11877 -0.10147 -0.25029 0.012578 0.31512 -0.083634 -0.009296 -0.022573 0.35299 -0.13275 -0.40576 0.33954 -0.063896 -0.23544 0.38047 0.14136 -0.037154 -0.3507 0.63366 -0.21798 0.18502 0.24855 -0.22526 -0.092381 0.042458 0.21278 -0.28683 0.087878 -0.18445 0.055514 -0.031637 -0.27625 -0.39105 0.20384 0.19265 -0.055941 -0.049495 -0.07162 -0.27545 0.061086 -0.00089628 0.060708 
ver 0.044433 -0.41626 -0.17552 0.50788 -0.54702 -0.19443 -0.265 0.40988 0.11239 0.042281 -0.88806 0.23736 0.16754 -0.0021379 0.51215 -0.13171 0.70548 -0.48743 -0.39686 0.47218 -0.20279 -0.34119 0.57402 0.1191 -0.12835 -0.26968 -0.48751 0.11194 0.36874 0.1854 -0.27968 0.035854 0.12803 0.16889 -0.36155 0.11248 -0.036999 0.14319 -0.29713 -0.16037 0.011941 0.32921 0.33292 0.089129 -0.28286 -0.37132 -0.25097 0.23172 -0.010597 0.14295 
mas -0.14973 -0.49731 0.10767 1.0832 -0.27629 0.369 -0.16238 0.11921 -0.073998 -0.12045 -0.34531 -0.056108 0.60241 0.15142 0.1331 -0.25088 0.16856 -0.37254 -0.46539 0.62839 -0.42995 -0.43217 0.032662 -0.13312 0.31739 -0.15404 0.51806 -0.23273 0.2889 0.60094 0.30781 -0.0026299 0.19449 0.17392 0.053663 -0.19828 -0.12879 0.27826 0.040437 0.32607 -0.45842 0.37049 0.019458 0.28999 -0.17843 -0.15293 -0.38659 -0.21702 0.27573 0.29315 
mejor 0.11772 -0.24362 -0.091249 0.39173 -0.35969 -0.042781 -0.24141 0.43631 0.026417 -0.052614 -0.59786 0.2062 0.29947 0.072439 0.36333 -0.09971 0.39185 -0.3628 -0.30594 0.39029 -0.20554 -0.37931 0.40173 0.003288 -0.034359 -0.12626 -0.060853 -0.0013363 0.29102 0.21882 -0.09452 -0.090734 0.10584 0.090269 -0.22448 0.022058 -0.12318 0.048791 -0.25392 -0.14972 -0.13803 0.23796 0.13698 0.090605 -0.29723 -0.27281 -0.38122 0.027144 -0.10728 0.037113 
han 0.1862 -0.37722 -0.027218 0.70404 -0.58333 0.17339 -0.15607 0.19889 -0.025199 -0.17134 -0.46846 -0.09728 0.20382 0.060477 0.23004 -0.080605 0.1941 -0.41399 -0.33413 0.47183 -0.22213 -0.56821 0.18924 -0.04163 0.083666 -0.30114 0.31053 -0.36059 0.3268 0.31543 0.11966 0.12389 0.17904 0.19779 0.0075435 -0.090679 -0.032638 0.28628 0.014663 0.13384 -0.32882 0.30595 0.18422 0.044093 -0.27709 -0.0068344 -0.20945 0.076943 0.2398 0.17262 
días -0.30693 -0.33181 0.29092 0.80092 -0.13706 0.38305 -0.14144 0.082071 -0.086606 -0.16181 -0.46044 0.10401 0.6578 0.23609 0.23692 -0.36627 0.18847 -0.40148 -0.45894 0.60312 -0.41288 -0.52452 0.14103 -0.13749 0.31545 -0.031601 0.38581 -0.11665 0.23752 0.66106 0.25388 -0.20749 0.48737 0.27567 0.081949 0.015374 -0.22199 0.14738 -0.16405 0.067771 -0.25774 0.26839 -0.069182 0.15722 -0.1328 -0.066633 -0.274 -0.24973 0.15437 0.20764 
hacer 0.031248 -0.36048 -0.19635 0.38791 -0.71363 -0.11893 -0.1893 0.3877 0.089025 0.04612 -0.54864 0.10406 -0.052736 -0.045171 0.24303 0.01234 0.57013 -0.3464 -0.33922 0.36222 -0.189 -0.43209 0.51123 0.081162 -0.10427 -0.42137 0.072694 -0.21762 0.29247 0.10737 -0.039215 0.12516 0.15541 0.17214 -0.29464 0.050151 0.0079374 0.16982 -0.099433 0.059943 -0.04387 0.37735 0.26366 0.22902 -0.16751 -0.27287 -0.11271 0.24507 0.10613 0.050611 
madrid 0.14479 -0.1456 0.12987 0.50389 -0.29689 0.084338 -0.25181 0.34962 -0.078381 -0.19864 -0.37262 0.14211 0.4998 0.091379 0.20371 -0.17836 0.050211 -0.22824 -0.11488 0.23369 -0.12924 -0.33485 0.27917 -0.053505 0.090898 0.090538 0.15311 0.029284 0.31503 0.46977 -5.9605e-05 -0.11028 0.30677 0.10363 -0.05919 0.094941 -0.41204 0.037987 -0.51161 -0.49293 -0.36475 0.1105 0.092724 0.019275 -0.34259 -0.027105 -0.32862 -0.069895 -0.18668 0.10009 
tiene 0.4694 -0.24301 0.011698 0.44079 -0.57299 -0.078798 -0.1895 0.38673 0.037844 -0.056606 -0.55865 0.081221 0.27177 -0.037866 0.25102 -0.098363 0.37402 -0.21376 -0.36982 0.32691 -0.12744 -0.12008 0.33468 0.14009 0.00057697 -0.38043 0.26968 -0.20591 0.13643 0.21777 -0.31439 -0.11791 0.021198 0.18072 -0.2895 0.16428 -0.084261 0.043624 -0.056252 -0.21034 -0.22114 0.24821 0.16734 -0.028125 -0.15771 -0.2071 -0.35704 0.12245 -0.13534 0.064216 
gran 0.25382 -0.24417 0.059924 0.54605 -0.30048 0.11336 -0.14459 0.22606 -0.077981 -0.1991 -0.38227 0.003596 0.35724 0.066836 0.25074 -0.10752 0.13876 -0.40816 -0.24608 0.34538 -0.16522 -0.44861 0.32419 0.016709 0.079798 -0.10603 0.2122 -0.13844 0.36734 0.43863 -0.036233 -0.019006 0.30923 0.20391 -0.080107 0.082079 -0.25148 0.12504 -0.30684 -0.27481 -0.38578 0.11766 0.14979 -0.097152 -0.25948 0.083641 -0.18389 0.014022 0.035651 0.10384 
bien 0.071265 -0.22925 0.10036 0.3949 -0.42475 -0.041811 -0.30697 0.35092 -0.14389 -0.25669 -0.57759 0.005966 0.26586 -0.018657 0.14338 -0.13198 0.42611 -0.47158 -0.38477 0.50708 -0.10254 -0.50965 0.3817 0.033259 -0.049927 -0.12515 0.097759 0.025431 0.36643 0.32428 0.010181 0.17765 -0.01458 0.16324 -0.11996 -0.085166 -0.17434 0.22443 -0.014018 0.083422 -0.51756 0.28616 0.32364 0.17653 -0.28793 -0.12506 -0.41935 0.0074421 -0.066069 -0.067932 
años -0.11756 -0.3285 0.17526 0.73272 -0.50371 0.36638 -0.21605 0.18562 -0.054755 -0.18323 -0.51913 -0.063526 0.38705 0.096154 0.13233 -0.28088 0.07083 -0.41595 -0.33584 0.51421 -0.27346 -0.65888 0.18673 -0.23513 0.21719 0.0039191 0.40867 -0.27857 0.2554 0.44194 0.47595 -0.0025449 0.33351 0.25381 0.10177 -0.10095 -0.09742 0.27278 0.031571 0.32723 -0.35605 0.31161 0.1291 0.23616 -0.24892 -0.082987 -0.27553 -0.23575 0.063782 0.14116 
% 0.66714 -0.44033 -0.13847 1.1391 -0.46774 0.065522 -0.41639 0.45071 -0.080828 -0.13633 -0.21996 -0.0018802 0.4223 -0.0091016 0.075045 -0.039786 0.021014 -0.13752 -0.10277 0.31739 -0.053597 -0.16085 0.13541 -0.065235 0.021633 -0.318 0.96252 -0.49528 0.36911 0.46518 -0.12123 -0.04073 0.058795 0.13543 -0.17695 -0.078247 -0.23738 0.15612 -0.064832 -0.070865 -0.23466 -0.0882 0.24547 -0.18892 -0.24777 0.07604 -0.12092 -0.13219 0.046718 0.30846 
vía 0.53163 -0.25622 0.022869 0.51697 -0.48673 -0.22867 -0.63863 0.53407 -0.033073 -0.22909 -0.18554 0.087758 0.51958 -0.088804 0.021785 -0.14045 0.14949 -0.02017 -0.058516 0.2839 -0.036797 -0.1307 0.44493 -0.064962 -0.066617 -0.30245 0.60744 -0.19269 0.27534 0.50898 -0.32279 -0.086437 0.10664 0.1177 -0.20982 0.089714 -0.26594 0.16369 -0.27935 -0.36696 -0.15527 -0.014836 0.45389 -0.1641 -0.29763 0.11024 -0.14691 -0.050363 -0.051265 0.45612 
m 0.5145 -0.45922 0.059678 0.94241 -0.70683 0.047823 -0.42813 0.49793 0.034392 -0.1446 -0.43795 -0.0025472 0.57731 0.019453 0.28669 -0.11472 0.058334 -0.07642 -0.11147 0.34272 -0.16068 -0.18482 0.22548 -0.0074392 0.11329 -0.29206 0.38224 -0.2371 0.35246 0.42977 -0.25893 -0.038805 -0.0050209 0.043571 -0.20445 -0.12393 -0.18284 0.21911 -0.23462 -0.33503 -0.28877 0.12939 0.2926 -0.20529 -0.3724 -0.021454 -0.26947 0.073353 0.16852 0.56519 
hace 0.23123 -0.20376 0.17727 0.27987 -0.53918 -0.070341 -0.15681 0.34639 0.0074283 -0.09999 -0.56964 0.049122 0.343 -0.01429 0.25585 -0.16564 0.47816 -0.28969 -0.4527 0.39771 -0.12326 -0.18329 0.43028 0.1405 -0.031878 -0.36884 0.33381 -0.15566 0.18969 0.26723 -0.212 -0.077178 0.10414 0.25897 -0.31941 0.183 -0.075101 0.13373 -0.090174 -0.15304 -0.24669 0.19121 0.19485 -0.055135 -0.10412 -0.12541 -0.21067 0.0944 -0.0069609 0.097784 
estoy 0.12682 -0.096377 -0.0045185 0.11859 0.028929 -0.15708 -0.23783 0.29057 -0.063105 -0.1759 -0.75943 0.22084 0.43974 0.05982 0.40225 -0.27227 0.58856 -0.56975 -0.5489 0.54395 -0.10034 -0.37026 0.52358 0.037173 -0.1234 -0.092871 0.034664 0.092328 0.24584 0.3317 -0.17408 -0.062391 0.09972 0.2881 -0.28683 0.21425 -0.13547 0.072939 -0.11901 -0.1319 -0.22787 -0.011867 0.20653 -0.040021 -0.18033 -0.19204 -0.42564 -0.0034319 -0.16202 -0.098594 
mucho 0.3952 -0.3432 -0.10386 0.65831 -0.30463 -0.07736 -0.039967 0.24597 0.10092 -0.010709 -0.46464 -0.018809 0.16126 -0.021948 0.25145 -0.2013 0.42367 -0.41946 -0.38265 0.27327 -0.037738 -0.15076 0.44097 0.085111 -0.063506 -0.13564 -0.22778 0.13338 0.11126 0.30214 -0.058675 0.10334 0.31421 0.31124 -0.33259 0.31271 -0.023907 0.077328 -0.25477 -0.14604 -0.43271 0.18394 0.25417 0.21125 -0.27454 -0.42485 -0.56484 0.13561 -0.14492 0.011503 
ja 0.33235 -0.17629 0.17169 0.18171 -0.27578 -0.27919 -0.73753 0.56974 -0.062897 -0.29033 -0.56651 0.1312 0.79987 -0.021556 0.30168 -0.32635 0.38373 -0.19154 -0.26182 0.50378 -0.075668 -0.23731 0.51988 -0.052341 -0.088586 -0.10528 0.04858 0.17582 0.28205 0.46993 -0.38523 -0.1233 -0.047885 0.10918 -0.28521 0.052476 -0.22226 0.22384 -0.31605 -0.39247 -0.26091 0.10155 0.49926 -0.14975 -0.47749 -0.14749 -0.54273 -0.031667 -0.048046 0.5013 
tengo 0.17747 -0.2424 0.15818 0.34872 -0.31814 -0.063852 0.0090673 0.24729 0.16297 -0.013638 -0.80556 0.018436 0.28038 0.039744 0.48296 -0.34699 0.60245 -0.53454 -0.5413 0.32514 -0.044089 -0.12407 0.4887 0.14344 -0.087733 -0.20613 -0.18454 -0.082289 0.050138 0.31302 -0.18329 -0.0054953 0.32516 0.39715 -0.43597 0.405 0.1574 0.016886 -0.23317 -0.15881 -0.23176 0.011185 0.25184 0.0060585 -0.25102 -0.48377 -0.46489 0.12466 -0.084108 0.083677 
buenos -0.38213 -0.23342 0.38675 0.62002 -0.20752 0.38706 -0.10512 0.044865 -0.092538 -0.19945 -0.58771 0.020124 0.48835 0.17079 0.26536 -0.40992 0.17276 -0.5635 -0.37879 0.50767 -0.27352 -0.64433 0.2877 -0.20293 0.18665 0.16282 0.25762 -0.10685 0.29284 0.53685 0.40999 -0.16564 0.57414 0.35537 0.11483 0.058842 -0.16308 0.18162 -0.24437 0.17421 -0.22648 0.11629 0.062804 0.14509 -0.2174 -0.045706 -0.15179 -0.28513 -0.033231 0.068297 
voto 0.77591 -0.64922 -0.19317 1.1483 -1.4252 -0.16305 0.0061974 0.42189 0.36305 0.24385 -0.38579 -0.20323 -0.39806 -0.20691 0.14028 0.0015691 0.37864 -0.090188 -0.14975 -0.13827 0.13207 0.2291 0.48442 0.27709 -0.13897 -0.74791 0.15437 -0.54897 0.043568 0.17973 -0.29741 0.33233 0.4075 0.35752 -0.55171 0.43374 0.18616 0.068158 -0.1758 -0.27995 -0.2669 0.27383 0.47277 0.23795 -0.25624 -0.49479 -0.2109 0.55981 -0.0037385 0.26109 
- 0.49318 -0.36416 0.058168 0.87175 -0.26729 0.029688 -0.39009 0.35058 -0.065771 -0.1618 -0.43127 0.062584 0.64098 0.016689 0.28309 -0.17901 0.13619 -0.20321 -0.18813 0.38568 -0.0843 -0.188 0.2586 0.011027 0.048346 -0.15177 0.46836 -0.16961 0.37946 0.53945 -0.24548 -0.089013 0.1385 0.18596 -0.22329 0.0082525 -0.25004 0.16646 -0.28592 -0.3671 -0.22495 -0.083697 0.27663 -0.32694 -0.25375 0.11544 -0.14233 -0.059119 0.12857 0.43098 
votar 0.24011 -0.69562 -0.48869 0.83601 -1.5573 -0.14063 -0.091217 0.34023 0.26643 0.25685 -0.49766 -0.10859 -0.49023 -0.1183 0.20457 0.19243 0.5201 -0.20665 -0.23528 0.1555 -0.22846 -0.36109 0.55073 0.15853 -0.073224 -0.74254 -0.11313 -0.55566 0.31906 -0.052959 -0.13917 0.33856 0.10093 0.10101 -0.30824 -0.014808 0.11076 0.21824 -0.070269 -0.013485 -0.12713 0.84753 0.42654 0.51779 -0.28717 -0.50876 -0.21079 0.65106 0.21689 0.13582 
gente 0.21287 -0.19224 0.30141 0.38416 -0.71224 -0.074998 -0.087799 0.39148 -0.00087719 -0.12377 -0.39003 0.043518 0.23137 -0.027447 0.12238 -0.085473 0.32385 -0.26785 -0.36646 0.32593 -0.16163 -0.12723 0.42711 0.13959 0.026885 -0.33885 0.15643 -0.041689 0.17581 0.29705 -0.19305 -0.022792 0.10625 0.23121 -0.2724 0.24424 -0.2388 0.11125 -0.13346 -0.29161 -0.42102 0.30905 0.11119 0.017246 -0.10469 -0.10519 -0.33738 0.12446 -0.2188 -0.067482 
solo 0.40426 -0.34216 -0.047911 0.63293 -0.671 0.035079 -0.12853 0.49828 0.18894 0.032456 -0.69166 -0.025965 0.1408 0.029234 0.40767 -0.2074 0.37296 -0.30829 -0.30378 0.19662 -0.03445 -0.12271 0.31616 0.096539 -0.078175 -0.29059 0.20686 -0.36217 0.039963 0.21629 -0.070852 0.085783 0.21181 0.21132 -0.3655 0.19997 0.27291 0.10536 -0.016187 0.024624 -0.12928 0.025841 0.15587 0.023181 -0.28 -0.41414 -0.35144 0.21897 0.018589 0.30184 
puede 0.43221 -0.2655 0.064185 0.4109 -0.6393 -0.055411 -0.18192 0.35557 0.017323 -0.024231 -0.45094 0.038987 0.23138 -0.048134 0.16841 -0.055627 0.36378 -0.1482 -0.4022 0.29759 -0.063533 -0.18138 0.36527 0.13383 0.024245 -0.38758 0.30011 -0.32381 0.11297 0.20766 -0.2878 -0.077153 0.033285 0.17215 -0.27706 0.17211 -0.081758 0.0228 -0.12451 -0.24584 -0.2525 0.26862 0.26837 0.04144 -0.18265 -0.24483 -0.24977 0.12489 -0.057611 0.15453 
vamos 0.052139 -0.36496 -0.1192 0.58828 -0.5494 0.20581 -0.10341 -0.11627 -0.00987 -0.10908 -0.47457 -0.24329 0.18268 -0.011722 0.15158 -0.25378 0.26475 -0.38236 -0.40885 0.45775 -0.25909 -0.65878 0.42385 -0.12796 0.13645 -0.086284 -0.035783 -0.23447 0.24145 0.33728 0.30866 0.077236 0.39118 0.34992 0.02769 0.033139 -0.0030599 0.36086 -0.062545 0.10949 -0.37103 0.48005 0.31896 0.29424 -0.19801 -0.13621 -0.21538 0.061858 0.23848 0.20446 
contra 0.80479 -0.10115 -0.29227 0.40789 -0.29296 -0.1208 -0.46337 0.40623 -0.09013 -0.31796 0.055996 0.057153 0.55426 -0.02674 -0.065 -0.041246 -0.072482 0.024689 0.074693 0.20201 -0.03846 -0.19049 0.29253 -0.054885 -0.038841 -0.15606 0.67566 -0.41461 0.18557 0.45445 -0.27966 -0.1848 0.099534 0.06162 -0.071625 0.091585 -0.34209 0.014626 -0.49949 -0.69838 -0.30581 0.038262 0.2469 -0.1663 -0.36777 0.093681 -0.28292 -0.10963 -0.087782 0.36671 
nada 0.30242 -0.15926 0.086359 0.17666 -0.38237 -0.21938 -0.52607 0.44181 -0.032644 -0.20263 -0.44225 0.13854 0.54062 -0.021829 0.17662 -0.24354 0.30943 -0.14239 -0.23453 0.31084 -0.051729 -0.19182 0.47174 -0.022161 -0.075765 -0.16043 0.28758 -0.064049 0.21208 0.3715 -0.2504 -0.10864 -0.0026473 0.097085 -0.22542 0.0958 -0.21089 0.10308 -0.30055 -0.34308 -0.16563 0.12253 0.40403 0.0026352 -0.34431 -0.16506 -0.38476 0.00037164 -0.086899 0.31195 
congreso 0.73712 0.0029787 -0.21228 0.3471 0.18348 -0.012433 -0.11183 0.25127 -0.14093 -0.18649 0.18799 -0.0068918 0.35158 -0.047617 -0.22431 0.0033282 -0.098254 -0.15651 -0.039631 0.027034 0.13927 -0.17266 0.31792 0.080025 -0.042942 -0.012868 0.7394 -0.32874 0.087161 0.47976 -0.061316 -0.11068 0.44165 0.31015 -0.19258 0.37878 -0.40346 -0.22022 -0.57805 -0.77416 -0.61214 -0.14865 0.099589 -0.074188 -0.17527 -0.019078 -0.37314 -0.19518 -0.20705 0.0055296 
menos 0.11817 -0.29657 -0.10545 0.75815 -0.098397 0.30851 -0.14982 0.042361 -0.074104 -0.15224 -0.45472 -0.040298 0.43205 0.10618 0.22125 -0.29012 0.11228 -0.46483 -0.34388 0.49324 -0.2687 -0.62609 0.21351 -0.23329 0.13135 0.075308 0.27288 -0.20356 0.26458 0.43604 0.38745 -0.098175 0.39509 0.27929 0.089519 -0.020951 -0.090546 0.23174 -0.14255 0.19404 -0.24481 0.14629 0.09922 0.11212 -0.24299 -0.095939 -0.26445 -0.22167 0.053143 0.16057 
bueno -0.055273 -0.16134 0.48276 0.31889 -0.26375 0.019865 -0.14202 0.3817 0.029797 -0.091309 -0.67965 0.12543 0.41545 0.052013 0.33449 -0.35119 0.43624 -0.44864 -0.37564 0.28177 0.040631 -0.2004 0.50783 0.11055 -0.024947 -0.041223 0.093177 0.056612 0.13321 0.41621 -0.085582 -0.070313 0.415 0.37233 -0.34481 0.33588 -0.044072 -0.029104 -0.34314 -0.25274 -0.26807 -0.099901 0.19961 -0.014323 -0.2417 -0.2898 -0.33574 -0.039146 -0.17353 0.083669 
nuevo 0.30065 -0.14245 0.1005 0.45731 -0.059539 -0.0086915 -0.035864 0.26537 0.083443 -0.045445 -0.51049 0.10842 0.36823 0.062262 0.3292 -0.2867 0.32322 -0.40466 -0.2928 0.19285 0.030928 -0.17157 0.49825 0.094333 -0.05348 -0.046895 0.067075 -0.018026 0.13267 0.44925 -0.11959 -0.089543 0.5641 0.37721 -0.34475 0.46185 -0.13401 -0.06965 -0.4878 -0.4546 -0.1982 -0.21551 0.13785 -0.14714 -0.16394 -0.13806 -0.19851 -0.0068311 -0.14115 0.073574 
soy 0.18806 -0.17044 -0.029414 0.17244 -0.28931 -0.10059 -0.25315 0.36595 -0.015431 -0.13385 -0.72872 0.031277 0.46309 0.074637 0.43969 -0.29184 0.53497 -0.43604 -0.43794 0.43264 -0.12427 -0.37588 0.49199 0.084589 -0.12107 -0.11004 -0.026069 -0.0039517 0.28078 0.31867 -0.1282 0.059723 0.037534 0.19465 -0.30343 0.079632 -0.052836 0.20348 -0.19451 -0.18356 -0.29261 0.10552 0.24738 -0.022136 -0.25733 -0.24032 -0.3881 0.155 0.053217 0.18256 
entre 0.40762 -0.12989 0.14429 0.47934 -0.3081 -0.02292 -0.27027 0.41935 -0.10122 -0.17045 -0.31005 0.11877 0.46542 -0.015722 0.12746 -0.093734 0.14327 -0.19477 -0.24545 0.30199 -0.075096 -0.12166 0.33089 0.050007 0.026434 -0.16297 0.45974 -0.10219 0.23957 0.41848 -0.23629 -0.13651 0.13954 0.18118 -0.20272 0.1864 -0.35428 0.022416 -0.23591 -0.41279 -0.35185 0.050925 0.12603 -0.14139 -0.18003 0.042954 -0.2473 -0.043446 -0.22208 0.058191 
noche 0.1275 -0.14483 0.34992 0.35114 -0.33888 0.01586 -0.30544 0.43405 -0.065635 -0.16793 -0.56847 0.24362 0.62276 0.091088 0.30426 -0.21022 0.2263 -0.23243 -0.2712 0.3549 -0.14009 -0.26781 0.41805 0.080776 0.11353 -0.017372 0.070123 0.24599 0.28685 0.45924 -0.21474 -0.20688 0.28393 0.16426 -0.17337 0.1811 -0.43738 -0.0001101 -0.41512 -0.54136 -0.30983 0.1706 0.096946 -0.11028 -0.21534 -0.014615 -0.30621 -0.0051009 -0.22998 0.075506 
e 0.85337 -0.44575 0.20667 1.0447 -0.72515 -0.01918 -0.37661 0.48468 -0.021261 -0.084094 -0.31556 -0.029345 0.43424 -0.13227 0.15138 0.071928 0.093537 -0.0043183 -0.26188 0.4244 -0.10563 0.061517 0.2541 0.15685 0.11831 -0.46221 0.56093 -0.1356 0.30559 0.41165 -0.51902 -0.13355 -0.039396 0.20187 -0.35277 0.098053 -0.30506 0.18463 -0.0075107 -0.37499 -0.49034 0.21353 0.27388 -0.34859 -0.15606 0.12196 -0.22366 0.15671 -0.024593 0.33081 
rubalcaba 0.68086 -0.23646 -0.73062 0.41422 -0.066319 -0.1524 -0.31357 0.11413 -0.14006 -0.13055 -0.031224 -0.070467 0.3052 -0.082463 -0.047106 -0.080386 0.25175 -0.19401 -0.29334 0.31492 -0.10415 -0.43701 0.40139 -0.035969 -0.040296 -0.18781 0.40266 -0.3103 0.2551 0.27682 -0.057088 -0.0091136 0.10098 0.11627 -0.064241 -0.0039547 -0.23439 0.12435 -0.23522 -0.3054 -0.33354 0.27858 0.31503 0.11618 -0.22461 -0.12111 -0.32042 0.057882 0.13617 0.1794 
también 0.12255 -0.186 0.011278 0.37571 -0.36704 0.069941 -0.081069 0.25528 -0.0086951 -0.12962 -0.53874 0.018073 0.2641 0.072368 0.27282 -0.16037 0.30834 -0.406 -0.33982 0.34076 -0.16381 -0.37553 0.29742 0.044487 0.0015236 -0.17533 0.23071 -0.27417 0.22218 0.32349 0.0049121 0.00053156 0.22073 0.2013 -0.1335 0.11376 -0.058087 0.084565 -0.17225 -0.092382 -0.25057 0.1416 0.1227 0.045857 -0.22525 -0.15618 -0.28242 0.026765 -0.016559 0.038316 
voy 0.17061 -0.2637 0.013872 0.35437 -0.4869 -0.18561 -0.19707 0.32936 0.068243 -0.046767 -0.66588 0.072069 0.24961 -0.011155 0.34336 -0.22485 0.55311 -0.37672 -0.38549 0.32101 -0.045955 -0.20038 0.52023 0.12685 -0.14386 -0.29142 -0.040528 -0.0087489 0.24057 0.28176 -0.232 0.094945 0.13488 0.27636 -0.33516 0.19568 -0.045927 0.14523 -0.19455 -0.19612 -0.19296 0.11916 0.33712 0.0098107 -0.18338 -0.2425 -0.27061 0.20174 -0.01367 0.10459 
cosas -0.17162 -0.37657 0.10672 0.79839 -0.52159 0.36973 -0.08373 0.18297 0.022931 -0.11725 -0.42183 -0.0097639 0.43505 0.17579 0.2277 -0.22517 0.16317 -0.33971 -0.35604 0.52932 -0.41045 -0.46995 0.075427 -0.093116 0.30236 -0.12508 0.27522 -0.30331 0.17823 0.46604 0.24009 -0.049075 0.32049 0.1647 0.06211 -0.053282 -0.086063 0.18494 -0.10275 0.10484 -0.33959 0.49121 -0.042038 0.30878 -0.26271 -0.20693 -0.37173 -0.091244 0.17245 0.23641 
feliz -0.39754 -0.018836 0.55341 0.11684 -0.16162 0.031466 -0.16282 0.40438 -0.1016 -0.28174 -0.75839 0.26735 0.6579 0.18443 0.41486 -0.44909 0.41837 -0.61132 -0.42579 0.42689 -0.21703 -0.36185 0.47973 -0.0043362 0.040144 0.15116 -0.016016 0.21412 0.28173 0.57537 0.025972 -0.18647 0.39865 0.27917 -0.15325 0.30873 -0.3979 -0.0047635 -0.49845 -0.33525 -0.37797 0.03999 0.056433 0.080506 -0.28602 -0.1675 -0.44864 -0.22353 -0.41349 -0.19277 
sí 0.19808 -0.27752 0.06459 0.3933 -0.45185 -0.08402 -0.2821 0.42872 -0.034002 -0.099592 -0.6414 0.013949 0.33172 -0.0027111 0.30652 -0.17526 0.48465 -0.39017 -0.41766 0.43138 -0.089384 -0.25929 0.39121 0.070813 -0.11906 -0.21768 0.18848 -0.10042 0.25309 0.29914 -0.11705 0.12119 -0.010366 0.19279 -0.34277 0.037221 -0.011072 0.21635 -0.015215 0.020136 -0.34872 0.16009 0.27286 0.068095 -0.28145 -0.28068 -0.45622 0.11969 -0.033 0.14906 
tan -0.093396 -0.31291 0.28417 0.4763 -0.64165 0.16919 -0.11192 0.25326 0.033473 -0.17667 -0.76292 -0.030938 0.28974 0.12359 0.44307 -0.19467 0.36125 -0.5475 -0.4524 0.51219 -0.25831 -0.53264 0.27629 0.011928 0.088076 -0.234 -0.0046821 -0.25081 0.31085 0.3309 0.015625 0.042919 0.17868 0.21438 -0.09086 -0.0075421 0.043751 0.21893 -0.086417 0.06331 -0.29049 0.25734 0.20786 0.013588 -0.3278 -0.15766 -0.30885 0.072914 0.14335 0.16106 
crisis 0.16679 -0.31035 -0.17515 0.77284 -0.42124 0.21756 -0.24041 0.23282 -0.12789 -0.14501 -0.13505 -0.072079 0.27489 0.034458 -0.065952 -0.069826 0.042663 -0.24309 -0.25449 0.42623 -0.23859 -0.5349 0.14849 -0.14007 0.16628 -0.1462 0.71086 -0.42283 0.29026 0.40598 0.30464 0.041459 0.21103 0.17114 0.084528 -0.13909 -0.19468 0.20272 0.023125 0.17018 -0.43483 0.38739 0.098255 0.28289 -0.21459 -0.076196 -0.29074 -0.14041 0.071807 0.065432 
portada 0.39218 -0.013829 0.27039 0.30479 -0.26792 -0.069152 -0.50695 0.5801 -0.094166 -0.20935 -0.24831 0.29468 0.5531 0.033973 0.08403 -0.17621 -0.012065 -0.011665 -0.018362 0.10996 0.0099215 -0.25319 0.44012 -0.084288 0.0057377 0.034929 0.52891 -0.056964 0.24148 0.51902 -0.16772 -0.25167 0.4278 0.201 -0.12778 0.27792 -0.45334 -0.074553 -0.60545 -0.64734 -0.021587 -0.18608 0.21243 -0.21999 -0.26797 0.13074 -0.087669 -0.17691 -0.26115 0.23821 
poco 0.50116 -0.31712 0.042946 0.55718 -0.30599 -0.14986 -0.20589 0.44335 0.086484 0.032479 -0.52834 0.091671 0.10366 -0.079441 0.24498 -0.14211 0.47071 -0.34167 -0.39675 0.2547 0.1653 -0.15786 0.46577 0.11468 -0.12621 -0.19876 -0.090815 0.085279 0.045956 0.24399 -0.17753 0.093118 0.24421 0.3484 -0.4512 0.34297 0.049032 -0.019939 -0.15855 -0.11151 -0.31403 0.0055205 0.37773 0.10209 -0.28246 -0.4471 -0.51057 0.11032 -0.18488 0.068457 
partido 0.35532 -0.27078 0.088563 0.47943 -0.86825 -0.050163 0.03891 0.32345 0.20289 0.032547 -0.33892 -0.15604 -0.12453 -0.11199 0.038675 -0.11329 0.31526 -0.21516 -0.3207 0.028269 0.044979 -0.08484 0.44032 0.13277 -0.019142 -0.39529 0.19659 -0.39027 -0.071781 0.19186 -0.14601 0.22511 0.31868 0.32742 -0.31553 0.3899 0.15082 -0.0053354 -0.10974 -0.19122 -0.50304 0.32645 0.26393 0.29152 -0.21676 -0.49381 -0.52564 0.32689 -0.11939 0.070562 
siempre 0.17397 -0.12167 0.16404 0.27428 -0.46129 0.013137 -0.14109 0.38935 -0.027529 -0.1154 -0.49034 0.06534 0.3165 0.04251 0.22956 -0.16709 0.32888 -0.29908 -0.34061 0.2991 -0.13191 -0.24585 0.37795 0.078365 0.011982 -0.14615 0.18892 -0.081996 0.17237 0.30683 -0.093676 -0.046042 0.17259 0.18674 -0.20744 0.18377 -0.20014 0.054859 -0.20768 -0.23939 -0.38319 0.23142 0.094037 0.11368 -0.21319 -0.20338 -0.35861 0.03441 -0.22175 -0.038017 
año 0.3756 -0.28061 0.23524 0.66525 -0.14208 -0.020753 -0.16703 0.35042 0.033648 -0.1247 -0.58316 0.09518 0.49492 0.0065511 0.27738 -0.30171 0.30899 -0.43269 -0.32196 0.29601 0.092612 -0.090151 0.42664 0.06944 -0.055055 -0.11364 0.24784 -0.073162 0.162 0.49544 -0.17627 -0.032876 0.33569 0.36102 -0.39129 0.3359 -0.085452 -0.026957 -0.28846 -0.31919 -0.23962 -0.35498 0.26299 -0.27799 -0.18276 -0.11613 -0.19336 -0.12263 -0.10469 0.18198 
ley 0.55183 -0.24889 -0.28323 0.64937 -0.40809 0.023034 -0.31267 0.47375 -0.030256 -0.092736 -0.17269 -0.018147 0.30053 -0.025898 0.046499 -0.013808 0.072104 -0.090789 -0.11187 0.20897 -0.067486 -0.26971 0.22117 -0.021479 -0.00048239 -0.30347 0.88131 -0.51665 0.22529 0.3485 -0.064842 -0.0045843 0.094457 0.099682 -0.16611 -0.02141 -0.13902 0.11686 -0.074218 -0.13514 -0.29271 0.12002 0.15804 -0.022122 -0.18814 -0.057688 -0.23844 0.015722 0.051199 0.22459 
trabajo 0.22656 -0.23769 -0.083596 0.6316 -0.49281 0.17816 0.0017699 0.30493 0.11992 -0.0067685 -0.31178 -0.079825 0.19676 0.059994 0.15396 -0.20132 0.20924 -0.29701 -0.26447 0.14472 -0.083169 -0.18984 0.25377 0.035693 0.038922 -0.1962 0.5227 -0.53322 0.059722 0.30572 0.13484 -0.0095607 0.33989 0.20462 -0.22099 0.13054 0.12326 0.011113 -0.17523 -0.049145 -0.25755 0.059657 0.056732 0.1407 -0.21859 -0.31248 -0.3063 0.00018573 0.022871 0.13063 
via 0.64918 -0.28046 -0.19154 0.57578 -0.26285 -0.2192 -0.66891 0.41106 -0.088318 -0.29741 -0.179 0.07938 0.67867 -0.079344 0.078724 -0.16503 0.1146 -0.07444 -0.070637 0.40347 -0.074846 -0.13872 0.416 -0.10855 -0.037332 -0.22819 0.52234 -0.16018 0.32769 0.54144 -0.33687 -0.14929 -0.0020377 0.055423 -0.13488 -0.032117 -0.30042 0.22317 -0.28029 -0.40797 -0.20194 0.065534 0.46838 -0.20123 -0.35559 0.14405 -0.27186 -0.10247 0.018141 0.54113 
vez 0.22504 -0.20844 0.15449 0.47917 -0.46096 -0.1059 -0.35702 0.4455 -0.072555 -0.17943 -0.51061 0.12429 0.44229 0.0095788 0.22992 -0.21192 0.27013 -0.27154 -0.2173 0.27748 -0.038809 -0.12584 0.37939 0.074212 -0.082079 -0.19505 0.28606 -0.096124 0.30922 0.43248 -0.25289 -0.026043 0.14587 0.18902 -0.20288 0.15202 -0.22876 0.099104 -0.27487 -0.33847 -0.22128 -0.068183 0.30421 -0.14914 -0.23384 0.011836 -0.17435 -0.030478 -0.14339 0.15046 
smile 0.11296 -0.16809 0.34848 0.34619 -0.53964 -0.0062819 -0.16381 0.36667 -0.039322 -0.14016 -0.5641 0.1212 0.43251 0.089232 0.2846 -0.18615 0.32698 -0.26673 -0.33539 0.35298 -0.2004 -0.2415 0.4091 0.11673 0.076136 -0.14509 0.061866 0.096408 0.22927 0.36049 -0.20641 -0.13772 0.21108 0.19169 -0.20544 0.19166 -0.30974 0.069963 -0.30484 -0.4 -0.33526 0.22855 0.08104 -0.036076 -0.15073 -0.049479 -0.24943 0.089849 -0.17234 0.037356 
estado 0.59148 -0.21858 -0.16203 0.59246 -0.29975 -0.10657 0.02839 0.23223 0.14715 -0.028247 -0.3162 -0.014894 0.00022414 -0.06711 0.074532 -0.14337 0.27524 -0.38527 -0.33968 0.11897 0.07744 -0.079132 0.42172 0.077553 -0.11815 -0.26818 0.27842 -0.22368 -0.056295 0.2774 -0.16413 0.12596 0.4031 0.41756 -0.31506 0.48611 0.049317 -0.0535 -0.055221 -0.20094 -0.33482 -0.050629 0.13993 0.0055877 -0.114 -0.26842 -0.406 0.19621 -0.1549 -0.050212 
espero 0.25782 -0.18494 0.10336 0.47622 -0.32135 0.012232 -0.09072 0.32381 0.065287 -0.09549 -0.57794 -0.013322 0.32153 0.030985 0.30405 -0.26867 0.36307 -0.45246 -0.36253 0.25022 0.032564 -0.075266 0.42489 0.070066 -0.041022 -0.081746 0.012896 -0.11757 0.11087 0.36557 -0.086448 0.028687 0.36827 0.3286 -0.33406 0.33053 0.015773 0.019151 -0.2593 -0.22082 -0.32997 -0.079981 0.24931 0.03393 -0.27194 -0.2801 -0.33538 0.0015461 -0.14385 0.071202 
creo 0.2302 -0.25218 0.19834 0.47273 -0.43894 -0.0076787 -0.15051 0.4138 0.095096 -0.04089 -0.44942 -0.046494 0.24102 -0.047055 0.20297 -0.16483 0.33734 -0.28657 -0.27631 0.23895 0.046632 -0.1576 0.45302 0.12669 -0.050735 -0.21441 0.23043 -0.19392 0.13387 0.35907 -0.10167 0.10408 0.29716 0.30916 -0.40922 0.24398 0.034059 0.046326 -0.19103 -0.23355 -0.38286 0.022803 0.23685 0.00038773 -0.22652 -0.27966 -0.33234 0.083915 0.028638 0.2093 
parece 0.57166 -0.19485 -0.14394 0.37862 -0.29993 -0.079447 -0.23209 0.33781 -0.072216 -0.069673 -0.28956 0.070914 0.22724 -0.064577 0.092895 -0.0038218 0.27539 -0.16598 -0.32032 0.28745 -0.026586 -0.29399 0.39672 0.050178 0.0029588 -0.22826 0.29495 -0.1275 0.19006 0.24395 -0.19509 -0.06364 0.13124 0.17839 -0.23315 0.17062 -0.23515 0.017263 -0.19612 -0.30787 -0.36719 0.23826 0.22033 0.039545 -0.21904 -0.16334 -0.34701 0.066232 -0.176 0.037594 
mundo 0.39384 -0.22181 0.16737 0.61683 -0.36095 -0.032452 0.030573 0.25487 0.11799 -0.079729 -0.34597 -0.061468 0.26123 -0.0056908 0.12762 -0.24064 0.23866 -0.32258 -0.26011 0.085861 0.0080973 -0.10047 0.50277 0.11356 -0.077463 -0.15354 0.19886 -0.11158 0.087071 0.43902 -0.14682 0.073774 0.49688 0.40775 -0.3417 0.43066 -0.020294 -0.0031503 -0.35422 -0.41571 -0.34855 -0.16268 0.16782 -0.11178 -0.1114 -0.14008 -0.25651 0.13995 -0.057274 0.14722 
quien 0.37942 -0.19921 -0.1941 0.34145 -0.75329 -0.19862 -0.53386 0.62918 -0.13874 -0.25448 -0.56843 0.052026 0.11922 -0.1334 0.0074316 -0.093335 0.52812 -0.2462 -0.30167 0.47282 -0.046816 -0.47109 0.41381 0.062966 -0.15651 -0.3127 0.22315 -0.096459 0.32496 0.10522 -0.057228 0.25355 -0.36688 0.010352 -0.083413 -0.18389 -0.074761 0.28063 0.23337 0.26372 -0.55134 0.50833 0.40948 0.3707 -0.40961 -0.35141 -0.64914 0.04789 -0.23208 -0.098593 
quiero 0.26355 -0.12969 0.0079263 0.32417 -0.43908 -0.14713 -0.21018 0.53958 0.054984 -0.084406 -0.68723 0.096101 0.26784 -0.029587 0.26479 -0.36854 0.63244 -0.39683 -0.37806 0.27725 0.071252 -0.10008 0.52378 0.13381 -0.16884 -0.12308 -0.10986 0.036761 0.089565 0.2134 -0.10051 0.084999 0.1336 0.23964 -0.36154 0.29187 0.079689 0.066995 -0.13693 -0.028827 -0.36741 0.05963 0.27807 0.21216 -0.31949 -0.53373 -0.51494 -0.0095215 -0.31985 -0.058931 
presidente 0.4629 -0.11535 0.0002356 0.40556 -0.19069 -0.013651 -0.14217 0.24593 -0.15736 -0.15854 -0.064551 0.052215 0.30051 -0.028507 -0.093315 -0.023526 0.10806 -0.21538 -0.27931 0.21295 -0.029945 -0.27124 0.40315 0.028505 0.04683 -0.20167 0.57793 -0.30269 0.16806 0.40722 -0.12281 -0.11941 0.26781 0.25676 -0.1426 0.27949 -0.40771 -0.077301 -0.3292 -0.47652 -0.37225 -0.013252 0.13657 -0.057583 -0.064222 0.06475 -0.12719 -0.13673 -0.21 -0.082069 
ir 0.15441 -0.50228 -0.23913 0.66311 -0.48324 -0.069619 -0.28451 0.30636 0.035151 -0.01238 -0.6726 0.15326 0.25328 0.020344 0.43217 -0.014769 0.48644 -0.39137 -0.30901 0.52193 -0.25825 -0.47284 0.43432 0.042784 -0.014624 -0.24642 -0.26329 -0.043763 0.46233 0.20132 -0.2173 -0.034697 0.04996 0.082783 -0.25775 -0.074307 -0.12375 0.1773 -0.21535 -0.15964 -0.05624 0.32216 0.30547 -0.027901 -0.29373 -0.20101 -0.17084 0.17102 0.15899 0.25302 
país 0.30072 -0.37547 -0.059204 0.84308 -0.55096 0.19867 -0.23039 0.33686 -0.0053906 -0.034728 -0.35487 0.0011741 0.26001 0.040168 0.13962 -0.13713 0.13898 -0.21454 -0.30924 0.32101 -0.17483 -0.42356 0.19482 -0.10061 0.16928 -0.21778 0.50214 -0.41546 0.1699 0.34268 0.11417 -0.007391 0.25513 0.1921 -0.046913 0.011798 -0.038838 0.14837 -0.018432 0.11507 -0.18512 0.19251 0.14191 0.12878 -0.2054 -0.15487 -0.18985 -0.036654 0.063483 0.2259 
verdad 0.14119 -0.21391 -0.14918 0.47373 -0.36255 -0.013041 -0.12473 0.34759 0.035563 -0.093073 -0.60491 0.13705 0.24705 0.059514 0.35421 -0.20795 0.42312 -0.44277 -0.32115 0.32654 -0.18102 -0.28349 0.33843 0.00020627 -0.067358 -0.062906 -0.048013 -0.024995 0.21535 0.32454 -0.013875 0.0049265 0.18335 0.13986 -0.17371 0.13568 -0.12237 0.074059 -0.27097 -0.0819 -0.17208 0.19171 0.055675 0.14885 -0.22651 -0.27531 -0.36053 0.091249 -0.17399 -0.01003 
otro 0.28522 -0.19938 0.25237 0.53924 -0.30932 0.039632 -0.095462 0.38568 0.062841 -0.079291 -0.45334 -0.060039 0.40144 -0.0063649 0.19521 -0.27937 0.28277 -0.34994 -0.28683 0.1591 0.1357 0.028196 0.36674 0.13799 -0.023838 -0.1077 0.278 -0.20562 0.069065 0.41795 -0.097872 0.0032951 0.35408 0.31721 -0.4115 0.31816 0.017766 -0.020222 -0.28388 -0.29721 -0.46528 -0.13766 0.26226 -0.043529 -0.24409 -0.29095 -0.36268 -0.079116 -0.1003 0.15814 
buenas -0.36355 -0.32604 0.36622 0.78207 -0.24579 0.36137 -0.11975 0.15731 -0.029983 -0.12489 -0.52961 0.16919 0.62379 0.25449 0.35761 -0.40993 0.20511 -0.43692 -0.3628 0.5023 -0.38511 -0.48566 0.26242 -0.09918 0.32184 0.06373 0.15319 0.06546 0.28433 0.65162 0.17297 -0.20395 0.64336 0.26899 0.039091 0.12495 -0.30456 0.10164 -0.37682 -0.065142 -0.1337 0.18553 -0.08229 0.10933 -0.17666 -0.029865 -0.083351 -0.17434 0.031436 0.16555 
millones 0.2329 -0.36435 -0.25096 1.1585 -0.42565 0.32261 -0.12097 0.24987 -0.057239 -0.060413 -0.21082 -0.02706 0.40835 0.16794 0.084221 -0.2541 0.027882 -0.32727 -0.26879 0.29332 -0.29832 -0.56593 0.16048 -0.19781 0.20599 -0.072397 0.7563 -0.52987 0.27126 0.47283 0.37285 -0.0039441 0.34954 0.12148 0.049036 -0.088827 -0.15994 0.14292 -0.15264 0.11945 -0.099941 -0.086601 -0.059821 0.087553 -0.09715 -0.0056272 0.037716 -0.18303 0.079206 0.12385 
reforma 0.67521 -0.10514 -0.42944 0.47805 -0.18809 -0.016461 -0.46754 0.43972 -0.13449 -0.21948 0.10414 -0.021699 0.40889 -0.050409 -0.13816 0.031743 -0.12857 0.0056181 0.024131 0.23949 -0.073969 -0.3518 0.22213 -0.14345 0.02868 -0.1725 1.0103 -0.55092 0.23774 0.41464 0.015637 -0.097278 0.097688 0.044639 -0.026599 -0.061218 -0.33281 0.094338 -0.26631 -0.27585 -0.39783 0.19059 0.17088 0.085639 -0.2946 0.0044606 -0.34895 -0.15538 -0.056716 0.23677 
#sumatealcambio 0.32534 -0.26497 -0.2668 0.62893 -1.0189 0.25495 -0.061335 0.45314 0.14885 0.035782 -0.37817 -0.15839 0.09795 0.069128 0.19692 -0.12179 0.067726 -0.072443 -0.20327 0.10692 -0.22567 -0.25343 0.078805 0.019003 0.17878 -0.34905 0.57078 -0.82568 0.046229 0.13573 0.15403 0.018888 0.14161 0.0052492 -0.084247 -0.033818 0.1629 0.036807 -0.051786 -0.020557 -0.37331 0.56796 0.0071581 0.41154 -0.43742 -0.51809 -0.62332 0.17585 0.012966 0.20051 
@ 0.50337 -0.39756 -0.047223 0.95925 -0.14455 0.045488 -0.33802 0.2768 -0.063868 -0.15756 -0.47102 0.10518 0.67278 0.05544 0.36026 -0.22494 0.16018 -0.26865 -0.25839 0.46719 -0.14937 -0.24043 0.24343 -0.032789 0.066472 -0.11084 0.28701 -0.0084188 0.38503 0.5737 -0.23475 -0.15543 0.2393 0.18456 -0.20715 0.055528 -0.29425 0.15767 -0.33076 -0.35287 -0.23291 -0.052945 0.18085 -0.33976 -0.24862 0.096077 -0.21516 -0.080383 0.05547 0.38379 
#cadavotovale 0.42866 -0.35619 -0.27797 0.68563 -1.0537 0.05236 -0.020656 0.2018 0.084273 0.020483 -0.21118 -0.12928 -0.080286 -0.040883 0.056525 0.029767 0.14419 -0.06675 -0.18729 0.10428 -0.1882 -0.23583 0.31701 0.11386 0.11199 -0.437 0.32004 -0.53046 0.15759 0.18455 -0.071369 0.061912 0.2933 0.13722 -0.094797 0.13611 -0.14234 0.09119 -0.25598 -0.36216 -0.37777 0.62487 0.19212 0.33433 -0.23857 -0.21646 -0.26599 0.35755 0.022844 0.09564 
vida 0.17307 -0.15243 0.12775 0.14392 -0.3043 -0.29136 -0.59272 0.47551 -0.065253 -0.26928 -0.57023 0.17336 0.63029 -0.042017 0.2251 -0.31846 0.44479 -0.26656 -0.28587 0.44782 -0.065852 -0.21479 0.54818 -0.035902 -0.11862 -0.08535 0.060596 0.15003 0.24554 0.39013 -0.26716 -0.097272 -0.065068 0.10104 -0.2288 0.074522 -0.24347 0.14924 -0.2948 -0.28145 -0.24753 0.17768 0.44886 0.061584 -0.3963 -0.22252 -0.50047 -0.076051 -0.1959 0.2579 
h 0.38424 -0.3683 0.13727 0.76522 -0.49014 0.05605 -0.33291 0.37529 0.036946 -0.16155 -0.60371 0.086339 0.59583 0.092626 0.43325 -0.20045 0.14582 -0.19149 -0.21533 0.40311 -0.17189 -0.22628 0.25525 0.019506 0.09437 -0.22729 0.18745 -0.086582 0.32488 0.46771 -0.25433 -0.12344 0.22695 0.20312 -0.1935 0.063226 -0.19984 0.18631 -0.28834 -0.39909 -0.17661 0.038702 0.22739 -0.34446 -0.28967 0.079054 -0.16907 0.061911 0.18157 0.47002 
están 0.2171 -0.18806 0.00097943 0.4167 -0.28136 0.027482 -0.21731 0.25623 -0.086738 -0.19409 -0.51226 0.052027 0.28639 0.048835 0.24467 -0.089441 0.2652 -0.41563 -0.35467 0.44507 -0.16213 -0.43022 0.33314 0.020086 0.0001129 -0.18119 0.23927 -0.17967 0.31557 0.36494 -0.087928 0.016491 0.15798 0.20697 -0.12222 0.057259 -0.16358 0.14242 -0.074989 -0.13718 -0.34865 0.157 0.18414 -0.01526 -0.23806 0.0046494 -0.31825 0.046358 0.017267 0.047214 
domingo 0.2837 -0.32862 0.028299 0.57096 -0.63063 -0.0097118 -0.13201 0.32304 0.094403 0.0085444 -0.51179 0.031765 0.16749 0.042539 0.27196 -0.18641 0.34364 -0.26244 -0.31914 0.20825 -0.092216 -0.2584 0.4191 0.07285 0.0011933 -0.27523 0.064564 -0.20227 0.11973 0.27499 -0.10135 0.024636 0.33484 0.25038 -0.26362 0.23424 -0.0079169 0.048165 -0.23458 -0.22833 -0.1054 0.089419 0.19704 0.026775 -0.18506 -0.23721 -0.19272 0.17565 0.0073812 0.14612 
será 0.49045 -0.25871 -0.20251 0.65596 -0.33548 0.071039 -0.18942 0.26128 -0.062983 -0.090228 -0.22411 -0.045965 0.2669 0.056094 0.14159 -0.069097 0.04698 -0.1938 -0.11936 0.21784 -0.11935 -0.30747 0.2419 0.000356 0.028298 -0.16481 0.41131 -0.28257 0.27261 0.43664 -0.023224 0.014224 0.32972 0.17245 -0.12929 0.1078 -0.27955 0.1374 -0.29168 -0.33242 -0.30943 0.1065 0.12741 -0.015711 -0.2207 0.026326 -0.16641 0.098172 0.038504 0.23096 
política 0.64573 -0.28387 -0.27722 0.71132 -0.53714 -0.080672 -0.37059 0.30938 -0.058266 -0.14515 0.070577 -0.049169 0.22102 -0.056286 -0.085484 0.028253 0.010082 -0.039246 -0.062078 0.20053 -0.085692 -0.33899 0.32298 -0.069057 0.042616 -0.18752 0.39474 -0.22563 0.26399 0.43298 -0.10267 0.025672 0.27098 0.11229 -0.04722 0.080549 -0.38893 0.11116 -0.41005 -0.43565 -0.40174 0.31675 0.35231 0.1582 -0.33301 0.025166 -0.23523 0.067569 -0.022924 0.23294 
mismo 0.3668 -0.33173 0.06987 0.6546 -0.48104 -0.031807 -0.12148 0.41265 0.12995 -0.047231 -0.60217 0.08032 0.26058 0.01441 0.29931 -0.18858 0.33531 -0.35735 -0.28447 0.21501 -0.033743 -0.15349 0.4192 0.078767 -0.05975 -0.22545 0.1092 -0.17209 0.10689 0.30396 -0.13359 0.020505 0.26744 0.23899 -0.32271 0.25868 0.020645 0.0077317 -0.26326 -0.21452 -0.12955 -0.11286 0.206 -0.065939 -0.20561 -0.23219 -0.24798 0.068817 -0.09136 0.16058 
iu 0.64648 -0.49975 -0.12463 1.0302 -1.1556 -0.0099391 -0.33075 0.47346 0.046694 -0.092947 -0.081118 -0.12009 0.080957 -0.11652 -0.05464 0.12501 -0.048712 0.080419 0.037864 0.10794 -0.070887 -0.1169 0.20647 0.054968 0.064978 -0.53217 0.78818 -0.64341 0.31954 0.36046 -0.20486 0.10423 0.12253 0.1139 -0.16284 -0.017135 -0.27251 0.17474 -0.23257 -0.38091 -0.46167 0.3909 0.39525 0.1005 -0.33873 -0.025689 -0.20671 0.23394 0.06023 0.33283 
mal 0.37139 -0.17177 0.18136 0.28446 -0.060996 -0.11665 -0.40619 0.45194 -0.12829 -0.33914 -0.64817 0.11924 0.86283 -0.010223 0.36287 -0.2637 0.36958 -0.40079 -0.34287 0.46321 -0.023436 -0.19812 0.42292 0.020956 -0.054701 0.015733 0.14306 0.18699 0.39976 0.47595 -0.22887 -0.048493 -0.19223 0.080245 -0.3668 -0.063466 -0.25622 0.13036 -0.30133 -0.38717 -0.48355 -0.10561 0.31523 -0.24223 -0.41465 -0.13432 -0.58097 -0.12007 -0.18138 0.21824 
hemos 0.023196 -0.36566 -0.14338 0.67476 -0.54848 0.25942 -0.15907 -0.019361 -0.052611 -0.1377 -0.43722 -0.20256 0.14685 0.022085 0.089211 -0.20852 0.20334 -0.39531 -0.4161 0.52368 -0.28496 -0.73558 0.28558 -0.1988 0.15583 -0.089702 0.16771 -0.29055 0.22739 0.2951 0.465 0.086344 0.3238 0.31539 0.12884 -0.072659 0.005965 0.36036 0.088615 0.35032 -0.39526 0.52185 0.24561 0.39511 -0.24092 -0.17053 -0.33353 -0.02628 0.17215 0.10683 
sido 0.27956 -0.27727 0.25371 0.5508 -0.60395 -0.066922 0.19675 0.21394 0.26152 -0.01498 -0.56943 -0.15477 0.095825 -0.012516 0.2455 -0.35142 0.45937 -0.50166 -0.43581 0.08577 0.055765 -0.023743 0.55575 0.15894 -0.13272 -0.23496 -0.050574 -0.14802 -0.074945 0.36449 -0.18519 0.23853 0.50606 0.50226 -0.45335 0.55249 0.19869 0.026858 -0.22654 -0.27011 -0.4032 -0.0894 0.20957 0.013891 -0.10904 -0.40764 -0.36275 0.32108 -0.065367 0.10267 
campaña 0.48675 -0.26289 -0.089437 0.49267 -0.69933 -0.096919 -0.47537 0.43943 -0.02168 -0.19032 -0.21682 0.039174 0.36417 -0.026385 0.080176 -0.080916 0.0318 0.010521 -0.01083 0.26443 -0.081387 -0.28532 0.35351 -0.023509 0.043551 -0.25606 0.30745 -0.18552 0.25714 0.34491 -0.20332 -0.0084938 0.13278 0.077439 -0.060678 0.058095 -0.32051 0.11018 -0.30833 -0.48245 -0.23876 0.27707 0.29551 -0.0058425 -0.36693 0.031592 -0.284 0.073832 -0.01364 0.32033 
sea 0.36183 -0.22402 0.026834 0.27459 -0.41048 -0.1937 -0.63327 0.51198 -0.084491 -0.25061 -0.43673 -0.0017587 0.54069 -0.0062804 0.19545 -0.20595 0.31537 -0.20481 -0.237 0.44768 -0.092086 -0.29042 0.42559 -0.077354 -0.10446 -0.14518 0.20663 -0.037135 0.27136 0.39156 -0.18496 0.016838 -0.086189 0.078731 -0.21454 -0.047463 -0.17106 0.26728 -0.15366 -0.18151 -0.32256 0.18226 0.43378 0.035244 -0.43721 -0.17499 -0.51029 0.03771 -0.039697 0.40192 
claro 0.31291 -0.25211 0.12802 0.5752 -0.47277 0.039619 -0.16505 0.39445 0.038198 -0.092106 -0.28332 -0.094979 0.31754 -0.030909 0.090879 -0.13622 0.18149 -0.2371 -0.18921 0.17537 0.059322 -0.11466 0.34523 0.095903 0.00823 -0.16815 0.40053 -0.28482 0.15471 0.39533 -0.044105 0.065211 0.29006 0.24883 -0.32289 0.17214 -0.059805 0.039261 -0.26227 -0.29437 -0.47947 0.02817 0.25108 0.035836 -0.2584 -0.19601 -0.30069 -0.01781 0.010975 0.2054 
da 0.60067 -0.30011 0.045848 0.35757 -0.47866 -0.38874 -0.89924 0.57594 -0.10746 -0.27728 -0.20959 0.09802 0.69071 -0.11954 0.0072262 -0.16261 0.26963 0.059513 -0.16164 0.39468 -0.016956 -0.17371 0.50792 -0.064307 -0.11003 -0.30943 0.57102 -0.08112 0.29 0.44724 -0.45063 -0.13316 -0.19863 0.036239 -0.27591 -0.0557 -0.29847 0.2023 -0.21034 -0.38326 -0.17703 0.065615 0.63841 -0.14743 -0.38474 -0.019329 -0.35197 -0.047854 0.032546 0.56117 
#votapp 0.257 -0.35738 -0.2907 0.69065 -1.1412 0.20237 -0.075637 0.41404 0.15878 0.015743 -0.47387 -0.10391 0.042606 0.085254 0.22822 -0.10704 0.18776 -0.17272 -0.3079 0.1905 -0.268 -0.2801 0.084399 -0.0055816 0.14072 -0.39893 0.46156 -0.72968 0.077152 0.075555 0.13152 0.057252 0.03095 0.022919 -0.042856 -0.071705 0.15316 0.10541 0.026662 0.13283 -0.30175 0.65189 0.046206 0.47619 -0.43527 -0.56753 -0.63331 0.22679 -0.031763 0.11855 
decir 0.30191 -0.37179 -0.33661 0.48987 -0.53913 -0.071412 -0.29529 0.32692 -0.022212 -0.011721 -0.35963 0.12718 0.093559 -0.014329 0.15054 0.082639 0.34912 -0.21047 -0.24794 0.32385 -0.1709 -0.48488 0.39742 0.038108 -0.0077196 -0.29271 0.14698 -0.19938 0.29673 0.14765 -0.096039 -0.0066582 0.11502 0.073282 -0.18983 -0.041775 -0.15141 0.054597 -0.15051 -0.19109 -0.12846 0.34731 0.22464 0.13454 -0.20772 -0.19539 -0.20423 0.15535 0.061143 0.071903 
andalucía 0.46467 -0.2489 -0.23246 0.72769 -0.32886 0.13302 -0.29454 0.19977 -0.10928 -0.21097 0.093087 0.0042918 0.49729 0.046281 -0.089621 -0.052447 -0.1734 -0.044603 -0.04644 0.24263 -0.20079 -0.36705 0.17225 -0.14358 0.2379 -0.058738 0.53185 -0.26493 0.3135 0.53648 0.030112 -0.094344 0.32429 0.0039238 0.076264 0.0015138 -0.49965 0.022279 -0.48216 -0.50587 -0.47677 0.30089 0.13578 0.14824 -0.35858 0.093146 -0.28434 -0.14532 -0.08134 0.22771 
buen -0.11177 -0.25742 0.37249 0.64347 -0.34363 0.22318 -0.19366 0.25883 -0.080423 -0.25066 -0.64905 0.14199 0.50614 0.17053 0.36795 -0.30381 0.20499 -0.48568 -0.28244 0.45647 -0.21101 -0.52371 0.29364 -0.028731 0.14225 0.064336 -0.010599 0.090924 0.37606 0.52302 0.018126 -0.11255 0.39682 0.21481 0.0087712 0.050997 -0.29099 0.12226 -0.38666 -0.17964 -0.29243 0.12962 0.11614 -0.025831 -0.34165 0.026443 -0.19843 -0.11251 -0.072722 0.094405 
cambio 0.32477 -0.27673 -0.074441 0.73 -0.6698 0.22105 -0.090619 0.37402 0.10341 -0.026549 -0.39853 -0.15008 0.33496 0.060409 0.23919 -0.21961 0.070068 -0.17604 -0.20335 0.21749 -0.11437 -0.18533 0.13884 0.043793 0.14637 -0.20125 0.40002 -0.55912 0.11872 0.31191 0.061216 0.010812 0.19773 0.11222 -0.17348 0.052051 0.10035 0.040234 -0.15589 -0.16437 -0.42151 0.24 0.062448 0.14767 -0.40178 -0.329 -0.52826 0.02143 0.051361 0.29299 
programa 0.45017 -0.25166 -0.19194 0.49952 -0.45052 -0.029563 -0.37049 0.33933 -0.021656 -0.11336 -0.20842 0.031659 0.25996 -0.0098449 0.094553 -0.076526 0.14248 -0.11856 -0.18636 0.25721 -0.084766 -0.35034 0.35306 -0.090802 0.054932 -0.22411 0.3608 -0.30731 0.19496 0.33191 -0.098476 -0.061326 0.19646 0.14868 -0.077308 0.09195 -0.20959 0.073564 -0.24554 -0.21733 -0.15905 0.19393 0.29277 0.11194 -0.30601 -0.1173 -0.24513 0.015255 -0.066504 0.19736 
ayer 0.23765 -0.31873 -0.24375 0.58694 -0.27168 -0.062903 -0.2641 0.35844 -0.031234 -0.045954 -0.3569 0.19198 0.20594 -0.014791 0.17737 0.0313 0.29282 -0.3044 -0.1702 0.34804 -0.15206 -0.41392 0.4092 0.012185 -0.036494 -0.16079 0.1627 -0.029894 0.3893 0.31272 -0.068213 -0.023848 0.25229 0.13773 -0.23192 0.042742 -0.28494 0.063523 -0.31696 -0.23639 -0.15287 0.18451 0.1792 0.025212 -0.196 -0.061073 -0.1369 0.039487 -0.034328 0.057637 
sólo 0.55473 -0.34889 -0.12776 0.70932 -0.57559 0.014392 -0.1425 0.44522 0.14686 0.028902 -0.50626 -0.053245 0.16733 -0.0013914 0.29838 -0.15283 0.28177 -0.24811 -0.24788 0.16721 0.011474 -0.097275 0.30062 0.097494 -0.054419 -0.28278 0.24321 -0.34215 0.06384 0.25796 -0.10766 0.082434 0.22414 0.2213 -0.35984 0.20335 0.15889 0.07882 -0.093776 -0.12128 -0.24231 0.056067 0.19357 0.021855 -0.29885 -0.36621 -0.37967 0.18682 0.020397 0.3036 
gusta 0.30847 -0.16918 -0.021865 0.28744 -0.41071 -0.14343 -0.49176 0.5009 0.015591 -0.21285 -0.44333 0.16558 0.56183 0.033798 0.2638 -0.23839 0.25391 -0.18465 -0.21164 0.37142 -0.166 -0.18792 0.36334 -0.037459 0.026735 -0.090763 0.042915 0.047343 0.15979 0.35193 -0.25524 -0.17833 0.034412 0.038723 -0.18071 0.086877 -0.21111 0.1058 -0.31036 -0.31568 -0.20581 0.2899 0.23816 0.061467 -0.4328 -0.20918 -0.52856 -0.017369 -0.17084 0.28331 
tiempo 0.18702 -0.21079 0.1431 0.35284 -0.44567 -0.060674 -0.043627 0.35049 0.14831 0.0060333 -0.60919 0.043726 0.20127 0.006729 0.33379 -0.23078 0.44964 -0.36748 -0.37024 0.221 -0.032277 -0.13836 0.47258 0.13974 -0.066467 -0.22964 0.001874 -0.11431 0.074953 0.285 -0.15659 0.0098507 0.33997 0.32041 -0.39682 0.3551 0.042161 -0.0012614 -0.24949 -0.24896 -0.24072 0.072177 0.20061 0.04688 -0.20473 -0.35834 -0.35493 0.12843 -0.10191 0.059935 
casa 0.40204 -0.22492 -0.12132 0.41195 -0.24684 -0.14236 -0.55104 0.31538 -0.13468 -0.30965 -0.25648 0.046693 0.61296 -0.050595 0.098291 -0.20062 0.18132 -0.16294 -0.18771 0.48962 -0.092423 -0.31877 0.32854 -0.090889 0.0026495 -0.14044 0.28965 -0.085526 0.30343 0.4258 -0.20804 -0.069751 -0.050613 0.082323 -0.029307 -0.024509 -0.28405 0.19295 -0.25518 -0.33222 -0.3335 0.2112 0.40424 -0.012656 -0.44502 -0.036636 -0.49497 -0.10506 -0.039865 0.35596 
tener 0.35181 -0.42892 -0.40078 0.6508 -0.65369 -0.09457 -0.23957 0.37429 0.065922 0.026855 -0.46388 0.091881 -0.016353 -0.042207 0.21075 0.094107 0.38828 -0.2737 -0.24042 0.34886 -0.20297 -0.39725 0.36072 0.042915 -0.042534 -0.36844 0.092929 -0.26462 0.32035 0.119 -0.10652 0.079752 0.047831 0.090008 -0.22208 -0.052367 -0.076796 0.1259 -0.08208 -0.0089233 -0.11613 0.41932 0.24946 0.19385 -0.26815 -0.2818 -0.23774 0.20416 0.033652 0.076163 
#nomeolvido 0.42229 -0.32977 -0.21122 0.7337 -1.1816 0.11664 -0.016399 0.50098 0.27853 0.059931 -0.34952 -0.11742 -0.13776 -0.015697 0.10697 -0.068425 0.13082 -0.097097 -0.18506 -0.0081542 -0.10639 -0.070282 0.15332 0.063143 0.07656 -0.41483 0.45348 -0.63255 -0.092686 0.078128 0.043213 0.13439 0.20944 0.13407 -0.17645 0.13655 0.19451 0.0058247 -0.010685 0.014339 -0.38458 0.59133 0.070707 0.48868 -0.3871 -0.63876 -0.70527 0.3066 -0.16844 0.069608 
tanto 0.31834 -0.29586 0.089185 0.552 -0.3502 -0.085793 -0.066152 0.37166 0.13974 0.024043 -0.54541 0.040376 0.15051 -0.035859 0.27781 -0.19928 0.45821 -0.37034 -0.34679 0.18594 0.097254 -0.031176 0.44673 0.14945 -0.11498 -0.23807 0.064587 -0.098942 0.078782 0.30789 -0.16527 0.054557 0.37424 0.34743 -0.46922 0.37772 0.062367 -0.032645 -0.22317 -0.21522 -0.23614 -0.11098 0.25213 -0.013915 -0.19182 -0.36077 -0.30268 0.094575 -0.12228 0.086843 
muchas -0.14372 -0.32625 0.11598 0.61622 -0.24104 0.19651 -0.055381 0.12135 -0.0060226 -0.11947 -0.63162 0.072196 0.49152 0.16651 0.35812 -0.33693 0.39038 -0.51111 -0.53865 0.58459 -0.40791 -0.45967 0.29594 -0.046911 0.17175 -0.13056 0.06379 -0.055847 0.22768 0.47459 0.13869 -0.082937 0.35877 0.27865 -0.035363 0.12977 -0.096579 0.19925 -0.13902 0.099152 -0.20507 0.26103 0.0074847 0.14576 -0.13001 -0.16935 -0.2944 -0.060451 0.10261 0.10632 
hecho 0.2135 -0.2325 0.039497 0.44351 -0.4177 -0.035653 -0.030709 0.32458 0.14288 0.020862 -0.49737 -0.018805 0.13125 -0.0087589 0.25214 -0.21398 0.43343 -0.36508 -0.35936 0.20653 -0.017065 -0.18948 0.48428 0.097737 -0.079811 -0.23155 0.12148 -0.17045 0.065036 0.30457 -0.040476 0.076208 0.40647 0.34147 -0.37169 0.34282 0.065917 0.038656 -0.2218 -0.15949 -0.28641 0.075362 0.20521 0.10138 -0.17708 -0.36241 -0.33625 0.15376 -0.037584 0.093182 
derechos 0.33662 -0.46544 -0.53255 0.96315 -0.74514 0.22029 -0.13122 0.16652 0.022373 0.057446 -0.14505 -0.15322 -0.15005 -0.012664 -0.039448 -0.01278 0.14119 -0.21632 -0.26741 0.28546 -0.29517 -0.66259 0.25376 -0.15708 0.086787 -0.31156 0.56449 -0.59112 0.17881 0.2145 0.42365 0.11552 0.37706 0.20491 0.060414 -0.052405 0.034354 0.25972 0.081769 0.36878 -0.22779 0.51196 0.12631 0.44545 -0.17644 -0.27281 -0.21089 0.13143 0.13767 0.076745 
estamos 0.20614 -0.24668 -0.18579 0.48055 -0.33195 0.14981 -0.15035 0.018644 -0.033767 -0.15594 -0.50391 -0.072835 0.20909 0.022287 0.2012 -0.19579 0.22657 -0.40963 -0.40993 0.47377 -0.23771 -0.5986 0.37263 -0.13224 0.086358 -0.094716 0.17218 -0.28511 0.20349 0.32238 0.19941 -0.033529 0.32751 0.32318 0.00083198 0.10184 -0.036302 0.23852 -0.010925 0.080343 -0.22829 0.26209 0.19749 0.12774 -0.18327 -0.058786 -0.23403 -0.0041776 0.091087 0.089523 
foto 0.32078 -0.26496 0.25922 0.605 -0.21762 -0.057535 -0.062842 0.35991 0.12724 -0.015646 -0.59132 0.10173 0.32971 -0.015662 0.3471 -0.30988 0.38854 -0.42728 -0.28458 0.13383 0.13735 -0.0057915 0.54239 0.14393 -0.0838 -0.06708 -0.082881 0.04897 0.12168 0.46922 -0.18281 -0.012232 0.57959 0.42356 -0.49077 0.53141 -0.10452 -0.10721 -0.48537 -0.47639 -0.24827 -0.28161 0.24148 -0.13042 -0.2349 -0.27096 -0.23821 0.005169 -0.22752 0.12045 
semana 0.22373 -0.097741 0.055064 0.202 -0.085121 -0.10719 -0.48335 0.31498 -0.17378 -0.3078 -0.37319 0.097051 0.69334 0.067652 0.1732 -0.28537 0.2442 -0.2912 -0.22234 0.41937 -0.1646 -0.49257 0.5487 -0.096152 -0.043968 0.038415 0.20668 0.093459 0.37073 0.5739 -0.089826 -0.090769 0.30038 0.17338 -0.11972 0.085867 -0.39581 0.1867 -0.43273 -0.46245 -0.22436 -0.040182 0.25513 -0.13731 -0.24521 0.13202 -0.17951 -0.047622 -0.0064112 0.2919 
buena -0.014545 -0.054341 0.40173 0.14936 -0.12383 -0.06191 -0.4657 0.39921 -0.11628 -0.32076 -0.42924 0.1596 0.78405 0.065692 0.22488 -0.37278 0.2653 -0.27928 -0.21526 0.37415 -0.10549 -0.22531 0.48745 -0.021732 0.0061122 -0.0017188 0.42662 0.0041613 0.28191 0.59778 -0.23545 -0.2816 0.29929 0.21257 -0.17779 0.16163 -0.30773 0.082076 -0.45766 -0.42334 -0.19574 -0.094112 0.23998 -0.18715 -0.28121 0.067184 -0.20961 -0.19073 -0.1371 0.28487 
tenemos 0.14263 -0.32358 -0.16768 0.60409 -0.63141 0.21682 -0.12623 0.074041 0.017032 -0.094409 -0.47084 -0.13705 0.11208 0.037247 0.16429 -0.16532 0.18996 -0.30954 -0.34296 0.40564 -0.29795 -0.61965 0.27897 -0.13474 0.14636 -0.1609 0.17436 -0.38233 0.18695 0.24853 0.30983 0.022287 0.30526 0.25912 0.070696 -0.0073084 0.026588 0.26922 0.018436 0.21791 -0.24034 0.4441 0.18894 0.27976 -0.24038 -0.19075 -0.25722 0.037964 0.12112 0.13828 
noches -0.36877 -0.25709 0.28644 0.69876 -0.22311 0.29016 -0.26026 0.31708 -0.066493 -0.12538 -0.67485 0.25085 0.75825 0.31621 0.45497 -0.47629 0.23904 -0.50579 -0.39224 0.51427 -0.39067 -0.76427 0.41278 -0.15794 0.29037 0.29372 -0.22323 0.35173 0.37041 0.65066 0.27332 -0.1279 0.61597 0.17949 0.036924 0.052372 -0.40922 0.14654 -0.46707 -0.18253 -0.13215 0.1242 -0.059656 0.11444 -0.22969 -0.046167 -0.1451 -0.12477 -0.019888 0.10835 
primera 0.50479 -0.065902 -0.033352 0.10384 0.0090513 -0.24934 -0.56328 0.3537 -0.20952 -0.31794 -0.25979 0.08231 0.60014 -0.079277 -0.0042594 -0.18678 0.29338 -0.22722 -0.28627 0.37328 0.071785 -0.25206 0.52756 -0.052259 -0.089961 -0.16034 0.53374 -0.2261 0.24496 0.44346 -0.28045 -0.13787 0.031327 0.21675 -0.14286 0.13949 -0.30909 0.021538 -0.31277 -0.39525 -0.25302 -0.1866 0.50163 -0.16807 -0.25011 0.040454 -0.21302 -0.25258 -0.12357 0.19311 
cont 0.16063 -0.021971 0.28809 0.19566 -0.040338 0.0012788 -0.27103 0.37664 -0.11526 -0.35539 -0.41263 0.21818 0.74573 0.11089 0.24049 -0.20934 0.15308 -0.31766 -0.17209 0.41386 -0.10193 -0.31397 0.35276 0.01758 0.034934 0.13463 0.11864 0.11752 0.23556 0.52301 -0.19443 -0.23271 0.19757 0.17868 -0.15402 0.16204 -0.41074 -0.054046 -0.56983 -0.66761 -0.44295 0.010732 0.084636 -0.12987 -0.35528 -0.0047465 -0.46179 -0.21217 -0.26381 0.10231 
era 0.59696 -0.06852 -0.060139 0.16251 -0.18768 -0.35992 -0.70902 0.45535 -0.1337 -0.37065 -0.24507 -0.001721 0.6602 -0.11306 0.02036 -0.22461 0.27552 -0.12448 -0.15752 0.37786 0.041976 -0.094026 0.52502 -0.059563 -0.16245 -0.17685 0.35207 -0.081646 0.27768 0.44464 -0.38803 -0.045919 -0.099932 0.14095 -0.18399 0.084379 -0.27021 0.20081 -0.27083 -0.43065 -0.38571 -0.020305 0.58533 -0.16307 -0.40863 -0.03045 -0.4268 -0.095207 -0.076892 0.38659 
empleo 0.67953 -0.25399 -0.32921 0.85517 -0.31837 0.13853 -0.18228 0.43342 0.043256 0.0056173 -0.13009 -0.030691 0.13105 -0.064955 0.020543 0.0085959 -0.0037667 -0.12823 -0.10844 0.13271 0.0047405 -0.23261 0.22582 -0.031559 0.0096536 -0.31137 0.98004 -0.68277 0.13977 0.35675 0.054334 -0.0092469 0.3664 0.21125 -0.21153 0.16247 -0.02991 0.0053316 -0.073664 -0.07058 -0.18093 -0.093319 0.062927 -0.070522 -0.15025 -0.079129 -0.13056 -0.051246 0.013414 0.18179 
después -0.038776 -0.21722 -0.017942 0.44324 -0.25116 0.15014 -0.20609 0.22679 -0.076246 -0.12467 -0.47752 0.082083 0.39298 0.12817 0.1858 -0.23349 0.3064 -0.39145 -0.43586 0.44762 -0.25829 -0.5556 0.27694 -0.094402 0.096507 -0.11073 0.42039 -0.26247 0.18895 0.35206 0.19604 -0.078328 0.24242 0.20347 -0.030617 -0.0083469 -0.074514 0.11771 -0.046719 0.10834 -0.16207 0.15732 0.037528 0.15776 -0.12937 -0.16613 -0.25302 -0.12296 0.042949 0.026311 
déficit 0.60406 -0.21657 -0.28347 0.66525 -0.12921 -0.067835 -0.31238 0.32797 -0.1925 -0.18544 -0.028861 0.11406 0.30328 -0.03913 -0.11104 0.021304 0.087121 -0.16797 -0.13033 0.21901 0.0077917 -0.29381 0.30543 -0.032352 -0.064873 -0.24374 1.0122 -0.43193 0.31527 0.42689 -0.074363 -0.072852 0.22845 0.17837 -0.13047 0.079789 -0.40196 -0.010731 -0.24598 -0.30308 -0.2299 -0.14399 0.17873 -0.090237 -0.10686 0.15164 -0.029174 -0.1799 -0.14344 -0.033431 
público 0.63228 -0.24419 -0.24804 0.82108 -0.16942 0.081775 -0.16437 0.33922 -0.029827 -0.052044 -0.096242 0.013541 0.16852 -0.055112 0.024686 -0.020696 0.063564 -0.23538 -0.1421 0.15507 0.063807 -0.1985 0.25205 0.0072484 -0.0063472 -0.15601 0.74346 -0.39964 0.16415 0.42989 0.05911 -0.030719 0.39532 0.24989 -0.20455 0.20365 -0.13759 -0.026499 -0.19678 -0.15542 -0.30782 -0.073309 0.13206 0.023413 -0.20509 -0.10223 -0.24152 -0.1112 -0.13052 0.097818 
poder 0.36531 -0.38409 -0.43974 0.45456 -0.48192 -0.14552 -0.23548 0.33566 0.035424 0.10476 -0.37777 0.065872 -0.12332 -0.11465 0.13988 0.11981 0.50332 -0.26035 -0.36066 0.3459 -0.12904 -0.47399 0.47267 0.083399 -0.089495 -0.40375 0.072717 -0.23061 0.25542 0.083156 -0.10453 0.11577 0.085114 0.15041 -0.30286 0.05091 0.0035544 0.11632 -0.069921 -0.0068414 -0.18364 0.47097 0.31677 0.26148 -0.20337 -0.35771 -0.30678 0.27589 0.094294 0.087212 
nunca 0.3237 -0.18724 -0.1044 0.38958 -0.3398 -0.12889 -0.43503 0.374 -0.040021 -0.20254 -0.31369 0.084701 0.42791 0.0041639 0.12997 -0.18052 0.23032 -0.19591 -0.20559 0.33537 -0.085158 -0.25842 0.35576 -0.06538 -0.011898 -0.095768 0.1794 -0.02453 0.20829 0.33503 -0.11112 -0.064635 0.078908 0.095816 -0.10723 0.052372 -0.23117 0.11658 -0.25278 -0.23956 -0.31067 0.26325 0.31287 0.14301 -0.42073 -0.20316 -0.51907 -0.030625 -0.1778 0.16762 
sevilla 0.24306 -0.10338 0.14079 0.15369 -0.5498 -0.054895 -0.31515 0.33884 -0.054347 -0.2425 -0.25906 -0.099409 0.49546 0.019596 0.1217 -0.20424 0.10768 -0.092252 -0.11593 0.18842 -0.12338 -0.18711 0.38709 0.036038 0.035642 -0.075139 0.17665 -0.14606 0.22865 0.40808 -0.15368 -0.032932 0.17374 0.087527 -0.15955 0.10695 -0.28675 0.10744 -0.45896 -0.61107 -0.48196 0.26814 0.28361 0.080287 -0.38337 -0.10518 -0.43118 0.11382 -0.030116 0.3244 
abrazo -0.02197 -0.075251 0.31795 0.28288 0.12364 0.063657 -0.0046702 0.18276 -0.025826 -0.17703 -0.64142 0.12891 0.62571 0.10057 0.39081 -0.41423 0.37895 -0.54681 -0.44215 0.382 -0.10135 -0.23268 0.46044 0.070888 0.011903 0.077402 0.068412 0.059236 0.17308 0.54966 -0.046898 -0.1964 0.51419 0.38629 -0.2884 0.40105 -0.18142 -0.030237 -0.4718 -0.41138 -0.32239 -0.15068 0.080217 -0.13887 -0.1547 -0.12857 -0.30917 -0.165 -0.14541 0.031384 
chacón 0.50267 -0.11201 -0.25712 0.30556 0.21305 -0.047877 -0.39058 0.29493 -0.28682 -0.36862 -0.2773 0.10879 0.52285 -0.02321 0.020727 -0.0086343 0.11675 -0.37842 -0.24618 0.50548 -0.02048 -0.49667 0.18902 -0.026256 -0.041259 0.028393 0.41494 -0.081917 0.34697 0.37358 -0.054021 -0.050845 -0.078694 0.098414 0.017579 -0.073976 -0.38393 0.027538 -0.15607 -0.2503 -0.54596 0.1611 0.21359 -0.02062 -0.40468 -0.011206 -0.60379 -0.24257 -0.1504 -0.03293 
tras -0.12634 -0.41413 0.10253 1.0305 -0.32393 0.39078 -0.088726 0.072821 -0.050778 -0.10436 -0.24535 -0.073334 0.51819 0.15646 0.076216 -0.24933 0.13212 -0.37724 -0.37298 0.50765 -0.37248 -0.48054 0.16323 -0.11586 0.27011 -0.1992 0.82045 -0.49606 0.32164 0.68255 0.30304 -0.032209 0.51852 0.29374 0.036509 -0.035276 -0.16756 0.21762 -0.090351 0.15761 -0.21613 0.075344 -0.00048085 0.062592 0.014805 0.11729 0.10041 -0.21663 0.34768 0.2593 
van 0.14984 -0.39418 0.05118 0.68539 -0.82016 0.10634 -0.20484 0.25695 -0.033587 -0.15877 -0.4669 -0.15056 0.10745 -0.0097933 0.15932 -0.049629 0.26412 -0.38152 -0.29936 0.38857 -0.13254 -0.48937 0.29648 0.0086165 0.03716 -0.34887 0.29263 -0.38953 0.36367 0.29929 0.032099 0.22067 0.11914 0.18037 -0.076292 -0.10335 -0.053412 0.27062 -0.011403 0.055288 -0.44687 0.37006 0.348 0.14908 -0.31506 -0.090684 -0.24876 0.13687 0.14548 0.15584 
alguien 0.34039 -0.13842 -0.065884 0.28817 -0.34671 -0.040892 -0.29569 0.40009 -0.057802 -0.23427 -0.57722 0.1572 0.33948 0.023843 0.21849 -0.13636 0.29503 -0.30554 -0.27662 0.37525 -0.091828 -0.39571 0.32905 0.048019 -0.025504 -0.12221 0.090363 -0.038219 0.24632 0.26375 -0.10657 -0.021392 0.046622 0.10725 -0.10023 0.069851 -0.2056 0.060641 -0.18922 -0.21933 -0.31856 0.22755 0.19994 0.035879 -0.32928 -0.15411 -0.45468 -0.003962 -0.17315 0.0061836 
elecciones 0.23985 -0.42123 -0.38529 0.9703 -0.61206 0.20688 -0.09525 0.108 -0.028768 0.0005443 -0.18451 -0.14917 0.17394 0.067112 0.059116 -0.12864 0.12647 -0.27321 -0.32928 0.32619 -0.28488 -0.55278 0.23369 -0.10388 0.19518 -0.16743 0.29489 -0.36665 0.25672 0.35103 0.27225 0.15443 0.2714 0.095735 0.023422 -0.090081 -0.16896 0.19235 -0.090471 0.037851 -0.30692 0.37349 0.11439 0.3582 -0.18549 -0.17115 -0.17794 0.090818 0.15132 0.097906 
#elcambioandaluz 0.30001 -0.22148 -0.29401 0.73347 -0.41556 0.28714 0.0062173 0.055881 -0.026786 -0.1081 -0.091823 -0.080719 0.38769 0.14735 0.1313 -0.14959 -0.14551 -0.16906 -0.11286 0.16479 -0.29723 -0.36754 0.14359 -0.071088 0.26314 -0.012163 0.30538 -0.41685 0.27271 0.47065 0.12143 -0.12613 0.48909 0.060164 0.097216 0.081591 -0.34286 -0.00077887 -0.5507 -0.51573 -0.38894 0.3433 -0.034122 0.16593 -0.30848 -0.016758 -0.2383 -0.017743 0.016639 0.16551 
horas -0.1131 -0.35578 0.048181 0.80375 -0.26161 0.30341 -0.09281 0.088101 -0.018288 -0.08239 -0.42655 0.010535 0.49478 0.17008 0.25038 -0.28949 0.21641 -0.36192 -0.41434 0.51963 -0.37688 -0.44297 0.17444 -0.09155 0.25147 -0.13938 0.35835 -0.22773 0.25865 0.55461 0.19577 -0.074155 0.47366 0.26664 0.010432 0.055463 -0.16359 0.19645 -0.16162 0.036329 -0.21742 0.27257 -0.012274 0.13235 -0.11296 -0.08077 -0.16152 -0.082684 0.22392 0.22912 
#ff 0.16113 -0.35835 0.038372 0.63277 -0.63566 0.075664 -0.21997 0.3185 0.015872 -0.06779 -0.43579 0.020266 0.3487 0.088654 0.27742 -0.15453 0.18373 -0.21181 -0.23489 0.33729 -0.24654 -0.38296 0.33861 0.01688 0.13458 -0.13619 -0.0012896 -0.0031024 0.29338 0.37557 -0.040702 0.028074 0.23743 0.12426 -0.11746 0.030508 -0.26101 0.14901 -0.28114 -0.27778 -0.35137 0.39175 0.16365 0.13159 -0.30576 -0.14309 -0.33935 0.16029 0.040542 0.1849 
muchos 0.022317 -0.39437 -0.050985 0.79098 -0.57008 0.23921 -0.10581 0.1292 0.010073 -0.080995 -0.45462 -0.097566 0.14595 0.064251 0.15787 -0.20192 0.2041 -0.41578 -0.35793 0.44823 -0.30971 -0.62398 0.2862 -0.16538 0.14172 -0.062185 0.027831 -0.10566 0.22349 0.31127 0.40293 0.092439 0.35807 0.25814 0.067797 -0.0012178 -0.053367 0.30032 -0.013888 0.3207 -0.34775 0.45166 0.14146 0.38193 -0.24575 -0.22869 -0.35526 -0.00088174 0.012535 0.032706 
ministro 0.60564 -0.038484 -0.0207 0.4282 0.080206 -0.089694 -0.20751 0.38301 -0.15551 -0.17591 -0.20518 0.085633 0.48995 -0.026028 -0.035305 -0.15467 0.17523 -0.31003 -0.18784 0.12421 0.17091 -0.15644 0.5087 0.078666 -0.16353 -0.17019 0.97167 -0.46504 0.16945 0.52263 -0.096201 -0.091523 0.4201 0.3241 -0.349 0.37699 -0.21675 -0.13266 -0.39093 -0.53527 -0.16771 -0.67715 0.19949 -0.42735 0.037131 0.18225 0.12083 -0.26249 -0.11503 0.061773 
luego 0.30691 -0.22308 0.12662 0.49304 -0.29067 -0.04567 -0.16081 0.39441 0.069804 -0.060394 -0.56484 0.094497 0.29028 0.0091463 0.27619 -0.24395 0.36407 -0.34747 -0.31324 0.22666 0.060503 -0.091971 0.36775 0.065002 -0.084033 -0.15338 0.1509 -0.091516 0.073891 0.32558 -0.12742 -0.010903 0.29328 0.30254 -0.33716 0.30999 0.017115 -0.0080379 -0.22244 -0.15539 -0.21102 -0.090838 0.22185 -0.00054243 -0.25576 -0.33786 -0.38993 -0.011662 -0.19399 0.079719 
final 0.31693 -0.03393 0.17347 0.18892 -0.088473 -0.051436 -0.3763 0.486 -0.14132 -0.33294 -0.40883 0.1405 0.69328 -0.017095 0.18625 -0.15865 0.15436 -0.27186 -0.14005 0.29713 0.0072003 -0.1803 0.33399 -0.0013457 -0.034437 -0.00525 0.55066 -0.088247 0.33175 0.46971 -0.16707 -0.092356 -0.003046 0.10257 -0.24654 0.030012 -0.35715 0.041255 -0.32435 -0.44065 -0.418 -0.1093 0.20269 -0.21065 -0.34414 -0.00024575 -0.39947 -0.19331 -0.26512 0.092798 
toda 0.27374 -0.17597 0.08324 0.24498 -0.31854 -0.12436 -0.44413 0.34477 -0.012275 -0.21791 -0.38224 0.047229 0.59002 0.0085697 0.21174 -0.24174 0.25706 -0.17803 -0.23302 0.39164 -0.15487 -0.19685 0.38314 -0.03761 -0.02563 -0.15135 0.30785 -0.1364 0.21549 0.42472 -0.23413 -0.18463 0.053768 0.13544 -0.18837 0.092808 -0.18737 0.12669 -0.30697 -0.31385 -0.23946 0.18368 0.33336 -0.047371 -0.3463 -0.1483 -0.44281 -0.035206 -0.0030779 0.35793 
personas 0.33804 -0.39985 -0.27676 0.96431 -0.34312 0.21531 -0.091576 0.20704 0.027755 0.027298 -0.2731 0.077191 0.16604 0.081748 0.16306 -0.11209 0.16104 -0.24387 -0.30916 0.31318 -0.24079 -0.33614 0.1377 -0.085098 0.17293 -0.20054 0.35275 -0.28576 0.12096 0.3774 0.11773 -0.062993 0.44367 0.20287 -0.024208 0.14913 -0.09821 0.056468 -0.14042 0.088688 -0.12036 0.26277 0.0032706 0.23672 -0.19427 -0.22206 -0.22703 -0.023436 -0.043421 0.10312 
i 0.57308 -0.58917 -0.105 1.2063 -0.7633 -0.015323 -0.42908 0.45308 0.025632 -0.08157 -0.38574 0.030569 0.31885 -0.012622 0.25211 -0.03023 0.096262 -0.11217 -0.10535 0.35633 -0.11352 -0.13882 0.14032 -0.0173 0.053207 -0.27692 0.21101 -0.088835 0.35512 0.38764 -0.20626 0.10619 0.00042564 0.11013 -0.14526 -0.12378 -0.27986 0.24782 -0.10915 -0.13419 -0.35351 0.3022 0.38885 0.02639 -0.42358 -0.11485 -0.38719 0.11124 -0.015372 0.30952 
tienen 0.27151 -0.36925 -0.11739 0.68582 -0.80169 0.094468 -0.1286 0.2793 0.048577 -0.073598 -0.45492 -0.063895 0.059504 0.0095771 0.18244 -0.045114 0.24756 -0.28169 -0.27665 0.31236 -0.21042 -0.38211 0.21687 0.038495 0.062914 -0.34929 0.24179 -0.42457 0.2295 0.24524 -0.017476 0.092251 0.11465 0.11449 -0.084243 -0.038989 -0.013538 0.16532 -0.045652 0.019118 -0.29927 0.42256 0.21463 0.21112 -0.28879 -0.20285 -0.31303 0.15858 0.053783 0.094844 
pide 0.60236 -0.27826 -0.022213 0.55098 -0.61016 -0.041326 -0.14075 0.24048 -0.055005 -0.036412 -0.10043 -0.13768 0.16489 -0.14397 -0.046116 0.056941 0.19402 -0.037913 -0.28715 0.19355 -0.05217 -0.14756 0.38827 0.17071 0.027721 -0.50442 0.74765 -0.55474 0.20025 0.3388 -0.27348 -0.032788 0.17386 0.24271 -0.27888 0.20841 -0.19591 0.081203 -0.19011 -0.41887 -0.3965 0.18078 0.29091 -0.084773 -0.027288 0.033211 -0.035212 0.16748 0.099101 0.22391 
nueva 0.47733 -0.17308 -0.17566 0.47398 -0.12026 -0.12871 -0.42967 0.33307 -0.052565 -0.19188 -0.25071 0.13401 0.50557 0.027344 0.16018 -0.18041 0.13228 -0.17311 -0.12725 0.3072 -0.081536 -0.27091 0.37423 -0.077432 -0.0055793 -0.034059 0.13777 0.063381 0.26132 0.43766 -0.164 -0.13147 0.25054 0.12738 -0.097962 0.15864 -0.37609 0.075854 -0.41941 -0.40713 -0.21304 0.11346 0.26577 -0.032089 -0.33297 -0.006896 -0.32632 -0.059012 -0.1676 0.18538 
educación 0.71311 -0.15442 -0.39648 0.61462 -0.15689 0.14882 -0.30693 0.44166 -0.1907 -0.27017 -0.07895 0.019366 0.28085 -0.011988 -0.06624 0.21013 -0.19936 -0.2237 -0.050609 0.28335 -0.12037 -0.52407 0.01824 -0.097668 0.046955 -0.17633 0.9064 -0.66735 0.29565 0.3707 0.026664 -0.047431 0.011899 -0.007854 0.08946 -0.1179 -0.32574 -0.039584 -0.10081 -0.1783 -0.41467 0.19375 0.050111 -0.01335 -0.37343 0.063133 -0.41223 -0.16779 -0.080454 0.041481 
falta 0.44653 -0.2194 -0.059758 0.43862 -0.55395 -0.1423 -0.59141 0.63308 0.010838 -0.19179 -0.23711 0.17156 0.41837 -0.034238 0.097974 -0.11518 0.10064 -0.042886 -0.052693 0.2587 -0.067477 -0.14694 0.29157 -0.083683 0.028526 -0.13282 0.23957 0.010346 0.17588 0.3305 -0.19033 -0.10053 0.024241 0.015953 -0.14183 0.0076158 -0.29577 0.072097 -0.25284 -0.2855 -0.30468 0.35658 0.28081 0.19296 -0.50211 -0.21791 -0.6209 -0.035509 -0.2614 0.22954 
euros 0.24757 -0.325 -0.11298 0.95505 -0.40995 0.34031 -0.22804 0.17737 -0.072819 -0.11244 -0.24426 -0.098019 0.29054 0.05207 0.032203 -0.1408 -0.067427 -0.28417 -0.21428 0.39353 -0.23186 -0.61575 0.17274 -0.22875 0.19318 -0.065968 0.71913 -0.47786 0.25105 0.42022 0.38874 -0.033589 0.40966 0.2566 0.10412 -0.062443 -0.1468 0.2271 0.0028677 0.21095 -0.25582 0.16749 0.077218 0.096666 -0.15622 0.083984 -0.070176 -0.18767 0.10275 0.17615 
electoral 0.52176 -0.24394 -0.31653 0.59831 -0.58869 0.056487 -0.23626 0.32816 -0.031437 -0.11889 -0.113 -0.042883 0.18851 -0.053493 0.020213 0.035247 0.0030775 -0.07255 -0.086529 0.18469 -0.11962 -0.34487 0.27667 -0.031 0.06633 -0.27928 0.59791 -0.39996 0.26947 0.32707 0.012623 0.071118 0.17313 0.074991 -0.090958 -0.00040918 -0.2821 0.1136 -0.19295 -0.31155 -0.35721 0.30157 0.15043 0.1001 -0.26118 -0.035041 -0.26597 0.13194 -0.020822 0.13559 
nadie 0.35593 -0.17869 -0.031131 0.31407 -0.35912 -0.093294 -0.1766 0.30691 -0.059804 -0.091587 -0.37474 0.03402 0.25741 -0.059672 0.11093 -0.068929 0.37684 -0.25356 -0.37822 0.32829 -0.068313 -0.20201 0.3956 0.11746 -0.046778 -0.272 0.36866 -0.14947 0.19412 0.26184 -0.15349 -0.02245 0.06519 0.2037 -0.26908 0.14823 -0.17107 0.071071 -0.1128 -0.19807 -0.40734 0.2636 0.19613 0.087676 -0.14626 -0.18174 -0.3746 0.081142 -0.11596 -0.02014 
amigos -0.24285 -0.21818 0.29934 0.55697 -0.40537 0.37664 -0.096379 0.10562 -0.036687 -0.19202 -0.54929 -0.025786 0.47152 0.16217 0.24052 -0.35027 0.070045 -0.43593 -0.31887 0.43799 -0.30825 -0.64655 0.25696 -0.18778 0.25993 0.16653 0.031061 -0.057883 0.23928 0.48675 0.39532 -0.084504 0.52464 0.26941 0.1068 0.054201 -0.21792 0.17722 -0.2661 0.0025986 -0.39066 0.32595 0.046088 0.23504 -0.28662 -0.098559 -0.31504 -0.17589 -0.036672 0.073488 
entrevista 0.35543 -0.10466 -0.099184 0.33186 -0.22509 -0.078998 -0.40149 0.36631 -0.11466 -0.23447 -0.1815 0.13444 0.49249 0.015586 0.06264 -0.13847 0.07841 -0.15637 -0.13383 0.27596 -0.11792 -0.29699 0.38232 -0.074305 0.036953 -0.034753 0.29377 -0.073007 0.24122 0.44263 -0.14297 -0.12974 0.21699 0.099697 -0.078321 0.13002 -0.4297 0.034241 -0.4104 -0.51209 -0.29765 0.15919 0.19325 0.020884 -0.3105 0.027287 -0.31302 -0.062254 -0.15024 0.14179 
recortes 0.30235 -0.31313 -0.38672 1.0582 -0.26814 0.22524 -0.1776 0.26614 -0.13957 -0.078083 -0.05817 -0.021664 0.30844 0.086384 -0.076804 -0.10359 -0.0092047 -0.28916 -0.23596 0.28881 -0.23018 -0.487 0.098982 -0.19291 0.13507 -0.079274 0.98597 -0.59651 0.26174 0.46015 0.34703 -0.025387 0.2811 0.11036 0.064038 -0.11461 -0.22152 0.14154 -0.09788 0.1583 -0.24631 0.046486 -0.025096 0.23065 -0.12676 -0.03224 -0.065994 -0.25436 0.023992 0.00099577 
laboral 0.76273 -0.1991 -0.4209 0.7072 -0.1869 0.084395 -0.3274 0.44831 -0.10359 -0.21983 -0.13983 0.093066 0.46157 -0.0038155 0.060745 -0.03586 -0.068074 -0.12332 -0.028659 0.23911 -0.060932 -0.30699 0.14273 -0.12478 0.059345 -0.13235 0.89306 -0.4013 0.27741 0.40841 0.032441 -0.099015 0.11128 0.043829 -0.073215 -0.046691 -0.30514 0.067925 -0.20856 -0.20738 -0.25891 0.0065777 0.042791 -0.08785 -0.29345 0.0048619 -0.28822 -0.16154 -0.19935 0.1178 
huelga 0.531 -0.2399 -0.18108 0.64804 -0.44903 -0.050219 -0.41879 0.38624 -0.075034 -0.21651 -0.12016 0.0087873 0.4039 -0.015729 0.0019124 -0.12149 0.068732 -0.098889 -0.058051 0.22151 -0.084013 -0.27749 0.33402 -0.093721 -0.01056 -0.21577 0.70714 -0.34459 0.29813 0.46043 -0.048748 -0.041998 0.24766 0.13915 -0.073525 0.028581 -0.30182 0.15465 -0.3014 -0.33173 -0.16131 0.030347 0.2529 -0.081415 -0.22374 0.13655 -0.063282 -0.044873 0.026375 0.31198 
paro 0.75047 -0.38675 -0.12484 0.89698 -0.47371 0.0516 -0.21082 0.44094 0.055552 0.020319 -0.26096 -0.05352 0.19841 -0.064188 0.070489 -0.081625 0.15301 -0.16823 -0.21948 0.10881 0.14098 -0.13229 0.30678 0.031016 0.026589 -0.31625 0.6187 -0.53632 0.087989 0.33793 -0.10756 0.042039 0.29808 0.2503 -0.33657 0.21532 0.040999 -0.0018809 -0.15513 -0.16717 -0.26093 -0.1577 0.30266 -0.072749 -0.22398 -0.22272 -0.1498 -0.018753 0.0080308 0.28912 
fin 0.16527 -0.16951 0.23493 0.46884 -0.32363 0.12891 -0.19967 0.33043 -0.065805 -0.24412 -0.48308 0.034044 0.46753 0.060334 0.26708 -0.16156 0.10186 -0.35959 -0.19927 0.33471 -0.10419 -0.33772 0.21623 0.019281 0.062962 -0.082004 0.29184 -0.21567 0.29954 0.44083 -0.079129 -0.02546 0.1812 0.17273 -0.094228 0.055335 -0.22747 0.086558 -0.27002 -0.30037 -0.41939 0.08268 0.16472 -0.10835 -0.36345 -0.0011365 -0.32928 -0.070033 -0.031148 0.15457 
mitin 0.40661 -0.2607 -0.074589 0.62775 -0.79838 0.17375 -0.11 0.36519 0.094538 -0.098575 -0.42114 -0.039059 0.22892 0.085107 0.27188 -0.10086 0.0017642 -0.10917 -0.11908 0.1645 -0.18985 -0.23079 0.10414 0.038154 0.134 -0.24621 0.24459 -0.47042 0.13788 0.21592 -0.065622 -0.038551 0.14324 0.039371 -0.059609 0.03136 -0.044331 0.04864 -0.25173 -0.31531 -0.33648 0.4024 0.08798 0.10436 -0.46347 -0.26186 -0.51134 0.16085 0.0018495 0.26741 
valencia 0.37783 -0.15773 -0.18672 0.35176 -0.27996 -0.089818 -0.38719 0.30749 -0.096715 -0.23261 -0.16094 0.065403 0.43725 -0.015519 0.017066 -0.08551 0.15928 -0.21134 -0.16355 0.32882 -0.10688 -0.34398 0.46231 -0.064643 -0.029309 -0.17741 0.46726 -0.21148 0.28919 0.45319 -0.092843 -0.061933 0.15727 0.083704 -0.119 0.043251 -0.29067 0.12341 -0.27081 -0.34883 -0.28935 0.13095 0.27463 0.015695 -0.24332 0.075359 -0.22093 -0.033917 -0.052181 0.19989 
queda 0.29555 -0.14757 -0.14568 0.15841 -0.26518 -0.26885 -0.42028 0.28649 -0.055637 -0.16993 -0.38622 0.048468 0.42865 -0.045587 0.16079 -0.26967 0.45391 -0.22219 -0.31916 0.37606 -0.052554 -0.25202 0.50929 -0.0029112 -0.12827 -0.12449 0.010105 0.024381 0.21577 0.29352 -0.21427 -0.0089852 -0.026548 0.11715 -0.22779 0.11426 -0.19075 0.1482 -0.29572 -0.29293 -0.35181 0.28043 0.44348 0.19676 -0.36171 -0.33979 -0.53623 0.044366 -0.11853 0.18079 
hora 0.42387 -0.078826 -0.030774 0.10662 -0.18239 -0.23532 -0.47932 0.35998 -0.04036 -0.26188 -0.35165 0.048479 0.62535 -0.016432 0.20695 -0.27738 0.29656 -0.14941 -0.19589 0.32533 -0.055643 -0.15172 0.49651 -0.019936 -0.10367 -0.14903 0.19338 -0.049083 0.22541 0.43274 -0.32252 -0.12592 0.16019 0.17954 -0.2225 0.20394 -0.22353 0.15696 -0.42816 -0.54225 -0.22803 0.032739 0.39939 -0.17752 -0.33997 -0.079109 -0.34096 0.010099 -0.006518 0.39547 
debate 0.56474 -0.25103 -0.16746 0.54583 -0.25464 -0.12273 -0.18379 0.1748 -0.13253 -0.10504 -0.1719 0.11541 0.24353 -0.024513 0.016955 -0.032991 0.25932 -0.2257 -0.32586 0.27446 -0.10105 -0.31917 0.48049 0.038499 -0.011092 -0.26045 0.33397 -0.071776 0.2447 0.36592 -0.17964 -0.10382 0.31472 0.28028 -0.17194 0.26626 -0.40622 0.011541 -0.29869 -0.42694 -0.22074 0.030856 0.17643 -0.094706 -0.0040762 0.10323 -0.012947 0.030085 -0.12484 -0.091235 
somos -0.070274 -0.32737 -0.057035 0.57575 -0.43749 0.27364 -0.12325 -0.022965 -0.079495 -0.1381 -0.52189 -0.23419 0.21782 0.045506 0.17757 -0.26781 0.27238 -0.49205 -0.45189 0.53321 -0.29332 -0.76298 0.35887 -0.18601 0.11027 -0.0051537 0.14412 -0.2725 0.27661 0.3466 0.4808 0.1264 0.32191 0.30916 0.059748 -0.070827 0.021289 0.39734 0.067043 0.36548 -0.38493 0.36983 0.21537 0.31279 -0.20392 -0.14028 -0.24211 -0.02435 0.1994 0.12258 
fue 0.51908 -0.24723 0.10226 0.516 -0.32654 -0.053376 -0.23238 0.33089 -0.056766 -0.15439 -0.48212 0.08218 0.536 -0.021077 0.25297 -0.16591 0.29086 -0.22692 -0.34505 0.39926 -0.15017 -0.11181 0.35978 0.12363 0.040941 -0.24074 0.27083 -0.025546 0.24942 0.40376 -0.33561 -0.18861 0.060099 0.22004 -0.26035 0.19071 -0.27803 0.09087 -0.21453 -0.40632 -0.336 0.1043 0.18484 -0.24373 -0.13935 0.018896 -0.25184 0.023102 -0.065734 0.17009 
estar 0.19857 -0.38237 -0.41849 0.41786 -0.48879 -0.14798 -0.23866 0.29568 0.034052 0.048365 -0.54006 0.098571 -0.051556 -0.063444 0.27027 0.1159 0.49897 -0.41437 -0.35294 0.44789 -0.19733 -0.54947 0.5679 0.051437 -0.10913 -0.37493 0.0066349 -0.27785 0.36997 0.10116 -0.1557 0.085697 0.064156 0.13267 -0.29461 0.013501 -0.032947 0.11926 -0.032792 -0.059482 -0.067582 0.34026 0.27374 0.10835 -0.17367 -0.20735 -0.1864 0.28223 0.13342 0.040825 
españoles 0.18228 -0.24374 -0.23326 0.7501 -0.47479 0.24566 -0.22836 0.29838 -0.039838 -0.080206 -0.29851 -0.050268 0.33899 0.11259 0.1531 -0.17768 0.046792 -0.24618 -0.2523 0.35252 -0.33513 -0.5675 0.21382 -0.16425 0.16115 -0.13121 0.58477 -0.48688 0.25484 0.38158 0.24805 -0.032712 0.3165 0.1336 0.045832 -0.067849 -0.087505 0.19647 -0.057898 0.073418 -0.12093 0.15324 -0.015062 0.095557 -0.15761 9.1361e-06 -0.091792 -0.030927 0.15455 0.20842 
enhorabuena 0.06666 0.0025292 0.1655 0.050557 -0.12811 -0.032003 -0.22778 0.29314 -0.056027 -0.22807 -0.41465 0.12752 0.5562 0.074578 0.25597 -0.29572 0.26494 -0.31323 -0.25902 0.29074 -0.14108 -0.28214 0.49538 0.013191 0.002807 -0.0025161 0.18288 -0.02837 0.22004 0.48828 -0.15573 -0.20166 0.39703 0.22742 -0.17187 0.28262 -0.29242 0.019469 -0.50332 -0.52107 -0.22472 0.014267 0.12564 -0.088225 -0.22349 -0.012771 -0.23042 -0.045301 -0.13702 0.1218 
tarde 0.40029 -0.18169 -0.011659 0.3476 -0.16217 -0.076292 -0.078999 0.17006 -0.042532 -0.072866 -0.45622 0.049695 0.37287 -0.022451 0.2486 -0.14372 0.37982 -0.30402 -0.39592 0.33682 -0.11659 -0.19956 0.45799 0.15851 -0.032976 -0.25606 0.24861 -0.13063 0.23074 0.36469 -0.27089 -0.15203 0.2737 0.30223 -0.29929 0.31836 -0.20978 0.031953 -0.30885 -0.44738 -0.23329 0.025286 0.16717 -0.19491 -0.043025 -0.027749 -0.13137 0.080405 -0.01117 0.094195 
apoyo 0.52193 -0.2976 -0.09776 0.83093 -0.34156 0.098487 -0.12398 0.29527 0.027248 -0.077722 -0.10148 -0.071405 0.26926 -0.022738 0.034774 -0.090864 0.033914 -0.16091 -0.11789 0.128 0.0054431 -0.12684 0.23576 0.020535 0.052716 -0.21432 0.65967 -0.41846 0.1864 0.44826 -0.011399 -0.010449 0.37499 0.23256 -0.21717 0.17909 -0.1578 0.034058 -0.29121 -0.29014 -0.41458 0.021098 0.15179 0.0041208 -0.22884 -0.10656 -0.24322 -0.035865 -0.02382 0.20904 
todas -0.13976 -0.39485 0.098902 0.87597 -0.39955 0.35199 -0.040394 0.10774 0.041252 -0.061516 -0.46425 0.012721 0.4411 0.18766 0.27357 -0.26562 0.18923 -0.38004 -0.40791 0.51407 -0.42683 -0.40287 0.10034 -0.08851 0.27895 -0.16588 0.37592 -0.30935 0.21043 0.51762 0.20272 -0.11715 0.43408 0.2393 0.027788 0.0486 -0.088842 0.15879 -0.099679 0.16087 -0.17634 0.32293 -0.06074 0.16236 -0.12256 -0.14054 -0.19797 -0.1079 0.18276 0.20592 
mercados 0.41629 -0.36768 -0.30062 0.82949 -0.68018 0.13555 -0.28011 0.27649 -0.096144 -0.094969 -0.084809 -0.14611 0.043418 -0.072771 -0.18128 0.004906 0.044154 -0.18714 -0.1931 0.27689 -0.14555 -0.58629 0.30223 -0.16605 0.052667 -0.29083 0.88239 -0.57921 0.28123 0.30737 0.33036 0.15924 0.25636 0.23763 0.031164 -0.094367 -0.15989 0.24103 0.065977 0.2142 -0.33213 0.26578 0.2368 0.24537 -0.12724 5.3267e-05 -0.093766 -0.026151 0.066508 0.070552 
sanidad 0.52665 -0.25588 -0.51383 0.78653 -0.42468 0.090239 -0.21137 0.42126 -0.072476 -0.12252 -0.16033 -0.015996 0.14582 0.016944 0.073235 0.024427 0.1118 -0.26038 -0.11108 0.21166 -0.16347 -0.34476 0.13808 -0.093633 -0.058263 -0.15683 0.88146 -0.58645 0.26557 0.35281 0.14074 0.030735 0.080303 -0.0016167 -0.086968 -0.096963 -0.14134 0.10968 -0.088799 0.070826 -0.20857 0.10397 -0.046211 0.12741 -0.20575 -0.087614 -0.24961 0.018394 -0.072386 0.066442 
vota 0.53708 -0.5499 -0.19747 0.78741 -1.4651 -0.28076 -0.46588 0.48348 0.14634 -0.049077 -0.25281 -0.13486 0.0014623 -0.13755 0.029941 -0.028728 0.30161 -0.0027188 -0.13091 0.14553 -0.12496 -0.060591 0.47464 0.04817 -0.051699 -0.6339 0.21294 -0.38574 0.22328 0.2613 -0.32855 0.22431 -0.006875 0.086401 -0.24744 0.016635 -0.10921 0.29115 -0.15505 -0.21675 -0.28062 0.63249 0.58795 0.35878 -0.41436 -0.27254 -0.35662 0.41683 0.069264 0.37002 
puedo 0.3092 -0.27011 0.25003 0.41643 -0.57571 -0.18037 -0.012239 0.37417 0.19543 0.011973 -0.64317 0.050122 0.064697 -0.059594 0.22491 -0.24684 0.57358 -0.41248 -0.47458 0.1414 0.15899 -0.060643 0.57198 0.16609 -0.15661 -0.29228 -0.12197 -0.055462 -0.074973 0.21866 -0.27921 0.16257 0.29401 0.4047 -0.47051 0.49586 0.13806 -0.067577 -0.17879 -0.21438 -0.2745 -0.028065 0.35171 0.10609 -0.20076 -0.51093 -0.42315 0.20701 -0.22539 0.01774 
justicia 0.55755 -0.16152 -0.21639 0.39867 -0.36683 -0.080217 -0.40418 0.34461 -0.056455 -0.21532 -0.074817 0.081507 0.46405 0.015633 0.0084946 -0.044347 0.012604 -0.052197 -0.0332 0.22136 -0.11841 -0.33304 0.43718 -0.020809 0.018726 -0.20063 0.55123 -0.28957 0.27701 0.48211 -0.18518 -0.15235 0.29035 0.064682 -0.12606 0.088031 -0.33675 0.077283 -0.4201 -0.60636 -0.19297 0.048284 0.20845 -0.15518 -0.19062 0.21919 -0.037168 0.025043 0.061846 0.35221 
sociales 0.092104 -0.4031 -0.37577 1.1539 -0.66898 0.42174 -0.19864 0.31945 -0.057956 -0.065457 -0.18894 -0.10888 0.31354 0.21806 0.11992 -0.1676 -0.081528 -0.2822 -0.19627 0.36759 -0.5254 -0.8595 0.12595 -0.26027 0.25929 -0.061411 0.63975 -0.53567 0.34927 0.50609 0.55866 0.060197 0.46106 0.011773 0.20449 -0.24435 -0.16647 0.34365 -0.069737 0.27854 -0.10314 0.28618 -0.16977 0.24884 -0.14583 0.081946 0.068877 0.025018 0.31937 0.27532 
parte 0.51208 -0.20562 0.05085 0.37365 -0.39776 -0.075054 -0.14668 0.32435 -0.043854 -0.068736 -0.40344 0.064347 0.27883 -0.074187 0.17719 -0.075569 0.32929 -0.19354 -0.41058 0.31796 -0.07048 -0.10256 0.35623 0.11205 0.033629 -0.33325 0.28296 -0.19726 0.11043 0.23048 -0.32348 -0.1435 0.026567 0.21301 -0.28106 0.26544 -0.15299 0.013943 -0.14021 -0.30234 -0.37144 0.2457 0.18954 -0.037741 -0.18886 -0.22582 -0.41769 0.06386 -0.20561 0.057868 
equipo 0.43975 -0.22357 -0.12615 0.52062 -0.13438 -0.075737 -0.10972 0.22801 0.026842 -0.038993 -0.33514 0.0089622 0.26779 -0.042673 0.18898 -0.17846 0.29709 -0.32218 -0.28202 0.21897 0.026153 -0.19356 0.48008 0.08844 -0.057167 -0.090411 -0.0016059 0.011861 0.18816 0.38297 -0.14214 0.049142 0.37018 0.30679 -0.32087 0.33204 -0.19411 0.019514 -0.3902 -0.44395 -0.41272 0.048917 0.258 0.022082 -0.22656 -0.2011 -0.3218 0.090971 -0.074808 0.066486 
calle 0.19258 -0.18797 0.19512 0.39587 -0.51992 0.043983 -0.187 0.27377 -0.064864 -0.18329 -0.51171 0.06463 0.5042 0.061183 0.26051 -0.17988 0.25662 -0.22096 -0.31182 0.43263 -0.22631 -0.3296 0.34897 0.093511 0.11393 -0.25782 0.33261 -0.17399 0.26604 0.38136 -0.19228 -0.159 0.18563 0.19688 -0.1303 0.11526 -0.18669 0.13632 -0.18422 -0.36564 -0.20467 0.16067 0.057936 -0.24443 -0.098659 0.12676 -0.12032 0.064642 0.07556 0.22601 
junta 0.68656 -0.17577 -0.21087 0.58634 -0.25513 -0.15156 -0.60036 0.42772 -0.12711 -0.27792 0.059096 0.084509 0.59293 -0.051877 -0.099281 -0.086465 -0.073235 0.020107 0.045577 0.20531 -0.019014 -0.19442 0.35146 -0.097753 0.015388 -0.10099 0.61171 -0.17407 0.2891 0.53423 -0.25609 -0.15265 0.17811 0.046871 -0.1178 0.063157 -0.4756 0.065436 -0.47351 -0.62343 -0.28578 0.010164 0.31306 -0.09806 -0.35014 0.16005 -0.22567 -0.14839 -0.098584 0.35792 
ti 0.14198 -0.3906 0.13299 0.69014 -0.60173 0.014087 -0.15359 0.35591 0.13682 -0.024268 -0.74472 0.093384 0.3153 0.096953 0.49119 -0.22309 0.40474 -0.37479 -0.39714 0.41315 -0.22182 -0.15787 0.29316 0.067401 0.044188 -0.23548 -0.10192 -0.0049897 0.2137 0.31624 -0.16943 -0.038142 0.18651 0.22204 -0.25631 0.12808 -0.026053 0.14019 -0.13611 -0.034823 -0.20489 0.30819 0.18436 0.07244 -0.31142 -0.33738 -0.4663 0.12639 -0.088342 0.11678 
#pp 0.17702 -0.37855 0.022126 0.65614 -1.2994 0.15878 -0.24348 0.54147 0.1481 -0.0017182 -0.38573 -0.1441 0.088473 0.021553 0.15379 -0.032645 0.11347 -0.03131 -0.17299 0.19078 -0.22973 -0.30565 0.19493 0.027758 0.14961 -0.42316 0.47142 -0.58404 0.17793 0.17953 0.048621 0.15302 0.081952 0.039699 -0.12654 -0.10971 0.0090068 0.1683 -0.036997 -0.043581 -0.42212 0.64329 0.17438 0.36273 -0.42119 -0.38542 -0.50067 0.3061 0.082621 0.27738 
+ 0.47036 -0.44041 0.042851 0.97067 -0.71946 0.058646 -0.44394 0.66179 0.042847 -0.10589 -0.55839 0.13443 0.43391 0.042523 0.29319 -0.11933 0.12954 -0.144 -0.18312 0.36292 -0.12553 -0.16339 0.094106 -0.059507 0.053463 -0.35262 0.64786 -0.39252 0.25222 0.32471 -0.14366 -0.065635 -0.072854 0.058497 -0.17973 -0.092667 -0.054514 0.17451 0.049608 0.079766 -0.11434 0.039323 0.1632 -0.12664 -0.34904 -0.14401 -0.33466 -0.052837 -0.077466 0.32851 
igualdad 0.43908 -0.28858 -0.53263 0.85845 -0.4049 0.19733 -0.10252 0.29886 -0.010442 -0.099597 -0.21206 0.0082521 0.18696 0.078599 0.13578 -0.040817 0.032019 -0.26762 -0.15406 0.23809 -0.26432 -0.37867 0.062485 -0.13005 0.07273 -0.12641 0.65037 -0.57017 0.23333 0.34147 0.23695 -0.062667 0.19981 0.025062 0.040451 -0.055411 -0.13833 0.095994 -0.16744 0.055601 -0.18408 0.22937 -0.067863 0.19697 -0.25299 -0.16949 -0.30289 -0.012677 -0.068186 0.041724 
dia 0.21629 -0.12609 0.10966 0.087088 -0.076209 -0.17836 -0.69093 0.31203 -0.17047 -0.34794 -0.23727 0.12545 0.82965 0.040046 0.11056 -0.24901 0.24026 -0.13603 -0.26088 0.54237 -0.16238 -0.46295 0.54406 -0.112 0.028994 -0.071042 0.26563 0.12917 0.33627 0.58045 -0.22809 -0.22976 0.12349 0.13636 -0.1349 -0.023192 -0.39122 0.17119 -0.36793 -0.54947 -0.30657 0.11739 0.38564 -0.17566 -0.31712 0.14813 -0.36383 -0.10157 0.13793 0.46764 
quiere 0.37075 -0.11791 -0.066695 0.32231 -0.75591 -0.17142 -0.34679 0.6266 -0.064151 -0.096238 -0.40481 0.055777 0.09319 -0.13406 -0.0070321 -0.11267 0.5036 -0.1289 -0.29608 0.2892 -0.064648 -0.2175 0.47004 0.10713 -0.15369 -0.4037 0.53855 -0.24337 0.19728 0.12076 -0.099235 0.10146 -0.13601 0.13091 -0.22247 0.068399 -0.049694 0.18254 0.14333 0.13212 -0.37316 0.28123 0.21072 0.22648 -0.15365 -0.29608 -0.35832 0.060303 -0.30277 -0.11264 
dar -0.011166 -0.45997 -0.13668 0.41479 -0.82367 -0.1179 -0.39771 0.51081 0.075026 0.06482 -0.57692 0.15555 0.040635 -0.051747 0.24736 0.1386 0.509 -0.24855 -0.26014 0.41697 -0.19576 -0.63436 0.61117 0.074823 -0.043346 -0.40459 -0.0027481 -0.21968 0.43344 0.034547 -0.15172 0.057542 0.009269 0.027306 -0.32793 -0.13906 -0.049915 0.10972 -0.10353 -0.11859 -0.038634 0.45793 0.32613 0.12767 -0.27997 -0.28684 -0.17728 0.24427 0.16504 0.18899 
twitter 0.089311 -0.25515 -0.16467 0.40595 -0.44985 -0.036154 -0.14389 0.31191 0.043772 -0.0073981 -0.47352 0.14954 0.12868 0.034069 0.26083 -0.056944 0.3839 -0.33125 -0.24482 0.31708 -0.21271 -0.43325 0.46852 0.048425 -0.027785 -0.21319 0.018301 -0.11826 0.29596 0.25365 -0.059945 -0.014267 0.33448 0.17769 -0.21477 0.13624 -0.15967 0.062946 -0.32629 -0.23094 -0.062417 0.24089 0.13052 0.073479 -0.16164 -0.129 -0.091895 0.15031 0.012906 0.050022 
primer 0.33783 -0.26042 -0.19572 0.33934 -0.093855 -0.10358 -0.33081 0.29066 -0.083226 -0.082449 -0.45585 0.17569 0.31963 -0.031557 0.20437 -0.048554 0.39471 -0.35211 -0.36016 0.41314 -0.06281 -0.39914 0.48127 0.017214 -0.021039 -0.21839 0.22085 -0.2261 0.28626 0.292 -0.2082 -0.12909 0.15645 0.21046 -0.22239 0.11523 -0.19191 -0.035652 -0.29394 -0.26456 -0.074544 0.0084838 0.33809 -0.06934 -0.1905 -0.094508 -0.11778 -0.08239 -0.0085232 0.11089 
minutos 0.13729 -0.18713 -0.094823 0.60473 0.035111 0.22981 -0.091407 0.015426 -0.14005 -0.15806 -0.30349 -0.046335 0.39038 0.071738 0.061321 -0.26783 0.12231 -0.45446 -0.32758 0.40186 -0.16648 -0.61902 0.3347 -0.16914 0.061615 0.073686 0.47045 -0.25001 0.25531 0.49049 0.36844 -0.040704 0.50414 0.34046 0.0066529 0.12641 -0.19469 0.13925 -0.21675 0.011391 -0.30548 -0.021118 0.093654 0.043368 -0.093046 0.024113 -0.13015 -0.23675 0.01036 0.032297 
#eligeiu 0.30006 -0.37134 -0.23936 0.65754 -0.9536 -0.010293 -0.14338 0.25981 -0.0047626 -0.028186 -0.097198 -0.19252 -0.066866 -0.093648 -0.090189 0.071026 0.20424 -0.12138 -0.19311 0.16623 -0.15187 -0.34502 0.38434 0.063063 -5.0996e-05 -0.50568 0.72789 -0.64505 0.30446 0.28763 0.026654 0.22158 0.19452 0.16016 -0.15236 -0.014403 -0.13627 0.20121 -0.083539 -0.11343 -0.38154 0.40743 0.28042 0.27758 -0.10849 -0.080993 -0.10069 0.27837 0.17893 0.10066 
miedo 0.46196 -0.24474 0.026202 0.644 -0.49531 -0.071721 0.030203 0.33308 0.1616 -0.018849 -0.30833 -0.087526 0.090368 -0.074021 0.051972 -0.1892 0.29894 -0.29376 -0.26941 0.038032 0.088731 -0.0059356 0.43062 0.1205 -0.13104 -0.31106 0.45861 -0.33741 -0.021368 0.30752 -0.11888 0.16116 0.3579 0.3668 -0.39629 0.40046 0.10001 -0.01807 -0.16888 -0.2163 -0.34675 -0.11618 0.18569 0.021004 -0.1175 -0.31356 -0.34444 0.14676 -0.124 0.08513 
grande 0.12938 -0.042871 0.23877 0.070477 -0.14532 -0.024051 -0.13466 0.29475 -0.072862 -0.15438 -0.52598 0.11084 0.52714 0.028868 0.28642 -0.22834 0.37446 -0.34677 -0.40773 0.36552 -0.14882 -0.24209 0.49524 0.13831 0.019492 -0.10326 0.1877 0.016232 0.21223 0.37869 -0.20702 -0.1867 0.21987 0.23701 -0.27216 0.26512 -0.23856 0.016773 -0.33258 -0.45077 -0.3828 0.13117 0.088477 -0.098137 -0.14876 -0.1009 -0.33179 0.0084057 -0.13104 0.039319 
derecha 0.68862 -0.41936 -0.65963 0.71139 -0.61186 -0.14483 -0.35156 0.23788 -0.019706 -0.024596 -0.00094684 -0.0906 0.010938 -0.11079 -0.068096 0.038541 0.22353 -0.051255 -0.19341 0.23352 -0.17317 -0.38182 0.36905 -0.050411 -0.061423 -0.43013 0.48933 -0.46279 0.21751 0.22899 -0.048442 0.066998 0.12181 0.096484 -0.084968 0.0025833 -0.11646 0.214 -0.127 -0.10701 -0.22843 0.42402 0.35341 0.25359 -0.26539 -0.21345 -0.2851 0.23004 0.11922 0.22946 
habrá 0.45376 -0.20132 -0.26162 0.50851 -0.27724 -0.040308 -0.20808 0.31261 -0.063556 -0.10182 -0.22744 0.046092 0.23326 -0.027599 0.064143 -0.050719 0.16593 -0.21802 -0.21112 0.25373 -0.060954 -0.28442 0.27958 -0.010545 -0.025214 -0.25031 0.55307 -0.29318 0.21668 0.32567 -0.013424 0.017237 0.22991 0.19898 -0.14352 0.12535 -0.22722 0.10403 -0.16667 -0.18709 -0.27812 0.12113 0.16471 0.026302 -0.16772 -0.04507 -0.20683 0.0059193 -0.049349 0.038627 
