3435 50
@user 0.510968 -0.09145339 0.324316 -0.30332065 0.022262387 -1.2971097 0.7105851 -0.018863816 0.016442759 -0.18052684 -0.06340346 0.6275789 -1.1568656 1.9235922 0.5898161 -0.50764215 0.110576995 0.030179711 0.16739762 -0.31897 -0.06693928 -1.0895633 0.0027395515 0.111848265 0.15453881 -0.08321526 0.15975565 -0.06666304 -0.5229865 0.4537564 0.44881627 -0.046734463 0.30288413 -0.45357916 -0.43336505 0.12605198 0.22814438 0.22072835 -0.43940112 0.020500375 -0.4384345 0.43373975 -0.14929682 0.34970298 0.49968606 0.06631179 0.41170293 0.6071507 0.25331873 -0.3210809
no 0.6186629 -0.123838805 0.27686605 -0.5183782 0.25508586 -1.2936985 0.831953 0.16492413 -0.06358638 0.023041997 0.049884975 0.6125752 -1.3129195 1.8646964 0.5878274 -0.51627934 0.04627923 0.23495221 0.04403437 -0.38073435 0.060264405 -1.0603098 0.12471492 0.29083 0.027287941 0.006131423 0.24034716 -0.09305338 -0.60541105 0.3447042 0.3164797 -0.10564045 0.20937641 -0.3372623 -0.42838877 0.24261321 0.36633247 0.17423825 -0.5297465 0.0019105151 -0.4396039 0.3658698 -0.23961209 0.24658675 0.40510982 0.15446801 0.3215424 0.38922432 0.32976273 -0.40777057
es 0.6598122 -0.09826269 0.28426236 -0.53868556 0.25502416 -1.3322458 0.865284 0.1785778 -0.06551132 0.015407233 0.046983104 0.6723268 -1.3797318 1.9758545 0.627717 -0.5432426 0.05031119 0.23629034 0.041037142 -0.40064672 0.04140915 -1.1008422 0.13730092 0.2827536 0.060545113 0.008779414 0.23350102 -0.08200027 -0.6425729 0.3867311 0.3540979 -0.106942296 0.25229326 -0.37386912 -0.43870828 0.25654906 0.38201517 0.19998749 -0.561613 -0.012404828 -0.46234977 0.3803856 -0.24313156 0.25287724 0.40490127 0.15588023 0.34496623 0.41101038 0.35000762 -0.41407993
por 0.63824666 -0.07167393 0.3074849 -0.5070942 0.25944343 -1.3979727 0.84017396 0.18848026 -0.047627173 -0.026881697 0.058676112 0.6980396 -1.3998771 1.9957302 0.6419242 -0.54302084 0.08946233 0.23222615 0.044931896 -0.42198148 0.04146022 -1.0904229 0.11495386 0.23484592 0.07596953 0.015112108 0.24657755 -0.071441226 -0.636662 0.38966322 0.39248598 -0.107263125 0.3028841 -0.41894016 -0.43626508 0.21034046 0.37371355 0.18724775 -0.5652403 -0.006390949 -0.45561516 0.42885175 -0.21362811 0.23466653 0.42988846 0.14881262 0.37196347 0.41793603 0.3678405 -0.43174666
se 0.68701327 -0.10867422 0.2904043 -0.56786466 0.30285496 -1.3473339 0.8840199 0.2113141 -0.071852736 0.004236613 0.0633805 0.6659022 -1.4209934 1.9617442 0.6143534 -0.5499643 0.03866953 0.27164552 0.055407647 -0.4137499 0.056122553 -1.1054264 0.15637217 0.29809025 0.057980016 0.009428243 0.24545021 -0.10709013 -0.6690341 0.36690116 0.36645737 -0.12821087 0.22902247 -0.37893242 -0.4278527 0.2578271 0.39913476 0.18841998 -0.5627424 -0.012724246 -0.48300645 0.3980421 -0.25142038 0.25095457 0.38070986 0.17179497 0.32165128 0.36172065 0.35670778 -0.43962806
n 0.8091812 -0.08846508 0.35636497 -0.6364414 0.33465675 -1.6216834 1.0272094 0.25972623 -0.07085641 0.016612431 0.09834134 0.8208817 -1.7001942 2.3280363 0.76126593 -0.66075194 0.09546085 0.3178074 0.0650938 -0.4988629 0.069174975 -1.2823073 0.16984487 0.29508063 0.09959171 0.04271921 0.28865448 -0.10086585 -0.8045825 0.4552666 0.46539092 -0.12490229 0.3329544 -0.4655811 -0.5252307 0.28505656 0.4668134 0.22403991 -0.70637524 -0.012220953 -0.5681549 0.46374512 -0.30022758 0.26942772 0.44553664 0.18643725 0.38195753 0.44774297 0.45874396 -0.5136176
si 0.64530236 -0.10548794 0.27808675 -0.5067151 0.25159082 -1.3584527 0.8672855 0.18425035 -0.054577988 -0.0070729465 0.06119318 0.662939 -1.3811169 1.9649732 0.63813007 -0.5350866 0.062033247 0.25543597 0.061619777 -0.40540954 0.061023988 -1.1011724 0.12861359 0.2630569 0.079326846 0.014426811 0.25298515 -0.086705275 -0.6651005 0.3856022 0.38331884 -0.1033949 0.24563555 -0.3950136 -0.4535499 0.2389003 0.38940918 0.18387209 -0.55667794 -0.0146982195 -0.46927306 0.37435856 -0.2522276 0.2448737 0.4116845 0.16167454 0.34594062 0.40009832 0.3435305 -0.4301777
pero 0.6880418 -0.084680654 0.29439476 -0.5605071 0.28115562 -1.4093634 0.9154824 0.19307679 -0.07610689 0.027690534 0.06781708 0.72272104 -1.4439245 2.0386815 0.6432512 -0.5613463 0.05572378 0.2462371 0.058978543 -0.42365992 0.07472988 -1.1424019 0.16502653 0.2712977 0.05887361 0.01734646 0.25214773 -0.09314945 -0.68279386 0.38241264 0.37938997 -0.1262267 0.2516535 -0.3999225 -0.4495546 0.28317937 0.39539385 0.21591562 -0.58627176 -0.020906914 -0.48364007 0.38580215 -0.25812325 0.2750677 0.40342104 0.1559425 0.35586044 0.41507697 0.35624063 -0.44023195
rt 0.5625759 -0.09752364 0.33014768 -0.37191796 0.07299137 -1.2984841 0.7241881 0.036561266 -0.0230887 -0.121994525 -0.030018525 0.6372434 -1.2176878 1.912286 0.60078454 -0.5183842 0.08950151 0.09600922 0.12448338 -0.3725478 -0.049831595 -1.0558925 0.024926001 0.12456069 0.14378308 -0.041050497 0.17108022 -0.06884842 -0.56235296 0.44096884 0.41725138 -0.053244747 0.31436628 -0.42369786 -0.4147796 0.1373607 0.24912074 0.20701511 -0.46611112 -0.012621962 -0.44272822 0.39999083 -0.14593902 0.30219844 0.48065764 0.09513315 0.38554054 0.5295 0.30304703 -0.3300589
ya 0.66661346 -0.08281527 0.3041125 -0.5090842 0.21936865 -1.3599049 0.857745 0.16195191 -0.06127895 -0.017745377 0.070930496 0.6938984 -1.370451 1.9399936 0.62692446 -0.55448914 0.072639875 0.21346936 0.06884196 -0.39619994 0.049634174 -1.0855675 0.13540795 0.23786479 0.08869257 0.014489905 0.23765038 -0.0659533 -0.64651674 0.3787969 0.40475097 -0.09848897 0.27362737 -0.4034097 -0.45485416 0.24632806 0.35818964 0.20986295 -0.55553925 -0.009333414 -0.4541003 0.375239 -0.2390904 0.2743193 0.40411118 0.13881432 0.34016278 0.40379474 0.35376018 -0.43945575
más 0.68889844 -0.08709993 0.30313945 -0.58052886 0.3010356 -1.4087514 0.887337 0.21284634 -0.086837836 0.015966909 0.06216858 0.72454584 -1.4695612 1.9957831 0.6434069 -0.5762148 0.05273852 0.28377217 0.046284527 -0.42363438 0.07617143 -1.1288257 0.15530677 0.25771466 0.07776183 0.037481397 0.24968168 -0.084321484 -0.687529 0.39358622 0.3854254 -0.13475177 0.28027517 -0.3872592 -0.45394653 0.2741937 0.40417635 0.19692266 -0.60182065 -0.014432998 -0.4976661 0.42458934 -0.24613373 0.2414468 0.3929088 0.15344484 0.34468266 0.3570664 0.39013433 -0.4562012
hoy 0.71848345 -0.014647782 0.33633122 -0.5523046 0.26878738 -1.4914639 0.9162195 0.20024596 -0.07563381 -0.013566883 0.086034425 0.7979435 -1.5149322 2.1211526 0.6912271 -0.6201727 0.10713622 0.23190238 0.058218814 -0.43017784 0.07630835 -1.1755315 0.15510537 0.21863765 0.11925898 0.031879902 0.25248757 -0.0503076 -0.71305674 0.43329796 0.46525598 -0.11359051 0.3140561 -0.43185243 -0.49597913 0.28842548 0.40921345 0.22408088 -0.6479714 -0.038924757 -0.48254016 0.4421868 -0.23497273 0.2652169 0.42002612 0.13332263 0.38474026 0.4237817 0.40755022 -0.46315506
gracias 0.5697693 -0.02676727 0.31557575 -0.41512057 0.18361062 -1.3083717 0.73624647 0.09650704 -0.023668574 -0.07381222 0.038351424 0.672945 -1.2499689 1.8530239 0.61675227 -0.51227653 0.11339123 0.15862584 0.07027062 -0.37489522 0.020418543 -0.99754274 0.0773186 0.15131046 0.12803653 0.039053738 0.19890669 -0.029871948 -0.5618964 0.4010818 0.4262186 -0.059499968 0.32422024 -0.41454238 -0.4006681 0.20457043 0.32750487 0.17910598 -0.5316888 -0.013509767 -0.41214362 0.38755852 -0.1568936 0.25746122 0.41636086 0.1251167 0.36249417 0.43730405 0.3320302 -0.39268014
hay 0.6654697 -0.103141755 0.30372965 -0.5505986 0.28288817 -1.3903707 0.89193845 0.18862553 -0.07441071 0.011400331 0.05158876 0.68255734 -1.4295846 2.0159142 0.63079476 -0.56031114 0.053703133 0.24829628 0.050502393 -0.41542155 0.053349033 -1.1305285 0.14318487 0.29164684 0.052844718 0.021699674 0.24350813 -0.08688821 -0.6700764 0.3746582 0.371506 -0.13011989 0.24696516 -0.3988348 -0.4359935 0.25645614 0.39178059 0.19085066 -0.57654977 -0.016550094 -0.47834855 0.39620045 -0.23919043 0.24388146 0.4157008 0.15874511 0.33874848 0.4115355 0.35817325 -0.43939984
rajoy 0.71375304 -0.099262655 0.30245662 -0.58129054 0.30374694 -1.4092486 0.9234722 0.23601913 -0.07848956 0.015031108 0.06802133 0.6909738 -1.4837478 2.0152047 0.6307812 -0.56353015 0.065837964 0.27795914 0.029355073 -0.43110567 0.05880917 -1.1292082 0.16982289 0.30055416 0.05510674 0.01764259 0.25416625 -0.089016706 -0.7096391 0.37631565 0.39339128 -0.13713448 0.24863154 -0.391019 -0.45221364 0.26021835 0.4205843 0.18848647 -0.61231625 -0.009030633 -0.5059939 0.39861232 -0.26957017 0.23170273 0.3747808 0.15855588 0.33523256 0.35277382 0.4049416 -0.46346137
nos 0.70045286 -0.07458317 0.31916812 -0.5347027 0.27775812 -1.4030818 0.87689 0.2000879 -0.0526795 -0.005555125 0.07384652 0.7144859 -1.4593062 2.0050046 0.6571682 -0.5694909 0.08461674 0.26478395 0.042259134 -0.42572802 0.0696254 -1.128977 0.15925133 0.26389697 0.07958483 0.01941401 0.25690213 -0.084930494 -0.66925156 0.40429208 0.40030786 -0.12739813 0.28166786 -0.39908144 -0.45460674 0.24685046 0.3918394 0.20196106 -0.58523303 -0.025064416 -0.47767007 0.4153423 -0.25355282 0.23551174 0.41591936 0.14722744 0.3607991 0.4068691 0.37337193 -0.4512854
wink 0.5602158 0.0036614877 0.28311944 -0.3599662 0.11614756 -1.2683439 0.70275795 0.08135144 -0.04385492 -0.07165116 0.0608772 0.69651145 -1.216604 1.7860188 0.5786351 -0.5239295 0.122467734 0.109979965 0.06748793 -0.3494079 0.03823095 -0.9906199 0.0743602 0.09082502 0.14085561 0.01793322 0.18817896 -0.03080964 -0.5478718 0.40082544 0.45499483 -0.0662766 0.33146966 -0.41426206 -0.4013605 0.18333392 0.30190614 0.20474762 -0.5317902 -0.038114507 -0.40472218 0.3708403 -0.15395917 0.2578681 0.40756038 0.09901876 0.34809834 0.43984956 0.31539813 -0.36836255
pp 0.7787426 -0.10048177 0.33508795 -0.62293315 0.3473221 -1.5409057 0.982614 0.2505947 -0.09222188 0.021386303 0.09713424 0.74628496 -1.6074462 2.2330358 0.69445735 -0.6233232 0.0765831 0.311264 0.04731302 -0.45369723 0.07511625 -1.2292356 0.17789929 0.32887992 0.07767881 0.047801472 0.26706985 -0.11371024 -0.77985066 0.42682967 0.42790624 -0.14099883 0.26935232 -0.42405418 -0.5028544 0.27902368 0.47589552 0.20907892 -0.6693809 -0.014746013 -0.54543227 0.4453386 -0.2845093 0.26453516 0.41983065 0.19640568 0.35661888 0.39574102 0.43054026 -0.49911806
o 0.6836926 -0.07720791 0.30128774 -0.5683236 0.27063715 -1.3922662 0.89178276 0.20407753 -0.07219177 0.017966203 0.061221667 0.70866853 -1.452521 2.0055072 0.6442416 -0.561542 0.061046187 0.28032693 0.044111103 -0.43222222 0.07745423 -1.1308025 0.16416878 0.26656783 0.07715197 0.018901097 0.24226643 -0.086546846 -0.675715 0.39796066 0.3988041 -0.12546249 0.2550134 -0.38125747 -0.45065206 0.2680667 0.41568148 0.18706334 -0.59069896 -0.0042254003 -0.48533544 0.38731816 -0.24943006 0.23806752 0.3964373 0.17422219 0.3329692 0.38879895 0.38588887 -0.45185143
todos 0.6479036 0.055400632 0.2950487 -0.4672035 0.23898038 -1.3681782 0.83390415 0.20725574 -0.07908519 0.0024348097 0.124309674 0.7828326 -1.3762394 1.9426823 0.64505756 -0.6082958 0.12842415 0.1984437 0.0279312 -0.3963887 0.12906714 -1.0719218 0.1285517 0.16715443 0.12613305 0.07273149 0.26753125 -0.010794303 -0.639113 0.42116308 0.48395944 -0.0782642 0.3494786 -0.41742355 -0.46401328 0.26942903 0.38818827 0.20845121 -0.64436835 -0.05344384 -0.41046903 0.38029116 -0.17909932 0.2226959 0.37051454 0.12557863 0.35097453 0.3522196 0.39695528 -0.42363024
gobierno 0.69195604 -0.06661266 0.3035235 -0.5508941 0.28623444 -1.3803371 0.8763694 0.2189495 -0.08545038 0.034858674 0.07172723 0.6787831 -1.4246514 1.9450351 0.62076205 -0.5549922 0.06632407 0.2669814 0.03184547 -0.41202074 0.055287264 -1.076029 0.15794425 0.26254484 0.0724276 0.034255456 0.24527687 -0.08194797 -0.68169034 0.3919275 0.3766409 -0.1249231 0.2514528 -0.39210725 -0.4548058 0.24825385 0.4124338 0.18420139 -0.5805775 -0.013918262 -0.47471046 0.4014451 -0.26317126 0.21814533 0.37224928 0.1532572 0.3371963 0.34530386 0.38750684 -0.44471392
españa 0.73729897 -0.09069911 0.30830255 -0.5948531 0.3091183 -1.4513844 0.9205731 0.23397799 -0.068141915 0.040721152 0.08522021 0.7144884 -1.510189 2.0624797 0.6770735 -0.5666603 0.057779778 0.30569014 0.041447747 -0.43582183 0.05897366 -1.1549883 0.1812221 0.29216644 0.060774647 0.032539807 0.26301652 -0.104896694 -0.71900606 0.4062984 0.3798587 -0.116586424 0.27386445 -0.40332994 -0.45831448 0.26206222 0.4183569 0.2098225 -0.6188913 -0.0072287964 -0.5020547 0.41072974 -0.25640783 0.24286106 0.3928987 0.16079965 0.34101745 0.36571422 0.3996163 -0.487704
está 0.6876568 -0.100808755 0.29171097 -0.56420815 0.27440727 -1.403969 0.8949618 0.21030146 -0.050311904 -0.0006133316 0.051936015 0.71146 -1.4289552 1.984112 0.6451626 -0.57586116 0.07109821 0.24437371 0.042335503 -0.4143647 0.028863499 -1.1276529 0.15547113 0.25364444 0.075963594 0.02471449 0.24466556 -0.07816592 -0.6716806 0.4027006 0.37294942 -0.1243274 0.25064 -0.40502822 -0.42513537 0.25309566 0.4044169 0.2147407 -0.58476704 -0.012111227 -0.47259614 0.38643438 -0.2622905 0.2669973 0.39438114 0.16622257 0.360096 0.38780454 0.3871911 -0.44502425
ahora 0.73268974 -0.064549424 0.32198912 -0.57146263 0.28333297 -1.4709935 0.9384761 0.21890374 -0.061855096 0.022467133 0.082941405 0.7574763 -1.5251263 2.0809014 0.66908604 -0.59891045 0.07806735 0.26947236 0.049439378 -0.4221768 0.07619171 -1.1677997 0.16585983 0.27172145 0.09580238 0.045156818 0.2579122 -0.081820734 -0.7144489 0.4198037 0.42099345 -0.11106232 0.29448712 -0.41231683 -0.46884102 0.28648633 0.41671202 0.2245449 -0.620935 -0.02623948 -0.48450023 0.41133085 -0.25809854 0.26755184 0.4102489 0.17699438 0.3655224 0.38540384 0.39475715 -0.47951642
he 0.715478 -0.058338847 0.3474335 -0.5526367 0.25728396 -1.4633105 0.93447596 0.2105476 -0.06955228 -0.0047438466 0.09393869 0.7706292 -1.5246968 2.1088638 0.68526644 -0.613107 0.078055866 0.2508013 0.045789685 -0.433287 0.071872756 -1.1760323 0.14570916 0.2470229 0.0890063 0.026218038 0.25922698 -0.06475158 -0.7168595 0.409281 0.43760273 -0.11645234 0.310378 -0.4481068 -0.46795428 0.27075857 0.41722733 0.23086753 -0.6234925 -0.026683824 -0.5093883 0.42429057 -0.269605 0.28702277 0.40864334 0.1564378 0.37101045 0.43308717 0.4069061 -0.47797245
todo 0.6798514 -0.068022564 0.30004647 -0.5308763 0.27213782 -1.3920823 0.8678797 0.20049912 -0.0670968 -0.0052034934 0.06769895 0.72319907 -1.4330882 2.0045638 0.6328181 -0.5727197 0.068862565 0.25090763 0.038441077 -0.41056144 0.057010446 -1.1203398 0.16160256 0.24355729 0.0800685 0.040012445 0.23905145 -0.06937326 -0.6654911 0.39066416 0.39904442 -0.11699074 0.2816864 -0.40462744 -0.45253828 0.25778776 0.385176 0.20104928 -0.59120953 -0.013581839 -0.4763109 0.4014805 -0.22977683 0.25773072 0.38808906 0.15024047 0.3602577 0.3946574 0.37840006 -0.4356872
mañana 0.70644355 -0.04222716 0.3280921 -0.5483306 0.25292364 -1.3962313 0.87601066 0.21947435 -0.08094477 -0.0039865994 0.0758264 0.7354588 -1.4578344 1.976511 0.6712673 -0.5661012 0.08950983 0.25936314 0.03661933 -0.41809568 0.06317038 -1.0893896 0.16618383 0.22401433 0.08334714 0.036849905 0.23287019 -0.04906836 -0.6868943 0.38222405 0.4246095 -0.102889985 0.2902628 -0.39382488 -0.44825622 0.26943278 0.3832174 0.19110404 -0.5915002 -0.030725839 -0.47830662 0.40026423 -0.23590192 0.22698037 0.37994456 0.16016962 0.34807545 0.36432165 0.38784182 -0.46287307
día 0.6736734 -0.017881038 0.30329528 -0.5025726 0.2373363 -1.3302702 0.8185566 0.18541716 -0.065197945 -0.0047336873 0.06391455 0.69934905 -1.3714693 1.9098859 0.6378831 -0.563208 0.101306595 0.2285515 0.031073857 -0.39596358 0.05006302 -1.067497 0.16578591 0.20308828 0.074427046 0.035204154 0.23555273 -0.04854167 -0.66667914 0.3955823 0.42045203 -0.092694946 0.28823346 -0.38986254 -0.42618957 0.24638702 0.35276043 0.18421783 -0.55218434 -0.0345021 -0.44395772 0.36206156 -0.21461058 0.24771872 0.3785686 0.13580701 0.33199263 0.3613709 0.36894906 -0.40923578
psoe 0.69885856 -0.113025226 0.29974166 -0.5861241 0.30180028 -1.3851382 0.8752095 0.22984383 -0.08156338 0.026228793 0.07845506 0.66867614 -1.4441547 1.97897 0.62362576 -0.55769473 0.054173645 0.2809456 0.041664418 -0.41226158 0.08367313 -1.0746224 0.15944219 0.3009395 0.07978936 0.020155888 0.24008913 -0.09580501 -0.68778753 0.35910642 0.3749977 -0.14848028 0.22987777 -0.37302002 -0.44446573 0.2556603 0.42602673 0.20598905 -0.5736668 -0.012328606 -0.48538953 0.40833637 -0.24426734 0.2053332 0.36290732 0.1717313 0.31137577 0.3414394 0.39553943 -0.45356214
porque 0.6839185 -0.07094468 0.29692695 -0.5412879 0.28103286 -1.4000671 0.8909055 0.19907963 -0.07085323 0.0099026235 0.06411496 0.72282934 -1.4396865 2.0399141 0.6562545 -0.5865323 0.07894524 0.24096777 0.044713892 -0.4143176 0.0766783 -1.1387359 0.16185965 0.2760979 0.060787313 0.019568987 0.2627814 -0.08400662 -0.6765999 0.3873982 0.40173167 -0.105846845 0.27333334 -0.39652145 -0.45444715 0.27960855 0.41575953 0.20053452 -0.58941364 -0.008774021 -0.48615566 0.39946696 -0.2407198 0.2613084 0.40107962 0.14568043 0.3576989 0.40697208 0.37602422 -0.44179836
sin 0.74088883 -0.07771849 0.33726594 -0.5903566 0.30913287 -1.5166137 0.9475716 0.23294914 -0.08519354 0.0064557046 0.091359176 0.75762254 -1.5596805 2.1545038 0.6991469 -0.62268853 0.07516071 0.28551283 0.04956403 -0.4375094 0.077811904 -1.2012843 0.18680422 0.28248772 0.09754271 0.031352125 0.27453166 -0.08353257 -0.74892986 0.43121627 0.4111253 -0.1331131 0.30071196 -0.44109315 -0.46887606 0.276943 0.42239603 0.2203005 -0.6295662 -0.024081849 -0.52838784 0.44817922 -0.26811525 0.25680023 0.4142933 0.17805931 0.3659536 0.40901732 0.42695323 -0.48688298
son 0.7028574 -0.079542086 0.30743137 -0.56687427 0.27460185 -1.4076717 0.91359246 0.22337243 -0.086055 0.0020731823 0.06591493 0.7377098 -1.4621787 2.037248 0.63819075 -0.56387705 0.07591359 0.25381225 0.052218545 -0.4167218 0.07878821 -1.1400672 0.14315107 0.2628302 0.08715961 0.019972961 0.25963083 -0.07490073 -0.68309844 0.38812476 0.40788966 -0.114693254 0.2775276 -0.40214807 -0.46315992 0.26737165 0.41698113 0.20768318 -0.5909054 -0.02902281 -0.49241897 0.39239237 -0.24253933 0.2427421 0.40847272 0.14496098 0.35150057 0.4006417 0.39453742 -0.45168647
va 0.6586561 -0.06100359 0.27435365 -0.50439906 0.2482114 -1.3269995 0.858258 0.18153723 -0.055730388 0.024241481 0.05569613 0.6786418 -1.3744261 1.8821092 0.61915576 -0.5335506 0.051930614 0.23654947 0.03440432 -0.39444125 0.068080805 -1.057753 0.14694545 0.26575458 0.0577232 0.020294605 0.22698791 -0.08007768 -0.6469343 0.38372377 0.3697712 -0.10120267 0.25573894 -0.38554084 -0.41295573 0.23855262 0.38359708 0.18451545 -0.5422695 -0.01920341 -0.45025575 0.36994916 -0.22080007 0.23254545 0.39249888 0.1607635 0.31685475 0.36136404 0.37197697 -0.42588648
ser 0.68166757 -0.07871533 0.2901832 -0.553075 0.28164485 -1.3963742 0.8945284 0.18663695 -0.067617506 0.00080635736 0.076466076 0.688706 -1.4340304 1.9827764 0.64382976 -0.560348 0.07136233 0.24974467 0.033207502 -0.39558154 0.0740653 -1.0971159 0.16619611 0.2666715 0.06949062 0.032936372 0.25471488 -0.0952056 -0.6668456 0.39991271 0.3815508 -0.11687015 0.26682845 -0.40424818 -0.45045173 0.2596551 0.40435535 0.1983379 -0.5921436 -0.026232537 -0.47046873 0.41389045 -0.24040486 0.24504468 0.3939132 0.16300368 0.3338729 0.3740901 0.36122674 -0.45871106
dice 0.6711636 -0.1063826 0.27625757 -0.537551 0.28632817 -1.3376217 0.8632577 0.19356336 -0.06669999 0.021081908 0.06433398 0.6552486 -1.3836218 1.9077221 0.6044407 -0.53583163 0.043247983 0.27493626 0.038771052 -0.38926384 0.05442336 -1.0641842 0.15338932 0.28924504 0.06755113 0.014662604 0.22691503 -0.099130735 -0.64247644 0.36698523 0.3635193 -0.12827222 0.23238365 -0.3547718 -0.43881148 0.24550615 0.39323482 0.17329894 -0.5504193 -0.019369276 -0.4556087 0.37830985 -0.2457016 0.22842851 0.38073826 0.14698483 0.3080455 0.35074064 0.37166795 -0.43872806
ver 0.6908833 -0.086551204 0.31499532 -0.5492601 0.2670921 -1.4376311 0.8927077 0.18683024 -0.056700006 -0.007738957 0.057964966 0.72189677 -1.452063 2.0326593 0.6679494 -0.56271505 0.07978953 0.2562804 0.058594506 -0.433167 0.04148061 -1.1168956 0.1695894 0.26185906 0.09659427 0.011076151 0.25587836 -0.08332473 -0.66118985 0.3821042 0.40434343 -0.11393497 0.27727497 -0.394482 -0.45963332 0.24906318 0.38356557 0.20277645 -0.59237576 -0.032757323 -0.4710033 0.40599358 -0.25556555 0.2595979 0.40618297 0.16199346 0.35536242 0.41275558 0.3714656 -0.46387395
mas 0.69745135 -0.084529825 0.31021068 -0.5653669 0.27294764 -1.419823 0.8780458 0.20110099 -0.055929005 0.004502396 0.057754252 0.7247407 -1.4515622 2.0389981 0.6504885 -0.5761058 0.073269464 0.2629691 0.05449403 -0.44073403 0.05444952 -1.1396306 0.14064337 0.24791001 0.0822195 0.022836883 0.26442018 -0.08283725 -0.68309945 0.41400665 0.40414408 -0.114351414 0.27317953 -0.39514902 -0.4611992 0.24397407 0.3898486 0.20782208 -0.59693956 -0.0107216565 -0.4981789 0.4119418 -0.2540011 0.2531071 0.40451184 0.14591503 0.35212582 0.40802243 0.38885736 -0.46692893
días 0.692358 0.3062916 0.16062462 -0.24332294 0.135292 -1.3793294 0.77584285 0.21651213 0.07238687 0.20474288 0.29105783 1.0139643 -1.3848068 1.8646284 0.8208189 -0.8262749 0.20302527 0.015605673 0.021161309 -0.18208063 0.34503967 -1.0788683 0.32356387 -0.08389546 0.3091141 0.20932572 0.36391464 0.17560501 -0.8044626 0.585797 0.76394314 0.09965876 0.44471478 -0.5881041 -0.58674145 0.5202755 0.3198445 0.2849746 -0.8263104 -0.23291257 -0.20283511 0.11529818 0.046764877 0.35312375 0.158633 0.23328829 0.36862996 0.37863535 0.41367537 -0.4142416
mejor 0.6767783 -0.06732015 0.29275277 -0.55167407 0.2450477 -1.3819503 0.85652995 0.19763702 -0.058493298 0.0075102965 0.076678984 0.7150371 -1.4400644 1.9983629 0.63805616 -0.55893207 0.06764963 0.259895 0.038218226 -0.41100806 0.06422721 -1.1176473 0.16234435 0.25669107 0.09207967 0.01312227 0.24620125 -0.084000416 -0.66868895 0.3933918 0.39666134 -0.10580953 0.2666683 -0.40802926 -0.44771612 0.26674873 0.39619637 0.20012446 -0.59577364 -0.021668961 -0.48614335 0.3904671 -0.24518077 0.2567886 0.41005474 0.14377205 0.348911 0.3810403 0.3872407 -0.43669215
han 0.7337973 -0.052839372 0.34306642 -0.56396896 0.3062279 -1.4538919 0.93262094 0.21684456 -0.08985778 0.0044968138 0.08753782 0.7590993 -1.507312 2.0710194 0.67824316 -0.6147469 0.08387805 0.27685142 0.040292863 -0.42246214 0.09233109 -1.1647187 0.15496573 0.26774082 0.072916746 0.027832199 0.2642275 -0.07615421 -0.72816235 0.40446565 0.42514852 -0.12199021 0.29838392 -0.42292663 -0.4731683 0.27881807 0.43711415 0.2238617 -0.6338455 -0.03570979 -0.50584847 0.43144786 -0.25373495 0.25076574 0.38897023 0.1710178 0.33952722 0.3989071 0.4104056 -0.46522018
hacer 0.66633224 -0.08376888 0.2942792 -0.5357035 0.27073315 -1.3259383 0.8587407 0.20100236 -0.07852195 0.01203474 0.08253885 0.6740856 -1.3746177 1.8960603 0.60183245 -0.5206313 0.05134652 0.2624417 0.022951566 -0.40370122 0.063669994 -1.0542945 0.15728936 0.2583409 0.047185473 0.02475454 0.23419869 -0.07990238 -0.64765745 0.35939413 0.3572529 -0.121545084 0.24132213 -0.38402307 -0.42462108 0.25827572 0.38621506 0.17969008 -0.5560034 -0.01188875 -0.45341122 0.37741357 -0.23928751 0.24163002 0.36562565 0.14569567 0.31036052 0.3559553 0.36177602 -0.43082577
madrid 0.7867467 -0.04495678 0.33764747 -0.6218029 0.2888126 -1.573039 0.99309295 0.23141426 -0.09265253 0.008229237 0.095943 0.83114684 -1.650327 2.2364612 0.7378515 -0.6606786 0.103690155 0.29684845 0.034129173 -0.45691684 0.094238356 -1.2320547 0.19021472 0.2548803 0.110637344 0.039789047 0.27537528 -0.06684346 -0.7701585 0.44847432 0.47071224 -0.107396565 0.33109745 -0.45871526 -0.50943744 0.31394607 0.44280535 0.22912309 -0.6900275 -0.031444117 -0.5335292 0.44775915 -0.27083692 0.25388995 0.4115413 0.16208571 0.39725247 0.41473374 0.42998335 -0.52876025
tiene 0.6764248 -0.09044722 0.30297926 -0.5458047 0.28772104 -1.3944145 0.8968518 0.19891234 -0.058313217 0.022480085 0.062045585 0.70059144 -1.4409276 1.9989294 0.64242655 -0.5632753 0.057335794 0.26603207 0.05105132 -0.4049266 0.055403486 -1.1142185 0.16665508 0.26873404 0.068900146 0.019948049 0.25418854 -0.07752366 -0.68781334 0.38763788 0.3866668 -0.109840564 0.24816285 -0.38760397 -0.4450172 0.25387576 0.39260787 0.19067594 -0.5928255 -0.004844466 -0.4715527 0.40845993 -0.25294286 0.24454843 0.4049543 0.15576945 0.3535237 0.38899374 0.3761072 -0.4509144
bien 0.6417234 -0.07882132 0.29879066 -0.48631683 0.21622118 -1.3145703 0.8127271 0.15954162 -0.04760094 -0.00077579415 0.06816703 0.6599307 -1.3352863 1.8853506 0.6154065 -0.5358306 0.06344279 0.21416257 0.043946877 -0.38019526 0.03773075 -1.049939 0.13122141 0.21655534 0.075877115 0.017857151 0.2285607 -0.0788067 -0.6317927 0.37224805 0.39030483 -0.09630072 0.26967567 -0.38660237 -0.43300548 0.21734849 0.36344513 0.20161256 -0.5440201 -0.030283254 -0.45326647 0.37601987 -0.22702739 0.26080874 0.39333066 0.14020716 0.32956517 0.40638745 0.3371111 -0.39851287
gran 0.69035107 -0.05527384 0.31368163 -0.53901964 0.2575184 -1.4391947 0.8734424 0.1911474 -0.04680224 -0.011365211 0.059741434 0.7370241 -1.4713895 2.048276 0.6714656 -0.5801005 0.10158725 0.24018987 0.0480818 -0.4191247 0.050222386 -1.1227933 0.1632604 0.23520572 0.10826272 0.03103455 0.25703868 -0.081754915 -0.68089753 0.41966298 0.40692124 -0.12096264 0.3001255 -0.42374977 -0.45578668 0.25728095 0.3746112 0.20774408 -0.59999865 -0.03323432 -0.48535684 0.4321035 -0.23636903 0.25313956 0.4089459 0.13996528 0.38055673 0.4209462 0.3793385 -0.4575579
años 0.73897237 -0.069929816 0.33069497 -0.577897 0.29877535 -1.4625345 0.9135525 0.23283717 -0.056440506 0.034071308 0.101725765 0.7523276 -1.5315301 2.083086 0.682299 -0.6180663 0.09074008 0.25907314 0.04221245 -0.4419402 0.09688211 -1.1701161 0.18001089 0.26075003 0.08568723 0.04284658 0.2729305 -0.06443431 -0.73100364 0.4188483 0.42691118 -0.12636763 0.30762047 -0.43366686 -0.4808941 0.26820344 0.4330455 0.21140882 -0.6456739 -0.039428603 -0.4945985 0.41119206 -0.24028012 0.24980421 0.40371272 0.15524705 0.35713774 0.37879708 0.40411946 -0.47882372
% 0.72512347 -0.07257616 0.32761538 -0.57905835 0.3308707 -1.4451436 0.9128355 0.2463977 -0.06428095 0.048596215 0.06454422 0.7361619 -1.4957951 2.023477 0.6522788 -0.5660789 0.071576625 0.28808838 0.025087545 -0.43928352 0.07313153 -1.1544436 0.16253413 0.27892864 0.09236922 0.041401654 0.25290173 -0.06986928 -0.7163894 0.39134184 0.37870753 -0.13164984 0.25369114 -0.39412156 -0.4745815 0.26755613 0.43426022 0.2043885 -0.621936 -0.0153863765 -0.47805 0.40972412 -0.25160357 0.21478166 0.38229084 0.14674115 0.3469892 0.36237818 0.41822305 -0.4907266
vía 0.6618243 -0.082185194 0.31608438 -0.53361183 0.23280255 -1.3620192 0.8494231 0.19276868 -0.06751871 -0.0147397 0.063100524 0.68020105 -1.3895664 1.9647205 0.6282176 -0.56501406 0.0735116 0.23619796 0.056445025 -0.40308198 0.047956068 -1.099655 0.12728223 0.23949108 0.097060315 0.0048579606 0.22265542 -0.07803419 -0.67087984 0.403029 0.38565978 -0.0971003 0.26719198 -0.39346442 -0.44640455 0.23633671 0.37873092 0.19183892 -0.5697232 -0.024143897 -0.47609392 0.41628996 -0.22186983 0.2428945 0.39066845 0.14596319 0.35421863 0.38775808 0.3630864 -0.4286494
hace 0.63010526 -0.017311828 0.28661707 -0.48397198 0.25907853 -1.2383624 0.8048859 0.18576726 -0.08818878 0.015419706 0.071811154 0.6694643 -1.3053058 1.8099833 0.5821356 -0.5159441 0.08074099 0.23391482 0.022331648 -0.3773326 0.09069221 -1.0144923 0.14536692 0.20510294 0.06847126 0.03609082 0.23977001 -0.06647727 -0.61078703 0.3759208 0.3815253 -0.099629164 0.25380996 -0.3681273 -0.42014948 0.24599466 0.37130737 0.17205414 -0.5499273 -0.048118837 -0.42759055 0.3484158 -0.21371135 0.20200819 0.3279041 0.12289493 0.30363524 0.330831 0.3561497 -0.41874415
m 0.70412594 -0.059543323 0.33378598 -0.57373756 0.28321278 -1.4412916 0.8973906 0.20734967 -0.08065456 0.0069231037 0.07116711 0.725621 -1.4991064 2.0446134 0.6676412 -0.57995975 0.07852493 0.2774707 0.038606074 -0.4355519 0.072497256 -1.1239063 0.1727388 0.2596636 0.08483436 0.030046165 0.24305801 -0.08553994 -0.6885356 0.3973415 0.42074144 -0.11968107 0.26980144 -0.42223582 -0.45869443 0.26428223 0.40635285 0.21461804 -0.5981651 -0.028610429 -0.49977225 0.41504714 -0.2587703 0.23263247 0.39781347 0.14738959 0.34594113 0.3760278 0.39170977 -0.46926832
estoy 0.6414187 -0.055773128 0.28784177 -0.50331527 0.2348747 -1.3284826 0.8229387 0.1813397 -0.073336914 -0.007049394 0.0720983 0.6917782 -1.3529017 1.9141133 0.61667055 -0.5556115 0.08254497 0.23407304 0.045991655 -0.38733408 0.054194532 -1.0543413 0.14869162 0.21156903 0.09697861 0.03613563 0.2323767 -0.058660716 -0.64784324 0.38111886 0.40047202 -0.09564759 0.27716407 -0.39438644 -0.4192293 0.24945611 0.35832256 0.18617854 -0.5562197 -0.04238483 -0.45170322 0.37526643 -0.24179816 0.25794044 0.37473372 0.15025379 0.35453326 0.39324984 0.36833298 -0.42038032
tengo 0.67289126 -0.06557807 0.31414074 -0.51984924 0.26276633 -1.3710428 0.86648405 0.19825588 -0.06777876 -0.0059028473 0.05828877 0.715144 -1.4024718 1.9705298 0.6301968 -0.56622595 0.08571666 0.23221181 0.044263847 -0.41428384 0.060063813 -1.0940181 0.14566207 0.23983559 0.093967594 0.040207457 0.2319804 -0.07286506 -0.66042644 0.392061 0.39203593 -0.12095501 0.26980856 -0.40051037 -0.43182012 0.2592022 0.37743115 0.19740815 -0.57249385 -0.020220067 -0.4648557 0.40498766 -0.25093514 0.25326174 0.40354195 0.13595438 0.36244205 0.3924373 0.37304327 -0.43211102
mucho 0.6587131 -0.07040316 0.29643285 -0.54217786 0.25796995 -1.38002 0.8433262 0.18430139 -0.066884026 0.009236434 0.061277706 0.68463737 -1.4080043 1.964927 0.64073575 -0.5494168 0.061236635 0.24502844 0.03789378 -0.41183814 0.049469523 -1.0885904 0.14228125 0.26058874 0.084976695 0.030989597 0.2306234 -0.08305711 -0.6596165 0.3851949 0.37801492 -0.10997885 0.25594217 -0.38686177 -0.44330966 0.25122622 0.3930414 0.20301004 -0.56938815 -0.025974777 -0.47646335 0.39578968 -0.22767006 0.2359015 0.4015505 0.14527556 0.35210884 0.39745677 0.36126092 -0.44505382
ja 0.6212454 -0.06011084 0.29500043 -0.481616 0.21144447 -1.2913269 0.80689394 0.15565085 -0.047346696 -0.015162673 0.060150065 0.65947056 -1.3034327 1.8654855 0.6045333 -0.51788324 0.06625083 0.20878518 0.05101731 -0.38041955 0.046051636 -1.0442947 0.12746154 0.20986064 0.07708009 0.0038936231 0.22414091 -0.059868813 -0.60081774 0.36678094 0.3821141 -0.084105335 0.25788993 -0.38185307 -0.413209 0.21947931 0.3490668 0.18775502 -0.52366036 -0.013765296 -0.43942693 0.36854827 -0.22725545 0.2554482 0.3988816 0.13153516 0.34133598 0.3889141 0.32716477 -0.39340213
buenos 0.6317823 0.28146264 0.40127206 -0.34698087 0.15380286 -1.2363178 0.79412127 0.2122941 -0.28847167 -0.14421229 0.18615025 0.94093484 -1.2513548 1.8665982 0.47495684 -0.69501674 0.13571745 0.11667854 -0.107496984 -0.40807727 0.22055067 -1.0317913 -0.009634315 -0.019421395 0.17090009 0.10368075 0.21905662 0.058853805 -0.57989764 0.5215189 0.68470234 -0.0444542 0.521032 -0.3001287 -0.48727518 0.2574957 0.42543447 0.21226764 -0.8145689 -0.14858073 -0.449864 0.4266315 -0.21054699 0.12671942 0.279486 -0.039346665 0.23473665 0.17045651 0.5438432 -0.44546497
voto 0.6657941 -0.08783564 0.3013542 -0.5414487 0.26337042 -1.3926799 0.8853595 0.20106803 -0.051363997 0.009378495 0.06554681 0.6970096 -1.4323126 1.9919007 0.64766276 -0.55337507 0.060547017 0.23594601 0.055351168 -0.42268345 0.07485396 -1.1167002 0.14621875 0.2560329 0.08743165 0.02707375 0.23993291 -0.090001345 -0.68840754 0.38084134 0.38681066 -0.11188305 0.27738887 -0.38869238 -0.45294577 0.26426855 0.39985198 0.21211506 -0.59590554 -0.019664532 -0.4765524 0.39939657 -0.24804088 0.24996746 0.38178396 0.1597122 0.32946196 0.39338186 0.36358404 -0.44810748
- 0.7065042 -0.057084743 0.32874078 -0.5728988 0.28386337 -1.4480426 0.898769 0.2183004 -0.06665782 0.013106294 0.079375885 0.7030258 -1.4979156 2.0513742 0.6696851 -0.58825094 0.09123727 0.2771321 0.037486803 -0.41713512 0.05711658 -1.1097664 0.17047746 0.26186246 0.10205455 0.020719294 0.24331577 -0.09396888 -0.69867903 0.40032408 0.41915938 -0.12157444 0.28937495 -0.3982435 -0.46710116 0.2704804 0.3788941 0.22208889 -0.61018974 -0.01908045 -0.5055932 0.43376383 -0.25776896 0.24822584 0.37853518 0.15227279 0.35487482 0.38947532 0.3650064 -0.44678116
votar 0.6333154 -0.08361564 0.28785142 -0.51089 0.24805309 -1.3246849 0.82819265 0.18762907 -0.05184513 -0.0104059735 0.054861523 0.6535835 -1.3517253 1.9044085 0.59358895 -0.5295001 0.07680122 0.23075071 0.059382882 -0.38421917 0.06371577 -1.0467657 0.14293802 0.23410386 0.06455834 0.018688422 0.23518923 -0.082315184 -0.63209033 0.3644411 0.38619277 -0.099104285 0.25916633 -0.38679758 -0.42417052 0.24097577 0.37239134 0.17750981 -0.5499019 -0.011551663 -0.45661968 0.37968332 -0.23539548 0.25453967 0.3916593 0.13386047 0.3236094 0.3693509 0.34039068 -0.43007305
gente 0.66217315 -0.05236753 0.29774562 -0.5198301 0.262421 -1.3373584 0.8348551 0.18766066 -0.0606818 0.0056984886 0.075073585 0.6665847 -1.3662615 1.8932083 0.6077042 -0.53275424 0.058969438 0.24875663 0.04656219 -0.38927382 0.07037821 -1.0576538 0.14479396 0.25113446 0.0793751 0.041077584 0.22634259 -0.063348584 -0.64003193 0.38084793 0.385059 -0.09325617 0.25587106 -0.38928136 -0.42465562 0.25369486 0.37932572 0.19941373 -0.5630605 -0.011313785 -0.44013157 0.36727986 -0.23563103 0.24115218 0.38102242 0.13646711 0.3288369 0.36328375 0.36047202 -0.41536516
solo 0.72509795 -0.07301944 0.3220555 -0.5806554 0.28307536 -1.470158 0.92018604 0.23283046 -0.081012145 0.022904309 0.09553303 0.75589204 -1.508927 2.0957468 0.6798043 -0.6052425 0.0826294 0.27750996 0.031433705 -0.44254756 0.07878967 -1.1610271 0.15463789 0.26928753 0.079258636 0.033112887 0.26840067 -0.08712053 -0.71977496 0.42793202 0.41539297 -0.12381621 0.29139024 -0.41870853 -0.47405738 0.2724828 0.42965168 0.21652435 -0.64306104 -0.021619093 -0.48840293 0.41805992 -0.24989717 0.24925265 0.41895035 0.15128043 0.36437017 0.40550512 0.40674642 -0.48240712
puede 0.6210222 -0.08253144 0.25474855 -0.49019468 0.24201337 -1.2606028 0.8176379 0.19660448 -0.058488056 0.03070513 0.052217837 0.63966566 -1.2943624 1.8016304 0.57672626 -0.5084646 0.053582504 0.24821116 0.038308285 -0.36811402 0.044652894 -0.98982185 0.12676099 0.24649556 0.046818294 0.018442359 0.21351598 -0.080115296 -0.60484916 0.35154858 0.3371671 -0.0986806 0.24201131 -0.36041233 -0.40486068 0.2345783 0.35219714 0.1636964 -0.5077851 -0.0035234315 -0.44521463 0.353581 -0.21134946 0.2048567 0.3665935 0.15914863 0.30669612 0.3538124 0.3393513 -0.3888746
vamos 0.62913895 -0.053719245 0.30420756 -0.49837843 0.23055114 -1.3123938 0.8203421 0.16623408 -0.05513126 -0.0008473277 0.070762426 0.66551816 -1.3490766 1.8546665 0.6195073 -0.5247316 0.07871519 0.22375776 0.05037722 -0.3833936 0.041667953 -1.0245726 0.13028945 0.22299881 0.08512378 0.03067613 0.22754456 -0.056800786 -0.61716115 0.3865659 0.38873595 -0.10220897 0.2664421 -0.3740779 -0.40537503 0.23447722 0.3477853 0.20138058 -0.5457829 -0.020270789 -0.4479756 0.39410198 -0.20771964 0.23999128 0.38303846 0.15297438 0.34035617 0.38785198 0.3570292 -0.4177033
contra 0.688824 -0.07132541 0.31115112 -0.568111 0.28788182 -1.3781492 0.88580096 0.22675933 -0.08358437 0.028417714 0.09331351 0.6938442 -1.4625254 1.994758 0.6440308 -0.57754576 0.074807435 0.2618236 0.052216534 -0.42628402 0.062036492 -1.1047211 0.15167248 0.27597088 0.06781174 0.03961023 0.2314995 -0.0803938 -0.69596094 0.3798576 0.39858505 -0.12953416 0.27887255 -0.39414465 -0.4463791 0.24933797 0.38839287 0.20363541 -0.59030306 -0.01780361 -0.4767913 0.39316583 -0.25298822 0.22516017 0.3735076 0.16003786 0.33334902 0.35435116 0.38911366 -0.43723086
nada 0.6449663 -0.0562397 0.29787594 -0.52283174 0.26546636 -1.3273034 0.8358726 0.19601017 -0.06756556 0.020498142 0.082885675 0.67781246 -1.3673682 1.9112064 0.61501366 -0.5384615 0.06924402 0.24615858 0.026055729 -0.39191753 0.074132174 -1.0538939 0.14681241 0.24683514 0.08349936 0.028577788 0.23154506 -0.06753198 -0.65726286 0.3759705 0.3655513 -0.104126185 0.25621313 -0.37354416 -0.42691857 0.25442228 0.38596395 0.18453743 -0.55511194 -0.022854572 -0.45957783 0.38285437 -0.23197351 0.24624254 0.37294298 0.1480403 0.32526368 0.3698153 0.34562257 -0.41457173
congreso 0.69591886 -0.0808043 0.3113732 -0.5417057 0.28501278 -1.3704768 0.85751325 0.21819876 -0.070855804 0.028263807 0.09040273 0.68993425 -1.4298216 1.959351 0.6408691 -0.55789095 0.063759215 0.26941988 0.028496668 -0.40717468 0.08017408 -1.0693947 0.16772366 0.2690958 0.0802798 0.04691436 0.23850144 -0.08237538 -0.6778114 0.38693058 0.38469946 -0.1327418 0.25406638 -0.38443038 -0.43354642 0.2456694 0.39679605 0.20066495 -0.5828749 -0.037140913 -0.4866517 0.39999297 -0.23018678 0.21192355 0.36159298 0.17462508 0.33646598 0.35441312 0.37577525 -0.4410371
menos 0.68274796 -0.042381156 0.31872457 -0.52660036 0.2684222 -1.3855749 0.8596688 0.21184134 -0.06304938 0.0077125877 0.0878624 0.7162577 -1.4314944 1.954317 0.64046264 -0.5682058 0.077868484 0.2534318 0.036981545 -0.41933683 0.056701213 -1.0904503 0.15408361 0.2404602 0.07877735 0.03212291 0.24783616 -0.07840512 -0.67191386 0.39282694 0.4001702 -0.104085095 0.28418508 -0.4069192 -0.44423276 0.2584797 0.37950906 0.20362717 -0.57934904 -0.026685117 -0.47616342 0.392828 -0.24745682 0.24397688 0.39251673 0.14477326 0.3468186 0.38478658 0.3770238 -0.45352578
bueno 0.55458343 -0.050502192 0.26073706 -0.43661493 0.19637933 -1.1559074 0.7284553 0.14513977 -0.042179085 -0.002572486 0.050427552 0.5866726 -1.1777048 1.6501211 0.53906065 -0.46699375 0.07673976 0.19531856 0.05132377 -0.34704494 0.0564148 -0.92201936 0.1267601 0.19414598 0.07194668 0.02627765 0.19793038 -0.054729592 -0.55268824 0.31586567 0.3319018 -0.08570453 0.22131567 -0.33097547 -0.3659673 0.19836214 0.31171808 0.17126742 -0.473814 -0.0199892 -0.39274594 0.34276205 -0.2007876 0.22197361 0.34348375 0.122721866 0.29356852 0.3452201 0.30751145 -0.37557107
nuevo 0.7200746 -0.043851662 0.32233116 -0.54607826 0.27935082 -1.435267 0.8936809 0.21616106 -0.060379088 0.017699229 0.07971286 0.7444198 -1.497004 2.039211 0.6569888 -0.5861485 0.07717249 0.24925816 0.036909755 -0.42303896 0.06554396 -1.1261746 0.1755604 0.23443654 0.090788126 0.02657106 0.2515262 -0.06293499 -0.70607924 0.4202728 0.4171195 -0.11668661 0.28585055 -0.4081589 -0.46241477 0.27008587 0.4119775 0.21088706 -0.61501616 -0.022980632 -0.4845271 0.41684288 -0.23873532 0.24399808 0.3901024 0.15221798 0.3608613 0.37593105 0.40497628 -0.4553507
entre 0.68798757 -0.051320527 0.3112365 -0.5516931 0.27154404 -1.4184988 0.88705844 0.21914962 -0.08256645 0.011258596 0.06918672 0.72694683 -1.4484735 2.0045824 0.64486945 -0.58644295 0.08173979 0.26583755 0.05069258 -0.40962037 0.068453275 -1.1255273 0.15541403 0.2495826 0.09658772 0.03139257 0.24568464 -0.07734541 -0.6756046 0.40899897 0.39904392 -0.11389497 0.28547534 -0.39811987 -0.45052192 0.25767344 0.3914407 0.19859976 -0.5934008 -0.029210672 -0.48763376 0.40383673 -0.23578572 0.2375851 0.39220265 0.16163705 0.33879822 0.38570297 0.3983405 -0.46756357
soy 0.6629724 -0.059180453 0.31093225 -0.52790755 0.2443083 -1.3603392 0.8710453 0.18947068 -0.05868298 0.014942566 0.07067482 0.71597946 -1.4061749 1.9629294 0.63791054 -0.55913967 0.07793821 0.23069073 0.035760168 -0.39552635 0.07288258 -1.0966864 0.14820565 0.2422064 0.09829668 0.038744178 0.25584665 -0.07170412 -0.6693495 0.38959908 0.3969017 -0.11272536 0.2701698 -0.38849792 -0.44217864 0.24684583 0.37482962 0.2126558 -0.5889635 -0.029460335 -0.4617963 0.3805472 -0.24164581 0.24505773 0.39103094 0.15220132 0.35325214 0.39272192 0.366083 -0.43460268
noche 0.63976145 -0.04917134 0.300747 -0.4981241 0.22377299 -1.2978281 0.8016453 0.17311186 -0.05793174 -0.0005428373 0.07604141 0.6657396 -1.330173 1.8435439 0.5923674 -0.53072274 0.08423888 0.22854936 0.046499107 -0.3792073 0.06575517 -1.0169946 0.15413661 0.21636054 0.090669595 0.03930059 0.22192374 -0.048500158 -0.61039954 0.3583378 0.37284207 -0.111391366 0.267295 -0.38623536 -0.41598985 0.22050545 0.36197513 0.17668505 -0.54844 -0.014870955 -0.43903333 0.37256092 -0.20959294 0.21708429 0.36315542 0.14367966 0.31859812 0.3550886 0.3524 -0.4247086
e 0.7696064 -0.059172835 0.33972272 -0.6073399 0.3110488 -1.5581807 0.9741393 0.24713057 -0.06496033 0.01662404 0.0890767 0.7911571 -1.615987 2.202542 0.72104144 -0.6264675 0.097027615 0.29690027 0.047515072 -0.46529344 0.08738475 -1.2160734 0.17917654 0.27238393 0.10454573 0.050860647 0.26845872 -0.09987093 -0.7491116 0.4425392 0.43340746 -0.12078721 0.30290514 -0.4563918 -0.48693392 0.2901258 0.4372391 0.22280638 -0.67319214 -0.027705736 -0.5225883 0.43885684 -0.27647623 0.2505716 0.41745877 0.17530185 0.3654603 0.40639642 0.4348728 -0.5195352
rubalcaba 0.59271085 -0.06379419 0.26853415 -0.4877214 0.26389137 -1.1940392 0.7767904 0.18290918 -0.061897382 0.020185176 0.064457886 0.5930822 -1.2445686 1.7029641 0.5581724 -0.4890994 0.048518173 0.24837372 0.035175033 -0.35141447 0.06652325 -0.9570278 0.14270858 0.2409632 0.045172527 0.03760993 0.2134091 -0.06777986 -0.58852535 0.33440343 0.32009974 -0.098559946 0.2201606 -0.32734463 -0.39531112 0.21729778 0.36172205 0.1807727 -0.49934253 -0.0058571394 -0.408981 0.33493036 -0.22805862 0.20158853 0.33191052 0.1461842 0.27657983 0.31603268 0.3260403 -0.38091907
también 0.6689723 -0.065987155 0.3072091 -0.51072204 0.24997878 -1.343402 0.84516555 0.19502434 -0.06529059 0.011071935 0.064444914 0.6978952 -1.3759378 1.94133 0.6329951 -0.54519427 0.07965161 0.24188307 0.041299686 -0.38964283 0.060268324 -1.0741563 0.14479792 0.24534063 0.07993136 0.035590637 0.23288406 -0.070633724 -0.6405373 0.37660334 0.39951643 -0.11677378 0.26245254 -0.40082598 -0.43973917 0.25349525 0.3863498 0.1887527 -0.5764846 -0.030474655 -0.46370035 0.3801503 -0.2393552 0.24730869 0.38087052 0.13634512 0.33562574 0.38414076 0.36804113 -0.4274764
voy 0.6331379 -0.052483764 0.28191245 -0.4752296 0.2299641 -1.2813032 0.8002203 0.17971726 -0.06515351 -0.010126832 0.057612766 0.656465 -1.3087741 1.8407084 0.59664917 -0.5242533 0.07542329 0.22203572 0.05522337 -0.37707672 0.04488278 -1.0032094 0.14710207 0.21285728 0.075718075 0.027521187 0.22998084 -0.065273896 -0.621743 0.350453 0.366317 -0.09706967 0.2676105 -0.3755818 -0.41856593 0.22715388 0.34250057 0.19188425 -0.5366795 -0.036749545 -0.43407014 0.3704944 -0.23024122 0.2459096 0.37495953 0.13744175 0.3173751 0.37273726 0.33504462 -0.41069165
cosas 0.6745783 -0.059517607 0.28610966 -0.5210386 0.2682031 -1.3613333 0.8623047 0.19814752 -0.073887825 0.01719889 0.07352469 0.68266946 -1.3944312 1.9382143 0.62622976 -0.5399176 0.075957224 0.24069597 0.034064956 -0.4100449 0.058778163 -1.0798291 0.1442721 0.25318962 0.07821384 0.035757873 0.24747 -0.06545979 -0.6621053 0.3762782 0.39366215 -0.12181132 0.26089817 -0.3947023 -0.44116262 0.24624915 0.3840953 0.19835353 -0.5676702 -0.03252766 -0.46046084 0.37600324 -0.22489983 0.24182494 0.384981 0.14516605 0.327014 0.36786252 0.36616328 -0.4343873
feliz 0.5773585 0.011642074 0.25974432 -0.42980444 0.21036926 -1.2086954 0.7205659 0.17049961 -0.041608524 -0.005270503 0.059719678 0.6460706 -1.200256 1.7075306 0.5752946 -0.50352347 0.09211522 0.19640298 0.016338386 -0.3423712 0.075868815 -0.92383164 0.1371148 0.17363265 0.099585116 0.04051309 0.2180008 -0.050138004 -0.55838895 0.34996036 0.38039258 -0.08715889 0.29199567 -0.3700933 -0.3725117 0.22111751 0.33886012 0.16293107 -0.52143234 -0.028053565 -0.3920502 0.35197118 -0.1673907 0.21113834 0.33923775 0.11156013 0.31018844 0.34096608 0.32582575 -0.38498864
tan 0.69512635 -0.048598055 0.2997915 -0.53278416 0.26497978 -1.4190818 0.88807124 0.1999914 -0.056987446 0.009867255 0.078809485 0.73890644 -1.4571719 2.0126936 0.6654481 -0.59279436 0.07639668 0.24686852 0.03529075 -0.41934383 0.07527657 -1.1256807 0.15591268 0.242911 0.09018291 0.03620616 0.26233754 -0.071871124 -0.68880695 0.41142765 0.41622725 -0.11818641 0.27849913 -0.4149635 -0.4564422 0.26634115 0.4049614 0.21346125 -0.5985267 -0.022141242 -0.4692898 0.39587286 -0.23914117 0.24046206 0.39027154 0.15642641 0.3558087 0.39137274 0.3907487 -0.45674413
sí 0.63884735 -0.056983005 0.29038948 -0.5060006 0.2552949 -1.308919 0.8165886 0.18752392 -0.053503014 0.003293421 0.06927455 0.6793201 -1.3442717 1.8764243 0.60958683 -0.53799194 0.07637724 0.22293189 0.049138743 -0.38355696 0.05201938 -1.0317478 0.14379686 0.22883989 0.0770721 0.023510456 0.22706224 -0.08083688 -0.62991184 0.36422345 0.37524098 -0.11420436 0.25713193 -0.3784576 -0.41505504 0.23732942 0.3575913 0.18364051 -0.5496478 -0.01940122 -0.4434604 0.36521992 -0.21720758 0.22647087 0.37775883 0.13547188 0.32958978 0.36374453 0.36251074 -0.4095149
partido 0.6639541 -0.0683034 0.29776153 -0.52435637 0.26595384 -1.3318921 0.82347983 0.18961862 -0.06838459 0.01744174 0.07913591 0.665376 -1.3604056 1.8765476 0.60419434 -0.55158806 0.06271375 0.24837479 0.02931203 -0.3924339 0.07593048 -1.0431386 0.16434178 0.24214315 0.08342971 0.023530468 0.245292 -0.07170184 -0.6527771 0.3675821 0.36856708 -0.11678493 0.2623956 -0.37767613 -0.43031392 0.25274706 0.381722 0.18720575 -0.55136603 -0.030710606 -0.44867384 0.37302208 -0.22762614 0.22556262 0.35863724 0.15887971 0.32450798 0.34957674 0.36719576 -0.43752548
poco 0.60605377 -0.043626297 0.27520347 -0.48302794 0.23299079 -1.2405229 0.7740978 0.1716353 -0.05733798 0.003926981 0.08078114 0.65021765 -1.2958388 1.7772669 0.58216524 -0.50636077 0.059908397 0.23690419 0.022801997 -0.37817097 0.071108915 -0.9747046 0.14588018 0.22691017 0.06530227 0.034984592 0.22667816 -0.06623438 -0.6021171 0.33993658 0.355626 -0.09361518 0.23904166 -0.36394662 -0.3918262 0.22471558 0.36124715 0.19192106 -0.52963805 -0.026281953 -0.42677775 0.36263072 -0.22523938 0.20912886 0.35730258 0.14147972 0.30584258 0.35322687 0.34023765 -0.39410427
portada 0.46746916 -0.034391813 0.21534163 -0.3677533 0.17621233 -0.9812434 0.6178162 0.15051098 -0.060263876 0.02261721 0.051087707 0.50019324 -1.0185243 1.395843 0.46466625 -0.40984967 0.046914097 0.18017827 0.019843504 -0.29208434 0.049108233 -0.7393492 0.12705566 0.15080288 0.07788135 0.028751286 0.16061391 -0.0579232 -0.48757938 0.27905378 0.27940428 -0.07840643 0.20639078 -0.27574143 -0.30683887 0.19573286 0.2515947 0.14456251 -0.42864993 -0.021586344 -0.33729613 0.26256096 -0.17354952 0.14917372 0.2547845 0.11534645 0.24707487 0.25753918 0.24829538 -0.30927923
crisis 0.6507198 -0.0617682 0.29021537 -0.5079477 0.27594408 -1.2855146 0.8111437 0.20161407 -0.07228056 0.026087023 0.08653744 0.66427153 -1.3409307 1.8328518 0.5895037 -0.5159466 0.078690834 0.23953436 0.03035103 -0.37571064 0.0741018 -1.0307341 0.14480734 0.24512237 0.060751617 0.020207193 0.22742502 -0.075261734 -0.6407875 0.36360952 0.3629034 -0.09676133 0.2383729 -0.37731612 -0.42444628 0.24694422 0.38327524 0.19371878 -0.5570859 -0.015612089 -0.44883087 0.3764131 -0.2285221 0.22858202 0.36285764 0.1543291 0.30885747 0.3454919 0.34814999 -0.4316657
siempre 0.62092835 -0.06859511 0.28228128 -0.49442878 0.23711535 -1.29107 0.81304437 0.1726395 -0.069365464 0.008999648 0.06160547 0.66556495 -1.3177816 1.8298571 0.5956315 -0.52160525 0.06216057 0.23521687 0.030277463 -0.38305435 0.06326408 -1.019 0.14603555 0.21857402 0.07152704 0.03263826 0.23997678 -0.07823424 -0.62033653 0.36866865 0.36795527 -0.100311555 0.260662 -0.37906432 -0.40771908 0.22645418 0.3635579 0.19596575 -0.5411813 -0.009217291 -0.4378649 0.36037338 -0.21275456 0.2347397 0.36631563 0.1320159 0.3153184 0.3713787 0.35387152 -0.4088702
ley 0.70260394 -0.08171922 0.32195738 -0.57190865 0.274468 -1.4039129 0.89734924 0.22766641 -0.07274572 0.017412707 0.07552091 0.7119328 -1.4546267 2.0113158 0.6547879 -0.5557179 0.07476342 0.26452264 0.041781295 -0.4271676 0.05977772 -1.1179495 0.16630638 0.26099852 0.07935088 0.029652825 0.23713405 -0.067640044 -0.69294566 0.39743352 0.39773196 -0.118988074 0.2796051 -0.41099828 -0.44967517 0.2662313 0.41475165 0.2005613 -0.6103647 -0.021643894 -0.48119983 0.40693673 -0.26048127 0.2230962 0.40088823 0.15247439 0.34320188 0.375776 0.39954215 -0.44513938
año 0.67918795 -0.04531632 0.2964451 -0.5316628 0.25908324 -1.3614537 0.838851 0.20656753 -0.0714617 0.018420242 0.06947044 0.7109052 -1.4096521 1.9288932 0.62832254 -0.5559635 0.08482164 0.25788066 0.026230458 -0.4080005 0.064456746 -1.0629306 0.16263355 0.22588196 0.08681106 0.02655507 0.2471033 -0.06254399 -0.66929 0.39090744 0.3879457 -0.10909908 0.29144886 -0.39413708 -0.44136655 0.24814193 0.38749892 0.18524474 -0.5875095 -0.031444203 -0.44885477 0.40065363 -0.23079422 0.2207772 0.37608564 0.14731292 0.33683735 0.3613272 0.38716146 -0.44912437
trabajo 0.65635264 -0.05732679 0.29753113 -0.5280962 0.27496496 -1.3408072 0.8415572 0.20905791 -0.07020766 0.010321547 0.07588792 0.69149715 -1.3928331 1.9166044 0.6344788 -0.55958563 0.075941116 0.26132196 0.028579822 -0.39980042 0.07184767 -1.0592308 0.14646704 0.23779671 0.09134854 0.045554776 0.252747 -0.06459048 -0.6499109 0.3755824 0.37862897 -0.1033184 0.26691976 -0.37832087 -0.44030926 0.2513175 0.38062727 0.20406435 -0.57749027 -0.029749213 -0.44782296 0.39378506 -0.24041528 0.2220073 0.3808228 0.13894862 0.34049863 0.37501907 0.36696184 -0.44138867
vez 0.6384737 -0.062387988 0.29608297 -0.5124073 0.24952044 -1.2803771 0.8039844 0.18962273 -0.058096908 0.006013089 0.05943566 0.65197206 -1.3262767 1.8218725 0.59587336 -0.5220628 0.061769847 0.22880875 0.041676436 -0.37166125 0.056998197 -1.007224 0.14314708 0.2198494 0.07450976 0.017167436 0.23468678 -0.06321851 -0.62430507 0.34782985 0.35799173 -0.09638969 0.25980636 -0.36623433 -0.4010739 0.22361524 0.3576457 0.17235337 -0.5391211 -0.026342323 -0.43513712 0.3685606 -0.2254244 0.22307259 0.36903906 0.14717156 0.32987767 0.32854626 0.3465587 -0.41849792
smile 0.5504447 -0.04808426 0.25733367 -0.42712966 0.19077037 -1.1865762 0.71769214 0.15349813 -0.05170277 -0.010080468 0.057114273 0.60369974 -1.1953397 1.6939751 0.5420649 -0.47153074 0.081142955 0.17832147 0.04525733 -0.33316526 0.045931824 -0.9219172 0.10436242 0.19031699 0.08607755 0.01922603 0.2050656 -0.06833895 -0.54169136 0.33570483 0.3434933 -0.08807633 0.26051265 -0.36339426 -0.38390565 0.18888001 0.3205004 0.17050752 -0.47995165 -0.018768825 -0.38807645 0.33940196 -0.18295318 0.20801713 0.35428807 0.120533824 0.30381286 0.35854644 0.31580886 -0.37753195
via 0.5527836 -0.07154399 0.25392732 -0.43948087 0.19721961 -1.1402979 0.69467545 0.14712416 -0.061657112 0.0025925462 0.037988454 0.56385577 -1.1596828 1.627433 0.5050352 -0.4672156 0.057077374 0.18738453 0.041729845 -0.3318054 0.028708084 -0.90273374 0.11264134 0.19252786 0.08072991 0.017752852 0.18558949 -0.06878818 -0.5382529 0.3299424 0.3354228 -0.08602484 0.21667798 -0.32366982 -0.36839557 0.19531459 0.30853274 0.16881189 -0.46846023 -0.022520516 -0.38162068 0.3343146 -0.20052369 0.2130145 0.3236158 0.11663116 0.27945372 0.32165208 0.289019 -0.35019556
estado 0.7008446 -0.06348198 0.3126639 -0.5589329 0.2779268 -1.3984495 0.8820106 0.22275214 -0.07268736 0.02482084 0.09190902 0.7247842 -1.4360414 1.9931998 0.65540177 -0.57329947 0.08085836 0.26149008 0.03142657 -0.4079624 0.07543791 -1.1044708 0.1690549 0.25546262 0.07596042 0.026203612 0.239821 -0.083532214 -0.67431676 0.38646725 0.38651326 -0.10528414 0.27038324 -0.41569635 -0.45225385 0.27022198 0.3857813 0.21133207 -0.60151476 -0.02038646 -0.47586292 0.40822825 -0.24643208 0.22981915 0.37796435 0.16505745 0.3531308 0.37004906 0.3805972 -0.4455623
espero 0.60666424 -0.039201774 0.2813673 -0.4895682 0.22933735 -1.2569934 0.7767429 0.17181824 -0.07035006 0.0051619983 0.070408754 0.6665046 -1.2898893 1.8088106 0.5791053 -0.5188271 0.08800667 0.22615437 0.04504364 -0.37413636 0.06832169 -0.98811704 0.13509122 0.19609392 0.0744039 0.039517693 0.23010015 -0.04960158 -0.6063901 0.36812928 0.3776393 -0.09245453 0.25783584 -0.36673182 -0.40687588 0.23810193 0.3516034 0.1955934 -0.5283988 -0.022733852 -0.4234024 0.37686738 -0.21399413 0.23009454 0.36848086 0.12918329 0.31292027 0.34868985 0.3410471 -0.4076628
creo 0.49955934 -0.05486776 0.23293507 -0.40238896 0.17720883 -1.0387689 0.65904385 0.13308771 -0.044015445 0.008581674 0.05530426 0.53151935 -1.058413 1.491901 0.4753823 -0.4261907 0.06425921 0.1811047 0.035414457 -0.30403927 0.041668277 -0.82818216 0.10499248 0.19449513 0.060252666 0.01982484 0.19128469 -0.046639826 -0.49099693 0.30214074 0.29274124 -0.0823468 0.21147831 -0.29489186 -0.3372043 0.19474089 0.29005554 0.15699236 -0.4441898 -0.014711093 -0.35011044 0.29554886 -0.1820988 0.20085226 0.30381876 0.10520753 0.25984007 0.29831833 0.2844266 -0.33724946
parece 0.5759214 -0.047394466 0.2595246 -0.45954028 0.21968395 -1.1422118 0.7279269 0.16530943 -0.06317399 0.011511889 0.06331978 0.5956556 -1.1817595 1.6484758 0.521764 -0.46368963 0.053754866 0.21118186 0.034068737 -0.34059197 0.058348842 -0.90868384 0.12721027 0.2022426 0.07728686 0.016315065 0.20064214 -0.07367227 -0.5591775 0.33117628 0.3232704 -0.102862395 0.23425701 -0.32704183 -0.36881804 0.20200013 0.32865238 0.16750848 -0.4772184 -0.030339437 -0.39849612 0.34300718 -0.19475387 0.19817817 0.32242054 0.13572113 0.28307402 0.31491122 0.32487983 -0.37385044
quien 0.6650987 -0.058453646 0.287923 -0.53379226 0.28361696 -1.3299701 0.8523234 0.2017357 -0.0615368 0.0337702 0.070155464 0.65377665 -1.3659481 1.8798653 0.6097313 -0.5434006 0.05075076 0.26765102 0.041864954 -0.4033116 0.052932993 -1.0434779 0.16232546 0.2579511 0.059829816 0.037944485 0.24711439 -0.079142615 -0.6602516 0.35463712 0.3666747 -0.10241614 0.25000885 -0.37083125 -0.4395362 0.24571416 0.37484753 0.17911021 -0.5792223 -0.0073312796 -0.44138142 0.36551797 -0.25081816 0.24488464 0.3725684 0.16018692 0.32492647 0.35979387 0.35008097 -0.4260089
quiero 0.58668435 -0.0480987 0.26103988 -0.45876852 0.23032665 -1.2290406 0.7640147 0.16036992 -0.07009107 -0.0032024838 0.05949669 0.6299339 -1.256941 1.7424917 0.5685812 -0.49269336 0.06868228 0.2056876 0.046671722 -0.37091056 0.047246568 -0.9508928 0.12715334 0.20006412 0.076720275 0.019289196 0.21683013 -0.06548433 -0.58238417 0.35090286 0.3482919 -0.10316612 0.2517309 -0.34619945 -0.4002265 0.2203693 0.33105093 0.17112873 -0.51464313 -0.029569149 -0.40976882 0.35832694 -0.2033591 0.22348762 0.3528369 0.12461698 0.30392414 0.352025 0.33507267 -0.38385108
mundo 0.5837139 -0.030635761 0.25467485 -0.47205642 0.22313723 -1.1846126 0.7512523 0.17461644 -0.06827562 0.027338909 0.08103914 0.60916847 -1.2405316 1.6873543 0.5636322 -0.4792203 0.069598645 0.2208782 0.037289374 -0.35915396 0.06123842 -0.93538254 0.14038125 0.19542718 0.06297134 0.026873264 0.20274706 -0.05469522 -0.5854875 0.34688455 0.35272464 -0.08459882 0.2530483 -0.33878246 -0.3814045 0.22167292 0.337899 0.16426462 -0.5014965 -0.019834593 -0.4014211 0.3436293 -0.21073829 0.19256005 0.3385525 0.1212211 0.3063995 0.33069593 0.32773077 -0.3802189
presidente 0.58823645 -0.051870264 0.2617021 -0.47510934 0.24196176 -1.2116061 0.75175685 0.1942786 -0.045891035 0.014936794 0.061156657 0.6215552 -1.2484887 1.7008255 0.54886705 -0.4919316 0.060110763 0.20995806 0.042553835 -0.35076922 0.06557777 -0.9562293 0.12876734 0.22127084 0.07805013 0.020188361 0.21682154 -0.052913155 -0.5792698 0.35379902 0.35235193 -0.09182165 0.22706516 -0.35682085 -0.39420757 0.21683568 0.33937016 0.18574896 -0.5136722 -0.028809246 -0.4114089 0.34701404 -0.21153444 0.20389503 0.33823898 0.1429231 0.294854 0.32249087 0.33254948 -0.3950858
país 0.62556344 -0.04440457 0.28489465 -0.5027371 0.2438899 -1.2808657 0.8018362 0.18423067 -0.0791636 0.02833791 0.07152356 0.6434753 -1.3369049 1.8109637 0.59119546 -0.50839627 0.077228084 0.23483846 0.043979272 -0.37664908 0.07327593 -0.9930222 0.1451106 0.2304265 0.07124202 0.02104668 0.22982742 -0.063056946 -0.61232775 0.3439926 0.36205077 -0.09983247 0.24844193 -0.36448875 -0.3993244 0.23993888 0.36419937 0.19208102 -0.5310785 -0.012257677 -0.4300564 0.37533352 -0.23535044 0.21870121 0.35101265 0.1497742 0.3193194 0.34637427 0.34099877 -0.41564104
ir 0.594448 -0.062499255 0.2621793 -0.4757771 0.23993915 -1.200372 0.7495595 0.16495366 -0.056211833 0.0038651132 0.056517664 0.60445136 -1.2372955 1.7278312 0.5537324 -0.48960924 0.06290404 0.22186542 0.04752376 -0.36481455 0.055128977 -0.94867337 0.14325783 0.2215263 0.07735065 0.0223464 0.20434536 -0.07058844 -0.59152293 0.32593668 0.331917 -0.09689749 0.22901702 -0.3579032 -0.39189246 0.22470497 0.3298295 0.16636285 -0.5111187 -0.009291851 -0.42118385 0.34847742 -0.2091442 0.22184983 0.336474 0.12804264 0.29166827 0.34423292 0.3210274 -0.38790652
verdad 0.5713489 -0.060690433 0.26376623 -0.46162793 0.24026258 -1.1754009 0.7634077 0.16569874 -0.061715867 0.021630267 0.06465772 0.60214984 -1.2323654 1.7059175 0.5356346 -0.4860497 0.053004142 0.22865663 0.031791914 -0.3559708 0.06314175 -0.93612516 0.1277989 0.21393278 0.07322789 0.03345688 0.22409669 -0.064408734 -0.5732526 0.33356974 0.3379572 -0.09999963 0.24066612 -0.33865 -0.38521543 0.21810286 0.34894177 0.17043298 -0.51549876 -0.025077485 -0.40843514 0.3425104 -0.21012485 0.21231781 0.3279684 0.12108398 0.3064138 0.3286305 0.32012147 -0.3855284
otro 0.60519737 -0.04161207 0.25869355 -0.47551867 0.24891254 -1.2348944 0.7686167 0.18287614 -0.058516424 0.007942758 0.06055523 0.6386759 -1.2722044 1.7390454 0.55897075 -0.49587178 0.0636342 0.22649011 0.044383246 -0.3571754 0.0482376 -0.9734915 0.14177552 0.21636437 0.07105805 0.028821722 0.22314459 -0.061508965 -0.5930799 0.34990856 0.3536567 -0.10377346 0.25102696 -0.35150117 -0.39428827 0.22632934 0.3562906 0.18440421 -0.5169773 -0.028038187 -0.41355002 0.3641296 -0.2011857 0.20352389 0.35426325 0.14005847 0.31562507 0.33029255 0.33528298 -0.38871747
buenas 0.5556711 -0.004663317 0.25394285 -0.4665736 0.24945651 -1.1645981 0.7090874 0.18579476 -0.08623206 -0.007601285 0.11267485 0.638501 -1.1161202 1.5809317 0.5133121 -0.47627988 0.0680055 0.17349732 0.012997259 -0.34296042 0.040211335 -0.7965213 0.14131266 0.13248926 0.0744523 0.077034906 0.1524998 -0.0092852125 -0.5401734 0.24273507 0.38491458 -0.0634146 0.22184023 -0.25242153 -0.37062764 0.188012 0.29918435 0.11727461 -0.45947087 0.019229325 -0.3906318 0.26779595 -0.1333317 0.19388403 0.30092514 0.1738811 0.3053676 0.26821187 0.25981584 -0.37522492
millones 0.5909056 -0.048547395 0.26450548 -0.48177728 0.25209495 -1.211564 0.7724602 0.20234133 -0.04728139 0.01161375 0.054828335 0.6230504 -1.2607524 1.7025293 0.5607555 -0.49802336 0.06383465 0.22499742 0.03562218 -0.35742834 0.05542511 -0.95162433 0.14454482 0.23201305 0.07064752 0.0322318 0.21284613 -0.07012814 -0.5918916 0.34240386 0.32936186 -0.096809804 0.23472536 -0.35657024 -0.3755429 0.22646879 0.34125218 0.17800298 -0.5254436 -0.016850134 -0.42485142 0.3503169 -0.21585312 0.19903001 0.32935223 0.12941775 0.29217514 0.31735334 0.35060152 -0.40558746
#sumatealcambio 0.6242696 -0.041437764 0.26238257 -0.48774573 0.269109 -1.2508289 0.78389287 0.18129544 -0.05480521 0.014728499 0.080810666 0.64182454 -1.3135127 1.7806445 0.60402036 -0.50473875 0.07461241 0.22959507 0.038577378 -0.35760438 0.06623869 -0.98453456 0.16414118 0.23231357 0.086960524 0.02731093 0.2397575 -0.067893855 -0.61396974 0.35705763 0.3583756 -0.090541676 0.23823155 -0.38280335 -0.41808254 0.2197835 0.36924154 0.19406354 -0.52468854 -0.019648978 -0.447496 0.37581357 -0.21647348 0.20393407 0.35565698 0.13357183 0.30131623 0.3359362 0.35775787 -0.41487384
reforma 0.666599 -0.044004537 0.2793838 -0.5290623 0.2927618 -1.3131658 0.8194565 0.22690211 -0.054942857 0.038079884 0.10306663 0.66964173 -1.3861963 1.8720549 0.6005505 -0.5246624 0.077484526 0.26472536 0.020735227 -0.40001705 0.07580548 -1.045538 0.1383292 0.23582649 0.06998073 0.021193529 0.23895463 -0.07019872 -0.6580731 0.3676059 0.37579206 -0.1286673 0.2646231 -0.37627968 -0.4215486 0.24164325 0.38396236 0.18350905 -0.5648083 -0.017537728 -0.446443 0.36125225 -0.23834977 0.21169384 0.3497418 0.1707591 0.3156339 0.34595317 0.37330043 -0.42374295
@ 0.6531571 -0.05059779 0.30040202 -0.52888566 0.25392509 -1.344467 0.8441999 0.19568302 -0.059815347 0.020295389 0.06865095 0.68937564 -1.3890728 1.8834488 0.61182874 -0.54964876 0.082655296 0.24004139 0.041316886 -0.39934775 0.054750115 -1.0567482 0.16006096 0.23144524 0.101272605 0.039337385 0.23086314 -0.06747107 -0.66656524 0.38426286 0.39058235 -0.11705661 0.27635887 -0.38943335 -0.41864848 0.23423967 0.37678093 0.20609576 -0.5720282 -0.02841583 -0.45861223 0.380916 -0.22419491 0.21641816 0.3704951 0.15916461 0.33731326 0.3665145 0.371593 -0.43266788
vida 0.6061605 -0.029965658 0.27998745 -0.47059917 0.22997212 -1.225321 0.7772631 0.19177002 -0.07715456 0.007049003 0.07900586 0.6367874 -1.2694453 1.7535864 0.5709324 -0.50430924 0.07313764 0.23462714 0.021428546 -0.3689859 0.059299596 -0.97301203 0.13802035 0.22168902 0.0669698 0.0301492 0.21890624 -0.061111517 -0.58892846 0.3495998 0.36366126 -0.09380938 0.25179023 -0.34609297 -0.400748 0.21954611 0.3413358 0.17646731 -0.5268842 -0.02548065 -0.41062993 0.36212468 -0.21191871 0.21867669 0.34036905 0.12794907 0.29528546 0.32219166 0.34233797 -0.40476897
#cadavotovale 0.570597 -0.048242036 0.24508168 -0.45327562 0.2095319 -1.1420368 0.7158532 0.17854615 -0.05665506 0.009785662 0.06691266 0.57346463 -1.1828523 1.6253194 0.5280289 -0.47591797 0.058742013 0.1988555 0.035204723 -0.34740207 0.0643804 -0.89690465 0.13325483 0.19248211 0.07579008 0.02215608 0.21109854 -0.052655816 -0.55787605 0.3173158 0.3281777 -0.094848715 0.23012154 -0.3376169 -0.35464695 0.21833079 0.32050833 0.16363981 -0.48851046 -0.009530584 -0.39361006 0.32782665 -0.19459225 0.19820938 0.3230991 0.13758978 0.27114257 0.30321258 0.3219815 -0.36516994
h 0.6582655 -0.03194801 0.28664428 -0.49969757 0.24862717 -1.3212488 0.82312655 0.19054517 -0.058787163 0.014073362 0.07016831 0.680119 -1.3622054 1.8661772 0.62450486 -0.54213274 0.08308886 0.22889702 0.040867474 -0.38252464 0.07638523 -1.0345392 0.1530155 0.21031372 0.081663534 0.044142902 0.22718713 -0.05336385 -0.6427068 0.3847909 0.38705677 -0.10794282 0.26624018 -0.40109056 -0.41065392 0.22995819 0.3670935 0.20147939 -0.5676408 -0.017368978 -0.45314848 0.3721809 -0.22085086 0.21523345 0.37347844 0.13320644 0.33490637 0.36433673 0.37855893 -0.43904415
están 0.6302758 -0.05628348 0.280625 -0.5087117 0.24498542 -1.279027 0.8154463 0.19644426 -0.054883726 0.0305519 0.082902 0.6715659 -1.3333938 1.8358445 0.61105126 -0.5360747 0.08245448 0.24562413 0.040792048 -0.37296042 0.06652307 -1.0161458 0.14338803 0.21770392 0.09204145 0.031004915 0.23273575 -0.06318421 -0.63170236 0.36385387 0.37725705 -0.111006334 0.26633754 -0.38190293 -0.41755947 0.24802181 0.3682557 0.19654372 -0.557014 -0.039960682 -0.43101195 0.3666423 -0.23008385 0.21924435 0.35071537 0.14352801 0.32533076 0.35625327 0.3638607 -0.41310644
será 0.6263676 -0.045763202 0.2816574 -0.5067155 0.25910774 -1.2742325 0.8002038 0.18340872 -0.052382234 0.006533631 0.079242505 0.6510084 -1.3264242 1.8227376 0.590949 -0.5174674 0.08559964 0.22621961 0.049093843 -0.378234 0.051540207 -0.9939771 0.14960532 0.22348383 0.08337101 0.031179234 0.22686987 -0.067357235 -0.6226942 0.34843487 0.35611117 -0.110663004 0.26258 -0.36557662 -0.40968356 0.24667251 0.35283333 0.18469223 -0.53723705 -0.029594043 -0.4313811 0.35691229 -0.21905811 0.20929056 0.35846066 0.14418094 0.31561053 0.3329778 0.35848713 -0.4157123
domingo 0.55113536 -0.035594743 0.25511748 -0.43154186 0.22130409 -1.118475 0.70654505 0.16525526 -0.0546186 0.0056034746 0.06252543 0.58013487 -1.1653771 1.6000909 0.52748 -0.46478948 0.07391564 0.21614408 0.023828471 -0.33575535 0.047612093 -0.8704032 0.12194422 0.19074911 0.073252 0.02698915 0.20571607 -0.04862561 -0.5366128 0.30475777 0.32129472 -0.09352019 0.22480194 -0.322412 -0.36315194 0.20559789 0.316807 0.1580836 -0.47538048 -0.03197094 -0.36880243 0.32211703 -0.19899075 0.20304823 0.3099025 0.112978965 0.29089028 0.31117934 0.29967734 -0.3656667
política 0.587086 -0.060625006 0.26595274 -0.46890178 0.23787928 -1.1705298 0.74745303 0.1795556 -0.06741871 0.023179615 0.06747732 0.6065045 -1.225809 1.6817831 0.53228784 -0.49108335 0.06049094 0.2319513 0.029431919 -0.3596336 0.06421202 -0.92824197 0.14319204 0.21654943 0.059540685 0.035182502 0.21090819 -0.07138116 -0.58570516 0.3301439 0.33838567 -0.08715239 0.2397713 -0.3405189 -0.37288103 0.2173102 0.33140218 0.16310216 -0.5034137 -0.025030728 -0.41202143 0.3341539 -0.20606454 0.20267114 0.33064032 0.13182573 0.2801825 0.31797278 0.3170267 -0.37200722
mismo 0.5686587 -0.05161513 0.25912306 -0.43244803 0.21692061 -1.1328319 0.72235614 0.16370136 -0.052441876 0.01734143 0.05852349 0.58869755 -1.1638098 1.63605 0.52517235 -0.47237787 0.07193326 0.20485885 0.032164387 -0.33692527 0.059883565 -0.90548396 0.12530732 0.1921736 0.062597886 0.023687948 0.20852886 -0.06776732 -0.56056523 0.3249371 0.32546788 -0.094349705 0.23389094 -0.33582237 -0.37466982 0.20421658 0.3204622 0.1536695 -0.4778002 -0.029526878 -0.38820013 0.32543468 -0.19421962 0.20291123 0.33071697 0.11491162 0.28324515 0.32104838 0.3096836 -0.3703815
iu 0.65427554 -0.07779032 0.29093158 -0.53994095 0.2801817 -1.3421587 0.83911014 0.21578236 -0.072353505 0.018990517 0.07656322 0.6643939 -1.3912256 1.9151387 0.607894 -0.5356517 0.07486635 0.26907212 0.032758504 -0.385961 0.05855203 -1.060582 0.14629857 0.26062676 0.069387905 0.026886275 0.23114909 -0.08855384 -0.65232927 0.3675029 0.3766849 -0.11295282 0.2566874 -0.38804176 -0.4392421 0.2388177 0.38573745 0.19172597 -0.57057285 -0.03418968 -0.46249586 0.38166806 -0.22767301 0.20988655 0.3740266 0.15623224 0.31271693 0.35524252 0.37177053 -0.42501786
hemos 0.67363364 -0.06679571 0.300412 -0.53452665 0.26877514 -1.36745 0.86039114 0.20784643 -0.070768446 0.008175908 0.07131343 0.6955512 -1.4249628 1.9403716 0.644707 -0.56725174 0.06767828 0.260669 0.03083559 -0.409025 0.07817562 -1.0745792 0.14794418 0.24682625 0.0872847 0.035793606 0.25414968 -0.060218897 -0.66945136 0.38678223 0.38869506 -0.103024215 0.28054437 -0.3848587 -0.44299784 0.25334984 0.3960594 0.21033199 -0.5890339 -0.03872972 -0.46557426 0.4042351 -0.23527041 0.23687382 0.3822033 0.15651059 0.32901177 0.37132818 0.3695103 -0.44027445
mal 0.5093649 -0.04812543 0.23487502 -0.4122292 0.19097194 -1.0609498 0.6613168 0.15754099 -0.057575263 0.016548494 0.06831022 0.547815 -1.0853369 1.5046684 0.49402994 -0.43011484 0.04643637 0.19300462 0.03675467 -0.31478795 0.06343808 -0.84606206 0.1253111 0.17262906 0.06762043 0.022002831 0.17549905 -0.051724523 -0.5217159 0.29686433 0.3082276 -0.08270091 0.197316 -0.2991926 -0.34826672 0.18912637 0.2971609 0.1485698 -0.4454943 -0.011314919 -0.36050928 0.29235741 -0.17026603 0.18789157 0.2909913 0.12759788 0.2518103 0.28770882 0.28469497 -0.33160117
sido 0.624989 -0.03371277 0.29157847 -0.49765208 0.23722564 -1.2491465 0.78826725 0.19313435 -0.06323983 0.012441338 0.069132976 0.63934326 -1.3024057 1.7782812 0.57106906 -0.5104372 0.064243734 0.22373088 0.038935043 -0.37823573 0.075444505 -0.98054403 0.14888084 0.2089228 0.08731788 0.042973384 0.21249464 -0.05266693 -0.612662 0.34819657 0.37097022 -0.10128202 0.25827008 -0.35647467 -0.40277222 0.22865106 0.35178086 0.1842859 -0.53535706 -0.02129014 -0.43646657 0.35248744 -0.21849166 0.1992898 0.33959615 0.14276084 0.30325338 0.32711548 0.34375018 -0.41407737
campaña 0.6158812 -0.039694097 0.29606816 -0.50909734 0.24321382 -1.2721572 0.79535675 0.20050462 -0.05088056 0.016576217 0.072555535 0.6420907 -1.3176627 1.7935567 0.5962845 -0.5124285 0.08010202 0.24560735 0.046832193 -0.36871427 0.046865847 -0.9934435 0.15826595 0.21468113 0.06862792 0.037732642 0.23154096 -0.06266093 -0.6170304 0.3454677 0.36092144 -0.10763011 0.2584878 -0.37629572 -0.41197294 0.22596167 0.3616042 0.18691224 -0.5432959 -0.018255942 -0.43625516 0.36576447 -0.20900498 0.21054627 0.35248485 0.13467827 0.32415822 0.33993968 0.35603768 -0.41330072
da 0.58049566 -0.058790196 0.2625209 -0.47226495 0.23473018 -1.1812377 0.75731826 0.19027959 -0.05277169 0.017563019 0.07198958 0.60137504 -1.2288864 1.6960566 0.54574907 -0.4906479 0.075892694 0.23209168 0.03975844 -0.35074976 0.061932523 -0.94188595 0.12825556 0.21751985 0.06530766 0.027220575 0.20525928 -0.07202276 -0.57274 0.33909753 0.34841835 -0.107744545 0.23055345 -0.336669 -0.39539152 0.20913349 0.3312929 0.16559146 -0.50396514 -0.026859365 -0.40183628 0.34846258 -0.19836201 0.19656628 0.32496402 0.12726022 0.2991557 0.32384777 0.33357278 -0.38495612
sea 0.589632 -0.051769886 0.26269794 -0.47751343 0.23937236 -1.2020036 0.7627507 0.18059207 -0.057172824 0.024779389 0.076174185 0.6050023 -1.2456707 1.7258173 0.5536872 -0.48983255 0.06272988 0.23159578 0.032703392 -0.3508356 0.061217416 -0.95424193 0.12766849 0.22746214 0.07358039 0.036426093 0.21157305 -0.08003966 -0.58318985 0.3315234 0.3406409 -0.10031715 0.23619899 -0.33637276 -0.37320727 0.2248806 0.34904385 0.16156271 -0.50240344 -0.012001388 -0.40288317 0.3513523 -0.21734688 0.22092673 0.3303144 0.14310163 0.30455816 0.3265421 0.3206706 -0.39228266
claro 0.48131007 -0.05073809 0.22452155 -0.38517758 0.18386373 -1.0049114 0.6339897 0.12469139 -0.05830864 0.0024049906 0.04325219 0.5003136 -1.0238986 1.4426799 0.47571027 -0.40847296 0.051892567 0.17104681 0.04622611 -0.28480268 0.04819875 -0.8066129 0.10011109 0.18245447 0.06452971 0.012165364 0.16989116 -0.062187202 -0.4836534 0.27614734 0.2834533 -0.073099285 0.20324467 -0.28662834 -0.3338858 0.19415723 0.27195323 0.15517731 -0.42373738 -0.025047725 -0.3474815 0.2851684 -0.17565826 0.17956676 0.287797 0.120306745 0.2567882 0.2978736 0.26966992 -0.30967808
programa 0.54395354 -0.06308937 0.23643604 -0.4459127 0.22061296 -1.1303391 0.71492404 0.16364649 -0.048270557 0.007312936 0.07272429 0.5718502 -1.1548669 1.604157 0.5260289 -0.46354452 0.054137066 0.21030423 0.03681743 -0.33733597 0.04558843 -0.8789015 0.13529678 0.20242137 0.063093565 0.02704811 0.19801468 -0.052318733 -0.54091346 0.3157737 0.32370642 -0.08481061 0.22060683 -0.3205788 -0.36327606 0.20190683 0.3156193 0.16755371 -0.4734174 -0.007643173 -0.38481158 0.31065732 -0.1924817 0.19128454 0.30567598 0.13586621 0.2888561 0.31561124 0.30242276 -0.3702943
cambio 0.6327565 -0.056827825 0.2931523 -0.52255434 0.26609394 -1.2980086 0.81324935 0.19555986 -0.072598554 0.014929744 0.07902513 0.66179323 -1.3492105 1.8418922 0.59086734 -0.52087176 0.08326129 0.25127944 0.030775169 -0.38847432 0.076139376 -1.0145409 0.1593941 0.24264714 0.08152084 0.026044102 0.24457388 -0.07139567 -0.6305102 0.36810082 0.36936766 -0.098933965 0.2575637 -0.36962098 -0.42004368 0.23595433 0.36600828 0.19443688 -0.5522442 -0.01423871 -0.44411495 0.38008448 -0.23952062 0.20639126 0.3655221 0.13722503 0.3223352 0.33412093 0.37156403 -0.42433503
buen 0.58076537 -0.014428478 0.26081786 -0.4366804 0.23265672 -1.1589715 0.7192764 0.17174006 -0.048026983 0.0027413215 0.07154843 0.61925775 -1.2017491 1.6689423 0.53734076 -0.48020196 0.07082745 0.20868288 0.025544543 -0.34068298 0.06165239 -0.9180239 0.13038282 0.19202034 0.069064714 0.029203542 0.20052327 -0.05454876 -0.5564166 0.33493066 0.35600683 -0.08741218 0.24747473 -0.3329458 -0.38254222 0.22966176 0.33198395 0.16941431 -0.51184535 -0.040729493 -0.39855307 0.34669256 -0.19967279 0.19584988 0.30823457 0.1143339 0.30169594 0.32320726 0.3180001 -0.36535898
decir 0.5207376 -0.06381039 0.22391894 -0.41860032 0.19901542 -1.0603396 0.67728955 0.15853733 -0.05816534 0.008849017 0.059393555 0.52461797 -1.0856776 1.5184704 0.48885986 -0.42901286 0.044976477 0.18824483 0.025766794 -0.31120545 0.05740377 -0.84313965 0.13226861 0.20255491 0.053282484 0.024481585 0.19092211 -0.06188538 -0.5182343 0.28902823 0.2906315 -0.08883298 0.2095137 -0.3037201 -0.34422106 0.20134798 0.2997553 0.14077593 -0.44985503 -0.018264418 -0.3607406 0.30458066 -0.19425334 0.18989436 0.30923852 0.129684 0.2646766 0.2795348 0.2903461 -0.3437133
#votapp 0.5962896 -0.036189135 0.28504106 -0.46760747 0.23698805 -1.2049664 0.76309043 0.18967703 -0.073458605 0.021173328 0.0792479 0.6060417 -1.2548019 1.7384828 0.5639152 -0.4887867 0.07390575 0.2426876 0.03069516 -0.3638882 0.058170386 -0.9476428 0.15312597 0.23335336 0.08861474 0.024753658 0.2208259 -0.06571902 -0.58248144 0.32787296 0.35010108 -0.09978611 0.25088668 -0.35355547 -0.37477058 0.21217598 0.33362526 0.18695919 -0.53073335 -0.0056486013 -0.42143652 0.3545312 -0.21971014 0.20873685 0.3463824 0.14031215 0.31644732 0.30485848 0.34931344 -0.41736117
andalucía 0.5358536 -0.05558698 0.2415334 -0.41913643 0.22923599 -1.0690808 0.6599135 0.16141132 -0.05195877 0.0127289 0.0630505 0.5405801 -1.107665 1.5208905 0.4984912 -0.43583477 0.044650026 0.21206449 0.037099887 -0.30785587 0.05228902 -0.8344528 0.1252199 0.21036617 0.059647806 0.031658296 0.18951228 -0.06643939 -0.52836215 0.28893277 0.30083963 -0.087409966 0.20953429 -0.29682183 -0.34720892 0.19502103 0.30761474 0.16297533 -0.46513915 -0.01975909 -0.37712643 0.3126745 -0.19350097 0.16441137 0.28428608 0.11839357 0.2525758 0.26996133 0.29815605 -0.35478985
sólo 0.5562196 -0.050940678 0.2603183 -0.44738254 0.22291252 -1.1540446 0.72680235 0.1709609 -0.048313357 0.020852745 0.07245175 0.5775258 -1.1818737 1.6279078 0.5392849 -0.4764243 0.052361578 0.20695812 0.025859702 -0.33964673 0.04957312 -0.9115315 0.12332734 0.20039098 0.07809126 0.03812742 0.20842065 -0.06801355 -0.56727344 0.3137059 0.315387 -0.09189655 0.23333126 -0.33554175 -0.3767987 0.20422539 0.32490617 0.16812885 -0.48721445 -0.016738115 -0.38126236 0.33708376 -0.20910875 0.19315095 0.30773374 0.12203672 0.27189758 0.31210613 0.31770155 -0.38018447
ayer 0.5577281 -0.035949755 0.24053563 -0.43798158 0.20634231 -1.120694 0.7123282 0.16240613 -0.049056236 0.011562957 0.06857511 0.571517 -1.1708558 1.6060938 0.52244633 -0.45730296 0.072669454 0.21332218 0.025504423 -0.3363825 0.05756273 -0.8809178 0.13865453 0.19666335 0.07452937 0.03641749 0.18931948 -0.05364509 -0.5401892 0.31410274 0.32017854 -0.09417232 0.22502331 -0.33648726 -0.34918138 0.1949517 0.30840096 0.16383591 -0.4879279 -0.024151852 -0.3735001 0.3208111 -0.19095105 0.18896994 0.31348297 0.11581889 0.27821866 0.29613045 0.31982735 -0.35811877
gusta 0.4827952 -0.051817093 0.22800462 -0.39573923 0.19190408 -1.0114478 0.6318231 0.13125125 -0.038084645 -0.0057544047 0.05026634 0.5271345 -1.0413795 1.4510658 0.46661177 -0.40978158 0.058512572 0.18359631 0.026172992 -0.30236077 0.032239713 -0.8138902 0.10605699 0.17154546 0.07319309 0.024106216 0.17841344 -0.052124765 -0.49492094 0.28698632 0.28071994 -0.07825456 0.20244245 -0.30091643 -0.31423447 0.17865327 0.26875994 0.145143 -0.42617482 -0.029056432 -0.35228953 0.28700307 -0.17868337 0.18875043 0.30211768 0.11900271 0.2492343 0.29423854 0.26341385 -0.31638575
tiempo 0.53285414 -0.042396944 0.23992825 -0.4247475 0.2112306 -1.0877655 0.69011474 0.15899532 -0.063057095 0.00021335989 0.06744896 0.573225 -1.1233628 1.5594668 0.5179192 -0.44589874 0.06398515 0.20651463 0.021563597 -0.33301237 0.05219213 -0.874984 0.12688297 0.19569868 0.07109675 0.025958395 0.19215687 -0.06524545 -0.53398925 0.30335703 0.31815323 -0.08236711 0.2220573 -0.3221023 -0.34993738 0.21207118 0.31720504 0.14870456 -0.46553674 -0.028705468 -0.38216105 0.31673557 -0.19169573 0.19560017 0.3105336 0.1141663 0.28239226 0.29033223 0.28825423 -0.35511807
muchas 0.43218866 -0.027281076 0.21195866 -0.34464297 0.15032223 -0.9628977 0.56414855 0.1253783 -0.03865955 -0.0144342445 0.0409754 0.49550202 -0.9536266 1.372156 0.44819167 -0.37304235 0.06279885 0.13974392 0.027743751 -0.27230945 0.02626902 -0.7494773 0.07375285 0.14326423 0.05872424 0.016213108 0.15646549 -0.04652626 -0.4452869 0.26877367 0.2752028 -0.077036306 0.21295348 -0.30273932 -0.29791653 0.15813857 0.25028008 0.14664678 -0.381721 -0.0039227265 -0.31790212 0.28997102 -0.14341187 0.16872033 0.29267412 0.08129302 0.2648451 0.30298355 0.24963863 -0.28259513
tener 0.6246644 -0.064208776 0.2708372 -0.50857574 0.24984959 -1.2710923 0.8038946 0.18720122 -0.074116684 0.019051822 0.06878859 0.66114014 -1.3311342 1.811571 0.5921465 -0.5310656 0.078038424 0.25032714 0.033971403 -0.3736007 0.05805752 -1.0004056 0.14598532 0.2298436 0.06554739 0.03630372 0.2244312 -0.06777153 -0.6333097 0.35814494 0.36083138 -0.115781076 0.25872383 -0.3623468 -0.40312436 0.23345847 0.37179962 0.17737341 -0.5624598 -0.014441359 -0.42927158 0.3758185 -0.23067978 0.20726997 0.34278843 0.14717549 0.32090643 0.34978113 0.35030773 -0.42329076
casa 0.60111713 -0.040777516 0.26248655 -0.47090483 0.22180429 -1.2037182 0.76199377 0.1896231 -0.06636355 0.00812437 0.08879141 0.63873005 -1.2546816 1.71985 0.5520418 -0.50235265 0.06976779 0.22664613 0.03017036 -0.35823056 0.07223538 -0.95138717 0.14718544 0.19961381 0.07839561 0.038170494 0.22573268 -0.05211832 -0.5979207 0.33266035 0.36791795 -0.0953568 0.24896568 -0.3543916 -0.37956956 0.23256074 0.3420159 0.1772506 -0.52298784 -0.026242256 -0.41016197 0.33572426 -0.21330278 0.21393156 0.33056277 0.13479763 0.2919418 0.3262938 0.34641582 -0.38750598
#nomeolvido 0.51814455 -0.033596553 0.24414228 -0.41496664 0.20226555 -1.0629123 0.6694183 0.16669196 -0.044948168 0.008042015 0.056004282 0.5428812 -1.0940809 1.506445 0.49404866 -0.43867004 0.065887064 0.20696297 0.030537631 -0.31032246 0.058941867 -0.8278714 0.1263286 0.18721355 0.06314972 0.0284054 0.1804652 -0.068482876 -0.5080638 0.2981361 0.2951557 -0.08812509 0.21697369 -0.29835156 -0.33254355 0.19527428 0.30135092 0.15421095 -0.4509678 -0.019713348 -0.3706737 0.29400057 -0.18424122 0.18087819 0.30337664 0.11431913 0.25874594 0.2947919 0.2977928 -0.34897482
tanto 0.5761379 -0.053611234 0.25638184 -0.45034605 0.21695192 -1.1757396 0.7397625 0.16482551 -0.056516983 0.011435854 0.065024324 0.60562575 -1.1933783 1.6665446 0.5438014 -0.478303 0.06310874 0.22241028 0.030942908 -0.34029356 0.064629555 -0.9171529 0.12741052 0.22006714 0.06167048 0.032390777 0.20507011 -0.06889498 -0.56660575 0.33170784 0.335469 -0.093519695 0.2424255 -0.3342765 -0.3659944 0.2117647 0.34144363 0.16325547 -0.49918234 -0.023740869 -0.38793424 0.34132057 -0.20680021 0.19389313 0.32018474 0.12124005 0.29438677 0.32825717 0.3127687 -0.38443044
hecho 0.511848 -0.051300045 0.2428845 -0.41181314 0.2070967 -1.0501964 0.6613726 0.15693974 -0.046930324 0.010727919 0.05446211 0.5550942 -1.0933688 1.5046324 0.49344763 -0.43459082 0.061552603 0.1844215 0.039818887 -0.30719534 0.059630483 -0.8372917 0.12573525 0.19301786 0.074916184 0.02151851 0.18407618 -0.049258508 -0.51161647 0.30388656 0.29809874 -0.0872599 0.20636551 -0.298932 -0.3400371 0.19023415 0.291978 0.14400259 -0.44879875 -0.026392078 -0.3516332 0.29158083 -0.19131029 0.18984322 0.30749524 0.11519438 0.26928648 0.29220513 0.30173263 -0.3327784
derechos 0.54938734 -0.050100055 0.25075847 -0.4346571 0.23615368 -1.0927519 0.6911381 0.16677874 -0.056986537 0.024549184 0.0708209 0.5614446 -1.1473675 1.5477346 0.50300837 -0.44895172 0.050275076 0.21028182 0.02598252 -0.32984662 0.07255436 -0.86142534 0.13561587 0.19577888 0.05765327 0.0311921 0.20108826 -0.06464902 -0.5417317 0.3060635 0.31997046 -0.09648676 0.21655186 -0.30463985 -0.35446483 0.21072121 0.31037426 0.158276 -0.4694233 -0.028974725 -0.3748413 0.32529634 -0.18677849 0.19128865 0.29872558 0.13798022 0.2559894 0.28591272 0.31377554 -0.37079462
estamos 0.528656 -0.052816536 0.24006326 -0.41640237 0.20056877 -1.0645758 0.66367364 0.16044326 -0.050876077 0.008875334 0.05840415 0.5574443 -1.091958 1.5316868 0.48669013 -0.43724468 0.06876573 0.19080307 0.031717602 -0.31813404 0.045153517 -0.8372349 0.113419965 0.17799169 0.0655933 0.031025808 0.18055388 -0.046260238 -0.524573 0.3132097 0.31413352 -0.08264192 0.21497893 -0.30442742 -0.34975493 0.20324324 0.306083 0.15648276 -0.44618395 -0.019010585 -0.36111265 0.31469253 -0.17687164 0.19858484 0.31146312 0.119250216 0.2617655 0.2952814 0.28189775 -0.33587632
foto 0.5403143 -0.047594104 0.23949245 -0.42309415 0.21262376 -1.1321346 0.698639 0.14744423 -0.05413771 -0.0011695124 0.07039167 0.5830891 -1.1492652 1.6106488 0.52490896 -0.470218 0.05849013 0.20936285 0.03632029 -0.3344951 0.05693079 -0.88742715 0.1250981 0.18692248 0.08632767 0.027482873 0.19035432 -0.054038435 -0.539388 0.3140745 0.330604 -0.07867778 0.2250012 -0.34202257 -0.37018806 0.20145868 0.3112902 0.1578136 -0.4679472 -0.031281833 -0.3811056 0.33470225 -0.1865683 0.19205232 0.32127708 0.11763391 0.29386604 0.30380473 0.29703307 -0.37006098
semana 0.64420617 -0.0043326393 0.283097 -0.4861137 0.24770562 -1.3107871 0.79873717 0.20677339 -0.07472584 0.02428826 0.09586036 0.69460446 -1.3436687 1.8568432 0.60448605 -0.5627422 0.09728884 0.23524278 0.025173493 -0.3740781 0.07536215 -1.0193096 0.16395082 0.19314939 0.10288879 0.04557062 0.23761736 -0.04736583 -0.6338417 0.38471323 0.3984723 -0.090918265 0.2826829 -0.3744251 -0.4334839 0.24430765 0.37635285 0.20405586 -0.5819213 -0.0402706 -0.43499362 0.37242198 -0.20327614 0.21168421 0.33851397 0.13525754 0.32800415 0.34337544 0.3615926 -0.4158783
noches 0.52810836 0.014327689 0.22550766 -0.38682434 0.18326873 -1.0625567 0.6916652 0.15040405 -0.08837051 0.020937132 0.1158755 0.61727154 -1.0429881 1.4478903 0.5527276 -0.41700837 0.113519356 0.13420801 0.011530239 -0.3520043 0.08418007 -0.755704 0.13625 0.13187192 0.09727485 0.061521556 0.19235535 -0.015734043 -0.5042731 0.23418188 0.3253976 -0.05969343 0.21592204 -0.25051188 -0.35593897 0.21765801 0.26746294 0.111763574 -0.4331215 -0.078004144 -0.3031321 0.2657943 -0.16441672 0.22388847 0.29819572 0.15632862 0.2590369 0.2794067 0.2618125 -0.34123978
buena 0.5265645 -0.026335007 0.2297603 -0.39748347 0.19323002 -1.0769011 0.6672253 0.15334065 -0.042803153 0.008770839 0.055810772 0.55079025 -1.1176835 1.5427101 0.4984476 -0.45387292 0.06407654 0.18409356 0.021896264 -0.31937253 0.059108865 -0.84488505 0.12811351 0.16674861 0.06892877 0.0242161 0.19985166 -0.041039307 -0.52485293 0.31807065 0.3209326 -0.08439819 0.22618179 -0.31948274 -0.35129765 0.19624792 0.30815342 0.1594252 -0.46862698 -0.031716175 -0.357614 0.3109044 -0.17356347 0.18086286 0.2923785 0.110349104 0.2721433 0.30466175 0.28755805 -0.34088424
tenemos 0.57702017 -0.049374714 0.25789693 -0.46104655 0.22239028 -1.1702776 0.73512906 0.1762598 -0.066582985 0.017584847 0.07746438 0.5936251 -1.2069831 1.6466382 0.53159285 -0.47599602 0.07669168 0.20503643 0.018423798 -0.35395736 0.057330698 -0.9086629 0.13635734 0.21376666 0.05966739 0.04157646 0.21572682 -0.051691804 -0.55456436 0.33908334 0.32878357 -0.08589975 0.23686583 -0.33366063 -0.36075872 0.22079217 0.32983705 0.16098483 -0.49533132 -0.01979471 -0.38982826 0.33334282 -0.20638022 0.19794148 0.33104634 0.12626329 0.29827157 0.31052437 0.31307098 -0.37210613
primera 0.55559444 -0.038117338 0.25037184 -0.43279746 0.2145544 -1.1424378 0.72081804 0.16437864 -0.05629015 -0.00054861326 0.059157003 0.57119447 -1.1629668 1.6209224 0.51484823 -0.45842728 0.06088717 0.211599 0.03868778 -0.33889315 0.04718729 -0.8907338 0.13454194 0.19573289 0.067125976 0.028313112 0.18703759 -0.07161687 -0.55712086 0.3249213 0.32944125 -0.09861908 0.23104207 -0.33405027 -0.3600979 0.19618207 0.31358975 0.16420035 -0.4674763 -0.019673372 -0.39331374 0.32936987 -0.20598878 0.1917917 0.31451577 0.12091018 0.28396603 0.3108459 0.29800132 -0.36374658
cont 0.4232651 -0.030886438 0.21410263 -0.32239914 0.14728144 -0.92483956 0.5616639 0.10584255 -0.030765746 -0.01866276 0.03797609 0.47482806 -0.93853515 1.2954311 0.42797017 -0.3690185 0.068103194 0.13971473 0.046848908 -0.27587885 0.02989751 -0.7187107 0.09897042 0.14974453 0.061517842 0.011415081 0.16178605 -0.048774246 -0.43145716 0.263944 0.26260042 -0.06536061 0.19581656 -0.27016795 -0.29407856 0.14609705 0.23844542 0.13598286 -0.38455188 -0.021928556 -0.30976212 0.26768535 -0.14816198 0.15956233 0.27148694 0.0934771 0.24621907 0.26630095 0.23374394 -0.28380907
empleo 0.65446186 -0.06119783 0.2984905 -0.53752255 0.2716857 -1.3109092 0.82789904 0.21440408 -0.06293421 0.015952066 0.08823823 0.66502446 -1.3794101 1.8738614 0.5989508 -0.5368522 0.07782571 0.24913059 0.034206565 -0.39968422 0.07262507 -1.0272017 0.16027263 0.25021794 0.06682219 0.027037952 0.23415378 -0.07430558 -0.64995456 0.3686786 0.35660416 -0.11201146 0.2604664 -0.38373792 -0.40652272 0.24755356 0.38707885 0.19617271 -0.5589319 -0.015791524 -0.44280532 0.3775008 -0.23614909 0.20455202 0.35316494 0.15902476 0.32260865 0.33903375 0.37956998 -0.43899408
era 0.6161475 -0.058297887 0.26140478 -0.48217666 0.24030559 -1.2411578 0.7712934 0.19283767 -0.069011 0.021761166 0.06388935 0.63313437 -1.2871925 1.7625493 0.5821649 -0.5025353 0.07184631 0.24075401 0.023547972 -0.3631625 0.05078431 -0.9685677 0.13505983 0.21862407 0.07926632 0.029493168 0.20986784 -0.07656003 -0.60462976 0.35165352 0.34659493 -0.09423981 0.25250694 -0.34470132 -0.39008304 0.23080179 0.3552675 0.18007489 -0.5279004 -0.027140742 -0.43001634 0.34324324 -0.21310577 0.22186399 0.33224946 0.14339748 0.29447278 0.3351284 0.346171 -0.3998154
después 0.5510593 -0.038472887 0.24350952 -0.44145414 0.21914952 -1.0993297 0.68783355 0.17925422 -0.055548735 0.016430564 0.06736335 0.56176746 -1.1520361 1.5741737 0.5016639 -0.45603776 0.07221925 0.21928903 0.03166432 -0.326815 0.063274205 -0.858931 0.12156594 0.19224921 0.057868883 0.019375736 0.18583196 -0.06817686 -0.54725844 0.31546056 0.328538 -0.09696192 0.21219851 -0.32640973 -0.35531953 0.19740516 0.30766085 0.15850177 -0.46933556 -0.03374809 -0.37567833 0.31190726 -0.18955359 0.18992275 0.2887813 0.124206334 0.2609179 0.28805536 0.31310865 -0.35907674
déficit 0.5443368 -0.06519395 0.23004551 -0.43158597 0.23832947 -1.0703604 0.6966375 0.17461851 -0.040887125 0.035039246 0.062819175 0.5383518 -1.1255604 1.5382223 0.49987143 -0.4349275 0.04859558 0.22354957 0.031189965 -0.31480488 0.062696174 -0.8584214 0.13458444 0.22261716 0.05483723 0.0136742145 0.19259736 -0.06532599 -0.5365885 0.305834 0.29707852 -0.09353845 0.19210002 -0.2952997 -0.33937034 0.2054586 0.32397947 0.1586444 -0.47414806 -0.022549996 -0.37013856 0.29679438 -0.1939655 0.16385567 0.30481982 0.122392304 0.2592634 0.2719097 0.3032614 -0.36934504
poder 0.5679578 -0.04941296 0.25922522 -0.4679873 0.22616799 -1.1705171 0.73958594 0.16985582 -0.06500595 0.0143422 0.0709587 0.59201306 -1.216332 1.6615573 0.54488933 -0.473108 0.06826699 0.23089057 0.03425814 -0.3527458 0.055212174 -0.9223826 0.13281691 0.21872668 0.07010995 0.034164928 0.20602398 -0.058033008 -0.5777031 0.32976198 0.3253144 -0.09570237 0.22501042 -0.34283325 -0.37356737 0.21385646 0.32711077 0.17744623 -0.5052184 -0.023524266 -0.40403977 0.33043292 -0.19734639 0.19238128 0.31462392 0.12453874 0.28857306 0.30717245 0.3205862 -0.38784578
público 0.6135302 -0.040964704 0.26580843 -0.4887524 0.24586572 -1.254539 0.79556346 0.18453877 -0.07627249 0.011234875 0.066650726 0.62945443 -1.3139702 1.7827796 0.5824379 -0.5001519 0.08045715 0.24401799 0.045174673 -0.36677197 0.057336055 -0.9919088 0.14521074 0.22207505 0.0762372 0.028470743 0.22245125 -0.07389372 -0.6230164 0.33888415 0.35536206 -0.09136257 0.24855562 -0.3703508 -0.3953663 0.23829988 0.35675633 0.18644208 -0.5259786 -0.030982317 -0.43747717 0.36460358 -0.2138432 0.20593977 0.3536027 0.1324605 0.30138385 0.3432622 0.34164426 -0.41389957
sevilla 0.5641627 -0.043231644 0.258999 -0.43823126 0.22204301 -1.1573918 0.7181951 0.16969045 -0.049248468 0.004030587 0.069541916 0.59768003 -1.1951555 1.6370548 0.53428674 -0.4685808 0.070070915 0.2124765 0.041172795 -0.34498897 0.057290554 -0.9159453 0.13913049 0.20042765 0.07807929 0.036678705 0.19458552 -0.06510498 -0.5532326 0.322127 0.34222728 -0.087992266 0.22883102 -0.33808264 -0.36664113 0.20183806 0.32085127 0.17228961 -0.50043344 -0.032493945 -0.40273705 0.339111 -0.19946185 0.20823014 0.3121845 0.13434507 0.27951097 0.3100408 0.31397066 -0.3688584
nunca 0.54039246 -0.03828649 0.23568955 -0.43430978 0.2154313 -1.0849484 0.6774231 0.16384539 -0.050664 0.019337205 0.07244888 0.55255824 -1.1355658 1.5431577 0.50212234 -0.45161396 0.063724056 0.20454621 0.030542703 -0.3169637 0.05678804 -0.86698866 0.123935565 0.18753617 0.07423843 0.026278945 0.18908216 -0.056857143 -0.5384439 0.2972015 0.30232114 -0.08438713 0.22664143 -0.32369205 -0.347835 0.21081077 0.31674597 0.16992868 -0.46397567 -0.019951459 -0.36845154 0.3220808 -0.20053524 0.18925628 0.31011257 0.11530917 0.2784907 0.2965189 0.29509085 -0.36244103
van 0.5127762 -0.047898557 0.21803938 -0.40903798 0.1909527 -1.0442055 0.6501547 0.15929292 -0.03915091 0.009161939 0.061766673 0.5239697 -1.0708941 1.4709193 0.4847926 -0.41948763 0.06354784 0.18906672 0.021051873 -0.31089374 0.0556339 -0.811312 0.11847404 0.18482187 0.062317867 0.014226178 0.18150046 -0.060337003 -0.4990948 0.2917924 0.30234516 -0.07235391 0.19562109 -0.29793736 -0.34131822 0.19380258 0.299119 0.15356536 -0.42910907 -0.023652242 -0.356837 0.29521152 -0.16878061 0.18508478 0.29150343 0.121540844 0.25311345 0.2778311 0.28522572 -0.3346061
abrazo 0.5305622 -0.029110609 0.24263892 -0.41744867 0.19273335 -1.1141894 0.6791149 0.14188944 -0.04224357 -0.0055276025 0.04890145 0.5660103 -1.1355554 1.5980111 0.53137684 -0.4491719 0.08042644 0.18370983 0.036426842 -0.33573732 0.04789553 -0.8775176 0.105061725 0.16787 0.07175999 0.032568797 0.19266212 -0.049834292 -0.5342686 0.33208606 0.32471988 -0.08054826 0.24933778 -0.3237376 -0.35411745 0.1845285 0.29494822 0.1509056 -0.45561734 -0.02549675 -0.38436761 0.32405114 -0.18118685 0.19250771 0.3348858 0.1043455 0.29844692 0.33235228 0.29982734 -0.34086046
tras 0.64285904 -0.05837131 0.28817782 -0.50511664 0.25682804 -1.3112305 0.8133245 0.19837204 -0.07151788 0.019743415 0.0779905 0.6550597 -1.3629912 1.85806 0.61094856 -0.53281415 0.06697399 0.25307643 0.040093563 -0.38358372 0.06381677 -1.0288163 0.14339034 0.2347739 0.074349314 0.028845204 0.21995527 -0.08085797 -0.6308149 0.3668232 0.37376425 -0.10288992 0.2604396 -0.38671723 -0.41225034 0.23479646 0.3607986 0.19727264 -0.5621022 -0.032362845 -0.45043936 0.3706796 -0.21929184 0.21516348 0.34855852 0.15526795 0.313419 0.33986825 0.35983053 -0.42629728
chacón 0.5992161 -0.04510124 0.26051602 -0.466463 0.2469379 -1.1913025 0.7532881 0.19068372 -0.052105572 0.027317544 0.05737556 0.6048181 -1.2427112 1.6803646 0.551016 -0.485782 0.07088808 0.2243033 0.028307592 -0.36358052 0.06836203 -0.9390132 0.13576934 0.22174512 0.06640407 0.017754795 0.20694818 -0.07754339 -0.5891584 0.3200287 0.33436885 -0.091652885 0.22379589 -0.340745 -0.380331 0.20744045 0.3276793 0.18053865 -0.51552373 -0.012754192 -0.41101277 0.3362662 -0.19974025 0.19785717 0.3119634 0.1298249 0.28360644 0.30295435 0.329604 -0.38624242
alguien 0.5832318 -0.044597395 0.26043215 -0.47072542 0.23352587 -1.1816595 0.73937905 0.16893604 -0.05804228 0.017256431 0.07166039 0.61136377 -1.2364466 1.696285 0.5508508 -0.49191895 0.068259455 0.22358917 0.023666505 -0.36329684 0.049811773 -0.93492377 0.1339072 0.20826136 0.072768696 0.03003745 0.21120642 -0.07594742 -0.56461835 0.32617182 0.34803563 -0.09736388 0.23078726 -0.3499299 -0.37800485 0.2227577 0.34477928 0.16212939 -0.4986522 -0.022205831 -0.39742273 0.33909664 -0.19872789 0.20622146 0.32029667 0.13993028 0.3047841 0.3221292 0.33128414 -0.395528
#ff 0.29642996 -0.031805173 0.1422284 -0.21720089 0.08989668 -0.65010697 0.3802351 0.051087096 -0.03161401 -0.035400935 0.026344482 0.3413052 -0.631043 0.9454689 0.30242908 -0.27462086 0.037936565 0.075734384 0.04185457 -0.18761899 0.012763653 -0.5144847 0.039872225 0.08904324 0.06022302 0.0071820924 0.11033481 -0.027680468 -0.2961484 0.21244453 0.2169107 -0.040908128 0.14117798 -0.20192686 -0.20579328 0.10759476 0.16668779 0.10501256 -0.26395795 -0.016644495 -0.2234512 0.19418395 -0.08533784 0.1338271 0.20923203 0.07120459 0.17541926 0.21197031 0.16217916 -0.18162243
horas 0.61874646 -0.03168186 0.27273473 -0.4722137 0.23545942 -1.2238437 0.7799612 0.20032726 -0.0692188 0.02286879 0.06989639 0.64169306 -1.2784158 1.7517066 0.5705988 -0.5087685 0.07503303 0.23327878 0.022270264 -0.37057623 0.07284048 -0.9590712 0.1612766 0.21399195 0.083961226 0.031305686 0.21256755 -0.060012285 -0.59758484 0.34130406 0.37031803 -0.09454195 0.2542622 -0.35601643 -0.3903035 0.22747424 0.3446316 0.17793071 -0.52861065 -0.02669424 -0.4095813 0.35640526 -0.21626133 0.20581944 0.32946867 0.13787904 0.3046112 0.31943366 0.33298892 -0.4090267
#elcambioandaluz 0.4449007 -0.027311511 0.20484486 -0.35234267 0.15095793 -0.9109463 0.5682334 0.12089533 -0.04960587 -0.011020722 0.036200013 0.4734129 -0.9241381 1.2990553 0.41377032 -0.37901586 0.04748898 0.15751679 0.0430001 -0.26534435 0.04777889 -0.70911705 0.10718257 0.14799249 0.066168584 0.022609398 0.16015036 -0.041979037 -0.44575754 0.26207212 0.2653329 -0.063214436 0.19466814 -0.2586307 -0.28189442 0.15726359 0.23945513 0.14028132 -0.3819321 -0.022174196 -0.30751577 0.25868276 -0.16020842 0.16803862 0.26113397 0.10447395 0.2267374 0.25529316 0.24192695 -0.279642
elecciones 0.53848666 -0.04237027 0.23589803 -0.43557572 0.20945692 -1.0859573 0.68124366 0.15792756 -0.060944974 0.014662772 0.061626963 0.55213445 -1.1347867 1.5599698 0.50551164 -0.44848907 0.057696164 0.19814922 0.041814636 -0.3230359 0.061325163 -0.8584773 0.11663095 0.19013591 0.07211467 0.014064352 0.19350941 -0.060346756 -0.5378104 0.30573237 0.31206933 -0.08671027 0.21709466 -0.3108559 -0.3580053 0.20842528 0.30469522 0.15752731 -0.46873078 -0.026607528 -0.3653162 0.3159754 -0.18847418 0.19184227 0.30834064 0.1228916 0.27516368 0.28544724 0.3007482 -0.35239142
muchos 0.5563097 -0.027376166 0.25398967 -0.4334814 0.21285532 -1.1169995 0.6928388 0.16238911 -0.053415656 0.000116488955 0.058964726 0.5813136 -1.1502111 1.5740032 0.5141651 -0.4621677 0.07118779 0.1974327 0.027404435 -0.32792956 0.051907286 -0.8695665 0.13467258 0.19800086 0.082257956 0.038654424 0.1972953 -0.054832827 -0.5407844 0.30862334 0.3290734 -0.086961664 0.23319395 -0.33096042 -0.36164427 0.19625247 0.3145169 0.16246496 -0.47762132 -0.017898696 -0.37840784 0.31610414 -0.18149273 0.19843614 0.30087966 0.11568658 0.27205777 0.29866764 0.31638148 -0.36003712
ministro 0.5974241 -0.04437665 0.26959673 -0.48825333 0.24502414 -1.21711 0.78003156 0.18504211 -0.07467829 0.01535867 0.07116857 0.62486047 -1.2806302 1.7449288 0.55847573 -0.48637143 0.0772072 0.22664167 0.042117592 -0.35544753 0.06823621 -0.9498855 0.14699575 0.21974798 0.070715524 0.021352006 0.21093534 -0.07557477 -0.59317905 0.3306265 0.34986103 -0.10424047 0.22676963 -0.35741332 -0.3840266 0.23035873 0.35835782 0.17262813 -0.52710074 -0.015370839 -0.40920728 0.34375617 -0.20616485 0.20341621 0.33738664 0.1365964 0.30786383 0.33232304 0.34148228 -0.41148216
luego 0.5658801 -0.037305232 0.25423622 -0.44037297 0.226635 -1.1541598 0.7095304 0.17209677 -0.04923306 0.023085386 0.07000505 0.5872178 -1.1879683 1.6228285 0.5400871 -0.47281823 0.0649091 0.20964453 0.025641648 -0.34375066 0.068207674 -0.90970695 0.14112487 0.19565684 0.07649763 0.038502455 0.20043208 -0.060054928 -0.5636431 0.31474555 0.33461553 -0.08365589 0.23780213 -0.33988747 -0.37180838 0.21422 0.32547417 0.17252041 -0.48073855 -0.019249927 -0.37648404 0.3313446 -0.19860637 0.2048562 0.32231987 0.13408618 0.2889366 0.30386594 0.31818244 -0.37936163
toda 0.5439108 -0.03415233 0.23683053 -0.4391743 0.22486793 -1.1238341 0.69920737 0.17638026 -0.04497513 0.018924976 0.078014106 0.57487917 -1.1544316 1.5711899 0.5239469 -0.45836896 0.07140182 0.20287101 0.036390636 -0.33902308 0.048185658 -0.8697569 0.13168152 0.18148413 0.070238866 0.03375898 0.20614389 -0.058613643 -0.5469572 0.31605232 0.33234963 -0.09304273 0.2369234 -0.32829773 -0.34484878 0.19883451 0.31399962 0.16236776 -0.4865192 -0.0285188 -0.37641063 0.310759 -0.19653165 0.18903218 0.30361655 0.1305218 0.2773612 0.29805616 0.3005682 -0.36975953
final 0.5235555 -0.036249604 0.23826462 -0.41638216 0.20878392 -1.039439 0.65130866 0.16834582 -0.059307527 0.015289672 0.056338888 0.5333372 -1.0846366 1.4769179 0.47786486 -0.41760364 0.0633221 0.18619643 0.022474203 -0.30070278 0.049334884 -0.81292874 0.12966631 0.18388353 0.073822625 0.033530567 0.18406458 -0.051023893 -0.5127385 0.2868058 0.29016855 -0.09481162 0.21681228 -0.3055601 -0.32018733 0.185671 0.29312083 0.14133024 -0.45157388 -0.02105017 -0.3540396 0.29693213 -0.1726687 0.18337794 0.28710684 0.106345855 0.26150107 0.2812694 0.2784689 -0.34106493
tienen 0.539549 -0.054678783 0.24572913 -0.42583168 0.2141904 -1.1061137 0.709989 0.17906573 -0.062131103 0.025186779 0.06805596 0.5838096 -1.153738 1.5825418 0.50939846 -0.45296562 0.05691074 0.20855263 0.027738107 -0.31950885 0.07596491 -0.8782342 0.13447984 0.20624936 0.0596744 0.02541779 0.19820228 -0.06151133 -0.53958845 0.3113859 0.32890794 -0.09281482 0.21823195 -0.3161425 -0.36071238 0.20919713 0.32170218 0.16607037 -0.47105238 -0.027226212 -0.36621094 0.30149415 -0.18420534 0.19319676 0.29353747 0.13665582 0.26850083 0.3017774 0.31513786 -0.35247424
pide 0.5871353 -0.063136324 0.26168692 -0.46875337 0.24127842 -1.1934751 0.7601052 0.1953818 -0.054115213 0.025850963 0.08184294 0.61212856 -1.2471353 1.6983541 0.5633086 -0.49089637 0.06704517 0.2372198 0.032691743 -0.34778392 0.07005135 -0.9402191 0.14755802 0.21105148 0.06772153 0.033656273 0.2080337 -0.062623754 -0.58632284 0.3372502 0.34545973 -0.10356498 0.23372062 -0.3452708 -0.39549795 0.2190701 0.34274417 0.1772311 -0.5064301 -0.020927468 -0.41703883 0.34927148 -0.20697078 0.19212222 0.32158947 0.13856694 0.29888177 0.30437943 0.33934847 -0.39558002
i 0.52579886 -0.051575065 0.23970048 -0.4051026 0.20463593 -1.0709727 0.6666906 0.15131718 -0.05014922 0.014364931 0.06300692 0.5284457 -1.0988456 1.5053115 0.48159578 -0.42077416 0.051493727 0.19758447 0.034691915 -0.31596977 0.05714683 -0.83783966 0.10913357 0.19040933 0.066414244 0.026687471 0.17704237 -0.055394996 -0.5121275 0.30842924 0.3126007 -0.08360588 0.21375379 -0.30702677 -0.3484178 0.18563162 0.29482013 0.1508486 -0.44560918 -0.026003826 -0.36613813 0.30885026 -0.17749998 0.17640224 0.29573762 0.11312513 0.25682673 0.28067732 0.2983203 -0.3417085
personas 0.52642554 -0.039221503 0.25156394 -0.42351905 0.22263183 -1.0644854 0.6685817 0.1717082 -0.062474344 0.005583048 0.059946764 0.5422325 -1.1223716 1.524357 0.49070475 -0.4402061 0.0627513 0.20900056 0.032553185 -0.33117363 0.04728572 -0.84359646 0.117292464 0.20200723 0.07611981 0.029549027 0.20261998 -0.0640149 -0.5146737 0.29899696 0.31137595 -0.085862085 0.2052172 -0.30418763 -0.34669077 0.19156682 0.2998022 0.15036778 -0.44975626 -0.024349984 -0.3592546 0.30860615 -0.19590528 0.18786725 0.29388013 0.11778992 0.26815918 0.2823392 0.2894869 -0.35201162
nueva 0.5236818 -0.042068597 0.23391134 -0.4225094 0.20240521 -1.0636533 0.6697972 0.15793616 -0.060367044 0.015741898 0.061588578 0.55234236 -1.1190728 1.5269052 0.498858 -0.43784937 0.07099876 0.18939358 0.020844407 -0.31771183 0.05006031 -0.84818375 0.1286078 0.19745104 0.06331079 0.024450779 0.18743779 -0.067160614 -0.5253621 0.30526358 0.31211615 -0.095072545 0.21230942 -0.30247673 -0.34141383 0.1982601 0.30557016 0.16302128 -0.46142963 -0.031423863 -0.36787575 0.29904938 -0.19079421 0.18857834 0.3058108 0.1110495 0.26285183 0.29674244 0.28759181 -0.35529026
educación 0.5997421 -0.045387886 0.25953192 -0.49049592 0.2498203 -1.2047843 0.745874 0.18779016 -0.0528062 0.020972125 0.08299072 0.6229407 -1.2521096 1.6995001 0.55118185 -0.4791827 0.07412352 0.2384301 0.026179863 -0.36587164 0.05729365 -0.9478376 0.1586235 0.21578297 0.08181201 0.028168226 0.20296635 -0.06775502 -0.6018257 0.33646464 0.34982598 -0.09451415 0.23725913 -0.35096794 -0.3740929 0.23934682 0.3507062 0.17681289 -0.51196575 -0.014277873 -0.41997218 0.34944665 -0.21315202 0.19443867 0.33221596 0.12584051 0.29834035 0.31640658 0.34183758 -0.4080496
nadie 0.487404 -0.055276446 0.22461945 -0.39328587 0.18877588 -0.983819 0.6258523 0.14771461 -0.05579938 0.020396754 0.05349117 0.49746695 -1.005303 1.3999741 0.45964697 -0.40069622 0.04104422 0.19232883 0.023424758 -0.28455588 0.05683405 -0.78735965 0.110917866 0.18880774 0.05223338 0.024363084 0.17532635 -0.06420009 -0.48122764 0.28336048 0.2667926 -0.08242596 0.18740545 -0.27274674 -0.31860515 0.18425952 0.2768454 0.14853168 -0.41281968 -0.018014725 -0.34261796 0.27931648 -0.17860109 0.1692829 0.27987748 0.12161535 0.2307282 0.2653435 0.27257094 -0.31180483
